<?xml version="1.0"?>
<opencv_storage>
<opencv_ml_ann_mlp>
  <format>3</format>
  <layer_sizes>
    20 100 100 2</layer_sizes>
  <activation_function>SIGMOID_SYM</activation_function>
  <f_param1>6.6666666666666663e-01</f_param1>
  <f_param2>1.7159000000000000e+00</f_param2>
  <min_val>-9.4999999999999996e-01</min_val>
  <max_val>9.4999999999999996e-01</max_val>
  <min_val1>-9.7999999999999998e-01</min_val1>
  <max_val1>9.7999999999999998e-01</max_val1>
  <training_params>
    <train_method>RPROP</train_method>
    <dw0>1.0000000000000001e-01</dw0>
    <dw_plus>1.2000000000000000e+00</dw_plus>
    <dw_minus>5.0000000000000000e-01</dw_minus>
    <dw_min>1.1920928955078125e-07</dw_min>
    <dw_max>50.</dw_max>
    <term_criteria>
      <iterations>1000</iterations></term_criteria></training_params>
  <input_scale>
    5.7736771975665571e+00 -1.8223902007790584e+00
    1.1763478641524285e+01 -2.8651217509014257e+00
    1.3881626365589453e+01 -1.7673093346496835e+00
    1.8501828996677389e+01 -2.1142349921094095e+00
    2.6435469860678602e+01 -1.6798908736023559e+00
    3.8885452928563772e+01 -1.9990995956392179e+00
    4.1086211094720582e+01 -1.7007313248487970e+00
    5.6869493956064041e+01 -1.8165819963806158e+00
    6.3023303476217187e+01 -1.6237651066105250e+00
    7.7021498898587268e+01 -1.5970011370720749e+00
    9.5754263666090779e+01 -1.5895376750511681e+00
    1.1083627119084437e+02 -1.6203879821196718e+00
    1.3288540464434752e+02 -1.6486156102733636e+00
    1.5428236426691095e+02 -1.6895498030692959e+00
    1.7863539829947229e+02 -1.7460556790214983e+00
    2.0321266940357981e+02 -1.7570075206036422e+00
    1.9875943373245869e+02 -1.5967046828873825e+00
    2.2146020739716968e+02 -1.5848933263024789e+00
    2.3900933817776036e+02 -1.5521593299463690e+00
    2.4443566813070319e+02 -1.4690964669923559e+00</input_scale>
  <output_scale>
    1. 1. 1. 0.</output_scale>
  <inv_output_scale>
    1. -1. 1. 0.</inv_output_scale>
  <weights>
    <_>
      -2.5496900796444255e-01 -1.0362047315442281e-01
      -4.0428249614709155e-01 -1.2129999668489909e-01
      1.7841621783159028e-01 -3.3360601739474305e-02
      4.1782635048551564e-01 5.2148504068771173e-01
      -3.1953355827815855e-01 3.7636295746586929e-01
      6.9874733843889272e-02 -6.1464413860906209e-01
      4.2726715993080290e-02 2.9898323232252274e-02
      -1.5728154884179276e-02 -9.7598028705634679e-02
      3.2373513662601661e-01 -3.1244103844126159e-01
      3.3791287379817314e-01 -2.7205734545858473e-01
      -7.2411608456209187e-01 6.1549392106250256e-01
      -4.3117649198860603e-01 -2.6981379392907201e-01
      1.3535147252208377e-01 -3.8598932389961893e-01
      -9.8423812034010391e-02 -5.0318936124403607e-02
      -4.7889617926374202e-02 1.0889901692984202e-01
      -3.5400297541979131e-01 2.3524662535194547e-02
      1.0233957248116936e-03 3.4032693898663097e-01
      4.7491142088315452e-01 -2.2465555707009963e-02
      -2.1876167741783145e-01 2.5871349597946935e-01
      -1.7029445770547477e-01 -1.3157948415954582e-01
      -3.3584071103664473e-02 1.6945372399198849e-01
      7.9396881769847674e-02 -2.1503439169023263e-02
      -2.1083143762309603e-02 4.8393558120900165e-01
      -3.7886484391345232e-02 -2.2238902658124440e-01
      -5.7060410353081445e-02 1.4773570568422589e-01
      -1.1883130971262602e-01 1.7888394198269206e-01
      2.3150295511860006e-01 2.3056740519644181e-02
      -8.0453263142798451e-02 6.8074217430323242e-02
      4.0114851600042339e-01 -3.5149592748993885e-01
      1.0244965199038757e-01 1.2612320130957322e-01
      1.5870040746574077e-01 -8.7617757551834222e-02
      -1.7990979727958828e-01 -3.1880339940036634e-01
      -1.5597186361318918e-01 5.7613163972355552e-02
      -2.2244010883836354e-01 1.6783146449498851e-01
      4.8120572075638612e-01 1.4398433053673076e+00
      -6.0123196796223888e-01 -1.4439800240644193e-01
      2.3871978507717648e-02 2.2031557038096988e-01
      -2.9816327553921704e-03 -2.5731649398210993e-01
      2.9521213862555651e-01 -2.4275792805750873e-01
      -1.4373508035017109e-03 -1.2268580749751860e-01
      2.5959893680585810e-01 1.6704883547871271e-01
      1.4450323100787343e-01 -9.4461315699011394e-02
      -5.8349932426476165e-03 7.4489315176510154e-02
      -2.4741553812183081e-01 2.1930481151401218e-01
      -2.0884904886431299e-01 2.8468465400445619e-01
      -4.5796338251816898e-01 -4.9676824612738790e-01
      1.0074749524462738e-01 2.4635471314342773e-02
      3.1743320008575777e-02 -2.3192085680481200e-01
      -2.6253948695294899e-01 -2.1732220583344405e-01
      9.7499890147082921e-02 -5.5435906496024978e-02
      -5.8727053296282683e-01 4.7254887373329973e-02
      8.8038031480012169e-01 -6.5973604742882538e-02
      6.3261530499811880e-01 5.7969505632813993e-03
      8.2718099812537277e-02 -4.7426402643674259e-01
      4.3081345601944293e-02 1.0507080019651859e-01
      1.0614447004038928e-01 9.3451137378876142e-02
      -2.9032092167861893e-02 -2.8989424875821596e-01
      8.9709833774623660e-02 2.8701202235189697e-03
      9.4937775841779026e-01 -5.8955890831881276e-02
      -8.6878719418386555e-02 1.1916105966400434e-01
      -6.6722205017052463e-02 -2.9321903255733046e-02
      2.1305448516512468e-01 2.6984645450394684e-01
      -1.4376693966576778e-01 -8.1251405873594224e-02
      -2.0593479429129699e-01 -2.8374390779350517e-01
      1.2778728275671375e-01 -1.6779386383186817e-01
      6.5263543579094507e-01 -1.7052579766402226e-01
      1.2253900177391479e-01 -8.1600096850270656e-02
      -3.3516693805148734e-01 2.6599597697920180e-01
      -1.4147422855435715e-01 8.8356635814430551e-01
      5.3197472727078576e-01 9.2723396885030882e-02
      -1.4447766804925602e-01 -4.6803092227394344e-02
      -1.8390609215410481e-01 5.7934717882672648e-01
      3.2227640501689808e-01 2.3486510148783224e-01
      -2.1447727305894151e-01 8.4894052079181923e-02
      1.8608477830219045e-02 -3.6020334496587071e-02
      2.7794707445382461e-01 1.8966789344820259e-01
      6.3678286160802422e-01 -2.4211942757293850e-01
      -5.0076940485996968e-01 4.2556129280658828e-02
      -1.6347084895301919e-01 3.9431172576506340e-01
      2.2609334745434487e-01 -1.2284897126014184e-01
      6.4542827819157211e-01 -5.6851704233617878e-02
      1.0990569878340282e+00 -3.9783586778123171e-03
      -8.9035369938446823e-02 1.1961939370401577e-01
      -3.9972938878209366e-02 6.7210292098166857e-01
      1.0490212403415487e-01 -3.2949657083058073e+00
      7.2170370832476827e-01 1.7792856304180910e-01
      -1.4471909165796629e-01 2.1226298175865094e-02
      6.8963796880329664e-01 -2.8303645952145245e-01
      1.8769255521806202e-01 -7.5828375838898143e-01
      -1.2464079990034179e-02 4.2543270611316575e-02
      9.5773179241122508e-01 1.5195151565514675e-01
      1.2078626630773831e-01 8.6311164851818733e-03
      -2.4883321673113212e-01 -7.9113640944188846e-01
      6.4138101722502255e-02 5.7655050114305650e-01
      -4.3981020416572099e-02 1.6976856021579270e-01
      -1.7035719199916974e-01 -1.7281026433291646e-01
      2.8530368458267039e-02 -2.4228469828767452e-01
      -7.3113160962452461e-02 -3.2493998234090202e-02
      -7.4846478456467436e-01 -7.2926262186626511e-01
      -7.3369753723209552e-01 -3.1776565797813516e-01
      -1.0047596622950385e-01 -4.1974468916701695e-02
      -2.3018212929500184e-01 5.7909463283383207e-02
      2.4274957440579020e-01 1.9128050534508334e-01
      2.8935329374199825e-01 8.0866007574173962e-02
      -6.8562048285260205e-02 2.3768269343468121e-01
      6.1335104927049425e-02 -1.1630886107169461e-01
      7.4642854226886018e-02 -7.3685802521717567e-02
      1.6991317682696627e-01 6.5333549230822532e-02
      2.6957697686756737e-01 -6.6438297464468804e-02
      1.9241847224297134e-01 6.2284149340486985e-03
      1.5198696430805192e-01 -6.4506177298397993e-01
      -9.2445141753994250e-02 -8.9540497097959110e-02
      8.1351980364338078e-02 3.9516130859340948e-01
      -3.6568707777479607e-02 1.5818019373033482e-01
      -1.5910332951167571e-02 1.2669087135703505e-02
      -6.7539158406468625e-02 -5.7929352841836312e-02
      1.4184897586531842e-01 2.2002891337663641e-01
      -3.1681246650545136e-01 1.6824458582071794e-01
      -7.3921134451972889e-02 2.9619851264014657e-01
      9.6757028244966570e-02 1.5762637674522462e-01
      -6.9580771606509620e-02 -4.0563939317688799e-02
      2.0394151908594418e-01 5.7510999190338724e-02
      -1.0282234252700753e-01 2.6310033061878655e-02
      -1.7543981977742809e-01 -1.6498481917755486e-01
      8.9921346714753325e-03 1.4629788231607130e-01
      2.5086996612670948e-01 6.2034947148291261e-02
      9.6908858544514240e-02 -4.8261387901969016e-02
      1.1129867640006339e-02 1.7592119776511547e-01
      -2.4306473559235020e-01 -2.5459978566292625e-02
      1.2723219674995515e-01 4.7540677746048376e-03
      7.3837162418708510e-02 -9.7642030118285761e-01
      -4.4449152425511168e-01 -8.8772956400386904e-02
      -1.4788565026669651e-01 3.2407838610403034e-01
      -2.8318812671464716e-01 1.9696801365530173e-01
      -4.5230376432634090e-01 6.1191726083916875e-01
      -1.3768466281699454e-01 1.1201313512717949e-01
      -9.0858554679067283e-02 -6.2849418773005955e-02
      -5.4157289368066117e-02 -2.4310748337129534e-01
      1.9972604604790289e-01 9.6173191235598018e-02
      -7.0270210189166149e-01 1.6709688579275506e-01
      1.5140689801726775e-01 1.8588284867447558e-02
      -5.3381992905602249e-02 -1.1222233811745468e-01
      -8.4707062736396027e-02 -1.6223725920667267e-01
      2.6342462057446454e-02 2.6052225107173543e-01
      -3.5299544132843537e-02 2.3831002445334390e-01
      -8.8689738591746684e-02 -3.5374044791752207e-01
      -1.9103727726290626e-04 -2.0746424746843270e-01
      -1.1610407340115404e-01 9.1063703318797970e-02
      -1.2273950321294441e-02 -1.2088359419090365e-01
      1.5045276886162201e-01 -4.3454494806707954e-02
      -1.7258835759044067e-01 2.6621245141886914e-02
      4.9266405319414552e-01 -2.8520907456948914e-02
      2.0309269832459470e-01 -2.6938198396958740e-02
      3.6650138546442439e-02 2.2663530076119184e-01
      3.1443005889800743e-02 1.6670684124636775e-01
      -1.8854617638679114e-02 4.8047593704875921e-02
      -3.5695816203515329e-01 -1.6969905223824311e+00
      -1.8750912723024128e-02 5.5697141600689060e-02
      1.7145471721490813e-01 1.0953556451060249e-01
      8.8175356022758014e-02 -8.8844474548022939e-02
      4.2238782793860709e-02 1.0472441462915558e-01
      -6.4422859346685971e-02 -1.2296381909591025e-01
      -2.7486705548731744e-01 -2.5312834978275178e-01
      1.2521108159009146e-02 2.3098407631080023e-01
      2.4319864591777294e-02 -4.0691144094943871e-01
      -5.8806381647695471e-01 4.4648083516700471e-01
      1.5927012058908724e-01 2.4766151425096217e-01
      -3.0486611555594358e-03 -2.1023463835232153e-01
      -3.2369530188676099e-01 6.0382882116307393e-02
      -1.7390282831363849e-01 -8.6376675127738639e-02
      -3.1215599150041823e-02 1.4758621335946860e-02
      -1.5691524380450034e-01 -4.5973120767915876e-01
      1.1187373888046115e-01 5.2490642175003577e-01
      -8.6298889297698855e-02 -3.7552410037129264e-01
      2.8472135770371459e-01 1.7688389483295661e-01
      -7.7349279879545332e-02 2.2285794967746841e-01
      1.2523972531843200e-01 -1.0232262229885170e-01
      -1.6967881257144812e-01 -1.1740038247645623e-01
      5.2848815958288031e-01 1.8761668111248558e-01
      -1.7258822599717502e-01 -6.0513811695406661e-01
      -1.7744930030068121e-01 -9.6558144731560114e-01
      -5.9568862973136616e-01 5.6649322539033202e-02
      -7.6288664859672173e-02 6.3185575172762043e-01
      5.6410062223237009e-02 3.7525698733945551e-01
      3.0198527131118613e-01 1.1426988831227877e-01
      -7.9445735242482510e-02 -8.6985202951414806e-02
      -5.5146611390819431e-02 -1.1107048656870716e-01
      1.3738493805351970e+00 -1.7432968918652261e-01
      3.4809134138676789e-01 -4.3726312135906276e-01
      4.1384975473937449e-02 -7.9085686281701012e-02
      1.6328440150803530e-01 3.0726573115660988e-01
      3.7419988044129562e-02 -2.8384543909990673e-01
      1.3090376351254629e-01 -1.8052812414051639e-01
      -2.4468934843837015e-02 2.2529342515376555e-01
      -1.1454407534944405e-01 3.7973690012628775e-01
      -2.9985782430050779e-03 -1.0860452098450463e-01
      1.6133507042179954e-01 -1.5001367214532171e-01
      -1.2600209689891687e-01 4.6483728413871661e-02
      -1.9983905630985851e-01 -1.0167717080836085e-01
      -8.4850754125950473e-02 -1.4767625428798711e-01
      -1.6690057802304922e-01 -1.0679724807465750e-02
      -1.1762377444581185e-01 7.8602442175452980e-02
      4.3190940065126210e-01 5.8274963144380765e-01
      6.5312920125202889e-01 6.2181092058628533e-02
      -4.9467550671187334e-02 3.5795871577995375e-01
      -4.5771033392103831e-02 -3.4633884901998299e-02
      1.7885855498807907e-01 -1.8651570511491408e-02
      4.2131885252416407e-01 7.9815411356396096e-02
      4.1521356309169793e-01 -1.8832872100114545e-01
      2.0940238813923129e-01 -1.4304841660894407e-01
      -3.9213487273599676e-02 -3.2666044402118588e-01
      -1.4193595813172374e-01 -1.7117138042210558e-01
      8.6428314219121880e-02 1.4116527339944654e-01
      -2.2317519939267100e-01 3.0424820713916750e-01
      -1.0904956006789025e-02 4.3265019365780789e-02
      7.6052851717592712e-02 -1.3019610016828201e-02
      3.2341889137784113e-01 5.7441111020215130e-01
      -3.0058081057061578e-03 2.3548268921826761e-02
      -1.2927433053514198e-01 3.7419987479710681e-01
      -1.2900756336321212e-02 2.0824307827126301e-01
      1.0007443139093330e-01 2.4059622267023531e-02
      2.4297279434045202e-01 7.0846875166257739e-01
      -1.3175687857834237e-01 1.9268688546120513e-01
      -9.2539866436867166e-02 -2.2418275517197542e-01
      -1.1085654114134136e-01 3.5675520948226164e-01
      1.2835809752641239e-01 -5.0888846666536069e-01
      -1.0585826522621737e-01 -1.4067409493575009e-01
      -1.7519035633636484e-01 -5.8134321730218229e-02
      -1.2368775333235540e-01 3.4733745608448004e-02
      1.4426103986496228e-01 -1.3258150883607999e-02
      2.9696721576957519e-01 -1.0391280608449793e+00
      1.8599846836297070e-02 -2.5140812715597388e-01
      -2.1267576968235510e-01 1.8210436864265340e-02
      -5.1598515845669413e-01 5.3918725423487590e-01
      1.1821129299661860e-01 1.5492087424975660e-02
      2.1767237068296280e-01 -1.3202379792176361e-01
      1.6222969494984663e-01 4.7042916292495446e-01
      -2.1826625956453970e-02 -5.1903316538640176e-01
      4.8717593176241558e-01 6.8285810088273740e-03
      -1.8849345738713680e-01 1.5446691077159616e-01
      2.5228935818308651e-01 1.4384452529614450e-01
      1.3496929646516201e-01 -5.2801242073760940e-02
      6.0827897324257758e-02 -1.3251197807900086e-01
      -4.0433973811139279e-02 1.4557685381365870e-01
      2.7704691083900401e-01 4.7992374951510125e-01
      -9.2515412793216206e-02 1.2110549608115792e-01
      2.0316780173904100e-01 -4.6906860145913898e-01
      2.6548602824294670e-01 3.5945552270411484e-02
      7.6040035153448440e-02 -5.3540878714251727e-02
      3.1073498088219225e-02 -5.5191705729577024e-02
      9.2784949290769303e-02 1.3404598496398249e-02
      -3.5244368860975817e-01 -5.0935652254832986e-01
      -9.3217931357836181e-02 5.5482553887231556e-01
      -4.8007476437771807e-01 3.3850205224535224e-01
      -3.0433405174766115e-01 7.0723853286221361e-01
      1.6313001397316415e-01 -2.4804976565718917e-01
      -4.3625844046999768e-01 -1.5850291800250622e-02
      -1.4058639233196984e-01 -6.5993548005487929e-02
      5.2498332928353719e-01 -2.0625484888422718e-01
      5.5482316266022946e-01 -2.3457857740637905e-01
      -2.2156803987550339e-01 -3.3011793919912652e-01
      -2.3344192543813314e-01 -5.6779221717663386e-01
      1.2926072109304379e-01 -2.4861765124486504e-01
      -1.8785370213552741e-01 1.6194003593712333e-01
      -6.7095367267725081e-02 6.5585177699144778e-02
      1.8897360100657921e-02 2.5185032619787908e-02
      1.1439681655653161e-01 2.1591571928533310e-01
      -6.8762771543297274e-01 2.8558458128644621e-02
      -9.3228142468162647e-02 4.2265003221888792e-01
      -1.7706375743021507e-01 3.6293657200170817e-02
      -4.4887786021326932e-02 -1.1246686313811867e-01
      -4.3584080375095757e-01 -2.9258503295432281e-01
      -3.8436857399124537e-02 2.0685651882778242e-01
      -1.2465012576381648e-02 -2.3186006312943194e-01
      4.9862417248737939e-02 4.0944478707530374e-01
      2.1049700150673259e-01 1.2670777587772277e+00
      6.0317414577835640e-02 9.0814194509211701e-02
      -1.5273797115514437e-01 -8.9163160175540671e-02
      1.1355934950599243e-01 -2.3199994224145729e-01
      -4.0758934698710170e-02 -4.0323949688644850e-01
      1.0238417026120954e-01 -1.6222556047203084e-02
      -1.3625827435962196e-01 -1.7006218649292762e-01
      -6.2711241530358974e-01 1.4328428960610456e-01
      -5.4470138818783098e-01 1.4482225072503999e-01
      2.0110534397144049e+00 -2.6387170775841701e-01
      -1.5825190857451282e-01 2.4023660809303549e-01
      7.1732533613414029e-02 -1.3919389460699632e-02
      -1.5669452991362098e+00 -3.9860116190183420e-01
      1.3249857959536476e-01 6.0225616848820551e-02
      1.5983007256391021e-01 -3.2356380868332514e-03
      1.5306480424698568e-01 1.4775251150370747e-01
      -6.3151042526210163e-02 -6.2508828192980870e-01
      1.1416067113798196e-01 1.0245913097651908e-01
      -2.8731915194836610e-01 3.9384458856568511e-01
      -1.1667266209493279e-01 2.6486232910459317e-02
      2.4543005802754511e-01 8.1158828292964183e-02
      1.3117311046617375e-01 3.3672685898416488e-02
      3.1312079673975000e-02 -1.7803286693843422e-02
      -2.2215518036506790e-01 -1.6872850321693292e-01
      -5.3731883672993874e-01 -1.0149802949605218e-01
      2.7952880654014415e-02 4.0333219425720823e-02
      -2.1405524735579548e-01 6.1741843880170663e-02
      2.1911751458306591e-01 4.2845359573234565e-01
      3.4449863496703026e-01 1.7404310945711596e-01
      -1.7583384251391481e-02 4.4228787481168291e-01
      3.0612873284384046e-01 3.3326908549445172e-02
      1.8355982008810643e-02 -1.9192133560440969e-01
      3.2795504043343604e-01 -4.9036527177258024e-02
      4.7709949637489402e-01 -4.5793983896380891e-01
      4.0157867970998751e-01 -2.3483107196727301e-02
      7.9103408049007229e-02 -3.0949663028686014e-01
      -4.9685513746533438e-01 -1.9570711731037960e-01
      -1.0018249174282981e-01 -3.7868971881202163e-01
      -4.6720094356701874e-01 2.3401416278121215e-02
      2.2697069200244671e-01 -5.4108474073617165e-02
      -9.5576059037985620e-02 1.4090385382837869e-01
      4.9439663671456902e-01 2.6669761744202475e-01
      -3.3442282616841963e-02 4.3557809197388081e-02
      -4.0566890656804422e-01 3.6984712401935133e-01
      1.1920474373190749e-01 -1.4782093115957842e-01
      -5.9515566898488526e-02 5.0946712264832057e-03
      -2.7147816738354569e-01 6.4765743561149447e-02
      2.3994822695205288e-02 3.4996577056477929e-01
      -5.1828000704276858e-02 -3.1738080519006567e-01
      1.7034268373440389e-01 1.6467812730920917e-01
      1.9040739652997593e-01 1.6091166634471912e-01
      -4.7827374444976277e-02 2.5879041995033859e-02
      -4.7071987440126678e-01 8.3721060708852657e-02
      4.5214746037546899e-01 9.3534726028665838e-01
      1.4944211433592081e-02 6.6946862235918572e-02
      1.3306710411583217e-01 -5.2538204964353441e-01
      -3.8267144800224617e-01 3.3028725571281205e-02
      -1.0498188916061042e-01 1.2427570310850956e-01
      -3.2616491007598836e-01 2.9863326491657510e-01
      1.7730258730092215e-02 3.7334648360290745e-01
      2.6742642157907306e-02 1.3486082303387439e-01
      4.3896478395612726e-01 4.4564795913743471e-01
      -1.7760775446447739e-02 -4.4256106420525959e-01
      3.7817766382954326e-01 -1.2450228841869336e-01
      -1.8228744168899758e-01 1.2979040662144734e-01
      3.5807593965964590e-01 3.2690216902841346e-01
      8.1086528410768258e-02 -2.8992774719070341e-01
      -8.6213324191824231e-02 -1.9261402883434042e-02
      5.1605671095649813e-02 4.4481187542392897e-01
      -6.2432769339546550e-02 -1.3360379799251870e-01
      4.2225607842436114e-01 -1.8330623990414815e-01
      2.6668044185339762e-01 -4.1650554491336111e-01
      -1.0629095093775495e-01 1.1630472239705679e-01
      -3.6563158713893468e-01 -1.1202111872697595e-01
      -1.6287535124673516e-01 -1.2713622755653811e-01
      3.4016836521801250e-02 2.4634454740372330e-01
      3.7158065658685582e-02 -1.5057626109387207e-01
      2.2315590003060354e-01 1.5868737892429655e-01
      2.3816163488454967e-01 1.6343210518825510e-01
      1.8075034605513345e-03 1.9372909137841984e-01
      9.8134000176429398e-02 -7.4341536858859025e-02
      1.4755332740351623e-01 -1.7420642443680051e-01
      2.6769575620786562e-01 -1.7894261532140454e-01
      1.8785766917525548e-01 -6.0780312530182803e-02
      1.1997504171448503e-01 -1.0552444758144101e-01
      -1.0419249832937511e-01 -9.4532963993395047e-01
      3.0262415955091108e-02 -7.1138240487823093e-02
      -8.0850649533958763e-02 -6.8683899061472908e-01
      -2.4392190834175118e-01 1.0897136801820305e-01
      -1.5178728910494765e-01 1.0930665958510478e-01
      2.5223972641316816e-01 5.1927273365561764e-02
      -9.9219055849451718e-02 1.4225089885226441e-01
      7.6597535248731960e-02 -1.0561480373597418e-01
      -1.6671159352140572e-01 3.3843621139266739e-01
      -3.6338186794543779e-02 -3.4448380783013481e-02
      1.1384708188650983e-01 7.1249239320921642e-02
      -4.8316578798128990e-01 4.1070252411113300e-01
      -1.6748069612673394e-01 -3.3139990986995282e-01
      -1.5019487016458474e-01 -2.6904236489046335e-01
      -1.6733368489684414e-01 1.6581668527245680e-01
      6.1569410157718489e-02 -7.9273158766294052e-02
      -3.8032453597823132e-02 -1.4312724027731166e-01
      -1.0344772662899382e-01 5.0763644074539628e-02
      1.3166365253735357e-01 -5.9366194708043177e-02
      2.1382684848902733e-01 4.6467951314993108e-02
      1.3296833620935991e-01 5.8526592219120016e-02
      -6.1100994593920384e-02 -1.1803420568045246e-01
      5.7601314676110842e-02 1.5243327630971601e-01
      -1.8929521993309120e-01 2.6168593111033916e-01
      2.5223812426755760e-01 9.7295639291671421e-01
      6.5793667673497785e-02 2.0319765773188089e-01
      -8.2261932798442933e-02 -5.8298813557216785e-02
      -2.7702318380797486e-01 -2.6521795861600034e-01
      1.8314099260335229e-01 -2.3561996646393504e-01
      -9.3581718812235037e-01 -1.8072628093715393e-01
      2.1856680936245090e-01 1.6811351754747086e-01
      -4.2862685601829438e-02 -7.8638156934812090e-02
      1.6933959466698550e-01 5.9903813268794785e-02
      -1.1072363474384071e-01 2.8716534350200279e-01
      8.3074853883854910e-02 -1.5319943606929678e-01
      1.6804255376883040e-01 2.4330321848747313e-01
      2.1862388446908942e-01 1.9729960741067040e-01
      1.2920469231839793e-01 -9.1012458070592162e-02
      -9.0679903463174893e-02 -8.0172830157954719e-02
      -1.0443793944495865e-01 -2.0550980656510457e-02
      -1.1103062552424665e-01 4.3608013365777409e-01
      1.8515362666316624e-02 -1.8199988889852831e-01
      7.1450744002812139e-01 4.7283817375203441e-01
      3.2552985009845575e-01 -1.5560551812687598e-01
      3.0232922349663856e-02 4.5306825729878308e-01
      5.4271389381265833e-01 1.3776275982012723e-01
      1.0021093547842037e-01 -1.7768430279332048e-01
      5.5833752972370643e-01 -1.7659393541741317e-01
      3.5527345520100240e-01 -6.9897797649917592e-01
      5.2415438866315084e-02 5.7039519637130776e-02
      -2.6635819574266899e-02 -5.1124939073269515e-01
      -2.7266967112874263e-01 -4.8522382988444507e-01
      -1.9860870702817935e-02 -2.6060283670815698e-01
      -5.9356748987634955e-01 -1.3476494506500417e-02
      1.4274718339963899e-01 -8.0079407251497939e-02
      -1.7668086545322095e-01 4.9344691806838853e-01
      1.2094393189363610e-01 8.2948260466336576e-01
      -3.2122189056338749e-02 1.3386288786896097e-01
      -6.2016133004519092e-01 4.6370256108627012e-01
      2.1903256768590237e-01 -4.5895612129473928e-01
      1.9426647916855562e-02 -6.0515674203540981e-02
      -1.0590173155461816e-01 -3.4767856304944306e-02
      1.2331149467463273e-01 -1.2130292581064228e-01
      8.4498677089749532e-03 -3.4046489249643769e-01
      1.0212358703165851e-01 1.5305132597528437e-01
      2.9517927909441866e-01 1.6709081644422577e-01
      1.3278985163149667e-01 1.3168742895329358e-01
      -7.8124721310305600e-01 3.3100159327474107e-02
      8.5407996587313323e-02 7.4342852803798024e-03
      9.1602180456184304e-02 -8.9888043243357807e-01
      1.0336462614250073e-01 -1.0136655111436560e-01
      -4.1055429729848247e-01 -2.9657667705254076e-02
      -2.5722528599904548e-01 -5.2294588044976520e-01
      -3.2649463846959043e-01 6.9181873927366688e-01
      2.3036086494772436e+00 4.8930536842711458e-01
      1.0722531136952065e-01 6.0958410023008902e-01
      2.5839851649455348e-01 1.3340647239560490e+00
      -8.8228961752348167e-01 -5.0212303003931746e-01
      7.3532910633686965e-01 -4.4787295678059919e-01
      -8.1794030783693583e-01 8.1447878021120779e-01
      1.1096626884258085e+00 -1.2357473638671508e+00
      1.4208860152533279e-01 -1.9599269609789913e-01
      -4.0447860069323792e-02 -7.7384330525735803e-02
      -6.3499769859634457e-03 5.6918818184523123e-01
      -1.4629520636572768e-01 3.3763951692004834e-01
      -5.4083775253057832e-02 1.4199937461625728e-01
      5.3216851725144076e-01 -2.1749385087232515e-01
      -4.6445785787746230e-01 4.0756573678385984e-02
      -4.3596310549861134e-01 -5.5465827490523034e-01
      -3.8804224408204974e-01 -4.9723262660109252e-01
      -1.7545497763403017e-01 1.9877387662019369e-01
      -9.0215700195468818e-02 -1.2135354788585530e-01
      1.6880492742712567e+00 1.1963567102083543e+00
      2.2705600978003404e+00 1.0391606837627307e-01
      -5.9630754362218388e-02 1.4228858859697633e+00
      1.6767785148589076e+00 1.0753613942500806e-01
      8.9403181897954584e-02 -2.8231855085329727e-01
      1.4213438797534292e+00 -3.0827593039781509e-01
      1.7078199419647802e+00 -9.2234452572188497e-01
      2.3334156928669583e-01 -7.8663401732741584e-03
      2.3237241264152866e-01 -8.4370295630034653e-01
      -3.9295024159998367e-02 -1.9925898514212631e-01
      -2.9800732617000641e-01 -2.0010288762333306e+00
      -2.5889823539173989e-01 5.1767661350746647e-02
      2.0208609324413404e-01 -1.1792988452952551e-01
      -8.7832451867845052e-02 3.1415279483730707e-01
      1.7527333264289016e+00 1.6835374789869770e+00
      -1.8914256155564296e-01 9.6856738922318497e-02
      -1.0033207830849546e+00 1.6495037205642249e+00
      1.1430869311542141e-01 -7.6048873914760645e-02
      -3.5851007596803486e-01 -6.3737797703368501e-02
      -1.4006758943575939e-01 6.6875535393859417e-02
      2.3974556037397346e-01 1.0662912781590599e+00
      -7.0182205050437060e-03 -7.3641923662366360e-01
      2.0821968609235914e-01 2.1663843062805338e-01
      1.4880283989994417e-01 1.5463203250272082e+00
      2.6273142886275108e-01 3.9599303792899353e-02
      -1.0766275403875913e+00 6.7431717425898846e-02
      2.1989368246866561e-01 -1.0615027308282778e-01
      1.6636641834235899e-01 -2.5796286865261808e-01
      4.6910628049572917e-01 -4.7648392424760772e-01
      -4.9308673947138998e-01 2.9918692901735938e-01
      -1.2852885150987825e-01 4.8494161922192863e-01
      -1.6290616239570579e+00 1.9194859304561636e+00
      1.0354431841369229e+00 2.1826041315755207e-01
      1.8308194675185449e-01 6.3070090720992833e-01
      2.8662526313059367e+00 1.4313557554158978e+00
      -3.0006751539386145e-01 -1.0779325234731025e+00
      1.7594052332797474e+00 -2.9904973579616428e-01
      -5.8485771907427730e-01 7.3442000253960604e-01
      1.7002933265085285e+00 1.5626073401775096e+00
      -6.0746092232407727e-02 -3.5612730728685360e-01
      -5.5969522330850133e-02 -2.7519186206519869e-01
      2.4315782526713911e-01 1.6174277466636366e+00
      -2.3366636610467367e-01 2.0438268796583205e+00
      4.6340210013097932e-02 1.9933454488104189e-02
      1.1742883756214435e+00 -1.1673701237486547e+00
      2.1806803371198730e-01 1.0377049393025262e-01
      -7.6564368370644065e-01 -2.2408073729724265e-01
      -1.2480520756433751e-02 -4.8423227907469019e-01
      -1.5914509575636324e-01 1.5214020480146967e-01
      -3.5319928178741106e-02 -1.8680916916664159e-01
      3.2641924205146239e-01 4.1119738381331311e-01
      1.3064519656933604e-01 -2.2695141660589738e-01
      2.2375404056753584e-01 4.5821034364795193e-01
      5.2990839459258821e-01 5.3012739668906919e-02
      -3.1178737859438137e-02 -7.9380067610577365e-02
      5.0188161132592979e-01 3.1063543649760732e-03
      5.2081868035278434e-01 -3.0981394136475049e-01
      -5.7107122917830273e-02 1.5854528701349288e-01
      -3.8451132395190359e-02 -4.4341178295012090e-01
      -4.0553173787670815e-02 -1.9727153757616572e-01
      -2.6679233963508553e-01 -2.2021340188363270e-01
      -1.7536014873916980e-01 1.3221308362262166e-01
      2.7170816641539397e-01 -3.2291362313153854e-02
      -3.6740768481827452e-01 4.2276222574133465e-01
      4.1002805315831059e-01 3.6180902865975106e-01
      -9.8433842274499278e-02 7.2718747215820112e-01
      -4.1612954440346556e-01 4.4178739190102334e-01
      3.2976065371486057e-01 -8.9503213324253067e-03
      -1.9301194982909062e-01 -2.1387233133071085e-01
      5.5737999249254933e-01 2.0412813978813663e-01
      1.8342868814160779e-01 7.9528803383929564e-02
      -3.2662712841148805e-01 -6.6310519283051172e-01
      2.2582064337130042e-01 -4.9046191584319249e-02
      4.2009741832739012e-01 1.9448101193466641e-01
      1.5671124095683986e-01 1.8760736617734062e-02
      -4.7135778500180181e-01 -2.2230850017667611e-01
      -1.4661956382158647e-01 1.3026784618384571e-01
      1.8148060888180592e-01 3.7092843156556379e-02
      2.5850656093799607e-01 4.9726827220248716e-02
      -1.4793823068321033e-01 2.9645777652994543e-01
      -1.8748946814547304e-01 1.7014449097099682e-01
      -5.2266324312171819e-01 3.1043988935154326e-01
      8.0555653885647960e-01 4.2119083383481387e-01
      3.1398902659835110e-01 4.3168243159162828e-01
      1.3111380313125370e-01 1.7404167664501100e-01
      -1.5810767005528931e-01 -3.4533939582444451e-01
      3.0235467174344399e-01 -2.4279438300655967e-01
      -1.1029439500358387e+00 1.6433035954126463e-01
      2.7280107807294840e-01 9.8152956096850552e-01
      1.1988778536395697e-01 -5.4359109995268308e-02
      -1.0355436718670140e-01 -1.6937301252029321e-01
      1.5491414621546354e-01 3.6692793277579472e-01
      2.9678231653557936e-02 1.0782336146606289e-01
      -7.3381322214233408e-02 1.3241853797909386e-02
      4.1201615859875151e-01 -3.4875391595799132e-01
      -3.1671453532965264e-02 4.0265892222967406e-02
      -5.3154518200629086e-01 -2.2029038424383829e-01
      -3.3617390271517755e-01 -5.1614618708917837e-01
      1.8534976412374676e-01 -1.8125059879388918e-02
      -1.0938584912616067e-01 -3.1856027104026180e-01
      1.4247759724182266e-01 2.0445802426751464e-01
      2.2677281752469497e-01 2.9963591310232848e-02
      4.1787559213023712e-02 2.9719937479228797e-01
      3.3544844687063330e-01 -7.7800623421064169e-02
      -3.7436133860776641e-02 -1.1526843781529361e-01
      1.3108378730628956e-01 1.0315715692646406e-01
      2.1175277248280139e-01 -3.0798735853294917e-01
      3.4233045543554175e-01 6.1451720517137634e-03
      5.4706461662637831e-03 -1.5194012164325402e-02
      -6.9048840257941044e-02 -2.0235720635522716e-01
      1.2350313200901497e-01 6.1210526826604425e-02
      -1.8549427888286216e-01 -1.5997815246732303e-02
      -1.3959641074046106e-01 1.0003345543532192e-02
      -2.3261470965403350e-01 1.4190157978286294e-01
      2.5585040498290124e-01 2.5591243612516618e-01
      9.7132520597966149e-02 -1.1469830618984857e-01
      -1.2738963169458303e-01 5.6954164223584423e-02
      -6.6311052051181582e-02 1.3107967355339844e-02
      1.1731381237553740e-01 3.6631725774018922e-02
      2.9699315173035066e-02 1.8571344160895997e-01
      2.9009960103951113e-02 9.3172062449098286e-02
      4.1179153309329897e-01 -1.1271432636154570e-01
      -7.9114065565522237e-02 2.7774797612586659e-02
      2.5995582143808876e-01 1.5275939514011636e-01
      -1.5281080494770782e-01 2.7100104868472641e-02
      -2.7691304516139703e-01 -2.1408554149245054e-01
      1.9948474994467869e-01 -1.5000095080757139e-02
      -2.6122202997297572e-02 6.7451536709756968e-02
      5.4061993011680139e-02 5.1301189563208516e-01
      -8.8292876624152994e-01 -9.9744210378568024e-02
      -5.9235825370103884e-02 7.4041608360917699e-01
      -3.7810844288890999e-01 1.6638533778521519e-01
      3.1411716972811499e-01 -7.9141377281154690e-01
      -7.7059063804927483e-02 1.5764297039887842e-01
      2.3101667702957476e-01 1.9401050305889295e-01
      -3.5907377424220538e-02 -1.7983977475135074e-01
      2.4849723023820541e-01 -7.5249948368034475e-02
      -7.5815657582729012e-01 1.0261502858120118e-01
      1.9298500956791428e-01 4.0403472206651148e-01
      1.1351307942066809e-01 -2.7768216403886431e-01
      3.9171905800937587e-02 2.0721760728212393e-01
      -8.5587294468709274e-02 2.4793116068196625e-01
      1.1392333839711689e-01 4.1705339634467309e-01
      2.9800588800174649e-01 -5.2152557621949247e-01
      3.8406773500692581e-01 -2.2264941056018051e-01
      1.6334976545279642e-01 -7.4605322347248343e-02
      -2.3174226689730767e-01 -1.6090704405811820e-01
      -4.9662509559392626e-01 -2.8845237228720417e-02
      -2.8205375471712472e-02 1.0457428340714732e-01
      6.1374452358314777e-02 -2.2841891505910369e-01
      5.9123339580938672e-01 9.7331736480805786e-01
      8.3008164854228617e-01 -1.5991165947836888e-01
      7.6112630334058004e-02 3.8002027906807073e-01
      1.7552469587317115e-01 -6.9286006530033653e-02
      -2.7699641028613936e-01 -4.9897519685620673e-02
      3.5828113454461680e-01 -2.3686311618381469e-02
      8.5453469366626644e-01 -4.0594397362443718e-01
      3.7692745897776558e-01 -2.1828854910630724e-01
      -4.5658761275643799e-02 -2.4545852870809973e-01
      -3.1111832703221520e-01 -3.4251954508192289e-01
      -1.6949850795759336e-02 -2.3501690524425002e-02
      -1.0990042475699710e-01 1.4526266759003456e-01
      -5.9978831978367203e-02 -3.3472117228863224e-01
      1.0928623949481611e-01 1.3266301000360697e-01
      4.6940009185919146e-01 4.1703673125842367e-01
      -5.9044110252481841e-01 8.8024851718710662e-02
      -2.3246126962143301e-01 5.2711145605300624e-01
      1.6439551611683084e-01 -2.2229865587138806e-01
      3.2833127487654580e-02 1.7095004936516785e-02
      3.7511724499610183e-01 1.2521512985349199e+00
      1.6762540388954414e-01 2.8344540562126245e-03
      -1.4358790817187314e-01 -2.4091023877201379e-01
      -1.2315971180677706e-02 4.2560979202655541e-01
      8.3766944619786191e-02 7.9860745783501108e-01
      5.3493381584425313e-02 3.2011557787105022e-01
      -4.3384080610614800e-01 6.7472121171086918e-02
      2.3386400833434597e-02 -2.2363368266014283e-01
      4.6131633592695918e-02 -2.3866357043228523e-01
      1.2457123088847657e+00 2.6958917171653947e+00
      -5.7504898049310318e-02 -1.7004194376305513e-03
      -2.9661688078887877e-01 3.2241979530147208e-01
      -5.4090560697967593e-01 4.0356475631914279e-01
      1.4571209444866489e+00 1.4096892535637529e+00
      -2.5959355210023825e-02 1.0741640373920550e-01
      2.5660185674299890e-01 -4.6783014988900756e-01
      -1.6874832087823649e-01 -3.5353531804696564e-01
      3.6137566064384974e-01 8.1314984611240235e-03
      -1.1143598970300370e-01 -4.2994465204593067e-02
      3.1775165893015400e-01 4.3576822788575376e-01
      1.3948780705921961e-02 -8.3818907250208596e-01
      -1.6605084239349427e-01 -1.2274667685500526e-01
      4.2541736073811932e-02 6.0660689053639472e-01
      1.5180720909367268e-01 4.9076630405919308e-01
      -1.0536391630625101e-01 5.8259447506085782e-01
      4.6585427025017695e-01 -2.4037446293949963e-01
      5.8501722645271037e-01 6.2215024886431103e-02
      -2.2585223329020088e-01 -6.3066354096910332e-02
      -2.7593043334908496e-01 -3.2239779593301710e-02
      -1.2301094819948716e-01 7.6039262800684529e-02
      -5.7697359731728654e-02 -8.6956203186072750e-02
      3.4601154152519992e-01 2.8059394375115931e-01
      1.2436448802287710e-01 6.6964672365312769e-02
      2.2091301634044741e-02 5.1413423670542402e-01
      1.3408556197452826e-01 -1.6051697717391603e-01
      -4.3074185224203657e-02 -8.7770766147855561e-02
      4.5057654372643424e-01 3.3646389992052640e-02
      4.7817595438541133e-01 -1.1900153110326181e-01
      1.1834420712944349e-01 -2.9707177911690558e-02
      -1.8706026069652190e-01 -1.2029376660232485e-02
      -3.5622143759786512e-01 -5.8894851689947937e-02
      1.5724307534232104e-01 -3.7300255874992910e-01
      -1.9241073894647920e-01 2.5678534175051483e-02
      -1.2026977767547256e-01 1.9766403589190660e-02
      1.4876643198138582e-02 -6.3466911048043972e-02
      4.8499356886801609e-01 4.2291754326505654e-01
      -6.7985320840999605e-02 4.5484907151413699e-02
      -2.4976629358559835e-02 4.5692645572356094e-01
      1.8364617620561349e-01 -5.5970483963265406e-02
      -5.7765996079599508e-02 5.4003344848375989e-02
      1.5158119237385392e-01 1.3279909978485058e-01
      -2.0047466774089323e-01 -4.2714581287681998e-02
      -1.6173698963694458e-02 -5.5076554197770478e-01
      -1.4271050696991949e-01 1.1788978236205967e-01
      5.6487904003211839e-02 6.8219982570791005e-01
      9.4775825881080439e-02 2.2175775790368009e-02
      -1.4654397613780126e-01 -8.5192850255441530e-02
      5.6626525865955457e-02 -6.8984748974249138e-02
      1.9361119090313925e-01 -7.5564729099564049e-02
      -7.4438102344727003e-02 1.4264460517732793e+00
      -8.9427494875009519e-02 -1.1751837245988848e-01
      -1.5176728633383110e-02 -3.1705863391993876e-02
      -5.0199042754617507e-01 4.2895111757801058e-01
      4.7300039323742793e-01 1.1557935536956501e-01
      -5.3129305948156999e-02 6.2109360002567220e-03
      1.8903879089296455e-01 2.2320257375144117e-01
      -1.4114810261622249e-01 -5.1053518907821493e-01
      3.3750705450175128e-01 -1.6291338700090149e-01
      -5.5672129079476573e-01 2.8294766914788810e-01
      1.9408435588261927e-01 3.2495637080794487e-01
      3.9978794896754100e-02 -1.8943678882171017e-01
      -5.4282455932367121e-02 -4.0025159852104014e-01
      -1.8310720945420775e-01 2.9792012218853037e-01
      5.1782447677257946e-02 1.2192507324423162e-01
      2.1024898880067783e-01 4.5153729251024394e-01
      8.9630076608488971e-02 -4.4081224261028423e-01
      -1.8040431227739775e-01 1.3571897656955918e-02
      -1.9044582531343182e-01 -2.0729874732708217e-01
      -6.1606520155858091e-01 -1.7382835395955817e-01
      2.6146909762252042e-02 1.7088969650933561e-01
      7.0002354290665103e-01 -1.9728305716148817e-01
      1.2794578741506204e+00 3.1814700931038988e+00
      6.1302728533554030e-01 -2.1003384090406144e-01
      1.6644129773149491e-01 3.2768815572471368e+00
      1.1227171542075935e+00 -9.6267205323689722e-02
      4.2875661628776102e-01 3.0174950271971113e-01
      1.8970325161772905e+00 -8.0361705341940493e-01
      1.5128739294235711e+00 -9.7381876848947957e-01
      8.3710251795183557e-02 1.4936846252532163e-01
      6.1550302116773641e-02 -8.0096271625067633e-02
      -3.4111499563708325e-01 -7.7124710309333211e-01
      1.2970652960741367e+00 7.7208682811704177e-02
      -6.1412594274990129e-01 -8.0399127870034628e-02
      6.1883893067373283e-02 -1.4055502876390990e-02
      3.9339489350570571e-02 1.4567243711073855e-01
      2.4880956871329012e+00 1.5588919565494748e+00
      1.0323142705553572e-01 -1.2942730815204434e-01
      -1.2375879089421307e+00 1.2440166830010153e+00
      -1.6925618503571485e-01 -8.6694929531308910e-03
      -4.2983645150739734e-02 -3.9878613559987307e-02
      -3.0875043893722348e-01 -4.9744760034552603e-02
      -2.8865734069449944e-01 4.2814128905876125e-01
      -6.5469189993209650e-02 -3.1804280637344307e+00
      -1.2735336976342421e-01 6.3860476694350621e-01
      2.5334647184218495e-01 2.0116374013370686e-01
      1.9692164460753770e-02 9.2507116673890513e-02
      -4.3986701468956330e-01 2.9478623748744114e-02
      1.7686006636678575e-01 5.7154221012681794e-01
      9.9854376055028143e-02 -6.9545633677941350e-03
      1.4775073613761838e-01 -2.1915446429191974e+00
      -1.6616526373274298e-01 4.3025258299553927e-02
      -4.3286606021356694e-01 1.8728250670826427e-01
      -1.9599556810452365e+00 1.0527473789995530e+00
      5.7423094112631601e+00 2.3056730691357519e+00
      -5.5064631141800602e-02 2.9335251365815562e-01
      8.0920080293433883e-01 1.4583537580078101e-01
      -3.9512059103826008e-01 -3.4784713579143802e+00
      2.3985170420465081e+00 -4.5473918048187838e-02
      -2.3723344122161344e-01 1.7122359293606162e-01
      1.3432887492777257e+00 4.1797365708439377e-01
      5.6695302159475269e-01 -7.0065944781518352e-01
      -3.1326695309671249e-01 -2.3018067419608768e-02
      -6.5821993452288688e-02 2.5294325716877304e+00
      1.6279440054535366e-01 7.5075735778345276e-01
      -1.9447720644291308e-01 -4.2824845274362637e-02
      1.0549748242734107e+00 -1.4357699228221208e+00
      2.4221396075069294e-02 3.4634511127884909e-01
      -1.3393706319981755e+00 -1.5961985404101900e-01
      -2.3505681895943481e-01 -8.0942673685008415e-01
      1.5657253636059139e-02 -4.2451885560588143e-01
      -1.0562403961429210e+00 1.3985783485425649e-01
      5.3969603427509427e-01 2.0021622193720096e-01
      3.3045436171190257e-01 2.0687409747366176e-02
      -5.4485077760044853e-02 1.0775780628621864e-01
      3.1982286845042324e-01 -7.3987621399198303e-02
      -2.2764550662551733e-01 -1.8100866818617878e-01
      3.9961732084687357e-01 -1.4569730899918663e-02
      1.9812218821757710e-02 -3.0710116199491805e-01
      -3.1775365873884437e-02 -4.0474190909123597e-01
      8.4704145386923059e-04 1.5114915372777818e-01
      -7.8975409769827642e-01 -3.0463103591022211e-01
      9.8622110583099457e-02 -9.3436169098255209e-02
      -3.4341122379776734e-01 -4.1035243685268376e-02
      -9.3811223155870430e-03 -7.8105288354889735e-01
      9.2132702154544402e-02 5.7027269008690784e-01
      8.5933298908979106e-02 1.6067345330252963e-01
      -6.4864290218621607e-03 -3.7760166828292796e-01
      1.1581408086494559e-01 1.7123496318018869e-01
      6.0829826244385032e-01 -8.5768197991368450e-02
      2.2219775329477123e-01 6.4778291065712590e-02
      -4.4437944773193634e-02 1.0075360405071392e+00
      -5.1969194760077587e-02 -3.4547198592975739e-02
      6.4482452814333013e-02 -2.3766429331173666e-01
      -6.5653293479250738e-02 2.6128922117152709e-01
      -1.3463188708967636e-01 1.1349685416974646e+00
      -1.0243393985318208e-01 -7.7683592553606406e-02
      -2.6886260550137625e-01 1.0210849247151532e-01
      -1.4269348325983144e-01 -1.3916106251418633e-01
      -5.1286685433747778e-03 1.1500821919681978e-02
      -7.7471198095794809e-03 4.3731435588000955e-01
      -1.6320598295861094e-01 -8.7727089283033482e-04
      -1.4763086964760674e-01 9.1139296409431161e-03
      3.4554950351464273e-03 8.1328829740014030e-01
      7.3221749085333479e-02 1.4795303205737573e+00
      5.1187240730248759e-02 -1.9013572083635802e-01
      -9.3704561410733050e-03 -4.1809815475324343e-02
      -5.7061485349661434e-01 -1.8011725219506478e-01
      1.0745379108836710e-02 6.1405072595820702e-03
      -1.8776408004455611e+00 -1.8916515149360973e-02
      2.5926917765284041e-01 2.1627966424703238e-01
      -3.3530515932698846e-02 -2.1541760408427818e-01
      6.2200670970958626e-02 1.8323880852988399e-02
      -8.1655455226368662e-02 -1.9334664738762739e-01
      -1.9665978390818412e-01 1.8580636208478643e-01
      2.7228586659466969e-01 2.9441736004209773e-01
      4.4247302437165836e-01 2.8886629677208155e-02
      7.1537392524853771e-01 -3.7307446601636991e-02
      1.1414000188839611e-01 -6.0459506999478892e-02
      2.0950486764642798e-01 -1.2306096053896416e-01
      6.7998622866344491e-02 8.8196250376870698e-03
      -7.9440736944076618e-01 1.3188568300299461e-01
      9.3831063418584881e-01 1.5074353114312149e+00
      2.8051870632289431e+00 4.5924819459948435e-01
      -1.6274087130229287e-01 1.7602439858273504e+00
      6.8615067626041548e-01 -1.1801224838712876e-01
      -3.8213136003689741e-01 -4.7641453792450861e-01
      8.4715774566775992e-01 -8.2435201884899598e-02
      1.7450095379450230e+00 -9.6224561303538658e-01
      3.2970083114395243e-01 -2.0259861841843463e-01
      -3.8617322251557215e-02 1.2678131533569442e-01
      -4.2632003096615795e-01 -8.8402237962390962e-01
      1.3284302982601356e-01 -1.7674334900019472e-02
      -7.5676244960287853e-02 4.5538804350982559e-01
      -1.0688227276630587e-01 -1.2976441699064847e-01
      -2.5443517057526712e+00 2.0424030006353119e-02
      8.4236579690909275e-01 1.8258164862433031e+00
      2.9752456137386435e-01 -1.3521306984262754e-01
      -6.1063445359836022e-01 1.9287836294124789e+00
      -1.5275652097941994e-01 2.0006863929548022e-02
      1.5964297173699737e-01 3.4404330085193245e-02
      -1.5918274873573585e-01 -7.9597925749123208e-02
      -9.1995333590518563e-02 4.9027193025779592e-01
      -5.4082852055499425e-02 -2.1653278454538838e+00
      1.5680981678112063e-01 1.0526766024981919e+00
      -1.7974702164716919e-01 1.5720963061297628e+00
      -2.0177112678912210e-01 1.4884723486790907e-01
      -9.6037313684468706e-01 -3.8509646371495831e-01
      -4.2889987085614277e-02 -6.1259860444432912e-01
      -8.1364393824097936e-02 -1.0455806467498327e-01
      5.0377276771060453e-01 -2.7937533027576938e-01
      -8.2439168734131471e-02 -1.3344064706627783e-02
      -1.0069078170381804e+00 3.5435901077271961e+00
      -1.7223541762068293e+00 9.2255805668900259e-01
      6.8011418274828968e+00 3.1503394253793857e+00
      -1.7816232300484891e-01 6.6522015495735026e-02
      1.5458555383592124e-01 7.5409375018876998e-02
      -2.3656156690593991e-01 -1.6954896910244697e+00
      9.1669191277896167e-01 4.8792782894556130e-01
      6.7120473011805154e-02 -4.4055899285416318e-02
      9.2289050474202239e-01 9.5440750749614334e-01
      1.2065508269674161e-01 -9.4255775372876283e-01
      -4.7344133453159090e-02 4.3842049810312846e-02
      -1.8502501017960712e-01 2.5307519035208903e-01
      -1.3638747468047049e-01 2.6474612015413137e+00
      2.3736351301223944e-02 -4.6966132226720463e-02
      3.7652997465022109e-01 -1.2702589838095346e+00
      -2.3533322517385233e-01 1.7300309724751398e-01
      -4.7022277971159709e-02 -7.0549631940732077e-02
      -2.3879928781607038e-01 -4.6014269086296705e-01
      -6.2332069033930328e-02 2.0756367371293456e-02
      -2.2963973793489453e-01 -3.5914781702285327e-02
      2.8773723649721622e-01 2.5557586932274068e-01
      4.2895227778918704e-01 -3.8476391466026716e-01
      1.1501418960149556e-01 1.9008394974662560e-01
      -1.0534545878820682e-01 2.3336337756209913e-01
      3.9882669797693365e-02 -3.5039077790454692e-01
      3.5045152543875063e-01 3.2081972307337253e-02
      3.2333946127909674e-01 -2.7730450006989787e-01
      2.1734849869192701e-02 -6.4058664197823592e-02
      -6.6793254555286161e-02 -1.1438060046696798e-01
      -3.1428323549459031e-01 -4.0021772569013736e-01
      -1.4821150350376905e-01 6.5099843389269788e-02
      3.1542516759347078e-02 1.8787737669026383e-01
      4.9206890537929109e-04 -8.8883116711271040e-02
      -2.0503822597979660e-01 -1.8316839748405322e-02
      2.4497062243212084e-01 2.8111259961710366e-01
      -4.6511045456495509e-01 6.6268504600580355e-02
      -2.2284340800556710e-01 3.4870451625776977e-01
      1.7260187549392908e-01 1.0408167446613639e-01
      -4.8796214942729267e-02 -3.4859278699655646e-02
      2.7226856994328530e-01 -4.2802090802089861e-02
      1.0935245451595785e-01 4.2687655675920710e-01
      1.6744130148373098e-02 -2.9530085389731509e-01
      2.0360984168991134e-01 4.1059016693464589e-01
      -9.3087685477750606e-02 -2.4973236477644178e-01
      3.2456026068866051e-02 5.2502450060624102e-02
      4.4381144912121251e-02 1.3600083527481741e-01
      1.5837064114414538e-02 9.7197072054836497e-01
      -5.8889812516769398e-02 -9.3392458114740395e-02
      1.8846096786248376e-01 -2.6278914786480023e-01
      -1.4889124867517969e-01 1.1256816387414903e-01
      -4.1082791634598970e-01 2.2434279279110930e-01
      -1.8218138331467115e-01 2.2908867096023917e-02
      -2.0260278886296912e+00 -1.8653740689729367e-01
      1.0070654471753142e-01 -6.4843438921717123e-02
      -2.1049110400782590e-02 5.4019132615861598e-01
      -5.1343641525478864e-02 -3.9133950263426226e-01
      1.6606258857630818e-01 2.7253795805376957e-01
      -1.0377798967141062e-01 2.0641955744615109e-01
      2.7694997553951745e-01 7.4746646854147739e-02
      6.2661061873828097e-02 -2.1256014833291345e-01
      -2.9354435586875224e-02 -1.6059392441372281e-01
      -2.0694412926767167e-01 1.6785025906668591e-03
      -1.4634842121820726e-02 8.3412480502801714e-02
      2.6287063033354125e-03 7.1637801616101816e-03
      2.6003248305674038e-02 -2.4975912684058799e-01
      4.7555160235348293e-01 -1.8284260469725713e-02
      -2.3703854609906747e-02 -1.3570362825327315e-01
      -6.1784582484322711e-02 -1.0869893038242989e-01
      -2.4915779629774251e-01 7.7756675070117076e-02
      -6.2182452225994972e-02 -4.4539596389152241e-03
      1.1131163033272886e+00 1.2186684683669839e+00
      7.1999103981033896e-01 -1.2376543810561938e-01
      1.7004374510109099e-01 6.0197494641993088e-01
      3.0897086174167504e-01 5.6392237169006731e-01
      -6.8663185891083903e-02 1.8187182656151393e-01
      7.7350338182856637e-01 -1.0979501992705724e-01
      7.7633686528498280e-01 -9.2569357287021470e-01
      -1.4766097411267967e-01 -4.8948372183810061e-02
      5.2338591298345095e-02 -1.3442820448672052e-01
      -2.3728138645913660e-01 -7.2204890979783706e-02
      3.1111757553862120e-02 5.0390401006547778e-02
      -4.8067562971379413e-01 2.3076156190362029e-01
      2.6740579921390234e-01 7.0309076799737039e-02
      -4.2730288794616494e-01 8.1280358055267135e-02
      9.6584263202274634e-01 7.7910120677101946e-01
      -8.0230303151869853e-02 1.1408324933605399e-01
      -1.3417652190525986e+00 7.6339668329922439e-01
      2.2330432768056824e-01 6.9011308432644214e-01
      -7.9763181139926601e-02 5.3189063417974490e-02
      -8.6173778826685560e-02 7.6956516011656706e-02
      -3.9534831048479636e-02 3.5239415391399442e-01
      9.1480749873390443e-02 -5.6289431655465871e-01
      9.1759644993526901e-02 1.8809383887782233e-01
      1.3552630659550572e-02 6.1501172174005780e-01
      6.6965387309377081e-02 1.3937024361748421e-01
      -9.7701996577613748e-01 9.2633167852382362e-02
      -6.6222066517265726e-02 -2.3286883967845928e-01
      9.7521715111223775e-02 -1.3875860827512423e-01
      3.9824943461416068e-01 -3.9889259330199456e-01
      -1.9215432866335055e-01 1.0791578816810377e-01
      1.5767236335898840e-02 1.1684362158266595e-01
      -7.6018207104156388e-01 8.0311335344263568e-01
      2.3525944452788505e+00 1.2188586326689992e+00
      2.2412555992690861e-01 4.7491250829119556e-02
      2.5180132813235911e-01 1.0499833671279331e+00
      -3.2741602533809272e-01 -8.9486979365630537e-01
      8.4940801819428469e-01 1.5748407298973766e-01
      -3.3011888756016977e-01 7.0636821232221481e-01
      3.6367513117252775e-01 1.0541972090677987e+00
      1.1228413682435483e-01 -5.4371712492693368e-02
      -1.7025695261330262e-01 -3.7396015009625333e-01
      4.4588017291745177e-02 4.8678590378850783e-01
      1.0558856600498148e-01 8.6786657404941936e-01
      1.9209295946040802e-02 -1.0595113737207812e-01
      8.5863843378527638e-01 -1.1481367922806114e+00
      2.0535672597871010e-01 1.9982857969492002e-01
      -3.0285282193255803e-01 -1.2518573005462803e+00
      4.7932437613331293e-03 -1.8980564707877101e-01
      9.2444020903116250e-03 -8.4346789740169056e-02
      -4.6575645539972454e-02 -2.3191534593704856e-02
      3.9584532494171554e-01 2.7124344036201969e-01
      2.7637696474130191e-01 2.5288914821461156e-01
      -7.1827976811173625e-03 3.2215628988553258e-01
      1.1570031461018698e-01 -4.2293851180060710e-01
      3.6357615686647936e-02 -4.6528368183786623e-01
      3.9738763476394418e-01 -2.5978966421087813e-02
      4.5923277230213005e-01 -7.2721510045851023e-01
      3.4140049611888224e-01 -2.7597251363003727e-01
      -2.1511729524568708e-02 -2.2970318387785288e-01
      -6.3621518019579035e-02 -4.2854394142613983e-01
      4.0956174223552612e-02 -2.1717678269877583e-01
      -5.7486416797621995e-02 8.4407571456240574e-02
      -2.2974953123487046e-01 4.4395627330604773e-02
      -2.4291690948524077e-03 2.8894471970294022e-01
      2.9361043002285997e-01 1.7960449219582511e-01
      4.6197827042481647e-02 2.4082563912410513e-02
      -3.8091700498167602e-01 3.9835199991777565e-01
      1.0065903128683587e-02 -6.1043426348444774e-01
      -1.6527160423307041e-02 1.1855522950806384e-01
      -1.8817321178164639e-01 3.3394954496261542e-01
      2.6402240544632087e-03 3.5517362821561949e-01
      5.2885925556606685e-02 -3.2734860060063864e-01
      2.2324764803645283e-01 2.4564367713419472e-01
      4.6361562507196571e-02 8.3210570848046450e-02
      -9.6537727862820152e-02 3.4298537193579552e-02
      -2.2029880354978520e-02 -5.3785968344351370e-02
      -9.6358855795889778e-02 -1.6896710775462155e-02
      -3.5359169027898797e-02 -1.6651848658470597e-01
      5.5862147744555897e-02 2.0784886467093080e+00
      -3.4836555511370260e-01 -7.2119342614081039e-02
      -4.1811612703884116e-01 1.6433875302897075e-01
      -2.2737396768381032e-01 3.7047997616048306e-01
      7.9880259694056277e-01 1.9242266727563824e+00
      -9.0015023002438743e-02 2.2336536059759962e-01
      -1.7184278373240194e-01 1.6564929066809328e-01
      -1.1916206001472909e-01 -1.0579724938091099e-01
      4.2286836936630912e-01 3.7149032620671246e-01
      -2.1055941249378654e-01 5.8352981266781112e-01
      4.5114432733840318e-02 5.8976396271805698e-01
      1.6775033716143500e-01 -5.0906357653378298e-01
      -2.7271329129238183e-03 1.0285786086076959e-01
      -2.4200344361142981e-01 5.0471628466620441e-02
      -5.8251906748369164e-02 4.3648031641113144e-01
      -1.0259965695240496e-01 -6.6834033172655224e-02
      1.4813115614531069e-01 -4.0207531722603002e-01
      3.2085077472691403e-01 1.1243498446304777e-02
      1.6031021588218557e-02 -1.2139367595243972e-02
      2.1757446392351104e-01 -1.0666514797120775e-01
      1.8284292422454484e-01 -2.6179807413961681e-01
      -6.5535584839016975e-02 -1.5133283679807041e-01
      8.1027281504756646e-02 -4.3401922568235823e-01
      -3.9003052704512065e-01 4.5625510593064598e-02
      -8.4418611368089647e-01 -9.3575410390589336e-02
      -1.6915673231193548e-01 -8.3407494030735130e-01
      -6.2923887028067272e-03 9.6029836961347398e-02
      -1.8516298210257850e-01 9.6236284160836488e-02
      2.8633615157813964e-02 3.8115309853078028e-01
      6.4136824209269616e-01 -5.6500089773098638e-01
      -5.6649964534698471e-01 6.1614166253249802e-01
      3.9728671115153003e-01 -1.1089609048587742e-01
      3.7926921639198646e-01 -4.5908138776800160e-02
      2.4822335860724909e-01 5.8952851934644723e-02
      -1.9452176467966414e-01 -3.2346592250720563e-01
      -7.2063606282599377e-02 -7.7818889084116480e-02
      -2.2313412982671260e-01 7.2343703956828515e-02
      6.1648016286992113e-01 5.1061384646474306e-01
      -5.7205293652383339e-02 -9.5852328542943429e-04
      -5.8949741767140733e-02 6.8451733014157090e-01
      1.0095395222722918e+00 8.6542573478491391e-01
      6.4503689147237564e-01 -3.6895826331754300e-01
      -5.3412312725757505e-01 -3.8274695063677050e-01
      -1.1570012283476176e+00 7.5915287629020893e-04
      -1.5897701917582835e-01 3.9146929888006471e-02
      -1.9941522730577085e-01 -7.8017039915367403e-01
      -2.1906047965160877e-01 -4.0889565688106111e-01
      -4.3396810176689317e-02 -1.6979464538103808e-01
      1.9829220527405819e-01 6.5184784082075023e-02
      9.3590036251573763e-02 -4.1149166263567120e-02
      -8.4108969740996964e-01 3.2480974406064289e-01
      -7.9987400899868884e-03 -9.2616265765037054e-01
      -1.7664328880939428e-01 2.0744234211437534e-02
      4.2764244206300200e-01 -2.0734731710120319e-01
      -1.6884366975577383e-01 -7.7970387809558783e-01
      -1.1074554022033316e+00 -8.7480108170853735e-02
      -4.0868347496757629e-01 -2.8870931397897104e-01
      -2.5132511314801226e-02 -1.8353272003742471e-01
      7.3361270998349673e-02 7.5507322856010639e-02
      5.8279690322674793e-01 -1.6355653271213452e-01
      2.3793134670929923e-02 8.3648971787662604e-02
      -2.8704341576309389e-01 -1.6626566286957500e-01
      3.0256411494271701e-01 1.8048761775728625e-01
      -8.6041835315638648e-01 3.3505092759547057e-02
      -3.5147797859965957e-01 -4.1038642629950317e-01
      1.6573131592467694e-01 -9.7800057198595802e-02
      -1.8095365863392071e-01 2.3289544511129501e-01
      1.3783051584674508e+00 2.3815835740533978e-02
      -4.5321438208946276e-02 1.3373390930834186e-01
      1.7607455894922078e-01 1.2670652659149712e-01</_>
    <_>
      3.5062900137504079e-02 7.8218668390039575e-02
      -6.9045755695838040e-02 3.4350134825096745e-02
      -3.2571458993853756e-03 -3.2221021884254818e-02
      -2.2674134979087927e-02 -1.1840281462834246e-01
      4.8941798879633278e-02 -4.9498454757678761e-01
      -2.3563709019041890e-01 -1.5296645497462014e-01
      4.5343850012423179e-02 6.3364392242698742e-02
      8.9212980989389623e-02 -6.3013235360031450e-02
      8.1135301791749707e-03 -7.0923008877407934e-02
      -9.6173441084781180e-02 -6.4825810203699263e-02
      -5.1256875088519513e-03 1.2651933221581082e-02
      -1.6630205888825730e-01 -1.0387303402945909e-01
      -2.4506527914139650e-01 4.1146617724240317e-02
      -8.8352111327390570e-02 2.2443331645002087e-02
      4.4854502963376131e-01 -2.1097277768069497e-01
      -2.5722629740818120e-01 1.2220712348169312e-01
      -1.9281867151566087e-02 -5.6641610902356011e-02
      1.2987773068480073e-02 -2.1390588731961563e-01
      8.8169499256613237e-01 -3.6075934668519233e-01
      1.2922265812782047e-01 2.5385564356840573e-01
      -3.8740166546253590e-01 -5.7766195448631164e-04
      4.4020835942933062e-01 2.3283710317223527e-01
      -3.3510709842561014e-02 -8.2116828274189119e-02
      -1.0111858145157068e-01 -2.1499259280020649e-02
      2.6590399908867479e-01 1.6212340323513055e-02
      1.4640258255802953e-02 -4.7590440283921684e-03
      5.7283575889870653e-02 1.1762124769475232e-01
      8.4573445911593839e-02 -7.1697823051026843e-02
      1.3622753497802748e-02 1.2357241225775324e-01
      -1.0107418005884551e-01 1.6775488247588406e-02
      9.2068712376885825e-02 8.7597455368591634e-02
      -4.2333601681903400e-02 6.9003636447861796e-02
      4.6827310100822771e-02 -3.9721635212033451e-02
      -5.6908070307146164e-01 -4.2624878651336420e-02
      1.4482450173962639e-02 -4.3138634083034103e-02
      -5.7123225641541181e-02 -3.1085698929145564e-02
      8.1050178936354877e-01 -6.1538220739499612e-02
      1.8328672682203392e-02 2.3506286531583074e-02
      -1.6251024982458770e-01 1.2404124523374511e-01
      7.3202627541038748e-02 -1.0307124586028162e-01
      7.6126079284269524e-02 2.0328181886273333e-02
      -6.5434363470592824e-02 -9.5594581318036477e-03
      -6.5484633139266757e-01 -1.1603961222356740e-01
      3.1735799070202075e-02 1.2618596236031882e-01
      1.3391979108631116e-01 8.2555045013908557e-01
      -1.0786308014836181e-02 9.9141371779550846e-02
      1.5743440210378926e-01 3.7131006112708864e-02
      -1.5686127089966176e-01 -6.8709583310229708e-02
      -2.1946388409531819e-02 9.9074173403106564e-02
      3.9172327205381031e-02 3.6629687685417300e-02
      9.1698225669498659e-02 -8.5614338323244332e-02
      -7.8593438524314271e-03 -1.3645461032415243e-01
      7.8642989885591597e-01 1.2926569335086052e-01
      2.7143492144830073e-01 -1.7717913370032532e+00
      2.3242419559784269e-01 -4.8364196847805402e-01
      1.3209939740183432e-01 1.1930427934872491e-01
      -1.1375006312573172e-01 -2.4863779854036899e-01
      2.0232320161198614e-01 1.7587015862262387e-01
      3.9058357935269999e-01 3.6767774483132198e-01
      -1.1093291038154597e-01 1.6542042343674318e-01
      -3.5236122385167473e-01 -1.8821241207645631e-01
      -1.0787204693258950e-02 1.3900969357952608e-01
      -1.8750979275480126e+00 4.3572103114274074e-01
      3.5316442065596648e-01 -1.2536452042947677e-01
      1.6567792353930799e-01 -1.1203346222777044e-01
      5.7284968148489782e-02 -4.3266211792670911e-01
      -2.1460194010540584e-01 4.5051338731007444e+00
      6.6670768678655207e-02 -1.4523532732707045e-01
      1.1430767200740909e-01 2.0464848912221004e-01
      1.0255784172979585e+00 5.9081613543212630e-01
      6.8756595278893053e-03 -6.1851655897154523e-01
      1.1583704774886697e-01 1.1797354133625068e-01
      3.5658590437949736e-02 -2.6408415175932466e-03
      2.8269124539027746e-01 1.4673189281170240e-01
      1.3480315190803671e+00 -2.1521586019333339e-01
      -3.1923030530096136e-01 1.1772976910467516e-01
      -1.1251579643773196e-01 8.5247424544960149e-02
      -2.2524941875148252e-01 -1.0142734139663077e-01
      -1.5676740561627669e-01 2.4058550914476701e-01
      -5.7384397126796927e-01 -3.9020347718153992e-01
      2.8107970791032366e-01 -9.3729396939326096e-02
      1.1422080414039636e-01 2.6209225155742094e-01
      -1.1288567485793279e-01 3.5714983198129890e-01
      1.1092995701619195e-01 1.9453610062936630e-01
      4.1467910729168100e-01 -2.5551960363749121e-01
      -3.2502699880653829e-01 -2.0739027449233463e-01
      1.1044689466684947e-01 6.2736461290828183e-01
      -2.9490527352867135e-01 1.6656796677050376e-01
      3.9296563537863749e-01 -1.6462551860952241e+00
      -1.0941358891657285e-01 -1.8078918128648647e-01
      1.8569302845537064e-01 4.6547852168352122e-01
      2.8693615194526711e-01 -3.5961450263270389e-01
      -6.3845181299894360e-02 1.8386278283987956e+00
      2.7238156690785376e-01 -8.2115391585248665e-01
      -1.2519789587503632e-01 9.5444308748246012e-02
      2.4913315097813876e-01 -1.2010816913266492e-01
      -1.8678028778550432e-01 -6.0871387127623057e-02
      3.4514795855053602e+00 -2.4850045904854526e-01
      1.8487398614447070e-01 9.7620007841175110e-02
      -3.1865821545741041e-01 3.3785084183095931e-01
      1.7133085627287961e-01 -3.3732644891901548e-01
      1.0993589117165585e-01 -3.2550059529601316e-01
      1.0637114797575033e-01 3.2816738539513179e-01
      -6.9062543384485919e-02 1.4836168545939435e-01
      1.4869361499149997e-01 -5.4790187661661027e-01
      -2.5290187679632320e-01 3.2840066127811851e-01
      -3.3322609171210799e-01 -5.2693014183578823e-01
      1.5449332080245010e-01 1.1572760267864034e-01
      8.8097269276567899e-02 1.0721989952801506e-01
      -2.0147891393893685e-01 2.2332855535801155e-01
      -9.3045089718087864e-02 3.3858250925956129e-01
      -2.5116916922237253e-01 -8.8244924148168907e-03
      4.2305959356882994e-01 1.8099668229003765e-01
      6.3228726719465334e-02 -1.3926870297203650e-01
      -4.5264820259573368e-01 -3.5580003916951813e-01
      4.3108085027538756e-01 5.5752947999586754e-03
      1.2372640100914932e-01 7.1192634148856626e-02
      -1.6698537646865119e-01 -3.6113494074747415e-01
      4.7401060237464104e-01 -4.5922439504594598e-01
      -2.1627623916541031e-01 -4.0755918197672664e-01
      9.6303449065623936e-02 -7.2840350458519304e-02
      3.6665664722262192e-01 2.2816153203518269e-01
      1.0628923518058458e-01 7.3418061504204976e-02
      3.9365445881799876e-01 3.4982161598670242e-01
      6.5530454904804014e-01 -8.5279765653813927e-02
      -3.5316199657130082e-01 1.2318194085840257e-01
      -1.0612963468108087e-01 1.8754626405331251e-01
      -4.5081186434641862e-01 -8.8841231452334982e-02
      -3.8203309759912335e-01 1.5331497634445915e-01
      -9.6052336379444228e-02 -5.0288576579434238e-02
      -3.0554759935315645e-02 1.0960554738425163e-01
      3.9067042731502311e-01 -4.4722817003035503e-01
      -1.3706132148268876e-01 1.1424954602693625e-01
      3.9001824088213100e-01 2.6006668807034283e-01
      -5.6090591127199531e-02 8.8145348423750991e-03
      -2.2689109737681179e-01 1.3107430225407365e-01
      3.6843996201634382e-01 2.5525957315951697e-02
      -3.5801563211479664e-01 4.8361443997437678e-02
      -4.4056256832922347e-01 -3.3093556372464222e-01
      -2.4558110863627586e-01 5.9776829467515044e-02
      1.2644077399667955e-01 1.7888812086665276e-01
      1.2349405875129239e-01 -1.3774553101713843e-01
      -5.0477910497091616e-01 2.6530449890712032e-01
      -1.3799550459058510e-01 1.9215803090681005e-01
      1.6895019360350677e-01 3.9125315155040269e-01
      2.7822480898914165e-02 -3.4663456943655591e-01
      3.1555518290121681e-01 -1.0325900672833049e-01
      -1.9949837206174661e-01 -1.3257947038590942e-01
      8.5953825281508259e-02 1.3115681105410903e-01
      5.8578546614668471e-02 2.8414823769135999e-01
      2.7560139936169142e-01 1.2944775862494196e-01
      4.3294576120081557e-02 -1.1274192679237963e-01
      -5.5052634885491654e-03 1.2504072421515450e-01
      -4.8242405330056790e-02 4.3798729134578862e-01
      -1.9892156021108576e-01 -1.5081020524076810e-01
      -3.0926658940840240e-01 4.4808846377425417e-02
      -1.1349511359294667e-01 1.8010764047882616e-01
      2.6252149790181589e-01 -3.3090019506652252e-01
      -4.0708921592930175e-01 -1.0430336731190513e-02
      -2.4324928742209648e-01 -1.8883337472136394e-01
      6.2395644992542772e-03 7.1418004628782561e-01
      -3.0577571466022724e-01 -4.7806155432376085e-01
      -1.2721547283298751e-01 3.3426758460846845e-01
      -4.1368850299008492e-01 2.9004307939610774e-01
      -1.6947651745210379e-01 -1.4173938408064202e-01
      1.3753033475525683e-01 1.4312877940766425e-01
      3.2181548940944546e-04 -9.3060838628784476e-02
      -2.8791457009793375e-01 -1.2573112229221220e-01
      1.4687695271137996e-01 -1.5754862305257050e-01
      1.0388881547836559e-01 -1.6981447576399883e-01
      4.1468383742174392e-01 2.0691869960957603e-02
      9.5296067019333686e-02 -4.9853147340715980e-03
      -1.7445135984168147e-01 -2.8588686255568641e-01
      -2.0758014087694374e-01 1.3275024887013587e-01
      1.5336076780922234e-01 2.5297199143631466e-01
      -1.4262375496729415e-01 -4.0142343486224821e-02
      -8.4751487884467597e-02 2.5705609278963748e-01
      1.9887751991555183e-01 -2.6208889915646982e-01
      -1.2131699488732756e-01 2.8874969208992365e-02
      -1.4887630394193552e-01 -1.7795545390534959e-03
      3.6921149484668242e-01 3.0973460033391959e-01
      1.4338517816057381e-01 1.3555869843856387e+00
      2.8974616015374660e-01 -1.0964357995064156e-01
      1.5718996211890299e-01 -3.5493967558609861e-02
      -1.4617736244588186e-01 -4.6215837753200728e-01
      -4.5918639493453747e-02 3.7413771682134840e-02
      1.3295659201088433e-01 -3.2684190251734091e-01
      -1.2360446483690027e-01 -4.1601298053145752e-01
      -4.5449862614978781e-01 1.9891969160840683e-01
      1.9830179683468332e-01 -5.5074715424552154e-02
      1.7614557946451373e-01 4.7738800474844434e-01
      -1.0108818907963039e-01 6.4811590338437544e-02
      -3.7387489093655701e-01 3.4147685460110419e-02
      4.5423706553043744e-02 2.9207410441362236e-01
      1.2152341626372263e+00 1.5871342887292819e-01
      -1.6241249414817421e-01 1.4889055858513118e-02
      3.5835163501356460e-01 7.3350353024702039e-02
      -3.1186461267213494e-01 -1.5177462183342572e-01
      -2.0843078921868979e-01 2.7370140399226139e-01
      1.3926356557478406e-01 -3.1434530855826363e-02
      -4.4152159647512074e-01 -1.4669479693708246e-01
      2.2968305009204978e-01 -1.3883918323766703e-01
      3.5648532814678802e-01 1.4758126047951264e-01
      6.4643023175336145e-01 -7.1747398220833003e-01
      6.8070754012410112e-02 -7.9685890809878368e-02
      1.8707106200276155e-01 1.5987348083345132e-01
      -1.2815488001870298e-01 -2.1431455841506977e-01
      -5.1824797716615378e-01 2.0324403863800516e-01
      2.1932255330156591e-01 6.5462003825888082e-01
      9.9946825413684048e-01 1.7033515867839746e-01
      -1.3638020596455253e-01 -5.8379970762886768e-01
      6.2942635950715198e-01 2.1524253762081333e-01
      1.5828678842415947e-01 -2.8918837690660293e-01
      2.8259470995342162e-01 5.0569333188859722e-01
      -1.0464601094441078e-01 -1.6736729292561059e-01
      1.1779031597290712e-01 -1.7904360803851052e-01
      2.5308372576635035e-01 6.3671767612238606e-01
      -2.2857557101183310e-01 -1.4576271981906566e-01
      9.0628057885520599e-02 1.2542508496089158e-01
      3.7164987598268126e-02 -1.4313484960435588e-01
      1.1492248348277552e-01 -3.9953771828339679e-01
      1.2751647941281075e-01 3.9046558461285202e-01
      -2.0276529568058910e-02 4.8381543412501454e-01
      2.4230963979634045e-02 1.3780640803445005e-01
      9.1396257629548575e-02 -5.1570875358372525e-01
      -1.4383371201734629e-01 -2.2334997473262400e-01
      -4.9440344084855914e-01 -5.7725997505881066e-01
      -8.1383866939208363e-02 5.1435937906299889e-01
      -1.1511597943392228e-01 -2.4369255399940193e+00
      7.3693364170337616e-01 -1.1642736608688977e+00
      -4.9063853227072374e-01 -5.0592901132899037e-01
      1.4286678248388524e-01 6.0108287808903182e-01
      -5.4229967785325284e-01 6.3317874097545113e-01
      1.1636588508512520e-01 -4.8462334641534557e-02
      1.2692482945161763e+00 2.6200402651792942e-01
      -3.2287017561863224e-01 -5.9345201555860261e-02
      1.1961181009832922e-01 3.9510088228180923e-01
      -1.2242727248729227e-01 7.7157669770329362e-01
      1.1956854243134429e+00 -2.1736261380358138e-01
      -9.4414910729127111e-01 1.6941058893252325e+00
      -5.2352417186872446e-01 -2.5898567724925564e-01
      6.4644179759938802e-01 -3.8315750923661696e-01
      -4.5426610904421662e-02 2.5237041060189352e-01
      2.4209801470969305e-02 -5.3408415918723584e-01
      -2.0323912829665322e-01 1.1591751673085067e-01
      1.1830192881230810e+00 -1.5667254984500403e-01
      -1.1580668947415908e-02 6.0588991376284353e-02
      9.9615738545336652e-01 7.1647291244826838e-01
      3.5774166942524738e-01 -5.4253238906472423e-01
      -3.6041719958738977e-02 2.3983851863640337e-02
      -5.0414507392089292e-01 -1.8595696068114972e-01
      6.4090806045345716e-01 -1.2890620016209409e-01
      6.3297321564927900e-01 1.3480870860303518e-01
      7.4326023891681503e-01 -2.4919705124847114e-01
      3.0288434387537949e-01 1.8920510962358209e-01
      2.9799681477418155e-01 1.4024771873774572e-01
      -1.4604052094910966e-01 -3.8569428664092875e+00
      -1.5752120433655001e+00 7.7211693363569234e-01
      7.9134826953516113e-01 8.7273614116489240e-01
      1.6527191248007775e+00 2.1333471934601636e-01
      -7.1765542878727984e-01 -7.9393931252800398e-01
      7.9485612389061833e-01 2.7834899432219362e-01
      2.8594602066191588e-01 1.2743175624125658e-01
      1.2756485236461867e+00 -1.1950988020189708e+00
      -1.1144310850046758e-01 -1.5062332506086365e-01
      1.1880175797575686e-01 -2.1499063265403728e-01
      6.5328031482089755e-01 5.6666322236663058e-01
      5.9826930311594022e-03 -1.6112894581175496e-01
      1.1828227746100882e-01 2.2364311623248506e-01
      -1.5830346860157588e-01 -1.0874407790528451e-01
      -7.8711667002711316e-01 -7.9615215492955560e-01
      1.8701255170433356e-01 2.2678691871849277e-01
      6.9678699973916425e-01 7.9999357370875679e-01
      1.6169546330858603e-01 1.5518129453104482e-01
      1.1512347066759628e-01 -5.6030946607883303e-01
      -1.2498634622148927e-01 6.8529830700496563e-01
      -6.7806354612069997e-01 -6.9524937688659316e-01
      -3.7760060519862249e-01 7.9836368721621187e-01
      -1.4785972146944243e-01 -6.8759330874745450e-01
      7.0359486888740586e-01 -5.1785256904134214e-01
      -8.2029449814601996e-01 -7.4340375719174590e-01
      1.2150348269472477e-01 1.9615564686480175e-01
      -1.5843736780355706e+00 5.9055311974760505e-01
      1.0989547154531736e-01 6.4813750426000627e-01
      6.7129483205703211e-01 5.5467260112533619e-02
      -3.6966571726176561e-01 1.8898476523909031e+00
      1.3507394959107952e-01 5.7668482738700200e-01
      -1.2210605664104357e-01 8.9217928146244718e-01
      2.7752765899555043e-01 -6.5781086454221246e-02
      -1.8316850888876449e-01 5.7184781227746562e-01
      -6.9053789509171593e-01 -5.2288400534947410e-01
      5.7172914321697055e-01 -1.1210153427875997e+00
      2.5845513521670987e-01 2.9919266607701617e-01
      -6.6253517949666862e-01 -8.1058184587125304e-01
      -5.7498263676588746e-01 1.2372884347734681e-01
      7.0541216662519557e-01 -4.0533869387662973e+00
      -3.3377621917028738e-01 -6.6443955972872515e-01
      8.9195878110049798e-01 1.1268882467839998e+00
      5.5846983758176139e-01 -7.4869748518627577e-01
      -6.9696922138805639e-01 3.8703109734642788e-01
      -1.3342132694421255e-01 -4.3714753311985283e-01
      -1.4869909075277519e-02 -4.5039991104376831e-01
      5.2529015149360969e-01 4.5064362936409330e-01
      1.0509310121533383e-01 -5.5447937658057844e-01
      -2.4401053588556748e-01 1.7709347290292274e-01
      5.8462029059188025e-01 -4.2894860654051725e-01
      -4.6059356547693575e-01 -8.1888499284202484e-02
      -2.0003956202677309e-01 3.1406344998998775e-02
      2.0919184622461842e-01 3.2194139361264484e-01
      1.6451913353805883e-01 4.6719799031657733e-01
      -5.2238677957089363e-01 -3.1427871923720729e-01
      8.1399216125066320e-01 4.5123125982578838e-01
      4.6388366734611125e-01 2.6144529447574882e-01
      4.2375817959334879e-02 1.4838639030754130e-01
      -4.2506897443912406e-01 -4.4997764216647229e-01
      -3.9637317092169949e-01 -4.8309952408507528e-01
      9.5114958139960164e-03 3.1837071039649106e-01
      1.5401065902578004e-01 -4.6719909102513857e-01
      5.0811998783228540e-01 5.3815607933194487e-01
      -4.5947591357233336e-01 -7.1670909311324915e-02
      -3.2044791151373836e-01 -4.5199371524706544e-01
      4.5488112691360566e-01 4.4528631083801529e-01
      8.1624505160526842e-02 2.5466150708557694e-01
      3.9989612968186572e-01 4.5035010650473095e-01
      -1.5482664303672578e-01 -1.8025227510545289e-01
      3.8922714912262940e-01 1.6824897294432303e-02
      -8.7662439141114533e-06 -1.3164346310349051e-01
      -2.4424288365471941e-01 -1.4272735619374075e-01
      3.5883369723065250e-01 -4.3220957636730495e-01
      4.3067449236512995e-01 -2.2270846800762861e-01
      -3.3912467822025655e-01 -5.1700649657447817e-01
      2.1469517872204358e-01 7.7861758303743001e-01
      -1.9745545065575357e-01 3.1539069522290519e-01
      2.9328837964513377e-01 1.8693482305950615e-01
      5.5505802061560472e-01 2.9819634657298860e-01
      -3.7797031509777768e-01 1.7309336737701431e-01
      2.5689469625125229e-02 5.9921804472136542e-01
      -4.6835961302229601e-01 1.7755484925716913e-01
      5.3167478639242582e-01 -2.5296998431098511e-01
      -4.4043687183275337e-01 3.0586470211208627e-01
      -1.9201748997285364e-01 -6.3592291716378133e-02
      3.2251839310033609e-01 -1.2439069255221755e-03
      5.2951130563177218e-01 -3.2289882588633179e-01
      1.2238473233103292e-02 -2.6735654122554287e-01
      -4.5675720079913057e-01 -3.9385954420024449e-01
      5.8031612751492623e-01 -4.5575030766344093e-01
      -5.6585962126078349e-01 -1.4607531668124592e-02
      1.7659352978453380e-01 5.0773606672439142e-01
      1.5216637289306220e-01 1.4583485733039592e-01
      -3.8705457865050596e-01 5.7317958085047603e-02
      7.3762480519740298e-02 3.5154652523814101e-01
      -7.5834462172131897e-02 3.1586992936558145e-01
      -1.0304084709328176e-01 -3.2297923460713507e-01
      9.4721550625805825e-02 -1.4324797898570524e-01
      -2.1807172186564702e-01 9.1668446066658049e-01
      1.0436103665535718e-01 -1.2581399266173665e-01
      3.5614420316588319e-01 9.5562147605106362e-01
      5.3762621263024675e-02 -3.7674019152899432e-02
      -2.4982172820162672e-03 -3.7349395356058628e-02
      3.7447226859889748e-01 -2.7184537118326371e-02
      -7.6255452832154708e-02 -3.5299251541003851e-01
      4.6231352637534614e-03 1.4305125996199766e-01
      2.6852002904828265e-01 -1.5869526407714349e-01
      8.2305024423619082e-03 1.0351234453738554e-01
      -4.1039353691068280e-02 3.0755103078823209e-01
      -4.1770715384267032e-01 3.3697881426148157e-02
      -8.3449653667563517e-02 -3.2098649631738689e-02
      2.1060294065756419e-01 3.2138940470985838e-01
      9.6054453828838349e-01 3.8646376399624127e-01
      3.4992446728737725e-01 4.1748177603109549e-01
      -2.8824425933587255e-01 1.2663170388363978e-02
      -3.2439138595092087e-01 -2.6313778627428848e-02
      -5.1122760029732726e-02 -3.4138235359685049e-02
      -2.7969034518594510e-01 -3.5176965016333228e-01
      -5.9801853655994930e-01 3.6796422360467332e-02
      3.7820496373657997e-01 -5.3374922749399575e-02
      6.2869660183302770e-02 -3.7999571181243874e-01
      7.6566149794385385e-01 2.7657994878714065e-02
      3.7989808750500170e-01 -2.0868232926656349e-02
      1.7077170359212548e-02 5.8943434825435206e-03
      -1.2639387082758310e-01 -1.1055641050054693e-01
      5.8879159660401741e-02 1.9187255471743012e-01
      -6.3345384695385866e-03 -5.7217418892527919e-02
      -1.9027763349283269e-01 -7.7196703393155250e-02
      2.2038636956671098e-01 -7.9291763067189591e-01
      1.5717304761520187e-01 3.5186802588646246e-02
      -3.4996357745623308e-01 -1.3180216987829642e-04
      3.8017691719343832e-01 1.1647451869408677e-01
      2.1472248711937220e-01 2.8592900694810158e-01
      3.4540520945598917e-02 5.8455160738260124e-03
      6.5834143168116671e-02 -1.6477416640926928e-01
      -6.8407362845937042e-02 1.0621074751216310e-01
      4.7404873034358946e-01 -1.5702530765602423e+00
      8.4779172579079104e-02 -2.4694123754210606e-01
      -7.4470874284921218e-02 -4.7344140327166301e-01
      5.7791049874131792e-03 2.1478239236453636e-01
      -4.4493584765010907e-01 3.7072167990826410e-02
      3.9135081141475764e-01 2.7754702880690812e-01
      -4.0161870746809089e-02 -3.5670110099740394e-02
      5.2619965115990684e-03 -1.5020332770983316e-01
      -8.5272632365952103e-02 1.9724508077585937e-01
      6.7595694538812576e-02 -6.6841681901204597e-02
      3.1643376728919322e-02 6.0943155769491941e-02
      7.4932471476927526e-02 -3.2697512147396954e-02
      2.1045297059818074e-01 3.5248733392623896e-02
      9.6403021136767207e-03 2.0780554599388348e-01
      -9.4129879499010832e-02 -9.4325688663839696e-02
      -7.4729660722406291e-02 7.4930412465744028e-02
      6.0814306588850599e-02 8.6633753820673232e-02
      1.0513386122030348e-01 -1.7812763491275616e-01
      -1.6612964209874591e-02 -6.2758281092313115e-02
      -1.4250293893929242e-01 -1.7622485521895218e-01
      1.5023594429604986e-01 2.7000230990591711e-01
      4.3056342552436726e-02 -9.3505076519316221e-02
      -1.1690817475526098e-01 7.2313277182211394e-02
      1.7194728358421638e-01 -1.5881388679933184e-01
      5.5165043964961122e-02 8.5846286597349608e-02
      -1.6824264149951199e-01 1.0557486480400005e-01
      6.0326814184440587e-02 3.2206346206233616e-01
      -2.1467368780063515e-04 -1.4429088032600823e-01
      -2.0442143388059394e-01 -8.8913502635998898e-02
      -6.8035500519082359e-02 -7.3090120929292290e-02
      6.3983955548371191e-02 3.4061819378396099e-02
      3.3302512597309913e-01 7.4552758905658281e-02
      5.5016823124299279e-02 -7.8726432212485029e-02
      -1.3579558801195143e-01 8.0976342888849875e-02
      -7.1236562334964421e-02 -9.6278707187104434e-02
      1.0522360258908551e-04 8.9298797980959299e-02
      -1.2027296079328731e-01 -5.1491541988445549e-02
      5.6010962108778976e-02 -7.5928880048036995e-02
      7.5667508570636151e-03 -2.3380440641423441e-02
      1.9258859723220620e-01 -2.3968517991778990e-02
      -8.4303355253747478e-02 6.6867593061599867e-02
      4.9679337452164282e-02 6.1860452621527541e-02
      9.8126755793558215e-02 3.6109126595322769e-02
      5.1845376295453538e-01 8.5474372339326768e-02
      -1.0736761377830664e-01 3.0598381283005648e-02
      -2.7192378864505984e-01 3.8989945627822854e-02
      9.1951374531999452e-01 -3.5979040821462882e-01
      1.5547793667497556e-01 4.2431490863376116e-02
      -1.1715072882977010e-01 -2.3144094915594315e-01
      7.6894988044052592e-02 -7.0953570420512951e-02
      3.2432187290479508e-01 7.3973396592568103e-02
      -9.0974157824450577e-02 -9.5500868685629570e-02
      -9.3757284817178183e-02 -6.7976461431565427e-01
      9.8629536164377113e-02 1.6016247222876265e-01
      -5.3546454865231119e-01 -6.2078365241687666e-02
      6.2679285880844510e-02 7.2261054346087567e-02
      8.0162693362351517e-02 -3.7125425080842163e-02
      -1.2994518191271553e-01 5.5704659538056485e-02
      -3.8622225978464098e+00 -2.7180271761469899e-01
      3.8573328541139701e-01 -1.3519277903429339e-01
      3.0854585140849405e-01 3.3250514481561921e-01
      1.0821424641622188e-01 -4.8430520599994414e-01
      1.3465846120082317e-01 1.6766304054978173e-01
      5.9859779033300242e-01 -1.2812627360367429e-01
      -1.6078218214630993e-01 -1.2752142075719659e+01
      -3.4005033386795724e-01 1.0881287858023490e+00
      2.4838878118366176e-01 6.6211787973094607e+00
      2.0576915601858285e+00 2.7933655098103571e-01
      -9.0116880497949133e-03 -6.5816408757060518e+00
      7.6642106423139045e-01 4.8722156989244086e-01
      2.3232268353573490e-01 -2.0154420136497955e-01
      4.5762392709815414e+00 -3.4482095237094362e-01
      -1.0314861699170937e-01 -2.0215235666076858e-01
      -1.3811816910441102e-01 -6.0408244736634364e-01
      4.4264928871419573e-01 1.4348502681204647e+00
      1.3955877522489032e-01 -2.6865585867323649e-01
      1.1466231148242294e-01 1.7104195680543605e-01
      -5.1423262129848335e-01 1.6024606920700643e-01
      -1.0268232237695671e-01 -1.9841091957614573e-01
      2.3156929693968642e-01 2.9291199833071890e-01
      4.0205346827150473e-01 6.7047603825366664e-01
      2.5281094115057479e-01 1.4160195600725603e-01
      -1.6805125138576896e-01 -5.5458572762824387e-01
      1.4297804809722406e-01 1.5668757983871798e-01
      -3.9609811469044243e-01 -7.5395677512833637e-01
      -1.0098258524254303e-01 5.9656550249053830e-01
      1.3208333432963695e-01 -1.1752821429681869e-01
      2.7527250796893143e-01 -2.5994443245894044e-01
      -7.5837393813836840e-01 -7.6199349352589552e-01
      -1.4973059752730850e-01 9.9953021829806266e-01
      -2.6560623663400940e-01 3.2711358620271669e-01
      1.1715665291214553e-01 3.6722076314430896e-01
      3.5233959545305593e-01 1.7085510488432787e-01
      -2.2069458479547543e-01 7.3155833687882890e+00
      -1.5380469409064482e-01 2.0644879323258136e-01
      -1.1199168576296439e-01 3.2923762062109158e-01
      3.5518120358998473e-01 -1.9059913484542745e-01
      -3.1363393978688825e-01 4.2793889345937292e-01
      -5.4585885206986928e-01 -1.0835501453317040e-01
      2.0662940113916393e+00 -5.5163573453980141e-01
      2.6545776427707279e-01 3.1444752032857415e-01
      -5.4495422399874005e-01 -7.7130823745869315e-01
      -2.7222348936519767e+00 -1.3902984792862033e-01
      1.8907622594043266e-01 -2.3045444476321808e-01
      -4.7090550011880672e-01 -3.8217445204313683e-01
      1.0180030442304679e+00 4.7452995982765717e-01
      5.9028518910974248e-01 -4.3335151754859241e-01
      -3.3262239387028458e-01 1.5205294224762983e-01
      -9.5081902589609524e-02 -1.8018794436098409e-01
      3.8169372351719555e-01 -9.8185518293057480e-02
      8.3653379073371636e-01 1.1678525314773114e-01
      1.0247036464038741e+00 -6.2128446771192301e-02
      7.3067444192309774e-02 -8.1139351337175369e-02
      3.0021070003725492e-01 1.6429845643583130e-01
      -1.2599450216065514e-01 -2.8912212931643644e-02
      -5.2293336367443122e-01 2.9406493488734914e-01
      1.2271308227690667e+00 2.3786966526670370e+00
      7.2730123536701996e-02 1.7509170604575972e-01
      -7.7745684328171250e-01 -1.9912188057809952e+00
      2.9224210024831880e-02 3.2075477166379063e-01
      -1.1901738515252018e-02 5.0360692348756321e-02
      2.6228565319802750e+00 -4.7587881226008683e-01
      -1.4227300155813233e-01 -1.2560386874210452e-01
      1.0033146874886203e-01 -2.5421446797600198e+00
      5.2139937332465469e-01 9.3929491983690216e-01
      8.5079639801050364e-02 -1.2724302134575466e-01
      1.2983896257903080e-01 1.8934490020986551e-02
      -1.7825349923187996e+00 -1.2138774852210003e-01
      -1.3841729241932876e+00 -7.3058106560100233e-01
      1.4961624803264062e-01 1.3922767669921859e-01
      4.0273067874390549e-02 -3.2202797344435274e-01
      -2.2336227585375953e-02 1.1853669761837407e-01
      1.0614272639620463e-01 -1.7777605705314595e-01
      -1.1351207012619073e-01 5.1497477355508248e-01
      -5.3419497272239291e-01 -8.3377070301337952e-02
      -6.3604146917186069e-03 7.7608556967127415e-02
      -1.4188012801509989e-01 -4.0565011082376173e-01
      1.1476252985641127e-02 -5.0672231525115918e-01
      8.8065981313430033e-02 -4.3158354801603399e-03
      1.2298646014056647e-01 7.0280319281435952e-02
      -2.0848410196017547e-01 7.2800472559121754e-01
      2.1612818244945695e-01 4.1726790265344293e-01
      7.6748003509169915e-01 9.7351873365576203e-01
      -1.3434714771798002e+00 4.5670164025538655e+00
      1.0870761645513555e-01 9.5942339636847518e-01
      -2.7782558329613749e-01 -3.2679385611357796e+00
      4.5027191881952106e-01 -8.9225723631458070e-03
      3.1692606154367878e-02 1.0023471175821890e+00
      -5.4429700252580848e-01 -4.7190294079962058e-01
      8.7752634463912826e-01 -5.2703922394451597e-01
      4.1123949889187335e-03 2.2438438866051427e-01
      -4.3841887939807611e-01 1.2659285661091177e-01
      -8.8458219266224047e-02 1.2954438584588487e-01
      7.5995416776501024e-01 -1.6939950256086120e-01
      3.8305323180468139e-03 -2.4890301285047833e-01
      8.3519535091168856e-02 1.0471023356450988e+00
      1.8941997500684152e-01 -1.1442440048400043e-01
      -2.5729269515483139e-01 8.8700223940560277e-02
      1.6220527622531383e-02 1.3897403786395007e-01
      -8.9063484821224712e-02 -5.5355842891255259e-02
      6.8075880718529033e-02 -9.9820482503776120e-02
      -9.9092070229471099e-02 4.9407890360754450e-02
      1.6115857327757558e-02 1.5043213557621728e-02
      1.0523330536587878e-01 7.1080081486146557e-02
      1.1221826068306004e-01 -1.8857729727652570e-01
      1.6916669468112073e-04 -5.1961626297878809e-02
      -1.8318417775970741e-01 -2.0565996313775495e-02
      -2.6760682812594725e-03 -3.8487183842529571e-01
      6.5942657330370982e-02 1.3430293821708705e-01
      -1.0739718220969867e-01 -4.7970758765614990e-01
      2.2270941410679176e-01 2.6178404484387358e-01
      -1.4736032704034865e-01 -4.3321019487099606e-02
      6.3489546998066401e-02 1.4308233519491184e-01
      -3.2496326688590774e-02 4.7110202810962215e-01
      -1.5611068325759859e-02 -3.3497208564989410e-02
      -2.3605169100689957e-01 1.0319479494006760e-01
      1.6022075548701148e-01 -9.5920761010203082e-02
      1.7515720209880586e-01 -5.4962261893057437e-03
      -1.5319254826015524e-01 1.6325261190562163e-01
      -6.2269918862937379e-01 -3.9668587239084108e-01
      -9.1621330783624541e-02 3.2196974841558162e-03
      4.4335686384365386e-01 -4.9068860035749874e-02
      2.4795970061869999e-01 -5.1046226728899318e-03
      -2.1160965080012534e-01 -1.2207178438221666e-02
      8.0585994356054721e-02 -1.9495872278354101e-02
      2.7141404575245588e-02 1.1310768883682230e-02
      1.1746376643291916e-01 -1.0209088501359032e-02
      -5.3519660863692746e-02 3.7963699296629023e-02
      -2.7111091849842905e-02 4.7175912575607860e-02
      3.0967631198282553e-01 -1.2073941618355151e-01
      1.9952041141858123e-03 -2.9419979671919182e-02
      9.8444103394322399e-02 -5.6183905207245761e-02
      -6.3001940144970583e-02 1.4107829346835160e-01
      2.1083370039567448e-01 -4.0176904311575869e-02
      5.5110345494149719e-02 6.5102435334100858e-02
      -2.0627333978259718e-01 -8.3442190896952192e-02
      2.4094999868933789e-01 -5.0949596870082581e-01
      2.3170452697960267e-01 -3.7727941274679586e-02
      -6.2984047244572889e-03 -1.0180225945115379e-01
      -9.4061777540469967e-03 2.2161303266029313e-02
      1.1875540226536108e-01 1.0715370001390567e+00
      -3.2403891693617158e-03 3.4119042745037775e-01
      1.4436597316025696e-01 5.2516450146558001e-02
      -1.1733201258584844e-01 4.9572877872945864e-01
      -1.7212278316045984e-01 1.0528420723826268e-01
      2.6519694515556965e-02 1.5751875916218148e-02
      -6.6063651537829466e-04 4.4815859513111424e-03
      -1.1890622224255600e-01 1.0801237058779480e-01
      -1.4409442700405560e-02 6.1617868678679832e-01
      1.2047097053928639e-01 4.0349825952252494e-01
      -2.8058053523482396e-01 -1.5678584614627452e-02
      2.0246280209093637e-01 7.1872511491464106e-02
      9.4552741416361386e-01 3.0889614073765825e-01
      -1.7428292611971369e-01 1.6091022434479615e-01
      6.0264593449804657e-02 5.6254735855010396e-02
      9.9929691759939737e-03 1.7263401809544227e-01
      1.6743128516124020e-01 1.4066590219015093e-01
      -1.3732058014307193e-02 -4.6742888049036191e-01
      -2.4844192584640892e-02 1.0115928173026635e-01
      -3.8706394283540435e-01 -3.4858000463879574e-01
      8.0664691625618914e-02 -4.5606902184810427e-01
      1.5892294619145317e-01 -6.6014713475914866e-01
      -1.1266180011310080e-01 1.7696060416570994e-01
      6.9021803621715602e-02 1.5828396750157619e-01
      -1.4013256080722833e-02 1.3003679634713117e-01
      9.0572715429362155e-03 1.0127860829013786e-01
      9.4711309386106363e-02 -6.9065077019257626e-02
      1.5278040166755746e-01 -9.9193492495261174e-02
      3.1184222523634891e-01 -1.6710177018971850e-01
      -3.2950428325071596e-01 -6.0089402340707221e-01
      6.1647210637418917e-02 -3.7930973654190225e-01
      4.6067503471082194e+00 -3.3747245829879445e-02
      5.0097271633179110e+00 -8.0302580728055267e-02
      -1.3513452057326972e-01 8.6012300666163610e-02
      -7.5509451539697070e-02 -3.5746973204297948e-02
      1.4173884693487011e+00 -1.0498736683461346e-01
      -4.8344096705604557e-02 -2.2865591168076398e-02
      1.3988118239308889e-01 -2.2583883381439682e-01
      1.5231652825090897e-01 -9.4762443838241853e-02
      6.6125147551835503e-02 -5.0245793367206693e-02
      -1.3606956363089277e-02 1.3351050811748055e-01
      9.3386856597558354e-02 2.0491216568474951e-01
      2.2517085218211955e-03 -1.7059524115195954e-01
      1.8241849409458420e-02 -1.5649173175802227e+00
      -6.7031481899713630e-01 8.1214406571071804e-02
      -6.2905068648810930e-02 5.2517203632927119e-02
      -1.5556166253218276e-01 -1.6556355824176497e-01
      4.3844806346868181e-01 -7.4956331110807262e-01
      -1.9914994439117352e-02 -9.9075319005454028e-03
      9.7818977922175851e-02 -4.2191512228969226e-02
      -6.5949908002769744e-02 -3.3511039377726850e+00
      -3.3206693453897450e-02 -1.1616983422688969e-01
      -1.0514847803488631e-01 1.1254622470781145e-01
      1.5148932818131855e-01 5.9164992743635281e-01
      1.2691385362988616e-01 -8.8589892315361324e-02
      -2.1915152732693066e-02 1.7676092356050995e-02
      9.7997817796474831e-02 3.0490055046316342e-02
      6.7173046656077512e-02 -9.4660110911129233e-02
      -1.4053711164709928e-01 -1.2162430185055971e-01
      1.2965185935913517e-01 -1.0618689413678684e-01
      -9.9623388361859314e-02 1.1868852955279485e-01
      -1.5768780981053510e-01 -2.6887584196119169e-01
      -2.0519146130035676e-01 3.5141875414710605e-01
      -2.0981064731232191e-01 1.9094716451049235e-01
      -1.0631729800790143e-01 -1.8515134701249888e-01
      3.4622426438080700e-01 -3.3777344222603639e-01
      -3.9615570379338511e-01 -1.6775762951932581e-02
      -2.8017853240907759e-01 5.7182518341823911e-02
      3.8049726927368681e-02 1.1487876314721042e+00
      -4.0480580159892865e-02 6.0499080712575939e-02
      -1.3464335042213471e-01 1.2154746977900528e-01
      -4.0631935289738552e-01 1.3384728729177706e-01
      -7.1265982289318575e-02 -1.2195992307744136e-01
      2.9226666300578918e-02 -5.8813597248308341e-02
      1.3162785628372933e-01 -9.4311080050017315e-02
      -1.9768216890159343e-01 -1.1214550630559698e-01
      2.1469046300501288e-01 -1.5201416130740009e-01
      -1.3490157758820942e-01 -1.5665664149747063e-01
      6.3930008982859554e-01 4.1493776177668440e-01
      1.4553664524583695e-01 5.5217836465424372e-02
      -1.2606451547498562e-01 -2.9957559036103828e-03
      -3.4516329193756151e-01 1.1418099542493719e-01
      1.8275998308005739e-01 1.0058984456788020e-01
      6.6494274345461632e-03 -1.3029613755088199e-01
      -1.1681120778890211e-01 7.8819174869577832e-02
      -3.7313406308737934e-01 6.6771851485736097e-02
      -6.6589543095697493e-02 3.7918232033338922e-01
      -2.2708826572252046e-02 -2.0980517923217392e-02
      -9.8115019686108862e-02 2.6523554459739773e-01
      1.3915779872872588e-01 -1.0394304846635606e-01
      1.3427325777305277e-01 2.0922399118919414e-02
      1.0180857666746251e-01 -5.9933111508006877e-02
      -2.3738534614296296e-02 -1.6223266735017378e-01
      -7.0803668616700927e-02 -3.6785133702087092e-01
      9.3799822752870063e-02 -1.4570746260297751e-01
      -1.4564362080173984e-01 -1.3863586841146042e-01
      -1.5920896880415167e-01 -3.7885690940071048e-01
      -1.1495192299908545e-01 -5.4053226399800014e-01
      1.0369978183451749e-01 3.1931897052808728e-01
      -1.1049606251817471e-02 4.9440154360658364e-02
      -1.5704890526795401e-01 9.0428686612649289e-01
      1.1708864521195080e-01 8.3306881591411530e-02
      -1.0060797196105443e-01 1.5650583151801242e-01
      1.2782999680633065e-02 -1.2403091625905564e-01
      1.7211598599576297e-01 3.0716387319418742e-01
      -3.5225966971616030e-01 -3.6142996634526009e-01
      -9.3746007180970439e-02 -1.0693202733905253e-01
      3.2876995678081689e-01 -2.5373686357798875e-01
      -1.7333637315636732e-01 -1.5577099121322202e-01
      4.1478014883669406e-01 -1.3091799699524223e-01
      7.9606752590630936e-01 1.4842620343369317e-01
      7.6790299919700178e-01 -2.6283909408272858e-02
      3.9127430096350380e-01 -8.2310294744214016e-02
      2.0032982366433408e-01 1.5224674108829389e-01
      -1.2031828131389653e-01 8.2247041357776857e-02
      -3.2591584302484172e-01 3.8078367508843519e-01
      3.8599863849888028e-01 6.1508432801111346e-01
      3.8710792686098855e-01 1.6793102841858806e-01
      -2.1312669552315331e+00 -2.8808295001082118e-01
      4.3434494835131288e-01 2.2557542199188199e-01
      4.1465154045907643e-02 2.0524130521167594e-01
      5.3958730110133213e-01 -4.0332688112918325e-01
      -9.6129924231140126e-02 -1.2350638852300819e-01
      1.0494463481330363e-01 -5.3539412010345677e-01
      3.6827285065387422e-01 3.5066712977286230e-01
      -1.6373156703585450e-02 -3.0601171775875841e-01
      9.8347049109183252e-02 3.8318503550930677e-03
      -5.2461817239200714e-01 -1.6416125884044061e-01
      -5.8529466194030844e-01 -3.7742269250345228e-01
      1.3927470294632482e-01 1.4626405135743711e-01
      3.4745972182794482e-01 4.2372795214157083e-01
      -2.7258220551464907e-01 1.3482890638450293e-01
      8.8817427512561845e-02 -4.4916939283775087e-01
      -1.0755626732652555e-01 4.5570326262241090e-01
      -4.0965557352010790e-01 -2.1411991390365417e-01
      5.4129151885819035e-03 2.7034537151414056e-01
      -1.7322221336272503e-01 -2.0530321459515140e+00
      6.7750452096884417e-01 -6.3181347411509914e-01
      -3.8352803008026704e-01 -3.3092440963927000e-01
      1.0831494898783625e-01 1.7276158842511862e-02
      -4.6035751374765610e-01 7.0966920962815216e-01
      1.9671231241539849e-01 -3.7349903586008920e-01
      7.4620257372991050e-01 4.5289257830621704e-01
      -5.5168640788975165e-01 1.3108956377388203e+00
      1.2959720818112938e-01 -1.3575360814530354e-01
      -1.5917021669457754e-01 3.7160200561961845e+00
      2.1936648275370241e-01 1.4825007012649521e-02
      -1.3406333963539621e-01 7.7109019990089878e-01
      -4.0093752227800716e-01 -9.5922290395441340e-02
      7.2549395683602325e-01 -4.7591912306566886e-01
      4.2675926853277237e-02 8.5410660153403817e-02
      -4.1983115536225085e-01 -3.1449609757370500e-01
      -8.4926117163960591e-01 1.2312148758660282e-01
      6.6907224107075480e-01 -1.6048236269378463e-01
      -1.8394166575372312e-01 -3.4897662094394888e-01
      4.6278445141001145e-01 3.0779489688208933e-01
      1.5300492642646704e-01 -1.9417212697110039e-01
      -1.1674907247075121e+00 6.9092090352986024e-01
      -1.7611599624967278e-02 6.3325416873056761e-02
      -1.1400044177132893e-03 4.9282884878450922e-02
      4.8145354049213177e-02 -1.8581147773030996e-02
      -1.6428969338074309e-01 1.4084782505611682e-01
      -2.4034364573298554e+00 1.5483081968003767e-01
      -1.2020908876850882e-01 -8.1365971061587189e-02
      5.2160731278454150e-02 2.5808971179346696e-01
      1.1109427305652267e-02 -2.9823852984838986e-02
      -1.9017501940200982e-02 6.5176353392956132e-01
      2.8995900483122363e-02 -3.6903454735312376e-02
      5.4028929168168940e-02 7.6829103385236897e+00
      6.7451790196896855e-01 -4.8537888748253266e-01
      -3.2972996760782686e-01 -5.6173921795969077e-02
      3.2954560729490656e-02 8.9917000493675667e-02
      2.2589341164628934e-02 4.3969530300750279e-02
      -1.0266193480307706e-01 1.0811002909897410e-01
      7.6245592575371202e-01 6.3763857188291262e-01
      2.2102342932109722e+00 4.5426413930657931e-02
      -3.2267292601719524e-02 -8.2415745704495974e-02
      7.9459618808424365e-02 1.1878522864939315e-02
      -2.3834847627422238e+00 7.2277129936458078e-03
      -4.3573745858600944e-02 -3.9938124987159283e-02
      -7.7357475383749583e-02 -1.3340350199698170e-01
      2.6539094308261166e+00 -4.9876879899269776e-02
      1.6949897722863369e+01 1.1367645166351606e-01
      4.9538629619669444e-01 -2.2569346782712058e-01
      9.6483236997697078e-03 6.2317790533028460e-02
      1.7681373802486805e-01 -1.1588777593915461e-01
      2.1291051255657889e-02 -1.5165090283250202e+00
      5.0569213017522513e-02 -3.3192064989381487e-02
      3.7427923666167193e-02 2.1563319368442507e-02
      4.0177583901234021e-02 -1.6469597431941616e-01
      3.8440737763398257e-02 -5.7540717120415530e-02
      -9.4332521896297516e-01 1.2931998622918542e-01
      1.5529858476703559e-01 -1.6884357149538193e-03
      -1.1158771312516663e-02 -3.9970605752183745e-02
      3.4124015741657625e-02 2.5768772880228382e-02
      3.5957548033056286e-02 6.8747969410729387e-02
      -2.2392146525567680e-01 -3.2576954914485245e+00
      2.0884107822433919e-02 -2.1084368657511363e+00
      2.7231838022495791e-02 2.4020823938926600e-02
      -4.2343882863960566e-03 1.3551730863118697e-01
      -2.7735110688962128e-01 -6.5785166472257401e+00
      7.4270479070849951e-02 1.1181830692373826e-01
      5.2559374293545238e+00 -1.5054633932051250e-02
      2.6430975571794333e-02 3.1224294395846938e-02
      3.3153014471609193e-01 1.3688285127628752e-01
      2.1070011932747240e-02 5.2505823792154918e-02
      -1.1727320114216339e-01 8.9177193277529376e-02
      4.7486416183691460e-01 -4.7625618166299089e-01
