<?xml version="1.0"?>
<opencv_storage>
<opencv_ml_rtrees>
  <format>3</format>
  <is_classifier>0</is_classifier>
  <var_all>21</var_all>
  <var_count>20</var_count>
  <ord_var_count>21</ord_var_count>
  <cat_var_count>0</cat_var_count>
  <training_params>
    <use_surrogates>0</use_surrogates>
    <max_categories>2</max_categories>
    <regression_accuracy>9.9999997764825821e-03</regression_accuracy>
    <max_depth>5</max_depth>
    <min_sample_count>2</min_sample_count>
    <cross_validation_folds>0</cross_validation_folds>
    <nactive_vars>0</nactive_vars></training_params>
  <global_var_idx>1</global_var_idx>
  <var_idx>
    0 1 2 3 4 5 6 7 8 9 10 11 12 13 14 15 16 17 18 19</var_idx>
  <var_type>
    0 0 0 0 0 0 0 0 0 0 0 0 0 0 0 0 0 0 0 0 0</var_type>
  <cat_ofs>
    0 0 0 0 0 0 0 0 0 0 0 0 0 0 0 0 0 0 0 0 0 0 0 0 0 0 0 0 0 0 0 0 0 0
    0 0 0 0 0 0</cat_ofs>
  <missing_subst>
    0. 0. 0. 0. 0. 0. 0. 0. 0. 0. 0. 0. 0. 0. 0. 0. 0. 0. 0. 0. 0.</missing_subst>
  <oob_error>0.</oob_error>
  <ntrees>100</ntrees>
  <trees>
    <_>
      <nodes>
        <_>
          <depth>0</depth>
          <value>4.9259259259259258e-01</value>
          <splits>
            <_><var>1</var>
              <quality>4.1763186645507812e+02</quality>
              <le>1.8843850493431091e-01</le></_></splits></_>
        <_>
          <depth>1</depth>
          <value>6.5964912280701760e-01</value>
          <splits>
            <_><var>2</var>
              <quality>2.5460598754882812e+02</quality>
              <le>1.3847200572490692e-01</le></_></splits></_>
        <_>
          <depth>2</depth>
          <value>7.2530120481927707e-01</value>
          <splits>
            <_><var>8</var>
              <quality>2.2081842041015625e+02</quality>
              <le>2.5947500020265579e-02</le></_></splits></_>
        <_>
          <depth>3</depth>
          <value>6.8501529051987764e-01</value>
          <splits>
            <_><var>4</var>
              <quality>1.6089241027832031e+02</quality>
              <le>3.6162000149488449e-02</le></_></splits></_>
        <_>
          <depth>4</depth>
          <value>4.3820224719101125e-01</value>
          <splits>
            <_><var>9</var>
              <quality>1.8987970352172852e+01</quality>
              <le>1.4380000531673431e-02</le></_></splits></_>
        <_>
          <depth>5</depth>
          <value>5.1428571428571423e-01</value></_>
        <_>
          <depth>5</depth>
          <value>1.5789473684210525e-01</value></_>
        <_>
          <depth>4</depth>
          <value>7.7731092436974791e-01</value>
          <splits>
            <_><var>18</var>
              <quality>1.4923628234863281e+02</quality>
              <le>1.5470000216737390e-03</le></_></splits></_>
        <_>
          <depth>5</depth>
          <value>9.0909090909090912e-02</value></_>
        <_>
          <depth>5</depth>
          <value>8.1057268722466957e-01</value></_>
        <_>
          <depth>3</depth>
          <value>8.7500000000000000e-01</value>
          <splits>
            <_><var>11</var>
              <quality>6.7779411315917969e+01</quality>
              <le>9.1820005327463150e-03</le></_></splits></_>
        <_>
          <depth>4</depth>
          <value>1.</value></_>
        <_>
          <depth>4</depth>
          <value>8.3823529411764708e-01</value>
          <splits>
            <_><var>0</var>
              <quality>5.0189392089843750e+01</quality>
              <le>3.0489450693130493e-01</le></_></splits></_>
        <_>
          <depth>5</depth>
          <value>5.8333333333333337e-01</value></_>
        <_>
          <depth>5</depth>
          <value>9.7727272727272729e-01</value></_>
        <_>
          <depth>2</depth>
          <value>4.8387096774193550e-01</value>
          <splits>
            <_><var>17</var>
              <quality>3.9253334045410156e+01</quality>
              <le>7.0664999075233936e-03</le></_></splits></_>
        <_>
          <depth>3</depth>
          <value>6.2666666666666671e-01</value>
          <splits>
            <_><var>18</var>
              <quality>3.1708993911743164e+01</quality>
              <le>7.3405001312494278e-03</le></_></splits></_>
        <_>
          <depth>4</depth>
          <value>5.1851851851851849e-01</value>
          <splits>
            <_><var>11</var>
              <quality>1.7166896820068359e+01</quality>
              <le>1.2321500107645988e-02</le></_></splits></_>
        <_>
          <depth>5</depth>
          <value>7.2413793103448276e-01</value></_>
        <_>
          <depth>5</depth>
          <value>2.8000000000000003e-01</value></_>
        <_>
          <depth>4</depth>
          <value>9.0476190476190477e-01</value>
          <splits>
            <_><var>8</var>
              <quality>1.7552631378173828e+01</quality>
              <le>4.1956000030040741e-02</le></_></splits></_>
        <_>
          <depth>5</depth>
          <value>9.4736842105263153e-01</value></_>
        <_>
          <depth>5</depth>
          <value>5.0000000000000000e-01</value></_>
        <_>
          <depth>3</depth>
          <value>3.4999999999999998e-01</value>
          <splits>
            <_><var>6</var>
              <quality>1.6488094329833984e+01</quality>
              <le>4.2731501162052155e-02</le></_></splits></_>
        <_>
          <depth>4</depth>
          <value>7.9166666666666663e-01</value>
          <splits>
            <_><var>5</var>
              <quality>1.7190475463867188e+01</quality>
              <le>2.9275998473167419e-02</le></_></splits></_>
        <_>
          <depth>5</depth>
          <value>0.</value></_>
        <_>
          <depth>5</depth>
          <value>9.0476190476190477e-01</value></_>
        <_>
          <depth>4</depth>
          <value>1.6071428571428573e-01</value>
          <splits>
            <_><var>19</var>
              <quality>3.6901960372924805e+00</quality>
              <le>1.7477501183748245e-02</le></_></splits></_>
        <_>
          <depth>5</depth>
          <value>9.8039215686274508e-02</value></_>
        <_>
          <depth>5</depth>
          <value>8.0000000000000004e-01</value></_>
        <_>
          <depth>1</depth>
          <value>4.0190476190476193e-01</value>
          <splits>
            <_><var>9</var>
              <quality>1.8038214111328125e+02</quality>
              <le>1.6027498990297318e-02</le></_></splits></_>
        <_>
          <depth>2</depth>
          <value>2.4922118380062305e-01</value>
          <splits>
            <_><var>5</var>
              <quality>2.5280532836914062e+01</quality>
              <le>8.1368997693061829e-02</le></_></splits></_>
        <_>
          <depth>3</depth>
          <value>2.1967213114754097e-01</value>
          <splits>
            <_><var>10</var>
              <quality>1.7948751449584961e+01</quality>
              <le>2.3136500269174576e-02</le></_></splits></_>
        <_>
          <depth>4</depth>
          <value>1.8382352941176472e-01</value>
          <splits>
            <_><var>1</var>
              <quality>1.3279464721679688e+01</quality>
              <le>2.2871449589729309e-01</le></_></splits></_>
        <_>
          <depth>5</depth>
          <value>3.3035714285714285e-01</value></_>
        <_>
          <depth>5</depth>
          <value>8.1250000000000003e-02</value></_>
        <_>
          <depth>4</depth>
          <value>5.1515151515151514e-01</value>
          <splits>
            <_><var>17</var>
              <quality>1.0777777671813965e+01</quality>
              <le>6.2580001540482044e-03</le></_></splits></_>
        <_>
          <depth>5</depth>
          <value>1.1111111111111110e-01</value></_>
        <_>
          <depth>5</depth>
          <value>6.6666666666666663e-01</value></_>
        <_>
          <depth>3</depth>
          <value>8.1250000000000000e-01</value>
          <splits>
            <_><var>14</var>
              <quality>1.1500000000000000e+01</quality>
              <le>1.0848499834537506e-02</le></_></splits></_>
        <_>
          <depth>4</depth>
          <value>5.0000000000000000e-01</value>
          <splits>
            <_><var>10</var>
              <quality>3.</quality>
              <le>2.0667999982833862e-02</le></_></splits></_>
        <_>
          <depth>5</depth>
          <value>1.</value></_>
        <_>
          <depth>5</depth>
          <value>0.</value></_>
        <_>
          <depth>4</depth>
          <value>1.</value></_>
        <_>
          <depth>2</depth>
          <value>4.6913580246913578e-01</value>
          <splits>
            <_><var>0</var>
              <quality>1.7125242614746094e+02</quality>
              <le>3.5165548324584961e-01</le></_></splits></_>
        <_>
          <depth>3</depth>
          <value>3.2797427652733119e-01</value>
          <splits>
            <_><var>3</var>
              <quality>3.7541187286376953e+01</quality>
              <le>1.2436749786138535e-01</le></_></splits></_>
        <_>
          <depth>4</depth>
          <value>4.1884816753926701e-01</value>
          <splits>
            <_><var>17</var>
              <quality>3.6446399688720703e+01</quality>
              <le>8.6460001766681671e-03</le></_></splits></_>
        <_>
          <depth>5</depth>
          <value>5.0793650793650791e-01</value></_>
        <_>
          <depth>5</depth>
          <value>2.4615384615384617e-01</value></_>
        <_>
          <depth>4</depth>
          <value>1.8333333333333332e-01</value>
          <splits>
            <_><var>10</var>
              <quality>6.7017545700073242e+00</quality>
              <le>4.1189499199390411e-02</le></_></splits></_>
        <_>
          <depth>5</depth>
          <value>1.4912280701754385e-01</value></_>
        <_>
          <depth>5</depth>
          <value>8.3333333333333337e-01</value></_>
        <_>
          <depth>3</depth>
          <value>5.7416267942583732e-01</value>
          <splits>
            <_><var>17</var>
              <quality>1.4225279235839844e+02</quality>
              <le>6.4995000138878822e-03</le></_></splits></_>
        <_>
          <depth>4</depth>
          <value>7.5238095238095237e-01</value>
          <splits>
            <_><var>6</var>
              <quality>6.1792079925537109e+01</quality>
              <le>8.5993498563766479e-02</le></_></splits></_>
        <_>
          <depth>5</depth>
          <value>7.8217821782178221e-01</value></_>
        <_>
          <depth>5</depth>
          <value>0.</value></_>
        <_>
          <depth>4</depth>
          <value>5.1437699680511184e-01</value>
          <splits>
            <_><var>16</var>
              <quality>8.5530189514160156e+01</quality>
              <le>7.6139997690916061e-03</le></_></splits></_>
        <_>
          <depth>5</depth>
          <value>6.9117647058823528e-01</value></_>
        <_>
          <depth>5</depth>
          <value>4.6530612244897956e-01</value></_></nodes></_>
    <_>
      <nodes>
        <_>
          <depth>0</depth>
          <value>5.0123456790123455e-01</value>
          <splits>
            <_><var>12</var>
              <quality>4.1311389160156250e+02</quality>
              <le>9.3540009111166000e-03</le></_></splits></_>
        <_>
          <depth>1</depth>
          <value>4.2251223491027734e-01</value>
          <splits>
            <_><var>5</var>
              <quality>1.1984577941894531e+02</quality>
              <le>3.0151000246405602e-02</le></_></splits></_>
        <_>
          <depth>2</depth>
          <value>5.8064516129032262e-01</value>
          <splits>
            <_><var>0</var>
              <quality>8.9187095642089844e+01</quality>
              <le>2.1892699599266052e-01</le></_></splits></_>
        <_>
          <depth>3</depth>
          <value>3.8709677419354838e-01</value>
          <splits>
            <_><var>5</var>
              <quality>1.6679012298583984e+01</quality>
              <le>1.2413000687956810e-02</le></_></splits></_>
        <_>
          <depth>4</depth>
          <value>8.3333333333333337e-01</value>
          <splits>
            <_><var>3</var>
              <quality>9.3333330154418945e+00</quality>
              <le>4.3261997401714325e-02</le></_></splits></_>
        <_>
          <depth>5</depth>
          <value>1.</value></_>
        <_>
          <depth>5</depth>
          <value>3.3333333333333331e-01</value></_>
        <_>
          <depth>4</depth>
          <value>3.2098765432098764e-01</value>
          <splits>
            <_><var>7</var>
              <quality>1.0548262596130371e+01</quality>
              <le>6.9514997303485870e-03</le></_></splits></_>
        <_>
          <depth>5</depth>
          <value>8.5714285714285710e-01</value></_>
        <_>
          <depth>5</depth>
          <value>2.7027027027027029e-01</value></_>
        <_>
          <depth>3</depth>
          <value>6.9677419354838710e-01</value>
          <splits>
            <_><var>1</var>
              <quality>8.2450935363769531e+01</quality>
              <le>1.9146400690078735e-01</le></_></splits></_>
        <_>
          <depth>4</depth>
          <value>8.4112149532710279e-01</value>
          <splits>
            <_><var>12</var>
              <quality>7.8705017089843750e+01</quality>
              <le>7.3110000230371952e-03</le></_></splits></_>
        <_>
          <depth>5</depth>
          <value>9.8387096774193550e-01</value></_>
        <_>
          <depth>5</depth>
          <value>6.4444444444444449e-01</value></_>
        <_>
          <depth>4</depth>
          <value>3.7500000000000000e-01</value>
          <splits>
            <_><var>11</var>
              <quality>8.3340663909912109e+00</quality>
              <le>5.3989998996257782e-03</le></_></splits></_>
        <_>
          <depth>5</depth>
          <value>7.6923076923076927e-02</value></_>
        <_>
          <depth>5</depth>
          <value>4.8571428571428571e-01</value></_>
        <_>
          <depth>2</depth>
          <value>3.1506849315068491e-01</value>
          <splits>
            <_><var>5</var>
              <quality>4.3571430206298828e+01</quality>
              <le>9.9625997245311737e-02</le></_></splits></_>
        <_>
          <depth>3</depth>
          <value>2.8571428571428570e-01</value>
          <splits>
            <_><var>3</var>
              <quality>3.5147594451904297e+01</quality>
              <le>5.4954499006271362e-02</le></_></splits></_>
        <_>
          <depth>4</depth>
          <value>5.9649122807017541e-01</value>
          <splits>
            <_><var>14</var>
              <quality>2.2666666030883789e+01</quality>
              <le>2.9730000533163548e-03</le></_></splits></_>
        <_>
          <depth>5</depth>
          <value>0.</value></_>
        <_>
          <depth>5</depth>
          <value>6.6666666666666663e-01</value></_>
        <_>
          <depth>4</depth>
          <value>2.2525597269624573e-01</value>
          <splits>
            <_><var>7</var>
              <quality>1.7305603027343750e+01</quality>
              <le>1.3351500034332275e-02</le></_></splits></_>
        <_>
          <depth>5</depth>
          <value>5.4545454545454541e-01</value></_>
        <_>
          <depth>5</depth>
          <value>1.9926199261992619e-01</value></_>
        <_>
          <depth>3</depth>
          <value>1.</value></_>
        <_>
          <depth>1</depth>
          <value>5.4915590863952335e-01</value>
          <splits>
            <_><var>2</var>
              <quality>3.0904885864257812e+02</quality>
              <le>1.6769999265670776e-01</le></_></splits></_>
        <_>
          <depth>2</depth>
          <value>6.0150375939849621e-01</value>
          <splits>
            <_><var>3</var>
              <quality>2.4767311096191406e+02</quality>
              <le>1.4228850603103638e-01</le></_></splits></_>
        <_>
          <depth>3</depth>
          <value>6.5233644859813089e-01</value>
          <splits>
            <_><var>16</var>
              <quality>2.2970674133300781e+02</quality>
              <le>5.6314999237656593e-03</le></_></splits></_>
        <_>
          <depth>4</depth>
          <value>5.6024096385542166e-01</value>
          <splits>
            <_><var>12</var>
              <quality>5.5881217956542969e+01</quality>
              <le>1.1710500344634056e-02</le></_></splits></_>
        <_>
          <depth>5</depth>
          <value>7.3913043478260865e-01</value></_>
        <_>
          <depth>5</depth>
          <value>4.3298969072164950e-01</value></_>
        <_>
          <depth>4</depth>
          <value>6.9376693766937669e-01</value>
          <splits>
            <_><var>16</var>
              <quality>1.7934609985351562e+02</quality>
              <le>6.6689997911453247e-03</le></_></splits></_>
        <_>
          <depth>5</depth>
          <value>8.4375000000000000e-01</value></_>
        <_>
          <depth>5</depth>
          <value>6.6229508196721310e-01</value></_>
        <_>
          <depth>3</depth>
          <value>3.9230769230769230e-01</value>
          <splits>
            <_><var>13</var>
              <quality>2.5266084671020508e+01</quality>
              <le>1.6593500971794128e-02</le></_></splits></_>
        <_>
          <depth>4</depth>
          <value>2.4096385542168675e-01</value>
          <splits>
            <_><var>16</var>
              <quality>9.0441923141479492e+00</quality>
              <le>1.3838499784469604e-02</le></_></splits></_>
        <_>
          <depth>5</depth>
          <value>1.5277777777777779e-01</value></_>
        <_>
          <depth>5</depth>
          <value>8.1818181818181823e-01</value></_>
        <_>
          <depth>4</depth>
          <value>6.5957446808510634e-01</value>
          <splits>
            <_><var>10</var>
              <quality>2.4045454025268555e+01</quality>
              <le>2.5447499006986618e-02</le></_></splits></_>
        <_>
          <depth>5</depth>
          <value>9.5454545454545459e-01</value></_>
        <_>
          <depth>5</depth>
          <value>4.0000000000000002e-01</value></_>
        <_>
          <depth>2</depth>
          <value>4.4736842105263158e-01</value>
          <splits>
            <_><var>17</var>
              <quality>7.2710525512695312e+01</quality>
              <le>4.3099997565150261e-03</le></_></splits></_>
        <_>
          <depth>3</depth>
          <value>1.3157894736842105e-01</value>
          <splits>
            <_><var>10</var>
              <quality>2.2727272510528564e+00</quality>
              <le>2.0049499347805977e-02</le></_></splits></_>
        <_>
          <depth>4</depth>
          <value>4.5454545454545453e-01</value>
          <splits>
            <_><var>11</var>
              <quality>4.1428570747375488e+00</quality>
              <le>1.5278500504791737e-02</le></_></splits></_>
        <_>
          <depth>5</depth>
          <value>1.4285714285714285e-01</value></_>
        <_>
          <depth>5</depth>
          <value>1.</value></_>
        <_>
          <depth>4</depth>
          <value>0.</value></_>
        <_>
          <depth>3</depth>
          <value>4.8684210526315791e-01</value>
          <splits>
            <_><var>9</var>
              <quality>7.5022094726562500e+01</quality>
              <le>5.3130999207496643e-02</le></_></splits></_>
        <_>
          <depth>4</depth>
          <value>5.2014652014652019e-01</value>
          <splits>
            <_><var>16</var>
              <quality>7.8376129150390625e+01</quality>
              <le>2.2642001509666443e-02</le></_></splits></_>
        <_>
          <depth>5</depth>
          <value>4.8207171314741037e-01</value></_>
        <_>
          <depth>5</depth>
          <value>9.5454545454545459e-01</value></_>
        <_>
          <depth>4</depth>
          <value>1.9354838709677419e-01</value>
          <splits>
            <_><var>0</var>
              <quality>2.5517241954803467e+00</quality>
              <le>1.2849364280700684e+00</le></_></splits></_>
        <_>
          <depth>5</depth>
          <value>1.3793103448275862e-01</value></_>
        <_>
          <depth>5</depth>
          <value>1.</value></_></nodes></_>
    <_>
      <nodes>
        <_>
          <depth>0</depth>
          <value>4.9259259259259258e-01</value>
          <splits>
            <_><var>2</var>
              <quality>4.0248181152343750e+02</quality>
              <le>6.6709503531455994e-02</le></_></splits></_>
        <_>
          <depth>1</depth>
          <value>3.0396475770925108e-01</value>
          <splits>
            <_><var>13</var>
              <quality>2.4499801635742188e+01</quality>
              <le>9.7950007766485214e-03</le></_></splits></_>
        <_>
          <depth>2</depth>
          <value>3.7951807228915663e-01</value>
          <splits>
            <_><var>16</var>
              <quality>2.7669776916503906e+01</quality>
              <le>7.6125003397464752e-03</le></_></splits></_>
        <_>
          <depth>3</depth>
          <value>3.0597014925373134e-01</value>
          <splits>
            <_><var>5</var>
              <quality>1.8235740661621094e+01</quality>
              <le>3.3375002443790436e-02</le></_></splits></_>
        <_>
          <depth>4</depth>
          <value>5.1515151515151514e-01</value>
          <splits>
            <_><var>0</var>
              <quality>2.0729999542236328e+01</quality>
              <le>1.6820201277732849e-01</le></_></splits></_>
        <_>
          <depth>5</depth>
          <value>1.2500000000000000e-01</value></_>
        <_>
          <depth>5</depth>
          <value>6.4000000000000001e-01</value></_>
        <_>
          <depth>4</depth>
          <value>1.0294117647058823e-01</value>
          <splits>
            <_><var>6</var>
              <quality>2.3787879943847656e+00</quality>
              <le>6.2405001372098923e-03</le></_></splits></_>
        <_>
          <depth>5</depth>
          <value>1.</value></_>
        <_>
          <depth>5</depth>
          <value>7.5757575757575760e-02</value></_>
        <_>
          <depth>3</depth>
          <value>6.8750000000000000e-01</value>
          <splits>
            <_><var>0</var>
              <quality>1.8500000000000000e+01</quality>
              <le>1.3948599994182587e-01</le></_></splits></_>
        <_>
          <depth>4</depth>
          <value>1.2500000000000000e-01</value>
          <splits>
            <_><var>13</var>
              <quality>3.3333334326744080e-01</quality>
              <le>6.1534997075796127e-03</le></_></splits></_>
        <_>
          <depth>5</depth>
          <value>3.3333333333333331e-01</value></_>
        <_>
          <depth>5</depth>
          <value>0.</value></_>
        <_>
          <depth>4</depth>
          <value>8.7500000000000000e-01</value>
          <splits>
            <_><var>0</var>
              <quality>1.9173913955688477e+01</quality>
              <le>5.7812798023223877e-01</le></_></splits></_>
        <_>
          <depth>5</depth>
          <value>9.1304347826086951e-01</value></_>
        <_>
          <depth>5</depth>
          <value>0.</value></_>
        <_>
          <depth>2</depth>
          <value>9.8360655737704916e-02</value>
          <splits>
            <_><var>4</var>
              <quality>2.4078948497772217e+00</quality>
              <le>7.6099500060081482e-02</le></_></splits></_>
        <_>
          <depth>3</depth>
          <value>5.2631578947368418e-02</value>
          <splits>
            <_><var>15</var>
              <quality>5.6250000000000000e-01</quality>
              <le>1.0712999850511551e-02</le></_></splits></_>
        <_>
          <depth>4</depth>
          <value>0.</value></_>
        <_>
          <depth>4</depth>
          <value>1.8750000000000000e-01</value>
          <splits>
            <_><var>0</var>
              <quality>1.4102563858032227e+00</quality>
              <le>3.1185698509216309e-01</le></_></splits></_>
        <_>
          <depth>5</depth>
          <value>7.6923076923076927e-02</value></_>
        <_>
          <depth>5</depth>
          <value>6.6666666666666663e-01</value></_>
        <_>
          <depth>3</depth>
          <value>7.5000000000000000e-01</value>
          <splits>
            <_><var>13</var>
              <quality>3.</quality>
              <le>2.6418998837471008e-02</le></_></splits></_>
        <_>
          <depth>4</depth>
          <value>1.</value></_>
        <_>
          <depth>4</depth>
          <value>0.</value></_>
        <_>
          <depth>1</depth>
          <value>5.2333094041636752e-01</value>
          <splits>
            <_><var>6</var>
              <quality>3.9001177978515625e+02</quality>
              <le>5.9736497700214386e-02</le></_></splits></_>
        <_>
          <depth>2</depth>
          <value>5.6660412757973733e-01</value>
          <splits>
            <_><var>3</var>
              <quality>3.5176583862304688e+02</quality>
              <le>1.1162799596786499e-01</le></_></splits></_>
        <_>
          <depth>3</depth>
          <value>6.2800000000000000e-01</value>
          <splits>
            <_><var>1</var>
              <quality>3.0630352783203125e+02</quality>
              <le>1.9232499599456787e-01</le></_></splits></_>
        <_>
          <depth>4</depth>
          <value>7.3381294964028776e-01</value>
          <splits>
            <_><var>4</var>
              <quality>2.3019201660156250e+02</quality>
              <le>3.4892499446868896e-02</le></_></splits></_>
        <_>
          <depth>5</depth>
          <value>4.5000000000000001e-01</value></_>
        <_>
          <depth>5</depth>
          <value>7.8151260504201681e-01</value></_>
        <_>
          <depth>4</depth>
          <value>4.9549549549549549e-01</value>
          <splits>
            <_><var>0</var>
              <quality>9.1183174133300781e+01</quality>
              <le>3.2237049937248230e-01</le></_></splits></_>
        <_>
          <depth>5</depth>
          <value>2.8787878787878790e-01</value></_>
        <_>
          <depth>5</depth>
          <value>6.3184079601990051e-01</value></_>
        <_>
          <depth>3</depth>
          <value>4.2088607594936711e-01</value>
          <splits>
            <_><var>0</var>
              <quality>6.6243110656738281e+01</quality>
              <le>4.5451498031616211e-01</le></_></splits></_>
        <_>
          <depth>4</depth>
          <value>2.7604166666666669e-01</value>
          <splits>
            <_><var>4</var>
              <quality>1.8667989730834961e+01</quality>
              <le>6.4602501690387726e-02</le></_></splits></_>
        <_>
          <depth>5</depth>
          <value>1.4814814814814814e-01</value></_>
        <_>
          <depth>5</depth>
          <value>4.4047619047619047e-01</value></_>
        <_>
          <depth>4</depth>
          <value>6.4516129032258063e-01</value>
          <splits>
            <_><var>1</var>
              <quality>5.4047119140625000e+01</quality>
              <le>3.4111699461936951e-01</le></_></splits></_>
        <_>
          <depth>5</depth>
          <value>7.0476190476190481e-01</value></_>
        <_>
          <depth>5</depth>
          <value>3.1578947368421051e-01</value></_>
        <_>
          <depth>2</depth>
          <value>3.8226299694189603e-01</value>
          <splits>
            <_><var>0</var>
              <quality>5.7940219879150391e+01</quality>
              <le>4.1768649220466614e-01</le></_></splits></_>
        <_>
          <depth>3</depth>
          <value>1.7857142857142858e-01</value>
          <splits>
            <_><var>7</var>
              <quality>9.3172178268432617e+00</quality>
              <le>1.2272499501705170e-02</le></_></splits></_>
        <_>
          <depth>4</depth>
          <value>8.8888888888888884e-01</value>
          <splits>
            <_><var>14</var>
              <quality>8.</quality>
              <le>1.4714499935507774e-02</le></_></splits></_>
        <_>
          <depth>5</depth>
          <value>1.</value></_>
        <_>
          <depth>5</depth>
          <value>0.</value></_>
        <_>
          <depth>4</depth>
          <value>1.2977099236641221e-01</value>
          <splits>
            <_><var>5</var>
              <quality>5.2546687126159668e+00</quality>
              <le>7.0092998445034027e-02</le></_></splits></_>
        <_>
          <depth>5</depth>
          <value>3.2258064516129031e-02</value></_>
        <_>
          <depth>5</depth>
          <value>3.6842105263157893e-01</value></_>
        <_>
          <depth>3</depth>
          <value>5.3475935828877008e-01</value>
          <splits>
            <_><var>19</var>
              <quality>5.5633434295654297e+01</quality>
              <le>8.3630001172423363e-03</le></_></splits></_>
        <_>
          <depth>4</depth>
          <value>6.5116279069767447e-01</value>
          <splits>
            <_><var>17</var>
              <quality>3.8907051086425781e+01</quality>
              <le>4.2954999953508377e-03</le></_></splits></_>
        <_>
          <depth>5</depth>
          <value>1.2500000000000000e-01</value></_>
        <_>
          <depth>5</depth>
          <value>7.0512820512820518e-01</value></_>
        <_>
          <depth>4</depth>
          <value>4.3564356435643564e-01</value>
          <splits>
            <_><var>5</var>
              <quality>2.0843750000000000e+01</quality>
              <le>2.0794299244880676e-01</le></_></splits></_>
        <_>
          <depth>5</depth>
          <value>4.0625000000000000e-01</value></_>
        <_>
          <depth>5</depth>
          <value>1.</value></_></nodes></_>
    <_>
      <nodes>
        <_>
          <depth>0</depth>
          <value>5.1851851851851849e-01</value>
          <splits>
            <_><var>1</var>
              <quality>4.6333432006835938e+02</quality>
              <le>1.8843050301074982e-01</le></_></splits></_>
        <_>
          <depth>1</depth>
          <value>6.9363166953528399e-01</value>
          <splits>
            <_><var>8</var>
              <quality>2.8536480712890625e+02</quality>
              <le>4.8839502036571503e-02</le></_></splits></_>
        <_>
          <depth>2</depth>
          <value>7.1531531531531534e-01</value>
          <splits>
            <_><var>18</var>
              <quality>2.8802081298828125e+02</quality>
              <le>6.7055001854896545e-03</le></_></splits></_>
        <_>
          <depth>3</depth>
          <value>7.6962025316455696e-01</value>
          <splits>
            <_><var>19</var>
              <quality>2.3786770629882812e+02</quality>
              <le>8.6254999041557312e-03</le></_></splits></_>
        <_>
          <depth>4</depth>
          <value>7.8795811518324610e-01</value>
          <splits>
            <_><var>0</var>
              <quality>2.4209217834472656e+02</quality>
              <le>1.4155100286006927e-01</le></_></splits></_>
        <_>
          <depth>5</depth>
          <value>2.7777777777777779e-01</value></_>
        <_>
          <depth>5</depth>
          <value>8.1318681318681318e-01</value></_>
        <_>
          <depth>4</depth>
          <value>2.3076923076923078e-01</value>
          <splits>
            <_><var>14</var>
              <quality>3.</quality>
              <le>1.3127000071108341e-02</le></_></splits></_>
        <_>
          <depth>5</depth>
          <value>0.</value></_>
        <_>
          <depth>5</depth>
          <value>1.</value></_>
        <_>
          <depth>3</depth>
          <value>5.8125000000000004e-01</value>
          <splits>
            <_><var>0</var>
              <quality>6.1328716278076172e+01</quality>
              <le>3.4901398420333862e-01</le></_></splits></_>
        <_>
          <depth>4</depth>
          <value>3.9560439560439559e-01</value>
          <splits>
            <_><var>14</var>
              <quality>1.7029697418212891e+01</quality>
              <le>5.8629997074604034e-03</le></_></splits></_>
        <_>
          <depth>5</depth>
          <value>6.8000000000000005e-01</value></_>
        <_>
          <depth>5</depth>
          <value>2.8787878787878790e-01</value></_>
        <_>
          <depth>4</depth>
          <value>8.2608695652173914e-01</value>
          <splits>
            <_><var>14</var>
              <quality>4.8317974090576172e+01</quality>
              <le>7.3939999565482140e-03</le></_></splits></_>
        <_>
          <depth>5</depth>
          <value>4.2857142857142855e-01</value></_>
        <_>
          <depth>5</depth>
          <value>8.7096774193548387e-01</value></_>
        <_>
          <depth>2</depth>
          <value>2.3076923076923078e-01</value>
          <splits>
            <_><var>17</var>
              <quality>4.1818180084228516e+00</quality>
              <le>1.6015499830245972e-02</le></_></splits></_>
        <_>
          <depth>3</depth>
          <value>9.0909090909090912e-02</value>
          <splits>
            <_><var>1</var>
              <quality>1.0476191043853760e+00</quality>
              <le>1.3646049797534943e-01</le></_></splits></_>
        <_>
          <depth>4</depth>
          <value>1.</value></_>
        <_>
          <depth>4</depth>
          <value>4.7619047619047616e-02</value>
          <splits>
            <_><var>7</var>
              <quality>3.3333334326744080e-01</quality>
              <le>6.6849999129772186e-02</le></_></splits></_>
        <_>
          <depth>5</depth>
          <value>0.</value></_>
        <_>
          <depth>5</depth>
          <value>3.3333333333333331e-01</value></_>
        <_>
          <depth>3</depth>
          <value>1.</value></_>
        <_>
          <depth>1</depth>
          <value>4.2059672762271416e-01</value>
          <splits>
            <_><var>12</var>
              <quality>1.9260202026367188e+02</quality>
              <le>1.1623499915003777e-02</le></_></splits></_>
        <_>
          <depth>2</depth>
          <value>3.1278538812785389e-01</value>
          <splits>
            <_><var>1</var>
              <quality>5.1311592102050781e+01</quality>
              <le>2.3127949237823486e-01</le></_></splits></_>
        <_>
          <depth>3</depth>
          <value>5.1034482758620692e-01</value>
          <splits>
            <_><var>13</var>
              <quality>4.1353382110595703e+01</quality>
              <le>1.3530999422073364e-02</le></_></splits></_>
        <_>
          <depth>4</depth>
          <value>5.7142857142857140e-01</value>
          <splits>
            <_><var>12</var>
              <quality>4.6161289215087891e+01</quality>
              <le>7.2869998402893543e-03</le></_></splits></_>
        <_>
          <depth>5</depth>
          <value>3.7500000000000000e-01</value></_>
        <_>
          <depth>5</depth>
          <value>7.7419354838709675e-01</value></_>
        <_>
          <depth>4</depth>
          <value>1.0526315789473684e-01</value>
          <splits>
            <_><var>9</var>
              <quality>1.0555555820465088e+00</quality>
              <le>1.4671999961137772e-02</le></_></splits></_>
        <_>
          <depth>5</depth>
          <value>1.</value></_>
        <_>
          <depth>5</depth>
          <value>5.5555555555555552e-02</value></_>
        <_>
          <depth>3</depth>
          <value>2.1501706484641639e-01</value>
          <splits>
            <_><var>17</var>
              <quality>1.9706110000610352e+01</quality>
              <le>1.1907000094652176e-02</le></_></splits></_>
        <_>
          <depth>4</depth>
          <value>1.8505338078291814e-01</value>
          <splits>
            <_><var>13</var>
              <quality>1.4083650588989258e+01</quality>
              <le>1.6514498740434647e-02</le></_></splits></_>
        <_>
          <depth>5</depth>
          <value>1.5209125475285171e-01</value></_>
        <_>
          <depth>5</depth>
          <value>6.6666666666666663e-01</value></_>
        <_>
          <depth>4</depth>
          <value>9.1666666666666663e-01</value>
          <splits>
            <_><var>12</var>
              <quality>1.0500000000000000e+01</quality>
              <le>4.5920000411570072e-03</le></_></splits></_>
        <_>
          <depth>5</depth>
          <value>5.0000000000000000e-01</value></_>
        <_>
          <depth>5</depth>
          <value>1.</value></_>
        <_>
          <depth>2</depth>
          <value>4.9916805324459235e-01</value>
          <splits>
            <_><var>12</var>
              <quality>1.5237960815429688e+02</quality>
              <le>3.0094999819993973e-02</le></_></splits></_>
        <_>
          <depth>3</depth>
          <value>4.7438330170777987e-01</value>
          <splits>
            <_><var>19</var>
              <quality>1.2097634124755859e+02</quality>
              <le>3.8744998164474964e-03</le></_></splits></_>
        <_>
          <depth>4</depth>
          <value>2.9032258064516131e-01</value>
          <splits>
            <_><var>3</var>
              <quality>7.6722688674926758e+00</quality>
              <le>1.2347149848937988e-01</le></_></splits></_>
        <_>
          <depth>5</depth>
          <value>4.7058823529411764e-01</value></_>
        <_>
          <depth>5</depth>
          <value>7.1428571428571425e-02</value></_>
        <_>
          <depth>4</depth>
          <value>4.9892473118279568e-01</value>
          <splits>
            <_><var>18</var>
              <quality>1.1880696105957031e+02</quality>
              <le>5.2704997360706329e-03</le></_></splits></_>
        <_>
          <depth>5</depth>
          <value>6.4285714285714290e-01</value></_>
        <_>
          <depth>5</depth>
          <value>4.5325779036827196e-01</value></_>
        <_>
          <depth>3</depth>
          <value>6.7567567567567566e-01</value>
          <splits>
            <_><var>18</var>
              <quality>3.6462116241455078e+01</quality>
              <le>1.4467000029981136e-02</le></_></splits></_>
        <_>
          <depth>4</depth>
          <value>8.3720930232558144e-01</value>
          <splits>
            <_><var>13</var>
              <quality>3.0958333969116211e+01</quality>
              <le>3.2784499228000641e-02</le></_></splits></_>
        <_>
          <depth>5</depth>
          <value>8.7500000000000000e-01</value></_>
        <_>
          <depth>5</depth>
          <value>3.3333333333333331e-01</value></_>
        <_>
          <depth>4</depth>
          <value>4.5161290322580644e-01</value>
          <splits>
            <_><var>10</var>
              <quality>8.0840339660644531e+00</quality>
              <le>3.2361000776290894e-02</le></_></splits></_>
        <_>
          <depth>5</depth>
          <value>7.1428571428571430e-01</value></_>
        <_>
          <depth>5</depth>
          <value>2.3529411764705882e-01</value></_></nodes></_>
    <_>
      <nodes>
        <_>
          <depth>0</depth>
          <value>5.0617283950617287e-01</value>
          <splits>
            <_><var>1</var>
              <quality>4.4393328857421875e+02</quality>
              <le>1.9311599433422089e-01</le></_></splits></_>
        <_>
          <depth>1</depth>
          <value>6.7244094488188977e-01</value>
          <splits>
            <_><var>0</var>
              <quality>2.9378247070312500e+02</quality>
              <le>2.3393750190734863e-01</le></_></splits></_>
        <_>
          <depth>2</depth>
          <value>5.1098901098901095e-01</value>
          <splits>
            <_><var>12</var>
              <quality>5.2406604766845703e+01</quality>
              <le>7.3575000278651714e-03</le></_></splits></_>
        <_>
          <depth>3</depth>
          <value>7.0666666666666667e-01</value>
          <splits>
            <_><var>3</var>
              <quality>3.9013889312744141e+01</quality>
              <le>1.8093500286340714e-02</le></_></splits></_>
        <_>
          <depth>4</depth>
          <value>0.</value></_>
        <_>
          <depth>4</depth>
          <value>7.3611111111111116e-01</value>
          <splits>
            <_><var>5</var>
              <quality>4.2131248474121094e+01</quality>
              <le>2.4228500202298164e-02</le></_></splits></_>
        <_>
          <depth>5</depth>
          <value>9.6875000000000000e-01</value></_>
        <_>
          <depth>5</depth>
          <value>5.5000000000000004e-01</value></_>
        <_>
          <depth>3</depth>
          <value>3.7383177570093457e-01</value>
          <splits>
            <_><var>14</var>
              <quality>1.7998361587524414e+01</quality>
              <le>1.1748999357223511e-02</le></_></splits></_>
        <_>
          <depth>4</depth>
          <value>4.8648648648648651e-01</value>
          <splits>
            <_><var>4</var>
              <quality>2.0594827651977539e+01</quality>
              <le>3.3715501427650452e-02</le></_></splits></_>
        <_>
          <depth>5</depth>
          <value>8.7500000000000000e-01</value></_>
        <_>
          <depth>5</depth>
          <value>3.7931034482758619e-01</value></_>
        <_>
          <depth>4</depth>
          <value>1.2121212121212122e-01</value>
          <splits>
            <_><var>4</var>
              <quality>2.</quality>
              <le>1.0421900451183319e-01</le></_></splits></_>
        <_>
          <depth>5</depth>
          <value>0.</value></_>
        <_>
          <depth>5</depth>
          <value>5.0000000000000000e-01</value></_>
        <_>
          <depth>2</depth>
          <value>7.3730684326710816e-01</value>
          <splits>
            <_><var>3</var>
              <quality>2.5181948852539062e+02</quality>
              <le>7.3009997606277466e-02</le></_></splits></_>
        <_>
          <depth>3</depth>
          <value>8.4166666666666667e-01</value>
          <splits>
            <_><var>2</var>
              <quality>1.7216877746582031e+02</quality>
              <le>2.8070500493049622e-01</le></_></splits></_>
        <_>
          <depth>4</depth>
          <value>8.5232067510548526e-01</value>
          <splits>
            <_><var>2</var>
              <quality>1.7336228942871094e+02</quality>
              <le>9.8038002848625183e-02</le></_></splits></_>
        <_>
          <depth>5</depth>
          <value>9.2792792792792789e-01</value></_>
        <_>
          <depth>5</depth>
          <value>7.8571428571428570e-01</value></_>
        <_>
          <depth>4</depth>
          <value>0.</value></_>
        <_>
          <depth>3</depth>
          <value>6.1971830985915488e-01</value>
          <splits>
            <_><var>0</var>
              <quality>8.5989418029785156e+01</quality>
              <le>3.7554699182510376e-01</le></_></splits></_>
        <_>
          <depth>4</depth>
          <value>4.8148148148148145e-01</value>
          <splits>
            <_><var>11</var>
              <quality>2.7677619934082031e+01</quality>
              <le>1.3537999242544174e-02</le></_></splits></_>
        <_>
          <depth>5</depth>
          <value>6.5306122448979587e-01</value></_>
        <_>
          <depth>5</depth>
          <value>3.3898305084745761e-01</value></_>
        <_>
          <depth>4</depth>
          <value>7.6190476190476186e-01</value>
          <splits>
            <_><var>4</var>
              <quality>6.2745098114013672e+01</quality>
              <le>2.0946300029754639e-01</le></_></splits></_>
        <_>
          <depth>5</depth>
          <value>7.8431372549019607e-01</value></_>
        <_>
          <depth>5</depth>
          <value>0.</value></_>
        <_>
          <depth>1</depth>
          <value>3.9898477157360407e-01</value>
          <splits>
            <_><var>10</var>
              <quality>1.6434361267089844e+02</quality>
              <le>1.7954500392079353e-02</le></_></splits></_>
        <_>
          <depth>2</depth>
          <value>3.1262525050100198e-01</value>
          <splits>
            <_><var>9</var>
              <quality>5.3842426300048828e+01</quality>
              <le>1.7289500683546066e-02</le></_></splits></_>
        <_>
          <depth>3</depth>
          <value>2.1199999999999999e-01</value>
          <splits>
            <_><var>1</var>
              <quality>1.5173375129699707e+01</quality>
              <le>2.7119749784469604e-01</le></_></splits></_>
        <_>
          <depth>4</depth>
          <value>2.9651162790697677e-01</value>
          <splits>
            <_><var>4</var>
              <quality>1.9033193588256836e+01</quality>
              <le>7.7461004257202148e-02</le></_></splits></_>
        <_>
          <depth>5</depth>
          <value>2.3287671232876711e-01</value></_>
        <_>
          <depth>5</depth>
          <value>6.5384615384615385e-01</value></_>
        <_>
          <depth>4</depth>
          <value>2.5641025641025640e-02</value>
          <splits>
            <_><var>7</var>
              <quality>3.6363637447357178e-01</quality>
              <le>1.7268000170588493e-02</le></_></splits></_>
        <_>
          <depth>5</depth>
          <value>1.8181818181818182e-01</value></_>
        <_>
          <depth>5</depth>
          <value>0.</value></_>
        <_>
          <depth>3</depth>
          <value>4.1365461847389556e-01</value>
          <splits>
            <_><var>9</var>
              <quality>4.5082645416259766e+01</quality>
              <le>1.7565499991178513e-02</le></_></splits></_>
        <_>
          <depth>4</depth>
          <value>1.</value></_>
        <_>
          <depth>4</depth>
          <value>3.9669421487603307e-01</value>
          <splits>
            <_><var>6</var>
              <quality>4.1394535064697266e+01</quality>
              <le>2.6301000267267227e-02</le></_></splits></_>
        <_>
          <depth>5</depth>
          <value>1.7307692307692307e-01</value></_>
        <_>
          <depth>5</depth>
          <value>4.5789473684210524e-01</value></_>
        <_>
          <depth>2</depth>
          <value>4.8765432098765432e-01</value>
          <splits>
            <_><var>6</var>
              <quality>1.2055380249023438e+02</quality>
              <le>7.5019493699073792e-02</le></_></splits></_>
        <_>
          <depth>3</depth>
          <value>5.3689567430025442e-01</value>
          <splits>
            <_><var>0</var>
              <quality>1.2349069976806641e+02</quality>
              <le>3.2356950640678406e-01</le></_></splits></_>
        <_>
          <depth>4</depth>
          <value>2.6470588235294118e-01</value>
          <splits>
            <_><var>17</var>
              <quality>9.0554485321044922e+00</quality>
              <le>7.6480000279843807e-03</le></_></splits></_>
        <_>
          <depth>5</depth>
          <value>3.9622641509433965e-01</value></_>
        <_>
          <depth>5</depth>
          <value>1.2244897959183673e-01</value></_>
        <_>
          <depth>4</depth>
          <value>6.3230240549828176e-01</value>
          <splits>
            <_><var>2</var>
              <quality>1.2326879119873047e+02</quality>
              <le>2.0863950252532959e-01</le></_></splits></_>
        <_>
          <depth>5</depth>
          <value>7.1748878923766812e-01</value></_>
        <_>
          <depth>5</depth>
          <value>3.5294117647058826e-01</value></_>
        <_>
          <depth>3</depth>
          <value>2.7956989247311825e-01</value>
          <splits>
            <_><var>4</var>
              <quality>8.5401229858398438e+00</quality>
              <le>1.5760698914527893e-01</le></_></splits></_>
        <_>
          <depth>4</depth>
          <value>2.3456790123456789e-01</value>
          <splits>
            <_><var>2</var>
              <quality>6.5198941230773926e+00</quality>
              <le>1.7448699474334717e-01</le></_></splits></_>
        <_>
          <depth>5</depth>
          <value>4.4827586206896552e-01</value></_>
        <_>
          <depth>5</depth>
          <value>1.1538461538461539e-01</value></_>
        <_>
          <depth>4</depth>
          <value>5.8333333333333337e-01</value>
          <splits>
            <_><var>15</var>
              <quality>5.4444446563720703e+00</quality>
              <le>2.6124998927116394e-02</le></_></splits></_>
        <_>
          <depth>5</depth>
          <value>7.7777777777777779e-01</value></_>
        <_>
          <depth>5</depth>
          <value>0.</value></_></nodes></_>
    <_>
      <nodes>
        <_>
          <depth>0</depth>
          <value>5.1481481481481484e-01</value>
          <splits>
            <_><var>15</var>
              <quality>4.3172421264648438e+02</quality>
              <le>1.5775000210851431e-03</le></_></splits></_>
        <_>
          <depth>1</depth>
          <value>1.</value></_>
        <_>
          <depth>1</depth>
          <value>5.1180124223602486e-01</value>
          <splits>
            <_><var>5</var>
              <quality>4.2850982666015625e+02</quality>
              <le>3.0171999707818031e-02</le></_></splits></_>
        <_>
          <depth>2</depth>
          <value>6.3002680965147451e-01</value>
          <splits>
            <_><var>17</var>
              <quality>1.5375381469726562e+02</quality>
              <le>1.0327499359846115e-02</le></_></splits></_>
        <_>
          <depth>3</depth>
          <value>6.6096866096866091e-01</value>
          <splits>
            <_><var>15</var>
              <quality>1.5703503417968750e+02</quality>
              <le>1.4293500222265720e-02</le></_></splits></_>
        <_>
          <depth>4</depth>
          <value>6.7941176470588238e-01</value>
          <splits>
            <_><var>6</var>
              <quality>1.5961743164062500e+02</quality>
              <le>9.9844997748732567e-03</le></_></splits></_>
        <_>
          <depth>5</depth>
          <value>2.6666666666666666e-01</value></_>
        <_>
          <depth>5</depth>
          <value>6.9846153846153847e-01</value></_>
        <_>
          <depth>4</depth>
          <value>9.0909090909090912e-02</value>
          <splits>
            <_><var>18</var>
              <quality>1.</quality>
              <le>9.9964998662471771e-03</le></_></splits></_>
        <_>
          <depth>5</depth>
          <value>0.</value></_>
        <_>
          <depth>5</depth>
          <value>1.</value></_>
        <_>
          <depth>3</depth>
          <value>1.3636363636363635e-01</value>
          <splits>
            <_><var>11</var>
              <quality>1.7999999523162842e+00</quality>
              <le>2.1655999124050140e-02</le></_></splits></_>
        <_>
          <depth>4</depth>
          <value>0.</value></_>
        <_>
          <depth>4</depth>
          <value>5.9999999999999998e-01</value>
          <splits>
            <_><var>14</var>
              <quality>3.</quality>
              <le>8.5404999554157257e-03</le></_></splits></_>
        <_>
          <depth>5</depth>
          <value>0.</value></_>
        <_>
          <depth>5</depth>
          <value>1.</value></_>
        <_>
          <depth>2</depth>
          <value>4.7615198059822150e-01</value>
          <splits>
            <_><var>0</var>
              <quality>2.9835137939453125e+02</quality>
              <le>2.8354400396347046e-01</le></_></splits></_>
        <_>
          <depth>3</depth>
          <value>2.9687500000000000e-01</value>
          <splits>
            <_><var>1</var>
              <quality>4.3920742034912109e+01</quality>
              <le>1.9547000527381897e-01</le></_></splits></_>
        <_>
          <depth>4</depth>
          <value>5.4310344827586210e-01</value>
          <splits>
            <_><var>13</var>
              <quality>3.6752380371093750e+01</quality>
              <le>1.5542999841272831e-02</le></_></splits></_>
        <_>
          <depth>5</depth>
          <value>4.9523809523809526e-01</value></_>
        <_>
          <depth>5</depth>
          <value>1.</value></_>
        <_>
          <depth>4</depth>
          <value>1.9029850746268656e-01</value>
          <splits>
            <_><var>12</var>
              <quality>1.2625641822814941e+01</quality>
              <le>9.1105001047253609e-03</le></_></splits></_>
        <_>
          <depth>5</depth>
          <value>6.4220183486238536e-02</value></_>
        <_>
          <depth>5</depth>
          <value>2.7672955974842767e-01</value></_>
        <_>
          <depth>3</depth>
          <value>5.5685814771395081e-01</value>
          <splits>
            <_><var>3</var>
              <quality>2.7307077026367188e+02</quality>
              <le>5.2497997879981995e-02</le></_></splits></_>
        <_>
          <depth>4</depth>
          <value>8.5227272727272729e-01</value>
          <splits>
            <_><var>13</var>
              <quality>6.6361549377441406e+01</quality>
              <le>2.0725999027490616e-02</le></_></splits></_>
        <_>
          <depth>5</depth>
          <value>9.0123456790123457e-01</value></_>
        <_>
          <depth>5</depth>
          <value>2.8571428571428570e-01</value></_>
        <_>
          <depth>4</depth>
          <value>5.2287581699346408e-01</value>
          <splits>
            <_><var>10</var>
              <quality>2.1488781738281250e+02</quality>
              <le>6.1369999311864376e-03</le></_></splits></_>
        <_>
          <depth>5</depth>
          <value>4.1666666666666664e-02</value></_>
        <_>
          <depth>5</depth>
          <value>5.3846153846153844e-01</value></_></nodes></_>
    <_>
      <nodes>
        <_>
          <depth>0</depth>
          <value>5.0123456790123455e-01</value>
          <splits>
            <_><var>13</var>
              <quality>4.1004150390625000e+02</quality>
              <le>6.2454999424517155e-03</le></_></splits></_>
        <_>
          <depth>1</depth>
          <value>5.8769230769230774e-01</value>
          <splits>
            <_><var>13</var>
              <quality>1.1647632598876953e+02</quality>
              <le>5.5599999614059925e-03</le></_></splits></_>
        <_>
          <depth>2</depth>
          <value>5.3231939163498099e-01</value>
          <splits>
            <_><var>5</var>
              <quality>8.3621788024902344e+01</quality>
              <le>3.3613000065088272e-02</le></_></splits></_>
        <_>
          <depth>3</depth>
          <value>7.0138888888888884e-01</value>
          <splits>
            <_><var>0</var>
              <quality>7.8469230651855469e+01</quality>
              <le>1.2768000364303589e-01</le></_></splits></_>
        <_>
          <depth>4</depth>
          <value>0.</value></_>
        <_>
          <depth>4</depth>
          <value>7.7692307692307694e-01</value>
          <splits>
            <_><var>1</var>
              <quality>8.6434310913085938e+01</quality>
              <le>1.9124248623847961e-01</le></_></splits></_>
        <_>
          <depth>5</depth>
          <value>9.1836734693877553e-01</value></_>
        <_>
          <depth>5</depth>
          <value>3.4375000000000000e-01</value></_>
        <_>
          <depth>3</depth>
          <value>3.2773109243697479e-01</value>
          <splits>
            <_><var>1</var>
              <quality>1.7357143402099609e+01</quality>
              <le>2.2878299653530121e-01</le></_></splits></_>
        <_>
          <depth>4</depth>
          <value>5.3571428571428570e-01</value>
          <splits>
            <_><var>16</var>
              <quality>1.9196969985961914e+01</quality>
              <le>9.2099998146295547e-03</le></_></splits></_>
        <_>
          <depth>5</depth>
          <value>6.5909090909090906e-01</value></_>
        <_>
          <depth>5</depth>
          <value>8.3333333333333329e-02</value></_>
        <_>
          <depth>4</depth>
          <value>1.4285714285714285e-01</value>
          <splits>
            <_><var>8</var>
              <quality>4.4473686218261719e+00</quality>
              <le>3.6981001496315002e-02</le></_></splits></_>
        <_>
          <depth>5</depth>
          <value>7.0175438596491224e-02</value></_>
        <_>
          <depth>5</depth>
          <value>8.3333333333333337e-01</value></_>
        <_>
          <depth>2</depth>
          <value>8.2258064516129037e-01</value>
          <splits>
            <_><var>9</var>
              <quality>4.3114284515380859e+01</quality>
              <le>1.5917999669909477e-02</le></_></splits></_>
        <_>
          <depth>3</depth>
          <value>9.4285714285714284e-01</value>
          <splits>
            <_><var>8</var>
              <quality>3.2029411315917969e+01</quality>
              <le>3.5207502543926239e-02</le></_></splits></_>
        <_>
          <depth>4</depth>
          <value>9.7058823529411764e-01</value>
          <splits>
            <_><var>7</var>
              <quality>3.2250000000000000e+01</quality>
              <le>2.6301499456167221e-02</le></_></splits></_>
        <_>
          <depth>5</depth>
          <value>1.</value></_>
        <_>
          <depth>5</depth>
          <value>7.5000000000000000e-01</value></_>
        <_>
          <depth>4</depth>
          <value>0.</value></_>
        <_>
          <depth>3</depth>
          <value>6.6666666666666663e-01</value>
          <splits>
            <_><var>13</var>
              <quality>1.3704545021057129e+01</quality>
              <le>5.7645002380013466e-03</le></_></splits></_>
        <_>
          <depth>4</depth>
          <value>3.6363636363636365e-01</value>
          <splits>
            <_><var>0</var>
              <quality>3.2000000476837158e+00</quality>
              <le>3.3785599470138550e-01</le></_></splits></_>
        <_>
          <depth>5</depth>
          <value>0.</value></_>
        <_>
          <depth>5</depth>
          <value>8.0000000000000004e-01</value></_>
        <_>
          <depth>4</depth>
          <value>8.7500000000000000e-01</value>
          <splits>
            <_><var>4</var>
              <quality>1.3066666603088379e+01</quality>
              <le>1.0245150327682495e-01</le></_></splits></_>
        <_>
          <depth>5</depth>
          <value>9.3333333333333335e-01</value></_>
        <_>
          <depth>5</depth>
          <value>0.</value></_>
        <_>
          <depth>1</depth>
          <value>4.7953667953667956e-01</value>
          <splits>
            <_><var>2</var>
              <quality>3.0291250610351562e+02</quality>
              <le>4.7579497098922729e-02</le></_></splits></_>
        <_>
          <depth>2</depth>
          <value>1.9672131147540983e-01</value>
          <splits>
            <_><var>13</var>
              <quality>5.0686936378479004e+00</quality>
              <le>9.0520000085234642e-03</le></_></splits></_>
        <_>
          <depth>3</depth>
          <value>4.5833333333333331e-01</value>
          <splits>
            <_><var>13</var>
              <quality>6.4499998092651367e+00</quality>
              <le>8.5955001413822174e-03</le></_></splits></_>
        <_>
          <depth>4</depth>
          <value>3.4999999999999998e-01</value>
          <splits>
            <_><var>16</var>
              <quality>3.7999999523162842e+00</quality>
              <le>8.9800003916025162e-03</le></_></splits></_>
        <_>
          <depth>5</depth>
          <value>2.0000000000000001e-01</value></_>
        <_>
          <depth>5</depth>
          <value>8.0000000000000004e-01</value></_>
        <_>
          <depth>4</depth>
          <value>1.</value></_>
        <_>
          <depth>3</depth>
          <value>2.7027027027027029e-02</value>
          <splits>
            <_><var>14</var>
              <quality>1.</quality>
              <le>1.9617501646280289e-02</le></_></splits></_>
        <_>
          <depth>4</depth>
          <value>0.</value></_>
        <_>
          <depth>4</depth>
          <value>1.</value></_>
        <_>
          <depth>2</depth>
          <value>4.9351701782820095e-01</value>
          <splits>
            <_><var>0</var>
              <quality>3.2404885864257812e+02</quality>
              <le>3.3949950337409973e-01</le></_></splits></_>
        <_>
          <depth>3</depth>
          <value>3.4336283185840710e-01</value>
          <splits>
            <_><var>3</var>
              <quality>7.6923629760742188e+01</quality>
              <le>1.3080400228500366e-01</le></_></splits></_>
        <_>
          <depth>4</depth>
          <value>4.1647597254004576e-01</value>
          <splits>
            <_><var>6</var>
              <quality>8.4010597229003906e+01</quality>
              <le>5.4902501404285431e-02</le></_></splits></_>
        <_>
          <depth>5</depth>
          <value>4.8433048433048431e-01</value></_>
        <_>
          <depth>5</depth>
          <value>1.3953488372093023e-01</value></_>
        <_>
          <depth>4</depth>
          <value>9.3750000000000000e-02</value>
          <splits>
            <_><var>12</var>
              <quality>2.1666667461395264e+00</quality>
              <le>2.0518001168966293e-02</le></_></splits></_>
        <_>
          <depth>5</depth>
          <value>4.1666666666666664e-02</value></_>
        <_>
          <depth>5</depth>
          <value>2.5000000000000000e-01</value></_>
        <_>
          <depth>3</depth>
          <value>6.2032884902840058e-01</value>
          <splits>
            <_><var>13</var>
              <quality>2.6306265258789062e+02</quality>
              <le>2.1054500713944435e-02</le></_></splits></_>
        <_>
          <depth>4</depth>
          <value>6.6793168880455411e-01</value>
          <splits>
            <_><var>5</var>
              <quality>2.3744239807128906e+02</quality>
              <le>3.5540997982025146e-02</le></_></splits></_>
        <_>
          <depth>5</depth>
          <value>7.9310344827586210e-01</value></_>
        <_>
          <depth>5</depth>
          <value>6.3260340632603407e-01</value></_>
        <_>
          <depth>4</depth>
          <value>4.4366197183098594e-01</value>
          <splits>
            <_><var>17</var>
              <quality>2.9384536743164062e+01</quality>
              <le>1.2923000380396843e-02</le></_></splits></_>
        <_>
          <depth>5</depth>
          <value>5.3086419753086422e-01</value></_>
        <_>
          <depth>5</depth>
          <value>3.2786885245901637e-01</value></_></nodes></_>
    <_>
      <nodes>
        <_>
          <depth>0</depth>
          <value>4.9506172839506174e-01</value>
          <splits>
            <_><var>1</var>
              <quality>4.2440728759765625e+02</quality>
              <le>1.7561100423336029e-01</le></_></splits></_>
        <_>
          <depth>1</depth>
          <value>7.0240700218818386e-01</value>
          <splits>
            <_><var>12</var>
              <quality>2.2885949707031250e+02</quality>
              <le>2.4100000038743019e-02</le></_></splits></_>
        <_>
          <depth>2</depth>
          <value>7.2082379862700230e-01</value>
          <splits>
            <_><var>2</var>
              <quality>2.3183410644531250e+02</quality>
              <le>2.5499600172042847e-01</le></_></splits></_>
        <_>
          <depth>3</depth>
          <value>7.3598130841121501e-01</value>
          <splits>
            <_><var>0</var>
              <quality>2.3984703063964844e+02</quality>
              <le>2.4221751093864441e-01</le></_></splits></_>
        <_>
          <depth>4</depth>
          <value>5.4482758620689653e-01</value>
          <splits>
            <_><var>14</var>
              <quality>4.6576133728027344e+01</quality>
              <le>6.2370002269744873e-03</le></_></splits></_>
        <_>
          <depth>5</depth>
          <value>7.0422535211267601e-01</value></_>
        <_>
          <depth>5</depth>
          <value>3.9189189189189189e-01</value></_>
        <_>
          <depth>4</depth>
          <value>8.3392226148409898e-01</value>
          <splits>
            <_><var>16</var>
              <quality>2.0082868957519531e+02</quality>
              <le>1.0887499898672104e-02</le></_></splits></_>
        <_>
          <depth>5</depth>
          <value>8.7649402390438247e-01</value></_>
        <_>
          <depth>5</depth>
          <value>5.0000000000000000e-01</value></_>
        <_>
          <depth>3</depth>
          <value>0.</value></_>
        <_>
          <depth>2</depth>
          <value>2.9999999999999999e-01</value>
          <splits>
            <_><var>0</var>
              <quality>4.2500000000000000e+00</quality>
              <le>5.3404247760772705e-01</le></_></splits></_>
        <_>
          <depth>3</depth>
          <value>1.2500000000000000e-01</value>
          <splits>
            <_><var>4</var>
              <quality>6.6666668653488159e-01</quality>
              <le>9.3286499381065369e-02</le></_></splits></_>
        <_>
          <depth>4</depth>
          <value>0.</value></_>
        <_>
          <depth>4</depth>
          <value>3.3333333333333331e-01</value>
          <splits>
            <_><var>4</var>
              <quality>2.</quality>
              <le>1.2053799629211426e-01</le></_></splits></_>
        <_>
          <depth>5</depth>
          <value>1.</value></_>
        <_>
          <depth>5</depth>
          <value>0.</value></_>
        <_>
          <depth>3</depth>
          <value>1.</value></_>
        <_>
          <depth>1</depth>
          <value>4.1358555460017199e-01</value>
          <splits>
            <_><var>15</var>
              <quality>2.1118618774414062e+02</quality>
              <le>9.2584993690252304e-03</le></_></splits></_>
        <_>
          <depth>2</depth>
          <value>3.1313131313131315e-01</value>
          <splits>
            <_><var>4</var>
              <quality>6.5868309020996094e+01</quality>
              <le>5.0382003188133240e-02</le></_></splits></_>
        <_>
          <depth>3</depth>
          <value>1.7695473251028807e-01</value>
          <splits>
            <_><var>0</var>
              <quality>9.6054840087890625e+00</quality>
              <le>2.3638899624347687e-01</le></_></splits></_>
        <_>
          <depth>4</depth>
          <value>7.4766355140186910e-02</value>
          <splits>
            <_><var>12</var>
              <quality>1.3775252103805542e+00</quality>
              <le>1.3077000156044960e-02</le></_></splits></_>
        <_>
          <depth>5</depth>
          <value>5.0505050505050504e-02</value></_>
        <_>
          <depth>5</depth>
          <value>3.7500000000000000e-01</value></_>
        <_>
          <depth>4</depth>
          <value>2.5735294117647056e-01</value>
          <splits>
            <_><var>19</var>
              <quality>1.0410416603088379e+01</quality>
              <le>5.8354996144771576e-03</le></_></splits></_>
        <_>
          <depth>5</depth>
          <value>3.2291666666666669e-01</value></_>
        <_>
          <depth>5</depth>
          <value>1.0000000000000001e-01</value></_>
        <_>
          <depth>3</depth>
          <value>4.0740740740740738e-01</value>
          <splits>
            <_><var>17</var>
              <quality>6.2622417449951172e+01</quality>
              <le>1.3481999747455120e-02</le></_></splits></_>
        <_>
          <depth>4</depth>
          <value>3.8643067846607670e-01</value>
          <splits>
            <_><var>18</var>
              <quality>5.5145996093750000e+01</quality>
              <le>3.9905002340674400e-03</le></_></splits></_>
        <_>
          <depth>5</depth>
          <value>5.9259259259259256e-01</value></_>
        <_>
          <depth>5</depth>
          <value>3.2170542635658916e-01</value></_>
        <_>
          <depth>4</depth>
          <value>1.</value></_>
        <_>
          <depth>2</depth>
          <value>5.1845342706502640e-01</value>
          <splits>
            <_><var>0</var>
              <quality>1.6503137207031250e+02</quality>
              <le>3.2835650444030762e-01</le></_></splits></_>
        <_>
          <depth>3</depth>
          <value>2.9885057471264370e-01</value>
          <splits>
            <_><var>7</var>
              <quality>1.8991352081298828e+01</quality>
              <le>3.6660499870777130e-02</le></_></splits></_>
        <_>
          <depth>4</depth>
          <value>4.1999999999999998e-01</value>
          <splits>
            <_><var>2</var>
              <quality>2.0102563858032227e+01</quality>
              <le>9.6312500536441803e-02</le></_></splits></_>
        <_>
          <depth>5</depth>
          <value>5.8333333333333337e-01</value></_>
        <_>
          <depth>5</depth>
          <value>2.6923076923076922e-01</value></_>
        <_>
          <depth>4</depth>
          <value>1.3513513513513514e-01</value>
          <splits>
            <_><var>11</var>
              <quality>2.9500000476837158e+00</quality>
              <le>4.0747001767158508e-02</le></_></splits></_>
        <_>
          <depth>5</depth>
          <value>1.0000000000000001e-01</value></_>
        <_>
          <depth>5</depth>
          <value>7.5000000000000000e-01</value></_>
        <_>
          <depth>3</depth>
          <value>6.1518987341772147e-01</value>
          <splits>
            <_><var>1</var>
              <quality>1.5395207214355469e+02</quality>
              <le>2.9453399777412415e-01</le></_></splits></_>
        <_>
          <depth>4</depth>
          <value>7.0614035087719296e-01</value>
          <splits>
            <_><var>2</var>
              <quality>1.2021684265136719e+02</quality>
              <le>2.0316800475120544e-01</le></_></splits></_>
        <_>
          <depth>5</depth>
          <value>8.1761006289308180e-01</value></_>
        <_>
          <depth>5</depth>
          <value>4.4927536231884058e-01</value></_>
        <_>
          <depth>4</depth>
          <value>4.9101796407185627e-01</value>
          <splits>
            <_><var>15</var>
              <quality>4.4222221374511719e+01</quality>
              <le>1.0390499606728554e-02</le></_></splits></_>
        <_>
          <depth>5</depth>
          <value>1.</value></_>
        <_>
          <depth>5</depth>
          <value>4.4444444444444442e-01</value></_></nodes></_>
    <_>
      <nodes>
        <_>
          <depth>0</depth>
          <value>5.0000000000000000e-01</value>
          <splits>
            <_><var>4</var>
              <quality>4.1837399291992188e+02</quality>
              <le>3.4839000552892685e-02</le></_></splits></_>
        <_>
          <depth>1</depth>
          <value>2.8629032258064518e-01</value>
          <splits>
            <_><var>7</var>
              <quality>2.4475589752197266e+01</quality>
              <le>1.4880500733852386e-02</le></_></splits></_>
        <_>
          <depth>2</depth>
          <value>5.0793650793650791e-01</value>
          <splits>
            <_><var>10</var>
              <quality>2.0211435317993164e+01</quality>
              <le>6.2265000306069851e-03</le></_></splits></_>
        <_>
          <depth>3</depth>
          <value>9.3750000000000000e-01</value>
          <splits>
            <_><var>8</var>
              <quality>15.</quality>
              <le>2.3327998816967010e-02</le></_></splits></_>
        <_>
          <depth>4</depth>
          <value>1.</value></_>
        <_>
          <depth>4</depth>
          <value>0.</value></_>
        <_>
          <depth>3</depth>
          <value>3.6170212765957449e-01</value>
          <splits>
            <_><var>4</var>
              <quality>7.7251081466674805e+00</quality>
              <le>3.0618000775575638e-02</le></_></splits></_>
        <_>
          <depth>4</depth>
          <value>2.4242424242424243e-01</value>
          <splits>
            <_><var>1</var>
              <quality>4.5714287757873535e+00</quality>
              <le>1.7677250504493713e-01</le></_></splits></_>
        <_>
          <depth>5</depth>
          <value>5.7142857142857140e-01</value></_>
        <_>
          <depth>5</depth>
          <value>0.</value></_>
        <_>
          <depth>4</depth>
          <value>6.4285714285714290e-01</value>
          <splits>
            <_><var>2</var>
              <quality>6.7500000000000000e+00</quality>
              <le>1.0597699880599976e-01</le></_></splits></_>
        <_>
          <depth>5</depth>
          <value>7.5000000000000000e-01</value></_>
        <_>
          <depth>5</depth>
          <value>0.</value></_>
        <_>
          <depth>2</depth>
          <value>2.1081081081081082e-01</value>
          <splits>
            <_><var>3</var>
              <quality>1.0433529853820801e+01</quality>
              <le>8.9221000671386719e-02</le></_></splits></_>
        <_>
          <depth>3</depth>
          <value>3.2941176470588235e-01</value>
          <splits>
            <_><var>9</var>
              <quality>1.0739726066589355e+01</quality>
              <le>7.9239998012781143e-03</le></_></splits></_>
        <_>
          <depth>4</depth>
          <value>0.</value></_>
        <_>
          <depth>4</depth>
          <value>3.8356164383561642e-01</value>
          <splits>
            <_><var>9</var>
              <quality>1.3491228103637695e+01</quality>
              <le>1.0394999757409096e-02</le></_></splits></_>
        <_>
          <depth>5</depth>
          <value>7.5000000000000000e-01</value></_>
        <_>
          <depth>5</depth>
          <value>2.8070175438596490e-01</value></_>
        <_>
          <depth>3</depth>
          <value>1.1000000000000000e-01</value>
          <splits>
            <_><var>12</var>
              <quality>2.7934026718139648e+00</quality>
              <le>9.6485000103712082e-03</le></_></splits></_>
        <_>
          <depth>4</depth>
          <value>1.5625000000000000e-02</value>
          <splits>
            <_><var>15</var>
              <quality>2.0000000298023224e-01</quality>
              <le>1.1882999911904335e-02</le></_></splits></_>
        <_>
          <depth>5</depth>
          <value>0.</value></_>
        <_>
          <depth>5</depth>
          <value>2.0000000000000001e-01</value></_>
        <_>
          <depth>4</depth>
          <value>2.7777777777777779e-01</value>
          <splits>
            <_><var>4</var>
              <quality>5.1250000000000000e+00</quality>
              <le>1.2087499722838402e-02</le></_></splits></_>
        <_>
          <depth>5</depth>
          <value>1.</value></_>
        <_>
          <depth>5</depth>
          <value>1.8750000000000000e-01</value></_>
        <_>
          <depth>1</depth>
          <value>5.3862973760932942e-01</value>
          <splits>
            <_><var>10</var>
              <quality>4.0121087646484375e+02</quality>
              <le>5.4665002971887589e-03</le></_></splits></_>
        <_>
          <depth>2</depth>
          <value>3.4939759036144580e-01</value>
          <splits>
            <_><var>1</var>
              <quality>1.7537878036499023e+01</quality>
              <le>1.8369600176811218e-01</le></_></splits></_>
        <_>
          <depth>3</depth>
          <value>6.6666666666666663e-01</value>
          <splits>
            <_><var>3</var>
              <quality>2.0252632141113281e+01</quality>
              <le>4.0718499571084976e-02</le></_></splits></_>
        <_>
          <depth>4</depth>
          <value>9.4736842105263153e-01</value>
          <splits>
            <_><var>1</var>
              <quality>18.</quality>
              <le>6.5076999366283417e-02</le></_></splits></_>
        <_>
          <depth>5</depth>
          <value>0.</value></_>
        <_>
          <depth>5</depth>
          <value>1.</value></_>
        <_>
          <depth>4</depth>
          <value>4.0000000000000002e-01</value>
          <splits>
            <_><var>19</var>
              <quality>6.4000000953674316e+00</quality>
              <le>4.4350000098347664e-03</le></_></splits></_>
        <_>
          <depth>5</depth>
          <value>8.0000000000000004e-01</value></_>
        <_>
          <depth>5</depth>
          <value>0.</value></_>
        <_>
          <depth>3</depth>
          <value>6.8181818181818177e-02</value>
          <splits>
            <_><var>3</var>
              <quality>6.9230771064758301e-01</quality>
              <le>5.4384000599384308e-02</le></_></splits></_>
        <_>
          <depth>4</depth>
          <value>2.3076923076923078e-01</value>
          <splits>
            <_><var>15</var>
              <quality>2.0909090042114258e+00</quality>
              <le>9.5124999061226845e-03</le></_></splits></_>
        <_>
          <depth>5</depth>
          <value>9.0909090909090912e-02</value></_>
        <_>
          <depth>5</depth>
          <value>1.</value></_>
        <_>
          <depth>4</depth>
          <value>0.</value></_>
        <_>
          <depth>2</depth>
          <value>5.5081458494957336e-01</value>
          <splits>
            <_><var>14</var>
              <quality>3.9441775512695312e+02</quality>
              <le>9.1244997456669807e-03</le></_></splits></_>
        <_>
          <depth>3</depth>
          <value>6.0726643598615915e-01</value>
          <splits>
            <_><var>3</var>
              <quality>2.3061489868164062e+02</quality>
              <le>4.6639502048492432e-02</le></_></splits></_>
        <_>
          <depth>4</depth>
          <value>9.7196261682242990e-01</value>
          <splits>
            <_><var>8</var>
              <quality>1.0123683929443359e+02</quality>
              <le>1.7969500273466110e-02</le></_></splits></_>
        <_>
          <depth>5</depth>
          <value>1.</value></_>
        <_>
          <depth>5</depth>
          <value>9.2105263157894735e-01</value></_>
        <_>
          <depth>4</depth>
          <value>5.2441613588110403e-01</value>
          <splits>
            <_><var>6</var>
              <quality>1.3320742797851562e+02</quality>
              <le>7.6290994882583618e-02</le></_></splits></_>
        <_>
          <depth>5</depth>
          <value>5.3930131004366810e-01</value></_>
        <_>
          <depth>5</depth>
          <value>0.</value></_>
        <_>
          <depth>3</depth>
          <value>5.0492264416315047e-01</value>
          <splits>
            <_><var>4</var>
              <quality>1.8646844482421875e+02</quality>
              <le>4.7162499278783798e-02</le></_></splits></_>
        <_>
          <depth>4</depth>
          <value>2.7586206896551724e-01</value>
          <splits>
            <_><var>3</var>
              <quality>8.9427604675292969e+00</quality>
              <le>8.6975000798702240e-02</le></_></splits></_>
        <_>
          <depth>5</depth>
          <value>4.8484848484848486e-01</value></_>
        <_>
          <depth>5</depth>
          <value>1.4814814814814814e-01</value></_>
        <_>
          <depth>4</depth>
          <value>5.3685897435897434e-01</value>
          <splits>
            <_><var>3</var>
              <quality>1.8238050842285156e+02</quality>
              <le>5.3359001874923706e-02</le></_></splits></_>
        <_>
          <depth>5</depth>
          <value>7.5510204081632648e-01</value></_>
        <_>
          <depth>5</depth>
          <value>5.1826086956521744e-01</value></_></nodes></_>
    <_>
      <nodes>
        <_>
          <depth>0</depth>
          <value>4.9567901234567902e-01</value>
          <splits>
            <_><var>3</var>
              <quality>4.1328799438476562e+02</quality>
              <le>5.2223000675439835e-02</le></_></splits></_>
        <_>
          <depth>1</depth>
          <value>7.1814671814671815e-01</value>
          <splits>
            <_><var>19</var>
              <quality>1.3991769409179688e+02</quality>
              <le>6.0784998349845409e-03</le></_></splits></_>
        <_>
          <depth>2</depth>
          <value>8.1151832460732987e-01</value>
          <splits>
            <_><var>10</var>
              <quality>1.2711640167236328e+02</quality>
              <le>2.0409999415278435e-03</le></_></splits></_>
        <_>
          <depth>3</depth>
          <value>0.</value></_>
        <_>
          <depth>3</depth>
          <value>8.2010582010582012e-01</value>
          <splits>
            <_><var>8</var>
              <quality>1.2847593688964844e+02</quality>
              <le>4.0974998846650124e-03</le></_></splits></_>
        <_>
          <depth>4</depth>
          <value>0.</value></_>
        <_>
          <depth>4</depth>
          <value>8.2887700534759357e-01</value>
          <splits>
            <_><var>5</var>
              <quality>1.3065858459472656e+02</quality>
              <le>4.6691499650478363e-02</le></_></splits></_>
        <_>
          <depth>5</depth>
          <value>8.7421383647798745e-01</value></_>
        <_>
          <depth>5</depth>
          <value>5.7142857142857140e-01</value></_>
        <_>
          <depth>2</depth>
          <value>4.5588235294117646e-01</value>
          <splits>
            <_><var>10</var>
              <quality>1.8053182601928711e+01</quality>
              <le>1.3247000053524971e-02</le></_></splits></_>
        <_>
          <depth>3</depth>
          <value>6.7567567567567566e-01</value>
          <splits>
            <_><var>8</var>
              <quality>1.9531250000000000e+01</quality>
              <le>8.3739999681711197e-03</le></_></splits></_>
        <_>
          <depth>4</depth>
          <value>0.</value></_>
        <_>
          <depth>4</depth>
          <value>7.8125000000000000e-01</value>
          <splits>
            <_><var>18</var>
              <quality>2.0833333969116211e+01</quality>
              <le>1.2018499895930290e-02</le></_></splits></_>
        <_>
          <depth>5</depth>
          <value>8.3333333333333337e-01</value></_>
        <_>
          <depth>5</depth>
          <value>0.</value></_>
        <_>
          <depth>3</depth>
          <value>1.9354838709677419e-01</value>
          <splits>
            <_><var>1</var>
              <quality>2.1739130020141602e+00</quality>
              <le>1.2321099638938904e-01</le></_></splits></_>
        <_>
          <depth>4</depth>
          <value>5.0000000000000000e-01</value>
          <splits>
            <_><var>6</var>
              <quality>3.2000000476837158e+00</quality>
              <le>3.0773499980568886e-02</le></_></splits></_>
        <_>
          <depth>5</depth>
          <value>2.0000000000000001e-01</value></_>
        <_>
          <depth>5</depth>
          <value>1.</value></_>
        <_>
          <depth>4</depth>
          <value>8.6956521739130432e-02</value>
          <splits>
            <_><var>18</var>
              <quality>4.0000000596046448e-01</quality>
              <le>7.6494999229907990e-03</le></_></splits></_>
        <_>
          <depth>5</depth>
          <value>2.0000000000000001e-01</value></_>
        <_>
          <depth>5</depth>
          <value>0.</value></_>
        <_>
          <depth>1</depth>
          <value>4.5334313005143279e-01</value>
          <splits>
            <_><var>1</var>
              <quality>2.9642874145507812e+02</quality>
              <le>1.7561100423336029e-01</le></_></splits></_>
        <_>
          <depth>2</depth>
          <value>6.6220735785953178e-01</value>
          <splits>
            <_><var>0</var>
              <quality>1.3725949096679688e+02</quality>
              <le>2.8015249967575073e-01</le></_></splits></_>
        <_>
          <depth>3</depth>
          <value>4.9193548387096775e-01</value>
          <splits>
            <_><var>11</var>
              <quality>3.2356521606445312e+01</quality>
              <le>2.4718001484870911e-02</le></_></splits></_>
        <_>
          <depth>4</depth>
          <value>5.3043478260869570e-01</value>
          <splits>
            <_><var>6</var>
              <quality>3.6842105865478516e+01</quality>
              <le>1.4195499941706657e-02</le></_></splits></_>
        <_>
          <depth>5</depth>
          <value>1.0000000000000001e-01</value></_>
        <_>
          <depth>5</depth>
          <value>6.2105263157894741e-01</value></_>
        <_>
          <depth>4</depth>
          <value>0.</value></_>
        <_>
          <depth>3</depth>
          <value>7.8285714285714281e-01</value>
          <splits>
            <_><var>6</var>
              <quality>1.1138507843017578e+02</quality>
              <le>5.9872999787330627e-02</le></_></splits></_>
        <_>
          <depth>4</depth>
          <value>8.5416666666666663e-01</value>
          <splits>
            <_><var>18</var>
              <quality>1.0668666839599609e+02</quality>
              <le>5.8129997923970222e-03</le></_></splits></_>
        <_>
          <depth>5</depth>
          <value>7.4647887323943662e-01</value></_>
        <_>
          <depth>5</depth>
          <value>9.5890410958904104e-01</value></_>
        <_>
          <depth>4</depth>
          <value>4.5161290322580644e-01</value>
          <splits>
            <_><var>17</var>
              <quality>7.8400001525878906e+00</quality>
              <le>3.7670000456273556e-03</le></_></splits></_>
        <_>
          <depth>5</depth>
          <value>0.</value></_>
        <_>
          <depth>5</depth>
          <value>5.6000000000000005e-01</value></_>
        <_>
          <depth>2</depth>
          <value>3.9453860640301319e-01</value>
          <splits>
            <_><var>12</var>
              <quality>1.7436404418945312e+02</quality>
              <le>9.6614994108676910e-03</le></_></splits></_>
        <_>
          <depth>3</depth>
          <value>2.6285714285714284e-01</value>
          <splits>
            <_><var>3</var>
              <quality>2.9994037628173828e+01</quality>
              <le>1.1385099589824677e-01</le></_></splits></_>
        <_>
          <depth>4</depth>
          <value>3.6619718309859156e-01</value>
          <splits>
            <_><var>1</var>
              <quality>3.5477828979492188e+01</quality>
              <le>1.9958549737930298e-01</le></_></splits></_>
        <_>
          <depth>5</depth>
          <value>6.7924528301886788e-01</value></_>
        <_>
          <depth>5</depth>
          <value>2.6250000000000001e-01</value></_>
        <_>
          <depth>4</depth>
          <value>1.0218978102189781e-01</value>
          <splits>
            <_><var>6</var>
              <quality>3.9029850959777832e+00</quality>
              <le>7.5931996107101440e-02</le></_></splits></_>
        <_>
          <depth>5</depth>
          <value>8.2089552238805971e-02</value></_>
        <_>
          <depth>5</depth>
          <value>1.</value></_>
        <_>
          <depth>3</depth>
          <value>4.5926966292134830e-01</value>
          <splits>
            <_><var>6</var>
              <quality>1.5603308105468750e+02</quality>
              <le>5.3479999303817749e-02</le></_></splits></_>
        <_>
          <depth>4</depth>
          <value>5.4545454545454541e-01</value>
          <splits>
            <_><var>10</var>
              <quality>1.1795414733886719e+02</quality>
              <le>1.3332500122487545e-02</le></_></splits></_>
        <_>
          <depth>5</depth>
          <value>3.1958762886597936e-01</value></_>
        <_>
          <depth>5</depth>
          <value>6.2454873646209386e-01</value></_>
        <_>
          <depth>4</depth>
          <value>3.6390532544378701e-01</value>
          <splits>
            <_><var>5</var>
              <quality>5.0661628723144531e+01</quality>
              <le>6.8401999771595001e-02</le></_></splits></_>
        <_>
          <depth>5</depth>
          <value>2.2699386503067484e-01</value></_>
        <_>
          <depth>5</depth>
          <value>4.9142857142857144e-01</value></_></nodes></_>
    <_>
      <nodes>
        <_>
          <depth>0</depth>
          <value>5.1419753086419751e-01</value>
          <splits>
            <_><var>6</var>
              <quality>4.3310140991210938e+02</quality>
              <le>5.9699997305870056e-02</le></_></splits></_>
        <_>
          <depth>1</depth>
          <value>5.4118552732871439e-01</value>
          <splits>
            <_><var>3</var>
              <quality>3.9607220458984375e+02</quality>
              <le>7.3021501302719116e-02</le></_></splits></_>
        <_>
          <depth>2</depth>
          <value>6.7097966728280967e-01</value>
          <splits>
            <_><var>0</var>
              <quality>2.6734710693359375e+02</quality>
              <le>2.4173599481582642e-01</le></_></splits></_>
        <_>
          <depth>3</depth>
          <value>3.6257309941520466e-01</value>
          <splits>
            <_><var>15</var>
              <quality>2.8237066268920898e+01</quality>
              <le>5.8965003117918968e-03</le></_></splits></_>
        <_>
          <depth>4</depth>
          <value>5.3260869565217395e-01</value>
          <splits>
            <_><var>2</var>
              <quality>2.9315790176391602e+01</quality>
              <le>3.9606496691703796e-02</le></_></splits></_>
        <_>
          <depth>5</depth>
          <value>1.2500000000000000e-01</value></_>
        <_>
          <depth>5</depth>
          <value>6.1842105263157898e-01</value></_>
        <_>
          <depth>4</depth>
          <value>1.6455696202531644e-01</value>
          <splits>
            <_><var>9</var>
              <quality>3.5714285373687744e+00</quality>
              <le>3.1008500605821609e-02</le></_></splits></_>
        <_>
          <depth>5</depth>
          <value>1.4285714285714285e-01</value></_>
        <_>
          <depth>5</depth>
          <value>1.</value></_>
        <_>
          <depth>3</depth>
          <value>8.1351351351351353e-01</value>
          <splits>
            <_><var>10</var>
              <quality>2.4874378967285156e+02</quality>
              <le>3.1195500865578651e-02</le></_></splits></_>
        <_>
          <depth>4</depth>
          <value>8.2872928176795579e-01</value>
          <splits>
            <_><var>2</var>
              <quality>2.5286758422851562e+02</quality>
              <le>2.1153849363327026e-01</le></_></splits></_>
        <_>
          <depth>5</depth>
          <value>8.5422740524781338e-01</value></_>
        <_>
          <depth>5</depth>
          <value>3.6842105263157893e-01</value></_>
        <_>
          <depth>4</depth>
          <value>1.2500000000000000e-01</value>
          <splits>
            <_><var>17</var>
              <quality>1.</quality>
              <le>1.5866000205278397e-02</le></_></splits></_>
        <_>
          <depth>5</depth>
          <value>0.</value></_>
        <_>
          <depth>5</depth>
          <value>1.</value></_>
        <_>
          <depth>2</depth>
          <value>4.4854881266490765e-01</value>
          <splits>
            <_><var>14</var>
              <quality>1.6123397827148438e+02</quality>
              <le>8.6739994585514069e-03</le></_></splits></_>
        <_>
          <depth>3</depth>
          <value>3.2732732732732733e-01</value>
          <splits>
            <_><var>4</var>
              <quality>4.2869438171386719e+01</quality>
              <le>4.1442498564720154e-02</le></_></splits></_>
        <_>
          <depth>4</depth>
          <value>9.4736842105263161e-02</value>
          <splits>
            <_><var>0</var>
              <quality>2.2000000476837158e+00</quality>
              <le>1.0933749377727509e-01</le></_></splits></_>
        <_>
          <depth>5</depth>
          <value>5.9999999999999998e-01</value></_>
        <_>
          <depth>5</depth>
          <value>6.6666666666666666e-02</value></_>
        <_>
          <depth>4</depth>
          <value>4.2016806722689076e-01</value>
          <splits>
            <_><var>2</var>
              <quality>4.6721813201904297e+01</quality>
              <le>6.7309498786926270e-02</le></_></splits></_>
        <_>
          <depth>5</depth>
          <value>1.0256410256410256e-01</value></_>
        <_>
          <depth>5</depth>
          <value>4.8241206030150752e-01</value></_>
        <_>
          <depth>3</depth>
          <value>5.4352941176470593e-01</value>
          <splits>
            <_><var>0</var>
              <quality>1.3311112976074219e+02</quality>
              <le>3.2520550489425659e-01</le></_></splits></_>
        <_>
          <depth>4</depth>
          <value>3.7106918238993708e-01</value>
          <splits>
            <_><var>12</var>
              <quality>2.3884763717651367e+01</quality>
              <le>9.2930002138018608e-03</le></_></splits></_>
        <_>
          <depth>5</depth>
          <value>1.9565217391304349e-01</value></_>
        <_>
          <depth>5</depth>
          <value>4.4247787610619471e-01</value></_>
        <_>
          <depth>4</depth>
          <value>6.4661654135338342e-01</value>
          <splits>
            <_><var>15</var>
              <quality>1.1570932006835938e+02</quality>
              <le>9.2529999092221260e-03</le></_></splits></_>
        <_>
          <depth>5</depth>
          <value>4.8571428571428571e-01</value></_>
        <_>
          <depth>5</depth>
          <value>7.5155279503105588e-01</value></_>
        <_>
          <depth>1</depth>
          <value>4.0498442367601245e-01</value>
          <splits>
            <_><var>5</var>
              <quality>5.6981140136718750e+01</quality>
              <le>6.6714495420455933e-02</le></_></splits></_>
        <_>
          <depth>2</depth>
          <value>2.9341317365269459e-01</value>
          <splits>
            <_><var>1</var>
              <quality>1.8771266937255859e+01</quality>
              <le>1.8821099400520325e-01</le></_></splits></_>
        <_>
          <depth>3</depth>
          <value>6.8000000000000005e-01</value>
          <splits>
            <_><var>8</var>
              <quality>1.3571428298950195e+01</quality>
              <le>2.2656999528408051e-02</le></_></splits></_>
        <_>
          <depth>4</depth>
          <value>1.</value></_>
        <_>
          <depth>4</depth>
          <value>4.2857142857142855e-01</value>
          <splits>
            <_><var>1</var>
              <quality>4.5000000000000000e+00</quality>
              <le>1.3762050867080688e-01</le></_></splits></_>
        <_>
          <depth>5</depth>
          <value>0.</value></_>
        <_>
          <depth>5</depth>
          <value>7.5000000000000000e-01</value></_>
        <_>
          <depth>3</depth>
          <value>2.2535211267605634e-01</value>
          <splits>
            <_><var>19</var>
              <quality>9.4182291030883789e+00</quality>
              <le>5.4644998162984848e-03</le></_></splits></_>
        <_>
          <depth>4</depth>
          <value>5.8823529411764705e-02</value>
          <splits>
            <_><var>3</var>
              <quality>5.8163267374038696e-01</quality>
              <le>6.4693003892898560e-02</le></_></splits></_>
        <_>
          <depth>5</depth>
          <value>5.0000000000000000e-01</value></_>
        <_>
          <depth>5</depth>
          <value>4.0816326530612242e-02</value></_>
        <_>
          <depth>4</depth>
          <value>3.1868131868131866e-01</value>
          <splits>
            <_><var>15</var>
              <quality>1.1680555343627930e+01</quality>
              <le>1.7500499263405800e-02</le></_></splits></_>
        <_>
          <depth>5</depth>
          <value>4.0277777777777779e-01</value></_>
        <_>
          <depth>5</depth>
          <value>0.</value></_>
        <_>
          <depth>2</depth>
          <value>5.2597402597402598e-01</value>
          <splits>
            <_><var>3</var>
              <quality>4.6086540222167969e+01</quality>
              <le>8.3279497921466827e-02</le></_></splits></_>
        <_>
          <depth>3</depth>
          <value>1.9230769230769232e-01</value>
          <splits>
            <_><var>9</var>
              <quality>1.6399999856948853e+00</quality>
              <le>1.3442000374197960e-02</le></_></splits></_>
        <_>
          <depth>4</depth>
          <value>1.</value></_>
        <_>
          <depth>4</depth>
          <value>1.6000000000000000e-01</value>
          <splits>
            <_><var>3</var>
              <quality>1.</quality>
              <le>6.9250002503395081e-02</le></_></splits></_>
        <_>
          <depth>5</depth>
          <value>0.</value></_>
        <_>
          <depth>5</depth>
          <value>2.5000000000000000e-01</value></_>
        <_>
          <depth>3</depth>
          <value>5.9375000000000000e-01</value>
          <splits>
            <_><var>12</var>
              <quality>4.8016162872314453e+01</quality>
              <le>4.3411001563072205e-02</le></_></splits></_>
        <_>
          <depth>4</depth>
          <value>6.5454545454545454e-01</value>
          <splits>
            <_><var>2</var>
              <quality>4.8448596954345703e+01</quality>
              <le>8.0649003386497498e-02</le></_></splits></_>
        <_>
          <depth>5</depth>
          <value>0.</value></_>
        <_>
          <depth>5</depth>
          <value>6.7289719626168221e-01</value></_>
        <_>
          <depth>4</depth>
          <value>2.2222222222222221e-01</value>
          <splits>
            <_><var>2</var>
              <quality>2.2857143878936768e+00</quality>
              <le>2.4983650445938110e-01</le></_></splits></_>
        <_>
          <depth>5</depth>
          <value>5.7142857142857140e-01</value></_>
        <_>
          <depth>5</depth>
          <value>0.</value></_></nodes></_>
    <_>
      <nodes>
        <_>
          <depth>0</depth>
          <value>5.0246913580246910e-01</value>
          <splits>
            <_><var>3</var>
              <quality>4.3795236206054688e+02</quality>
              <le>5.2017502486705780e-02</le></_></splits></_>
        <_>
          <depth>1</depth>
          <value>8.0608365019011408e-01</value>
          <splits>
            <_><var>11</var>
              <quality>1.7670768737792969e+02</quality>
              <le>2.8060499578714371e-02</le></_></splits></_>
        <_>
          <depth>2</depth>
          <value>8.3999999999999997e-01</value>
          <splits>
            <_><var>0</var>
              <quality>1.8252104187011719e+02</quality>
              <le>2.4221751093864441e-01</le></_></splits></_>
        <_>
          <depth>3</depth>
          <value>5.9154929577464788e-01</value>
          <splits>
            <_><var>14</var>
              <quality>3.0454326629638672e+01</quality>
              <le>6.2370002269744873e-03</le></_></splits></_>
        <_>
          <depth>4</depth>
          <value>8.4615384615384615e-01</value>
          <splits>
            <_><var>8</var>
              <quality>2.9432432174682617e+01</quality>
              <le>2.0546000450849533e-02</le></_></splits></_>
        <_>
          <depth>5</depth>
          <value>8.9189189189189189e-01</value></_>
        <_>
          <depth>5</depth>
          <value>0.</value></_>
        <_>
          <depth>4</depth>
          <value>2.8125000000000000e-01</value>
          <splits>
            <_><var>8</var>
              <quality>4.5000000000000000e+00</quality>
              <le>1.1842500418424606e-02</le></_></splits></_>
        <_>
          <depth>5</depth>
          <value>5.0000000000000000e-01</value></_>
        <_>
