<?xml version="1.0"?>
<opencv_storage>
<opencv_ml_ann_mlp>
  <format>3</format>
  <layer_sizes>
    9 100 100 2</layer_sizes>
  <activation_function>SIGMOID_SYM</activation_function>
  <f_param1>6.6666666666666663e-01</f_param1>
  <f_param2>1.7159000000000000e+00</f_param2>
  <min_val>-9.4999999999999996e-01</min_val>
  <max_val>9.4999999999999996e-01</max_val>
  <min_val1>-9.7999999999999998e-01</min_val1>
  <max_val1>9.7999999999999998e-01</max_val1>
  <training_params>
    <train_method>BACKPROP</train_method>
    <dw_scale>1.0000000000000000e-03</dw_scale>
    <moment_scale>0.</moment_scale>
    <term_criteria>
      <iterations>15</iterations></term_criteria></training_params>
  <input_scale>
    4.6470514267952794e+00 -2.0220174451956132e+00
    9.3589774335162232e+00 -2.1405476455410568e+00
    1.3582575898054655e+01 -2.2258170157353048e+00
    1.9607043683893931e+01 -2.1340244636976324e+00
    2.1271253175757291e+01 -1.8721598211304633e+00
    2.9319037839563382e+01 -1.8955566807312285e+00
    3.3552303793971113e+01 -1.7752516093960347e+00
    3.9051426102639439e+01 -1.6519200468673660e+00
    4.3119560115245243e+01 -1.5771559606489620e+00</input_scale>
  <output_scale>
    5.2631578947368418e-01 4.9999999999999994e-01 5.2631578947368418e-01
    4.9999999999999994e-01</output_scale>
  <inv_output_scale>
    1.8999999999999999e+00 -9.4999999999999996e-01
    1.8999999999999999e+00 -9.4999999999999996e-01</inv_output_scale>
  <weights>
    <_>
      -1.5769565097660787e-01 1.8341107239372742e-01
      8.6021853041146484e-02 -1.9722363991390762e-01
      -1.6499246878707913e-01 -9.4598273207647285e-02
      1.2469159440398254e-01 -1.5739149722881310e-01
      -1.8762629222644414e-01 -1.4335959723508382e-01
      1.2528978179430811e-01 1.8172786081334025e-01
      6.3166803244286071e-02 6.2179133381591506e-02
      1.1924929181803226e-01 1.5217340935412071e-01
      -1.3535331983353865e-01 -2.6254681638096123e-03
      2.1358159149068090e-01 1.3208609244364863e-01
      1.5185317850804458e-01 -1.3257417670634211e-01
      9.7540270280687943e-02 -2.3584651841670920e-01
      -1.5994461430429135e-01 6.0864666614211969e-03
      1.6961214536387859e-01 -6.5022607495166486e-03
      -1.7934255739625993e-01 -3.0732908740004880e-02
      -5.1461115847926599e-02 1.2205829015981035e-01
      7.5963237970638892e-02 -1.2451143684328497e-01
      4.3308254021464723e-03 -1.6587458127915572e-01
      1.3545860887610323e-01 2.4037567674580013e-02
      1.3581296011140445e-01 1.6181081231977085e-01
      1.0542249869090056e-01 1.0517254592341918e-01
      -1.4465898375881234e-01 -2.1024218053269685e-02
      -1.5638143586943809e-01 1.7566791632425130e-01
      -6.1888550248575890e-02 -1.7506252486678062e-01
      -1.2355719268401760e-01 5.4163765799254464e-02
      -1.3340169512382968e-01 7.5583740455109502e-02
      -1.3584594574368072e-01 -1.6595406122300249e-01
      -2.2738328214963141e-01 2.5185363040093500e-01
      -8.4694822543487883e-02 -1.3180944971746056e-01
      1.1929343260823638e-01 1.8128596201878833e-01
      -7.2387338299693085e-02 -1.7333971891528976e-01
      -2.0452489682373115e-03 2.0839893403425019e-01
      -1.4233955305348778e-01 1.5979988202358628e-01
      5.6087558903080634e-02 -5.8754782876755056e-02
      -5.6423467403590818e-02 1.2281365168119213e-01
      -1.6347836119922546e-01 1.4291959377561475e-01
      9.5662256666976114e-02 2.5094689875617981e-01
      5.5542785463161971e-02 -3.1852852288918446e-02
      -6.9430041350888538e-02 -6.7521227490329447e-02
      -9.1278337887433822e-02 -1.2434271985173358e-02
      5.7647046854355198e-02 1.8272436076213508e-01
      -1.5863136433195182e-01 4.6527988985737685e-02
      -2.0799180524716498e-01 1.1879565496273800e-01
      7.0681169870146282e-03 1.6417552829109924e-01
      1.0906026654182302e-01 -4.7454546269175737e-02
      -1.0822294290716415e-01 -5.2055865893634132e-02
      -2.3018245537657309e-01 8.8675994262731567e-02
      2.3091500495284727e-02 1.6030740286794204e-01
      1.4322321919364578e-01 1.2900768670060958e-01
      -4.5029813032734657e-02 -4.1962890879544461e-02
      3.1839989777106392e-02 2.0402871721913726e-02
      -8.9043365010946479e-02 1.0436211652395494e-01
      -1.2904917116975265e-01 1.2724056727908151e-01
      -1.2755803752983638e-01 -1.6274388458531042e-01
      -1.4568927139151416e-01 1.0423365533413241e-01
      2.0771723705101361e-01 1.4793465632853306e-01
      -2.4944580569142893e-02 9.7923055450566315e-02
      7.2249263710916278e-02 1.5519750598567555e-01
      1.2010831811214545e-01 1.2731031573056986e-01
      -5.2340162358078930e-02 2.3562771758491922e-02
      -1.0906552872844480e-01 5.0722244122342903e-03
      1.4594573001215563e-01 1.6045579244051278e-01
      -1.8057713517355276e-01 -2.1456895472304471e-01
      1.1615621514663231e-01 1.4741324162124436e-01
      1.8633330064790898e-03 1.4271849465319433e-01
      6.0437712198538134e-04 9.9662175891063298e-02
      3.0106398524423084e-02 -1.8146471321223265e-01
      1.4891424519180396e-01 -1.2115811339437394e-02
      4.2348422906951594e-02 2.5968656263409445e-01
      3.6693246868184787e-02 -7.0113920652444706e-02
      1.9660909597485615e-01 5.5973287595027524e-02
      -1.5971343861477855e-01 1.0733724694274664e-01
      -1.9905632076853991e-01 -1.9640637997296162e-01
      2.1950731586967254e-01 6.3006970774921151e-02
      -1.5976143902500284e-01 -1.8558131151888674e-01
      -1.5711503768314766e-01 1.0178721957191671e-01
      -1.2379422390188585e-01 4.3089864485458852e-02
      -6.2449347656956761e-04 -1.6279200083493213e-02
      -1.2607558006983838e-02 1.9985603261410881e-01
      -1.4247510675942129e-01 -1.7299540160743206e-02
      -1.7809844847640138e-01 -1.6878356505719300e-01
      -1.9099547425688290e-01 3.0226834789463860e-02
      1.3640731054549532e-01 9.3189891643195424e-02
      8.5247025748082100e-02 -9.7916026949553037e-02
      1.8713169704604787e-01 -1.0274879976092885e-01
      1.4246802030648620e-01 1.1177291185816816e-01
      8.6891626630108798e-02 -1.0857332222481980e-01
      8.7060264893500716e-02 9.3062365715241069e-02
      -1.2299544874795855e-01 2.5391900056593836e-01
      -1.3502567456814252e-01 6.9706517479075053e-02
      -1.6611683298125787e-01 3.9449961517219016e-02
      7.9197588684594561e-02 4.3240505014690123e-02
      -1.2204451421632832e-01 9.5013297787479134e-02
      1.7061299279921430e-01 -1.3074443797310825e-01
      4.5071199798904699e-02 -1.9111700741237619e-01
      2.9132231743098508e-02 -2.1284750656349424e-02
      2.0062716787240195e-01 -1.5583441158914699e-01
      1.3811742123359233e-01 -9.5519762997307214e-03
      1.4996167194744014e-01 7.0051942263944636e-02
      2.1930410461699584e-01 -1.5615226746577024e-01
      -8.3500642563910446e-02 -1.5656710243453117e-01
      -4.6728721725090773e-02 -4.1674279373749290e-02
      6.3054226570563310e-02 -4.1542775556917690e-02
      -8.9617708267165710e-02 1.5746400042807451e-01
      -5.8226419409091193e-02 -1.7154575870273794e-01
      1.1054606661808780e-01 -6.9139196345864753e-02
      1.5682640326898278e-01 1.9112883014048690e-01
      -8.1988360035556082e-02 -3.6048767739826987e-02
      -2.3059552730839991e-01 8.7746117261385762e-03
      5.1716829289408205e-03 -1.8606295149046659e-01
      1.8136173394118929e-01 1.7386589907331795e-01
      -1.2666805029799386e-01 4.5734506048196726e-02
      -6.6726830040068449e-02 -9.2697308495751959e-02
      -3.3176226561200617e-02 2.8428865068168930e-02
      -1.9258781530917043e-01 6.4856801624600766e-02
      1.0434156320241286e-01 1.4932804736592592e-01
      1.2055439173773774e-01 -2.5738988527818599e-02
      2.1567930984907230e-01 1.3738801494015918e-01
      -1.3418033999225626e-01 -3.0134029258593618e-02
      2.0163305687696018e-01 -1.8906566987293805e-01
      1.7068733032147043e-01 2.0143277932194259e-01
      1.9845382094172107e-01 -1.0563594067132494e-01
      6.0921381189998201e-02 1.5042876709683217e-01
      -1.8981203676444078e-01 2.3996180094988353e-02
      3.2481990454585587e-02 -1.1777283089614811e-01
      3.9650169874760688e-03 8.3004052325119565e-02
      1.3715386011599570e-01 1.8594480956339393e-01
      -5.9886194762158063e-02 -1.0851239772815625e-01
      2.6341920925000005e-02 -1.0542262649227786e-02
      -1.4882293816403111e-01 4.6937811400838546e-02
      1.6187659841964433e-01 1.5279884846405203e-01
      -1.0785465063334740e-01 1.0795791829256164e-01
      -1.0387520723572215e-01 -7.9691060592824950e-02
      1.2685348761123982e-01 -2.1912895778459739e-02
      1.0585034106257694e-01 -1.1555675935223797e-01
      -4.6331051116897011e-02 -8.0840941189173371e-02
      4.5997408220550040e-02 -9.0334558101725485e-02
      -3.9678269336181432e-02 2.1376086031351577e-01
      -5.9659387425382175e-02 -6.2374156955620472e-02
      -1.0325896246671291e-01 1.6826013954292476e-01
      1.4998048324706506e-01 -1.2156896437013132e-01
      -1.4764414278115662e-01 -1.3618224193601450e-01
      -4.7364848528639585e-02 1.7045343568786859e-02
      2.5293418209881252e-01 -9.7526298658768787e-02
      1.2718922260064355e-01 1.3236857177980610e-01
      1.3007075853863850e-01 -1.7518560026980473e-01
      -9.4911895665714022e-02 -1.3139615130167415e-01
      -1.5377113539751266e-01 -1.7002380959362351e-01
      -1.2390411981532423e-01 9.4143803850907606e-02
      1.8147567694117750e-03 -1.0682203428646471e-01
      -1.6197704530135404e-01 -1.3970659837032348e-01
      -1.1849669490001155e-01 9.5094987884037668e-02
      9.8635996253005162e-02 8.5352204513813090e-02
      2.2856260959164786e-02 -1.1324997002934233e-01
      -7.5805815554669850e-02 -5.9504858448112243e-02
      9.8822135557366950e-02 1.3651284332541638e-01
      2.4955085176712261e-01 5.3289335452981555e-02
      9.0451817816473559e-02 1.6351111545211208e-01
      1.1019283991219762e-01 -2.4218463234362514e-01
      1.6543663148786553e-02 -1.7014325340135872e-01
      -9.8969912010154933e-03 4.8304590778453617e-03
      1.0973886296074450e-01 -9.1106004223084319e-02
      -1.4562646666066192e-01 2.0476331299562409e-01
      -7.4495347423976692e-03 -2.2611990811754132e-01
      -1.4559404128302275e-01 -5.1026224808768485e-02
      2.2506162278898906e-01 2.8843836682906510e-02
      3.8292875791154722e-02 8.7537664453234562e-02
      7.0276477486644284e-02 1.2861475046642906e-01
      -1.2834786274331192e-01 2.6851843959567867e-01
      -2.0186448892899972e-01 8.1542340656621470e-02
      -1.6336923187167168e-01 1.4910903174119422e-02
      4.4920432846015372e-02 -1.5739094129123571e-01
      -5.4121106299020304e-02 -1.2668091630469497e-02
      1.0422208380414438e-01 -9.6584427342345208e-02
      -1.2155745640089086e-01 -1.5347045397863576e-01
      -1.4213815731808865e-01 -2.3620422542345734e-01
      -5.6610746918077850e-03 1.1331359448911089e-01
      -2.4275916483629487e-01 -1.4764013172325081e-02
      2.1291341592621107e-02 2.3256579297578198e-01
      -3.7733541342803390e-04 -1.4265630738509905e-01
      1.6480082735278664e-01 1.5438311305917363e-01
      -9.9005159473678842e-02 -4.3930022210267915e-03
      7.2575048414354720e-02 -1.6816342268944054e-01
      1.9695569326405415e-01 5.9880228218128190e-02
      8.2936132246216987e-02 1.0968605820842377e-01
      3.8401513923412497e-02 -2.0267378906870107e-01
      -1.1203519005663545e-01 8.3139777566032622e-02
      -8.4784130986539891e-02 -3.3862106101847547e-02
      -1.5647499735503539e-02 1.3589229454681617e-01
      -6.1751990980000365e-02 -1.0944157501522837e-01
      -2.2007344032127941e-02 -7.8356326269684209e-02
      6.3298625422027174e-02 -2.0684459247152198e-01
      -6.6540369991463788e-02 -1.3445931481237888e-01
      9.5566708781901780e-02 3.4916835170495264e-02
      -7.8542583872745361e-02 -9.0422558172538151e-02
      2.3146309194152778e-01 1.0142897525136645e-01
      6.4335129129509713e-02 -1.7674359916474638e-01
      1.3542472489178803e-01 1.0972280584761480e-01
      9.6456847222374228e-02 -2.3885703423088644e-01
      8.2290808524026787e-02 -8.0727929848506449e-02
      -1.4626436770602000e-01 -1.0754292848686943e-01
      1.0858789831614771e-01 3.8030345908630699e-02
      -1.4817055138907609e-01 -2.2518739430337006e-01
      -9.5464819057259093e-02 -1.1959306856228923e-01
      -1.3134921572857289e-01 -8.8330647495404147e-02
      -1.4029811332140033e-01 6.1555682416969869e-02
      -2.1731483672870477e-01 -1.4057436075021345e-02
      1.8341806998961052e-01 1.6545245627608318e-01
      1.0046505450017848e-01 -8.2179682502792881e-02
      -8.4024069425106818e-02 1.8406531137050319e-01
      6.2265992010545446e-02 -1.5387610727098594e-01
      6.7547874720253059e-02 1.7428912551110851e-01
      -9.5778764342676834e-02 -2.1796393807495471e-01
      -1.2245612000040426e-01 8.6132183897891901e-02
      -1.7750334267645590e-01 -9.7815490792663426e-02
      -1.6077176127335527e-01 -1.3697040333444635e-01
      -2.7143887669688527e-01 1.3375399426762624e-01
      -2.9927004260906741e-02 1.7963865733140746e-01
      1.5142173928204691e-01 1.1278970258489976e-01
      -1.8228136301833131e-01 -1.4417145259999806e-01
      -7.9172336740358520e-02 -1.4896321088558651e-01
      -4.2707328676910364e-02 1.7603867458240335e-01
      1.3806636129543947e-02 -8.0956462525833967e-02
      -2.9249617101759568e-02 -1.6194347265962994e-01
      -1.7273248685399412e-01 -1.4919515410680989e-01
      -1.2467265236856577e-01 -1.2460192917683950e-01
      1.7260461290747489e-01 9.4190819097351983e-02
      3.0549038625600614e-02 -1.9936309193683993e-01
      1.8332729538797857e-01 8.2405283316908579e-02
      5.6746160592737446e-02 1.9171309051729121e-01
      5.2744416106148106e-02 6.7686201910455046e-02
      -1.9081829875234185e-01 2.2574419195414905e-01
      9.1046474497814930e-02 1.5929631492228530e-01
      -1.5170193470888865e-01 -1.8354323744983350e-01
      4.4438438223855140e-02 -1.5502984703307493e-01
      3.2386702432423486e-01 -1.1920305550400490e-01
      8.7608953817986696e-02 1.0562959687987504e-01
      9.2800028867878359e-02 2.0187917418760695e-01
      -1.6814871784105800e-01 -2.2184844781166924e-01
      1.2745693862215587e-01 1.8710518066448725e-01
      9.3684258754621413e-02 -5.5245364175312717e-03
      1.2664024794736711e-01 -1.4360617370401815e-01
      1.3249379295040301e-01 -1.8616043108196337e-01
      -5.1516068625609895e-02 2.3501649886855769e-02
      1.5144514539975368e-01 -1.3260483996151581e-01
      1.1671316877169591e-01 9.4099345914829130e-02
      4.2175690909819680e-02 -1.0086424753225627e-01
      -1.2705803479340533e-01 1.0475086527224527e-01
      1.4383279417823594e-01 5.2382564733711987e-02
      1.6761644912784368e-01 5.8569783050543917e-02
      -1.0781340112903118e-01 -1.6016554686421511e-01
      -1.4662540627824280e-01 -1.7443630050995940e-01
      1.6954468043643139e-01 -6.0386758998462096e-02
      -1.3746839036798023e-01 2.4834700198000239e-02
      -9.9467170903139585e-02 -1.1926116801020899e-01
      -2.0258796655159439e-01 -3.8828507583442529e-02
      -9.5472010533539944e-02 2.0905917612378527e-01
      -1.6640986031546615e-01 -7.6916560544856337e-03
      -5.8989313435867399e-02 1.9010260415422650e-01
      1.6696751546913738e-01 1.0033284347033526e-01
      -2.1883004839574399e-01 5.8503930633916089e-02
      1.6299989144873037e-01 -1.4873160607659447e-01
      1.1855688362293929e-01 -3.9998189155478224e-02
      -1.4000368082127099e-01 -8.8190120287577042e-02
      2.5471795815261041e-02 1.9075848633862028e-01
      -1.2389446796067451e-01 1.4497171774889842e-01
      -2.6019380038703338e-01 1.9447939986515138e-02
      1.7139645782533450e-02 1.4432487827797133e-01
      -2.4678109007383531e-01 -8.6455851563936120e-02
      -2.4152429131273658e-02 7.0309135869849701e-02
      4.6167083523132341e-02 -1.0348591099573555e-01
      -7.0682415650963185e-02 9.2155046998921061e-02
      1.5714112664628091e-01 1.0625845056930718e-01
      -5.3051874912515555e-02 1.4074075573337858e-01
      4.5924680073550640e-02 -7.6479222705561692e-02
      5.9162209212651022e-02 1.8598156143424893e-01
      -1.1583987522747838e-01 -6.2024803055885737e-02
      -2.1747728499565140e-02 6.0674289642020901e-02
      1.7769436129473956e-01 2.2685401666270721e-01
      1.5931248396471312e-01 -1.2590570841585405e-01
      9.6174463122510767e-02 -1.7824294576333247e-01
      -6.9840499950303864e-02 1.1382741817660312e-01
      -1.3204400301994457e-01 1.3515129432074238e-01
      -1.0274624449755816e-01 1.2997189980669863e-01
      1.6161931254772063e-01 6.8715145732696992e-02
      -4.1372188213368910e-02 -1.8338949816994365e-01
      1.4580031572696248e-01 1.7018076773321531e-03
      2.2511280498676092e-01 -1.1086925100505851e-01
      1.4211136268009580e-01 -4.8720758213551596e-02
      1.5824033501328694e-01 2.3091746561073212e-01
      -1.0510930513505182e-01 -1.0689175350547672e-01
      -1.5643832656019457e-01 -6.5895110907973481e-02
      -8.6040949098740160e-02 1.3991930842074221e-01
      -1.9165980334458568e-01 -1.3119614920145015e-01
      -1.0733943764564377e-01 -1.0939874289462878e-01
      7.0837009390283978e-02 -2.0552823139795501e-01
      1.9155814373761307e-01 2.9755368360057009e-02
      1.3447254992972152e-01 3.7655309374859593e-02
      -1.5409617806175416e-01 -2.5271611082800086e-02
      -2.3820047173546469e-01 -1.8900944338657227e-01
      1.2653423864604602e-01 -1.2893458239583136e-01
      -1.3202601738347466e-01 -8.5476778104976170e-02
      -2.9324028324193497e-02 -6.6355420868039888e-02
      1.7455399939584462e-01 8.1289223096801713e-02
      1.8280423553460201e-01 -1.1450542675767596e-01
      -5.2307517544220458e-02 9.6769309818970667e-02
      -2.6803036463704188e-02 8.5554325107840945e-02
      -5.0081180683144023e-02 -9.8398708399452126e-02
      9.8199087519707060e-02 -2.7076543059642310e-02
      -2.2244701191482402e-01 7.6405461102526644e-03
      -8.3451700693714603e-02 -1.5147724818427635e-01
      -6.3366127408013173e-02 -1.2912191271905135e-01
      -7.5012206088915208e-03 1.3511021572324203e-01
      -7.7786431525279406e-02 1.5240800797727383e-01
      1.4049658436651232e-02 -7.2740716860532531e-02
      1.5206130244874988e-01 8.9311604755733284e-02
      9.0839448693689519e-03 1.7816963309706002e-01
      2.3754109077118724e-01 -1.0343933469452646e-01
      -4.9976411983478311e-02 -8.5592984985538457e-03
      1.4966026842850458e-01 -1.2981354719856397e-01
      -1.3389811631082707e-01 1.3636466739730113e-01
      9.6113661883759291e-02 1.9096875725489343e-01
      1.7741696269038895e-01 1.6292573648198475e-01
      1.0841067343540545e-01 -6.0555833084889696e-02
      -9.5046092487709927e-02 5.9064078123279663e-02
      1.3882343765122776e-01 -1.2475283711062841e-01
      -1.9387276172064538e-01 1.6107635002677104e-01
      -8.0147317936719101e-02 3.1408197797321916e-02
      2.1132082649129366e-01 -2.5127843161132746e-02
      1.1492619707694635e-01 1.5989128037189498e-01
      7.0129612353806381e-02 2.8562846321646507e-02
      -1.5705425214851065e-01 1.3136523357934546e-01
      1.1235212118020008e-01 -1.5024876935336964e-01
      -7.7242179675753003e-02 1.3291996834727801e-01
      1.3846896013618318e-01 8.0403496800801208e-02
      5.3534217867367333e-02 8.1338589025206534e-02
      -1.8383158771443592e-01 3.0119243811468105e-02
      -5.4647998294133568e-02 -1.6517444748008270e-01
      -2.0497699128916379e-02 1.8266054838297505e-01
      -1.2740053733980378e-01 3.2467941092191054e-03
      2.2487988119919067e-01 1.4572806198222357e-01
      1.0399906011626570e-01 1.3542738187632225e-01
      -3.8992155780778796e-02 9.0227072696233840e-02
      -9.3915126376125702e-02 1.7374973691091330e-01
      1.5517137953441254e-01 6.7608649900514593e-03
      -6.0020604635604720e-02 1.7653783660166456e-01
      -4.0607353725250456e-02 3.3189130384648727e-02
      -6.3685358293459740e-02 1.8297145765888351e-01
      8.9952017624864239e-02 -1.2502410938264347e-01
      5.6106425756430191e-02 -1.1057350657948582e-01
      -8.8590403278708443e-02 -4.1459005193817140e-03
      -1.5227397812121471e-01 1.8468931668106928e-01
      -1.3297691302141795e-01 -1.6650692520844315e-01
      -1.3625042787006289e-01 -9.4744576005872994e-02
      -3.5882951182790439e-02 1.1994817474923948e-01
      4.6027670511762209e-02 1.1675528384837630e-01
      -3.9082339700396623e-02 1.4077482834486754e-01
      1.9530714812204539e-01 -9.5486801824686621e-02
      1.6050504580616096e-01 -2.0723822486302682e-01
      1.2427706631965074e-01 1.1195958416252877e-01
      -1.7274475626801469e-01 -1.9167521687279757e-01
      -1.9212627098480878e-01 2.2122911401505387e-02
      1.2718306024723994e-02 4.8272473063552201e-02
      -1.9125822954977822e-01 2.0166416681652935e-01
      -1.6298170880838037e-01 7.3587749316062823e-02
      1.5775170649401685e-01 -1.2922222959066418e-01
      3.2283842568941713e-02 1.1026535937677653e-01
      -1.8086826594574321e-01 -1.1394699611429354e-01
      3.0041782218902559e-02 9.5659224033840910e-03
      -3.3915384778059499e-02 1.6958265352918109e-01
      3.4589565200724794e-02 -2.0863084255254233e-01
      -9.2484538979902983e-02 -1.4425807198694493e-01
      -9.1689875337530227e-03 1.5657620885281075e-02
      1.5216793184807838e-02 -1.3586465598695166e-01
      -1.0139057368537316e-01 -2.6613903659948614e-02
      -1.0689744279241638e-01 4.8418829339942487e-02
      -6.8375255894806058e-02 -1.8223575878833376e-01
      -2.1660700534943625e-01 2.5998804675426807e-01
      -8.3524853468999724e-02 -1.0288626367666277e-01
      4.2482761758421632e-02 -7.2085276975320259e-02
      -1.6068691650024523e-02 -3.7760310243810831e-03
      -3.3551783987510103e-02 1.0301737006386839e-01
      -1.4823270192233839e-01 1.3670225742338225e-02
      1.3515952123065489e-01 1.5674525106748743e-01
      -1.5484983850596556e-01 1.0872011580662114e-01
      1.6557660767376634e-01 -1.1776216097046467e-02
      -2.2367586709083051e-01 2.2361575766581368e-01
      1.9639938475046620e-01 -4.6013827071592212e-02
      -2.2141475232646368e-01 -1.3664728010213086e-03
      6.9431793792522796e-03 -2.3365236807583670e-01
      -1.1519564221392507e-01 1.3968909662674617e-01
      -6.8926424226326027e-02 -1.0272812807758383e-01
      8.2426940276670441e-02 -1.5265119326962132e-01
      6.3438317527649668e-02 -9.8594157085878625e-02
      1.2224274741421431e-01 -1.0884007883272871e-01
      2.5739797587343727e-02 6.6500235090469886e-02
      3.0383269390512849e-02 -2.1232163196535031e-01
      -1.1037793800212868e-01 -8.8221479748970918e-02
      6.0147935524225059e-02 1.8813580906670307e-01
      1.0557172669300342e-01 -1.1679952261614865e-01
      -1.0036290115378059e-01 -1.0466723221463418e-01
      1.2210483790147673e-01 9.1279176033676870e-02
      6.5399546835300568e-02 1.5575063374699211e-01
      9.3181431806478976e-02 8.9624396968587969e-02
      -9.1165870748376593e-02 9.5536369631089635e-02
      2.0717430801660375e-02 -1.5602439269690699e-01
      1.3757486352160833e-01 1.5973254586424621e-01
      4.4604785638172433e-02 1.3300974836230528e-01
      -4.6195476354782567e-03 1.0283841874055087e-01
      -1.8119802840387805e-01 8.6572802767323501e-02
      1.1563277511481767e-02 1.3416720494416898e-01
      4.1791955847682853e-02 -2.2800567768048656e-03
      2.1800863743500309e-01 -5.9783736496119413e-02
      -1.4667889629586880e-01 -6.1331645897283717e-02
      1.2532744736197290e-01 -2.7824054508930884e-01
      -2.5353351501351710e-02 1.0592224810750360e-01
      -1.7228899231054468e-01 1.4527519032657643e-01
      1.0029649798292110e-01 -1.7341917711030108e-02
      8.4730595902141409e-02 -1.9909507227786299e-01
      -4.1156383111951585e-02 -1.8041530078388365e-02
      -6.8839753479756738e-02 2.5308006849082753e-02
      -1.5172599478095455e-01 5.3481024894604649e-02
      1.7929431358085385e-01 -1.4492456447218560e-01
      -2.2250246612392413e-01 1.5362035882691413e-01
      -1.5424633147186262e-01 1.8222011266137492e-01
      1.4014290912816160e-01 -2.5551362252493205e-02
      5.0268931208579032e-02 2.3958205922291385e-02
      -1.4226930607000021e-01 -1.0222963410507938e-01
      -2.0068837579847759e-01 2.1132285854274933e-02
      2.1966780831626698e-01 -7.0544887182125413e-02
      -1.8391361015586147e-01 8.4067877297327703e-02
      1.5735357294694649e-01 9.9289482084909730e-02
      1.2027230729765466e-01 4.2615856100589211e-02
      -7.7503538773381384e-02 1.6031977143098680e-01
      -9.1668073929895066e-02 1.5142710451161726e-01
      6.2591090379057135e-02 -6.8970706395226566e-02
      1.9861555363122136e-02 -1.2257987497899069e-01
      1.6829899415528790e-01 -1.0568802925298459e-01
      1.8304439811319625e-01 4.5874434166225220e-02
      -1.9171860893126805e-01 1.3808041797116550e-02
      -7.1779241150452811e-02 -1.8681825951814676e-01
      -1.1543467002633792e-01 -1.2228872885363674e-01
      2.2016727670756880e-01 -7.4745554246963553e-02
      -7.8812440753182125e-02 -1.4470183036613882e-01
      -1.0961163036360813e-01 -1.8365226501445719e-01
      2.4376515501547541e-01 1.1199023968256622e-01
      -1.1393448946463652e-01 7.0386703054458405e-02
      1.2173461915697317e-01 1.3785689689573186e-01
      -3.9262563152811659e-02 8.2296555269694024e-02
      1.0439431613919015e-01 -1.4931860087273177e-01
      -8.8105765232941377e-02 5.0779325808742982e-02
      9.2341037049384858e-02 -1.0667306834302991e-01
      -6.6147687429024438e-02 -3.0429235682178320e-02
      9.9305970991110368e-02 -2.5819830869854760e-02
      3.8271553035509762e-02 -4.1329986942575100e-02
      -1.0403165209125591e-01 -7.3426094342856199e-02
      -5.7037285068645700e-02 6.2183049517496751e-02
      -3.0688194874332789e-02 4.0122369011634906e-02
      3.1526213119249184e-02 -8.5995586972408347e-02
      -1.0855221543947779e-01 -6.4209377050547314e-02
      -7.1643644092926461e-03 -5.0986823665842625e-02
      -1.0138494517250069e-02 -8.4413459818390948e-02
      -8.1143864872453425e-02 -5.1362649994159217e-02
      -1.7631758727953681e-02 -5.0873486137750432e-03
      -1.0461453645751781e-02 3.3460337835313644e-02
      -4.0883613412577700e-02 -6.3780213565987351e-03
      -5.8747186167590858e-03 5.0374254544825164e-02
      4.8308892985724911e-02 1.3588027534233228e-02
      4.0200055622331511e-02 3.8209691524953251e-02
      -1.8492150465602129e-02 -2.2825176154816974e-02
      1.1917333897857650e-02 1.1624135462312626e-02
      -7.7529335744444686e-03 7.3308478740148255e-03
      -9.1614644399398582e-03 1.2020474560248058e-02
      7.9261620796218218e-03 -2.2902562556247571e-03
      -3.9276556169563320e-04 1.7435420737092850e-03
      2.7337095439390791e-03 -1.4912778445949562e-05
      -2.9156525455448861e-03 5.1575000479465467e-03
      -5.1288810170485423e-03 -2.1570359978261670e-02
      7.4089946846823788e-03 2.2485326686834835e-02
      -1.9025281462588538e-02 2.2184227083628630e-03
      3.3021513625863051e-02 1.5941079376515878e-02
      -1.6457296739596930e-04 2.8010118256897362e-02
      1.2589808879736555e-02 -3.3798758479997026e-02
      -4.2914437834977108e-02 -1.4427985184546767e-03
      -1.7006933409979266e-03 -5.8106138793362731e-02
      -3.9421919244611831e-02 -5.8439174422921019e-03
      -7.3786031124757331e-02 7.9196290230285613e-02
      -9.0076111249020693e-02 -7.5359789242625222e-02
      5.1965615186400867e-02 8.9856099743110429e-02
      2.9942662495511451e-03 8.1174426930262153e-02
      3.5169488243091573e-02 -8.5323792051264558e-02
      4.2925005168936110e-02 -3.1464218434249416e-02
      -3.8371427968621918e-02 -9.7252555291116358e-02
      -6.9795395705272226e-02 5.3593459431369839e-02
      -5.3934746065570326e-02 2.2756226832285991e-02
      -2.7489424724392524e-02 -6.2868199621453194e-02
      1.4889490393792826e-01 4.9377474717087450e-02
      2.4114397605323602e-03 5.8520282093691763e-02
      9.8086041195490720e-02 -2.3180432066412661e-02
      -1.5366967793778655e-01 8.3092110303676373e-02</_>
    <_>
      1.0360418240459414e-02 6.6809070758741861e-03
      1.5502614781045381e-02 6.5710027076701294e-03
      -5.1394155120570197e-03 1.6745535347542598e-02
      -9.2626277356736147e-03 -7.3238524354120949e-03
      2.3870605089167284e-02 2.8668026029278490e-03
      -6.9636629577850004e-03 1.0802758181650069e-02
      -1.7030220424096545e-02 -1.1341656050942426e-03
      -8.4495245312703159e-03 1.2925025695895161e-02
      5.0292466226689175e-03 -3.1380880085880945e-03
      -1.1420238490391546e-02 7.0874417695292301e-03
      8.7249641728778873e-03 -5.9755222497655559e-03
      -1.9068753071559690e-02 1.5449778716253169e-02
      -5.2130830750164465e-04 -6.5032625758796028e-03
      -1.3523710543380829e-02 -5.9328361488637255e-03
      1.6255153220571292e-02 -2.3087476433241443e-03
      -1.0344365520355118e-02 1.5997580924838085e-02
      8.7389484972345850e-03 1.4892422344123654e-02
      1.4833878566625163e-02 -6.0697645841380752e-04
      1.8753067621231388e-02 -1.8591404373558620e-03
      -1.6665818306598482e-02 -6.5772334057815031e-03
      1.2809797477416219e-02 3.9589562677697105e-03
      -8.7176763790256118e-03 1.8571822350510411e-02
      4.8785950441247086e-03 -1.3641623720330575e-03
      3.1907424087647142e-03 -2.5466660433359758e-03
      -5.7258676650885831e-03 6.0935118361876445e-03
      -6.8531342996688881e-03 5.7343465231628962e-03
      -1.1154801875839335e-03 -3.6803043367408424e-03
      3.4813713921714061e-03 -2.0535179967157190e-03
      1.5810029619325212e-03 1.8721766524580890e-02
      -1.5158523185046025e-03 1.2875328294052633e-02
      -9.2322193873411746e-03 -9.4873934474969251e-03
      -8.6771915269724855e-03 4.8568160544500023e-05
      3.3019907443369188e-03 4.1887006062751890e-03
      7.7718226393450442e-03 -7.4698681361678792e-03
      5.9548302502246469e-03 -2.4480734546506017e-03
      -6.4930068579057386e-03 4.2322415920761037e-03
      -1.4191103597186783e-02 8.3508564375669517e-03
      2.1878634754751046e-03 3.5819048006672187e-04
      -7.2815226452495451e-03 6.6609148587034421e-03
      -1.3671916174380619e-02 -1.5400053620089074e-02
      -5.9091629905717183e-03 7.6323420156417278e-03
      -1.5346069103705136e-03 5.4105659079783540e-03
      -1.4959068079864525e-02 1.9556582225650550e-02
      1.2405142324637035e-02 -8.5362718940808074e-03
      -1.6437413592205307e-02 -1.7874543309507027e-02
      -6.3378479265897431e-03 1.7103414421550972e-02
      1.7699571864716244e-02 1.6084329693519566e-02
      1.6663561228714360e-02 7.5626031406860767e-03
      -1.5754237823817036e-02 -1.1918596566924922e-02
      -2.0106099652888225e-02 8.1667785010479908e-03
      5.2554729786845368e-03 -1.9909295791914430e-02
      -3.1910411033579649e-03 -1.4046358890245718e-02
      1.8982376899650284e-02 -3.7828214596883178e-03
      5.2737676224684548e-03 -1.0802047809292755e-02
      1.0389853809855335e-02 -6.6632288356259818e-03
      1.2689580227566994e-02 -1.3387589593966954e-02
      1.7418075849388672e-02 1.7738256263802540e-03
      3.9911396750923808e-03 -6.3031437613501147e-03
      -1.4096866203655490e-02 -1.1405320137613065e-02
      -2.3579523594521899e-02 2.0800153860821083e-02
      -2.1168242060482987e-02 -1.9992566025121592e-02
      7.6751464588804465e-03 -2.7040829191286374e-02
      8.7640377028043292e-03 2.9621734702417464e-03
      -6.3535797237797753e-04 1.8672525004734437e-02
      6.2249856675873514e-03 -4.0871368941254654e-03
      -2.1250068623247610e-02 5.2725626420740333e-05
      1.2728974273889715e-02 1.0378394286233921e-02
      -2.3405470426872504e-02 1.0918614031367832e-02
      -1.6415000319693061e-03 1.1329826725742219e-02
      -9.3059789133996523e-03 9.9808734262544119e-04
      1.2424362793122758e-02 1.0588885476343150e-02
      -1.7356040027090907e-03 1.7572151604031489e-02
      -4.1454455867691231e-03 -1.5240612968747042e-02
      -1.2022672095606486e-02 -1.6748921331044424e-02
      -1.2676976645686936e-02 1.4893929746891502e-02
      -1.7720650927020576e-02 1.8841629060965991e-02
      -2.0582003889236693e-02 -3.2495708739153461e-03
      9.8068622191963386e-04 -3.8898035529392546e-03
      -2.6302874390359146e-03 -1.2083106060345671e-02
      7.6226454595249796e-03 2.1366044031859429e-02
      5.7045021833767228e-03 -2.3407402729166804e-02
      1.6161094138419856e-02 -8.0044836305241812e-03
      -2.3028213489833058e-02 1.8971586394021946e-02
      -9.7805629358439193e-03 1.4948436927918120e-02
      -1.7158327791332289e-02 -1.4278820769078014e-03
      2.8515459555119639e-04 -1.4903981082023348e-02
      -8.3857583079668691e-03 8.2234764983953532e-03
      3.6595235490656857e-03 6.9175471936050352e-03
      -7.0595027795335137e-03 -2.2071028294885196e-02
      -2.2745667799127189e-02 -1.1194317513684268e-03
      1.1323361977391705e-02 -1.9043288020732699e-02
      9.1225579825669218e-03 -1.0269553311652338e-02
      -6.2817355101980731e-03 -6.6915022150133138e-03
      3.5053254201703903e-03 -5.0667853711325699e-03
      -4.8147069187535812e-03 -3.5184673337116850e-03
      1.7569143486885600e-02 -4.3064308367836571e-03
      2.5733510976812344e-03 -2.1880253174566083e-02
      9.1613055789006234e-03 -1.3939666904782584e-02
      1.3926665165720727e-02 -1.0311555475654773e-02
      -1.9069037769099070e-05 -7.4856837888716819e-04
      -1.2052377286338203e-02 7.1498941620235321e-03
      1.6361368679049311e-02 -4.8453102964732143e-03
      -1.0442941301726539e-02 1.4029453018283239e-02
      1.5917757659088597e-02 -5.1747850175163273e-03
      1.0572401942738328e-03 1.7479785709407752e-02
      -1.5119814145784616e-02 -2.1401505036548104e-04
      7.8442771129129190e-04 -2.7080666858299236e-04
      8.5518025599154272e-03 1.9438361879118782e-02
      -6.1540842110133481e-03 -5.9871185118266449e-03
      1.8520783391758732e-02 -1.5644091774554534e-02
      -8.8088689932416617e-03 -1.0020918448731497e-02
      1.5570586460609704e-02 2.5568087852133665e-02
      -8.5463852897033109e-04 4.3427584241489507e-03
      1.6108834404033809e-02 6.5986292465794278e-03
      1.2369619356270801e-02 1.7654568026338649e-02
      4.2839937246956575e-03 -6.6557443709588321e-03
      -1.2332896590991380e-02 -8.4036075830924272e-03
      1.1662421685353605e-02 8.9994610443594279e-03
      -1.1057841118661529e-02 9.4769518233916734e-04
      1.8942084852770897e-02 -1.6530480448100789e-02
      4.9903403193823619e-03 -1.4720466800639693e-02
      -1.0715804876061238e-02 2.4298089222836235e-03
      -1.6186853561878184e-02 -2.2853059061899135e-03
      7.9387603395890387e-03 -1.6842347690506049e-02
      1.6066278299013140e-02 -1.5443870930202434e-02
      2.5260096161105333e-03 1.3242441063640290e-02
      1.1896053704151548e-02 2.3993545337663093e-02
      -1.0440634201178172e-02 -1.2302611118619166e-02
      -1.9443641480728134e-03 2.3762783785385998e-02
      -1.0223472262413602e-02 4.2831794453300763e-05
      -8.6010743650074602e-03 -1.2463733357992859e-02
      5.9302707389192189e-03 1.8182267858152985e-02
      -1.0512933917184553e-02 -8.6754812838198987e-03
      1.3477339586929177e-02 4.8609818863109928e-03
      1.5691970811526217e-02 2.5089016801430730e-03
      -3.0830631948831908e-03 2.2106682525359519e-02
      2.0289858041310414e-02 8.2569577061987354e-03
      1.6727326438064911e-02 4.8646816793988697e-03
      1.6295291857535497e-02 7.8406284319804224e-03
      -6.2992396667631081e-03 -1.4472910391793334e-02
      3.6648803709460106e-03 8.5942074935617726e-03
      -8.9903213471625287e-03 -3.1444565375446363e-03
      -3.9347647870399734e-03 -1.5780596249410767e-02
      -1.4124395495599549e-02 -5.9347775815275054e-03
      -7.2620056227964041e-03 -9.3940625317303177e-03
      1.1261215594216119e-02 -1.2962551591806964e-02
      9.9661583084144339e-03 -1.1124878861336354e-02
      -1.3843624897408638e-02 2.2064094755013208e-02
      1.9184191134509507e-03 -3.7141769218867020e-03
      -7.0698896083929369e-03 5.2124244750278454e-03
      7.3213489322093437e-03 2.3203826367652277e-02
      -2.2090998607523747e-03 6.0320250779458615e-03
      1.2649278704167294e-02 -1.8799616808648341e-02
      2.1525267815617172e-02 1.3951407243347827e-03
      -1.1613960070065727e-02 -9.7419780203530388e-03
      -9.6347501717995374e-03 -1.7399129101643759e-02
      1.4743810773898774e-04 2.0839442951682458e-02
      -9.4027220450929212e-03 -3.1958013516422408e-03
      1.7278192392091107e-02 -1.0813601597659008e-02
      -2.9709785688717925e-03 -1.9749811489180480e-02
      1.4410091631025571e-03 -4.8994488251685089e-03
      3.4568031660552707e-03 1.6003396521484421e-02
      9.0092025078941217e-03 -1.3523345397245675e-02
      -1.1460764270583363e-02 5.7674862840743453e-03
      4.6892612877930621e-03 -1.4019867216297034e-02
      -1.3580273960602886e-02 5.8192810382182688e-03
      1.3843245831821033e-02 1.2410268017488429e-02
      1.3846836461464455e-02 1.8413486496130952e-02
      2.0115697803025228e-02 1.5043003399764341e-02
      -7.9211732316721833e-03 1.3917596546020886e-02
      6.5590685625251397e-03 -9.4294532624722843e-03
      -2.2698837918928624e-02 1.6119122861640565e-03
      6.5924507868340577e-03 6.2263529585667556e-03
      -1.8184098704820191e-03 -4.0220519398713401e-03
      8.3642014370782069e-03 -2.1818582596131772e-02
      1.4944044434434616e-03 -1.5046067069211804e-02
      -2.4919143222034302e-03 3.5478384270116441e-03
      1.7347912350767806e-03 -1.1921654706038386e-02
      1.3982840781049867e-02 3.0877847250463113e-03
      4.5127877223754545e-03 -6.7254937556050533e-03
      -5.7362743228584617e-03 2.2704723252001027e-02
      1.2339981961308661e-02 1.3873922974043277e-02
      1.2419390949216428e-02 -7.2627391986693048e-03
      1.3771162244796792e-02 -7.9011611243719020e-03
      1.0704530792820480e-03 -2.0885434909351783e-02
      8.6047286250563165e-03 9.5071825093589104e-03
      -5.7918095883323284e-03 -1.2006395340470341e-02
      8.1871738459448080e-03 6.6651306663541837e-03
      1.1803299413900660e-02 1.6559355048670391e-03
      1.5577583564999161e-02 -4.2982575767595661e-03
      -1.4862511510232056e-02 1.6077033874784177e-02
      -2.2293353102693807e-02 -1.4327703976206281e-04
      5.8092361111473428e-03 -7.4313260797957250e-03
      5.6741720164823145e-03 -1.5478442379373548e-02
      3.5621899419084274e-03 2.7486585308092561e-03
      -6.1977187109262975e-03 3.7097120868874963e-03
      -2.5110497274906133e-03 -3.5632380914759182e-03
      5.2505632637245515e-03 -1.2759447057193852e-02
      1.5424234400480363e-02 4.1130263585928292e-05
      1.4184176225513980e-02 -1.6558555876325633e-02
      -1.5944039249796069e-02 6.1245243490454437e-03
      2.5957837263699888e-03 -1.3427297745253187e-02
      1.8943388136742820e-02 -1.8685991152962163e-02
      -3.9150837458247767e-03 -1.4697049684123012e-02
      7.6696508433596400e-03 -1.1813289133488482e-02
      1.4566799332774119e-02 9.4347462300635437e-03
      1.5671177285993265e-02 -1.1257984781724297e-03
      1.8464716826441203e-02 1.7204870014792952e-02
      1.5534036802539414e-02 -2.2680334386897772e-03
      -5.3478394562302065e-03 -7.2179134269240632e-03
      1.4284066978607422e-02 1.6018683977390681e-02
      -3.1350221689233028e-03 1.9810574996851297e-02
      -4.3551261753061767e-03 -1.2186445854501082e-03
      1.5450533598146292e-02 -2.9126781110485962e-03
      -1.1885597937616619e-02 -2.6099874991306602e-03
      3.7462004228919535e-03 1.0514752173338977e-02
      -1.1264141649094863e-02 -9.4589536123996924e-04
      -1.7599294425314320e-02 7.1204799890178523e-04
      1.0000077739391752e-02 -1.6710220718054492e-02
      7.7479117486641503e-03 -1.2982752423463990e-03
      6.2576383282214685e-03 -7.1375064885634424e-03
      4.4341708524655663e-03 -8.2189837946663093e-03
      2.1405925412484924e-03 6.7605545434067304e-03
      1.2404433973801856e-02 -1.7669609841158777e-02
      6.0014525676664035e-03 1.4140441807530777e-02
      -2.7425560279832621e-03 -4.6377918381409935e-04
      -4.1288245884904956e-03 -5.5135853810562799e-03
      1.3132123825420909e-02 -4.8976046080907937e-03
      -4.0248876556034548e-03 4.1780568954469816e-03
      -1.8055721951741089e-02 -1.2738949173513514e-02
      -1.7178730191500742e-02 -2.7067624507031945e-03
      -1.7203120271502108e-02 -4.3730489168331025e-03
      -1.9200574221208071e-02 1.1079929958627485e-02
      6.9366375138830479e-03 -1.2177855532744062e-02
      4.6422319696136673e-03 1.7544769530321882e-02
      -2.0600516575907984e-02 -1.3967098592178357e-02
      -9.7589117142104498e-03 -1.9083199603714854e-03
      1.5061648576374506e-02 1.7950843408811302e-02
      -1.1093414127111012e-02 -1.0449415889865626e-02
      5.5856529438322450e-03 -5.6488725821087946e-04
      2.5767635467268337e-03 -6.3312959278022342e-03
      1.7890106141941739e-02 -1.0461380087039963e-02
      -7.8144665130663819e-03 1.5820473413072241e-02
      -6.9799446702124603e-03 -2.0126811731402561e-02
      1.5110438819984329e-02 -1.4211436622577303e-02
      1.1425230218823652e-02 1.5399779855743062e-02
      -8.4204772592096824e-03 -1.1103584444307707e-02
      9.0118747942967284e-04 -3.2453533642761430e-03
      1.0864923137456036e-03 -2.2592680301192539e-03
      1.6119876898914077e-02 -1.5120188778119780e-02
      6.5240589094962588e-03 2.4925298683932066e-02
      6.0803409865245626e-03 -8.8045052518583491e-03
      -8.4643440038624038e-03 -1.7281215755032189e-03
      -6.1768418765959406e-03 2.2368268553633962e-02
      5.2398898264409991e-03 -7.4947400227613099e-03
      1.6685090764168388e-02 -2.4471542354747262e-02
      4.9749703386932857e-03 9.0011958275461636e-03
      -1.6697122138745048e-02 2.5090658058102453e-03
      -1.1001490205493477e-02 8.0142435632911020e-03
      -6.1326347760419734e-03 -1.3490504393371955e-02
      -1.0300534241638940e-02 1.6248716545823445e-02
      1.7778068215878219e-02 1.6314823189147173e-02
      -1.6446782607169086e-02 -7.8142099865716203e-03
      -6.7320526133387059e-03 4.3217482966606087e-03
      9.0031915260767263e-03 7.5156339687891972e-03
      -1.5706703521292395e-03 -1.1913364394533313e-02
      -2.2597653127233035e-02 6.2841102956123964e-03
      2.2585889256822061e-02 -8.1874296766490228e-03
      4.0411547468005484e-03 1.2639486273775747e-02
      -1.2475932400727356e-02 2.6508081577067471e-03
      -1.2890385762698089e-02 -5.6508099931985053e-04
      -1.0324699915824033e-02 -4.8119224489142970e-03
      -2.5788073491895434e-03 2.2657519791762094e-02
      -1.2865449034324534e-02 1.2831139536103682e-02
      1.2501799932528885e-02 -7.3994260153354210e-03
      7.8594069549566634e-03 2.0066730657613005e-03
      -1.0861839748855589e-02 3.1339269634624425e-02
      -1.9838543916974521e-02 9.7369360356877738e-03
      -1.0041397767854321e-02 2.3288324523031891e-02
      5.7881313720150448e-03 1.7838528765072586e-04
      6.3318423133681611e-03 1.6693213223854052e-02
      -1.6482248283025046e-02 -1.0056128433787458e-02
      8.9573870430497519e-03 -2.5438780405754421e-02
      2.6838076633029374e-02 -9.2844310056996657e-03
      -8.5170200253420632e-04 -2.2955829863202239e-02
      -9.3045178084644291e-03 -6.7002072749271864e-04
      1.5741129367729057e-03 -6.4375198748458495e-03
      -1.7242584877371792e-03 1.0828101024303004e-02
      1.3084439302185910e-02 1.7467789951307596e-02
      2.3778135967376511e-02 5.5253811430722704e-03
      -1.3938819771453356e-02 7.6118172487991669e-03
      5.0641212056567611e-03 -4.3174807965470317e-03
      4.9182546949733614e-03 8.1088075946058192e-04
      -4.5810095447549716e-03 -5.3565554750779172e-04
      -3.2007342969904260e-03 -1.7983392922181814e-02
      -9.9030844095809745e-03 -1.5456934605411187e-02
      1.0235733655783938e-02 1.1042384977467200e-02
      1.3701222521738830e-02 1.6120310524803210e-02
      4.4599350500840592e-03 -8.8149689615757715e-03
      -1.4217228987051970e-02 7.3484344371546623e-03
      6.8564434836293855e-04 -5.9647724592935885e-03
      -1.7214222839242769e-03 -9.0935548019351782e-03
      1.4014515585798722e-02 7.6771478473498548e-03
      8.2936017756758476e-03 6.9884714706913199e-04
      -9.2488041257018736e-03 -6.8259522847814481e-03
      3.7575010061265579e-04 -3.6667780808244924e-03
      1.7380477641848489e-02 -3.7553039976107980e-03
      1.3441527822627615e-02 2.7238783197383381e-03
      1.1627859581230939e-02 6.0119987298250948e-04
      3.5082151366692209e-03 1.3091887195536375e-02
      5.4110080190650275e-03 -7.2662676396126830e-03
      -7.0143538599998960e-03 -4.4492388732476299e-03
      -7.7281946026249348e-04 5.9037998266959300e-03
      8.5275420717377363e-03 -1.5217317471548595e-02
      9.8854720588290989e-03 -1.7396950620944485e-02
      7.4210980417497669e-03 -4.6578875058727910e-03
      -7.8201044434653387e-03 -7.8027008065959594e-03
      1.0246066598844503e-02 1.3289771815756839e-02
      -6.8279665963213538e-03 1.7994468762144965e-02
      7.9602330274658288e-03 -1.1438824296389150e-02
      1.2262392722565086e-03 1.1621950701427660e-02
      1.0973088006485153e-02 -1.1911004309533115e-02
      -5.1782552263929223e-03 -1.7121705172028497e-02
      1.9927666781532133e-03 1.2884060186540524e-02
      -1.5014867086929689e-02 2.3262442895371689e-03
      1.4831632173086964e-02 -6.7685731313871841e-03
      1.1478070224279616e-02 -4.0565896181873375e-03
      7.9860337423169137e-04 6.6079629222819949e-03
      1.1033584226986314e-02 -2.6333711207209378e-03
      1.1629615166471516e-03 -1.9536743875859970e-02
      9.4199993762494709e-03 -2.4799031665663461e-03
      1.2511597483730690e-02 -1.3154435722812999e-02
      1.8555736826805311e-02 -1.0478306485096333e-02
      3.3930242172428918e-03 1.3144563479039348e-02
      1.1273814243310429e-02 -1.0848467033922290e-03
      -7.4721131374620308e-04 1.7215632582639646e-02
      -1.5619429185600284e-02 -1.2883844210275268e-02
      -1.2936378049846915e-02 5.9658706581148377e-03
      5.6349452432919887e-03 -1.9914575815163271e-03
      -1.4098163467216410e-02 5.8583627102890988e-04
      -1.0171391069535990e-02 -1.6022123777385603e-02
      1.3262450733593920e-02 1.8478879783346736e-03
      1.8709609262853996e-03 -1.1220881006698874e-02
      -8.9617649612637931e-03 3.7833166664531562e-03
      5.9538317737444519e-03 1.1396182976572369e-02
      -1.2934320743105391e-02 4.3525422919576447e-03
      5.7787042459759965e-03 1.0969402799633404e-02
      -8.5443063401315460e-03 -1.4566809841349570e-02
      1.4672083834618453e-02 -5.2655068477682832e-03
      -4.4027721695110104e-03 1.4323851372904197e-02
      -9.8804024931564323e-03 -1.8508948702932248e-02
      -1.9470963813165269e-02 1.0566405677837126e-02
      8.2190320884348404e-03 -1.9570509709515987e-02
      -1.2529242369778227e-02 1.2884775754653173e-02
      1.2056144641795696e-02 -3.2836890387430958e-03
      5.1911255770333070e-03 -1.3810458869595171e-02
      1.4801128230790706e-03 8.4876494804430359e-03
      5.0215777295656804e-04 7.5586820114022730e-03
      -4.5241106636290974e-03 8.0498718049970518e-03
      -1.7792606096508446e-02 -1.4074593474386443e-03
      -4.3431084636536875e-03 1.6569931096897503e-02
      1.7814155848263652e-02 -1.3598902997115732e-02
      -1.3349696245528044e-02 1.8797228096324715e-02
      7.3796227892510722e-03 -3.1459007931487434e-03
      1.3937860364235085e-02 -1.4351993575997604e-02
      -9.6122251424065920e-03 -4.6108520690864768e-04
      -4.3956700590380062e-03 -1.5919351183536198e-02
      -3.5188417980534364e-04 -7.9015959995065149e-03
      6.3734345901715565e-03 3.3334080999607627e-03
      -1.3125973594097912e-02 -1.6116034944781140e-02
      1.4623052934523534e-02 -1.6419481823554715e-03
      -1.2582256407724377e-02 1.3972827811417038e-02
      1.3408917971925904e-02 -1.3169402579969375e-02
      1.4378729427334574e-02 2.6225595233279079e-03
      -1.1712743842595786e-02 -1.5927855604377032e-02
      -9.9421204712017465e-03 1.2239407978271988e-02
      1.6997020004485982e-03 7.0072424964044916e-03
      -1.3750455314563387e-02 1.7632771366665790e-02
      -6.3602251427527685e-04 -2.8162457523979675e-03
      -7.0902495214346176e-03 2.3575127352192804e-03
      -1.8248345369199233e-02 -1.7456814643144011e-02
      -1.8092507840827905e-02 -1.1766750368149339e-02
      1.2606712251990016e-02 -1.8917514180966538e-03
      6.7560087599183695e-03 1.9324028254451762e-02
      8.8226045455349240e-03 -1.5699268013904564e-02
      7.6590689072475477e-03 -5.2267751051576100e-04
      -2.8094995819856988e-03 -1.5667596380720322e-02
      -9.1632452799514080e-03 3.6410973703652921e-03
      1.9085219850842997e-02 7.9127099873655821e-03
      -2.8068390110027488e-03 -1.4462327181228187e-02
      -6.1234138636626139e-03 -5.7090629871598131e-03
      -1.8973189308245299e-02 3.4642004749456160e-03
      -9.1830049375129542e-03 -6.1321440976612419e-03
      -1.3091180168038896e-02 -1.3598673158130017e-03
      1.0415094084602845e-02 -2.9642414310047300e-03
      -3.0398186574886058e-03 -8.0743949214146550e-03
      -7.8507985557627873e-03 1.2763268827939529e-03
      -1.9784149129195611e-03 -1.0665209898398136e-02
      1.9148839062371015e-02 1.6560020333625705e-02
      -1.5384595057666112e-02 1.7850236584460132e-02
      1.8532466605475782e-02 -6.1732594686785824e-03
      2.8782855828536060e-03 1.8246414658886861e-04
      -2.4428627217899469e-03 8.8692580982143634e-03
      7.9834715615054019e-03 -1.2613455051360817e-02
      -2.0762372837697090e-03 -1.6131672731656884e-02
      -1.3182751871833317e-02 -3.5460055265440784e-03
      -1.5688397335161419e-02 -1.2961623152480948e-03
      1.2063905701552103e-03 1.8830229499610666e-02
      9.0729306732214715e-03 -1.2995631692026303e-02
      1.3224486755818700e-02 2.0434156530416245e-03
      -2.0006510728086208e-02 -9.2376146295241272e-03
      1.0528883820721178e-02 2.1888255073819068e-02
      -4.3994336254218535e-03 7.6327260798922910e-03
      -9.2144258850740384e-03 7.9517780528064221e-03
      -1.3166764330154521e-02 7.5090733376741593e-03
      -1.2847606261197155e-02 -1.7093291132966516e-02
      -7.8282027363231618e-04 -6.7771579331049126e-03
      8.6878347831662803e-03 -1.5257347370516802e-02
      -1.1922250875873617e-02 1.2399540600642115e-02
      6.9822894549893292e-03 -1.6715054939051868e-02
      1.9180142715086376e-03 -1.0288486719223694e-02
      -1.0247046440172179e-02 -1.5793033420057525e-02
      -1.5718240571215812e-02 -2.0073802800278633e-02
      1.1256666784161467e-02 -1.2383979783037149e-02
      1.1816200443123714e-02 1.7753998322752814e-02
      1.6037751028011842e-02 1.7502522349891355e-02
      -1.8326731738900422e-02 1.4762762863626808e-02
      -7.9265822461271739e-03 -1.6263428811657085e-02
      -1.7291511854434911e-02 -1.2544233546053009e-04
      1.0106579440060116e-02 -1.5204265130790755e-02
      9.2802605211622143e-03 1.1615479273055274e-02
      -4.1105438581778946e-03 -5.4204745215053682e-03
      -1.3039826396565111e-02 -1.2860006791551033e-02
      -1.4832898297740505e-03 -1.7824918231416582e-02
      8.4736054337107274e-03 -1.6192766939347309e-02
      9.3379204323392265e-03 6.9144968907271509e-03
      -1.7178575719597633e-02 7.8961764748445660e-03
      7.2191504473429688e-03 -1.1471814414925301e-02
      -1.8195576073529694e-02 -1.9756527390683010e-03
      2.0985603839741518e-02 -5.1563656585023043e-03
      -1.6625926432026022e-02 1.9695346991327987e-02
      -1.5206407950954912e-02 1.3532713987152716e-02
      -3.6434088468492716e-03 -7.8470033748991915e-03
      -1.1148475581092105e-02 -2.8969503910348097e-03
      -8.0537665369191762e-03 1.9846166582722811e-03
      -7.1981368198015469e-03 1.3994186276750073e-02
      -1.0527868794009651e-02 -5.0935869188925113e-03
      4.6159675377824508e-03 2.1978556503071422e-03
      1.2043492834911943e-02 -9.4918899869526029e-03
      -1.9464182555079458e-02 6.7265987267887632e-03
      -1.2173218125922900e-02 3.6598834363413815e-03
      -2.4414901636065526e-02 1.3375271124341422e-02
      1.0233686810790645e-02 -9.4791037472841851e-03
      2.0497926344376791e-02 1.9234542521597798e-03
      -3.3430356690400914e-03 -2.0663769908936681e-02
      -1.5330881737943411e-03 -1.6785718185583283e-02
      -6.2040397553980624e-03 1.8450457665358161e-02
      -1.1544676006855444e-02 1.5768098238566664e-02
      1.0510949434005457e-02 -8.4599165665949737e-03
      2.7477986182944104e-04 6.2417949091610643e-03
      1.1196446852512115e-02 -5.9199014597297334e-03
      -1.7734324684729210e-02 1.8528809295281168e-02
      2.6433095907900974e-04 5.5720428256587828e-03
      1.2268745104386403e-03 -1.7781814464879333e-02
      -2.8370352670234497e-03 -7.2174772839253849e-03
      1.1413644519740595e-02 -1.7268139342307105e-02
      2.3514502344274819e-03 1.5626659463925649e-02
      4.9008468893896413e-03 4.4249561338867835e-03
      5.8711291867890435e-03 -1.6710972617141509e-02
      1.3868217956904842e-02 -1.7421660489089632e-02
      8.3440899212279072e-03 -9.3674135872068784e-03
      2.3513849328595125e-03 2.0302600838691141e-02
      -6.0672617810676047e-03 3.9996897108176615e-03
      -1.1063677750332155e-02 -5.9016221503735509e-03
      -1.0013724321256762e-02 -9.7068975724474947e-03
      9.9252975468281397e-03 -1.6905702435720743e-04
      1.1784814540438598e-02 1.3381420775294868e-02
      -2.3630637222092788e-02 -4.7234973992453166e-03
      1.5874995856302431e-02 -1.1622312100657657e-02
      1.8519881702459867e-02 -1.4048536660466448e-02
      -1.8130533580645227e-02 2.0721993610591863e-02
      7.8762850274652092e-03 1.9635727439872915e-02
      1.3048230334030932e-02 -1.9658406828596073e-02
      -1.1950389087610414e-02 -1.1122266536247977e-03
      -9.7188312384948947e-03 -2.2897202969606789e-02
      2.3761457219115673e-02 2.6238034448768027e-02
      1.0739694485900638e-02 -1.1084697537758597e-02
      -7.8884360031328902e-03 -3.7882971851184596e-04
      -5.3895007054391231e-03 1.0916998121660051e-02
      -1.1755024838662934e-02 5.5672756887017423e-03
      5.3872193276288472e-03 1.5064493824857621e-02
      6.8786594356146750e-03 -1.7998373336210686e-02
      -8.7131639240668364e-03 6.8298382872515277e-03
      4.3419488010819724e-03 -3.4377597817246779e-03
      9.8002092123139206e-03 3.1685367980173061e-04
      1.0550500364421234e-02 4.9941892257085695e-03
      1.3136655624105204e-02 1.2041616396308652e-03
      5.4727354199623126e-03 4.6505031773482379e-03
      4.1489611491088855e-03 -1.0000643802306926e-02
      -1.6457941944710151e-02 -2.6108144303314705e-03
      1.7276781046139989e-02 6.2862946790739624e-03
      9.9927579959070657e-04 -8.0228266493118840e-03
      1.5469339473908909e-02 6.7737882316150199e-03
      1.3292719441869360e-02 1.8100544915923753e-02
      4.2613384095325580e-03 -1.3102600658758883e-04
      -1.6117550589558887e-03 -1.9978111872889094e-02
      1.8575187418987057e-02 1.6770717200571535e-04
      -1.8142285500268220e-02 1.3084020415311015e-02
      -1.6278272842197274e-02 1.3756011283695661e-02
      -2.0202905758630378e-04 -1.0753826353001783e-02
      -1.1207382764632297e-02 1.2793425203037653e-02
      -8.1141893015696850e-03 -7.5698734030289891e-04
      -6.4103127948127092e-03 -3.8100812877362969e-03
      -1.6813851497390940e-03 -5.3862441921753035e-03
      1.3048996098289897e-02 -6.8921209111601628e-03
      1.2092305425789216e-03 8.0154531759886755e-03
      -7.9812130007611386e-03 1.3857059662585911e-02
      -1.6441064972781989e-02 -3.6472452270561464e-03
      -3.1680357940706114e-03 -1.2018555686817546e-03
      9.2137749673758575e-03 9.8578086404936174e-03
      -1.7050705570108515e-02 -4.7929064661290200e-04
      1.1539629357145417e-02 5.8072583933483114e-03
      8.9217290675132569e-03 -3.7966453080625325e-03
      2.6165046771528043e-03 7.2648210948225678e-04
      -1.5415840211718897e-03 7.1474364193413568e-03
      -1.1144129541765304e-02 2.8266475186777195e-03
      -1.2604149256793189e-02 -9.9259883292408153e-03
      -1.4299516298478421e-02 -2.0042779886477233e-04
      -4.0474515620026151e-03 -1.1145533548119584e-03
      1.7043226518191738e-02 -1.6466583330213436e-02
      -1.6927166354681257e-02 4.4408531413251302e-03
      2.2709004563841980e-03 -1.5413389395056546e-02
      -1.4965769101683136e-02 -1.2322174018894268e-02
      -1.9094228348861087e-02 -7.9779936857867495e-03
      1.4667581267716575e-02 1.6763915060948164e-02
      -1.6917098475389775e-02 1.5761701900421556e-02
      8.4216457496382232e-03 -1.1064672958954259e-02
      5.6122793239184073e-03 -1.5079843040376512e-02
      -7.3150678379395786e-03 -1.8115046119111761e-02
      -1.1914315588812765e-03 6.4165290971551674e-03
      -1.6655440091458786e-02 -1.2157022528159374e-02
      -1.8733234914627646e-02 -3.8647782679507381e-03
      1.4376034241778814e-03 -7.5587695087485501e-03
      -1.5391824364217750e-02 -1.7659665901292962e-02
      3.1620997300286038e-04 9.4998651695914239e-03
      1.3700337190632943e-02 -1.1111472727202074e-02
      -2.0592568041113764e-02 -1.2830421644656533e-02
      1.2177486927633832e-03 2.5199263750999524e-03
      -2.8133653867751488e-03 -4.4270173493013145e-03
      -9.2972639306388698e-03 8.0376169815137745e-05
      1.9324348660650224e-02 3.9048939816428542e-03
      -3.9239556458569606e-03 -1.2499445679585582e-02
      -6.3675137091881852e-04 2.1228053101634448e-02
      1.5520399837512525e-02 -8.4337759204628155e-04
      -2.1551562329871800e-02 -1.0945606747063255e-02
      -1.5782446185587058e-02 6.5844565991158583e-03
      8.8163359579863255e-03 -2.2360544353046501e-02
      -1.4684606854731139e-02 7.3747046590994280e-03
      -1.0781040602796050e-02 9.9677952351065330e-03
      -2.4570587991453726e-02 1.3448415185675284e-03
      -4.8759879453045231e-03 1.0320563125050726e-02
      1.3572161304891219e-02 -2.7803227357410528e-02
      1.0860691166568294e-02 -5.3644318564099198e-03
      2.4004935159603544e-03 1.5450116514888453e-02
      -1.8948424266993273e-02 1.8918873605086764e-03
      2.0747992349329634e-02 6.6956924640888295e-03
      1.3118447878271575e-02 1.3947357940464037e-03
      7.3332000121939670e-03 -1.4917369605926253e-02
      -1.0182174209676145e-02 -8.5261434887897551e-03
      6.2596467979663967e-03 -6.7378947542532097e-03
      3.2402290236886021e-03 -9.6534124801924415e-03
      -1.3501429929470004e-03 -1.5045781879120371e-02
      3.8530608454243652e-03 2.2151489765941147e-03
      -1.0519398019619234e-02 -7.8212497346686061e-03
      1.1193837833764837e-02 -9.6998837880454304e-03
      -1.5655147669395689e-02 -8.4130403970568146e-03
      7.5585776051575616e-03 -1.1931838853352479e-02
      7.9378503125695707e-03 -2.5696930125549177e-03
      9.6551579719027798e-03 -5.9342540047061236e-04
      -1.5587722997186054e-02 -1.2370967889885410e-02
      1.0936639282376655e-03 -9.4310463765000241e-03
      -8.5484387065170309e-03 9.8330909667479201e-04
      7.7457729318591417e-03 -1.0859826350252413e-03
      -2.4135252319449848e-02 -1.0961835889147007e-02
      -1.2131215917314771e-03 -1.2701136053379816e-02
      -8.0243108673674398e-03 -2.3110727365739672e-02
      -1.2467336246711683e-02 8.8751758255169750e-03
      1.2322844028114987e-02 -1.0035747272271016e-02
      1.4371184988969317e-02 1.6756992523469436e-02
      -2.4304193179504508e-03 -4.1676311660048589e-03
      -1.8933693656061332e-02 -2.8713662174333315e-03
      2.6216857403078978e-03 1.5688912007106211e-02
      1.2226732929749374e-03 -9.4982058969860957e-03
      -1.5789656202396023e-02 2.3224991151706557e-02
      -1.7967734547604676e-03 -5.4251366854192913e-03
      -4.4098653060915165e-03 -1.8142094484790598e-02
      5.1545594272618591e-03 -1.8274689525058951e-02
      -1.2982496787049476e-02 1.3565841730410883e-02
      5.9360678961088136e-03 -1.4812024461212707e-02
      1.0451166709172984e-02 1.2939819048189447e-02
      -3.9609838763405717e-03 1.0600752478224618e-02
      -1.5833755238872770e-02 -1.4975318200983561e-02
      1.5309224845790118e-02 -1.2257919646008909e-02
      -1.5921311093651577e-02 -4.8440997379347577e-03
      1.2819570137236816e-02 -1.0381555306557527e-02
      5.4057889535680508e-03 -1.7013510068997945e-02
      1.8469661346796024e-02 -1.1808473001826433e-02
      1.2981093121455177e-02 -1.5299013150400201e-02
      2.0987403547552972e-03 -1.6900948929461517e-02
      3.1292943211385683e-03 -1.3527317737955995e-02
      -1.0479663083207611e-02 3.0914805838455905e-03
      -1.5842721892047613e-02 -1.1629142846718883e-02
      -7.1794937175849076e-03 -1.0166661078829164e-02
      7.6956176040571672e-03 3.9057612901182310e-04
      1.2094147918052550e-02 1.7982977615399368e-02
      1.2457354750505382e-02 -3.8053283435825584e-03
      2.2454503738500161e-02 8.6673986911914441e-03
      9.6374010190335563e-03 -2.6496039159006907e-03
      -4.8758641328675077e-04 -5.4752015839051819e-03
      -1.0303596234318353e-02 -6.1836546074268963e-03
      1.9407045378722450e-02 -5.9381186149739702e-03
      -1.3600431734723821e-02 -1.2469877317268592e-02
      -1.3710907431894246e-02 -1.6714164429722553e-02
      2.1789927605068361e-02 1.4880535819133782e-02
      -1.5290678586468497e-02 1.2077487605047958e-02
      3.8995967630114218e-03 1.5983927940370086e-03
      -2.0404896156671279e-03 1.2529257260234892e-03
      2.4856545663419292e-02 -3.0133136857986693e-03
      -1.3112684692854258e-02 -2.4980844367646863e-02
      1.7531576907159920e-02 1.6413601201111974e-02
      -1.0583955224770153e-02 -1.7978263467781155e-02
      -5.9955602291932109e-03 -6.2242883322569959e-03
      3.7181423279662950e-03 1.3149398025553795e-02
      -1.3572805122578323e-02 -9.8784493462768779e-03
      5.1169197699924181e-03 2.0060540859925050e-02
      -9.8917355944162823e-03 -1.0342654129570902e-02
      -1.8872657847380522e-04 -2.1699667044842868e-02
      -9.6458373806171307e-03 -2.4913611715615468e-02
      8.4984118551018253e-03 -1.1516615220322228e-02
      -9.1659697285417178e-03 -8.2744190794630072e-03
      -1.9103104270420918e-02 -2.7305398353268361e-03
      -1.8835862974513915e-03 1.2817669211020873e-02
      1.5533722127440200e-03 1.7752585770852234e-02
      -1.5604635105015479e-02 5.4885809919542321e-03
      1.9595962702417775e-02 -1.4247935946073650e-02
      6.8898757579542872e-03 -1.4727281327554926e-03
      -1.8265474096119890e-02 9.2133156336910525e-03
      1.2244132920127578e-02 -8.0958972852706087e-03
      -1.5237525339736676e-02 1.5172927047639175e-02
      1.6248979962504222e-02 -1.3079690978740425e-02
      -1.1276683065331605e-03 -1.9038407965321118e-02
      1.1410857549392342e-04 7.5007898070643094e-03
      -1.8185963201227319e-02 -8.4775426573001304e-03
      6.2446084550305441e-03 6.6657584307081312e-04
      -4.3637813998037237e-03 7.7260450016085466e-03
      1.2555185468739669e-02 1.2301678542990113e-02
      -5.5803159083658623e-03 1.4525382753570128e-03
      -1.2438437562878605e-02 -1.1952504893424568e-02
      1.0249427704608223e-02 -1.6761133305405692e-03
      -1.3322362328982073e-02 -5.6242014956789377e-03
      7.9249198872339971e-03 -9.9732518397316556e-04
      -1.4545502581173864e-02 -1.3917027481555561e-02
      -1.7873955957749592e-02 -5.0755802031223598e-03
      1.9618118744469219e-02 1.9094558561175081e-03
      5.2745320156055344e-03 -1.5629327854282216e-02
      -5.5875769025043502e-03 3.8442197902603358e-03
      8.7210995962273621e-03 6.1897168704441712e-03
      -3.4262858296745771e-03 4.1762810924689409e-03
      2.4584697715854926e-03 2.0301696671376625e-02
      5.4062714324121103e-03 6.8559959121297304e-03
      -1.1549530414822191e-02 -1.7181873861051922e-03
      6.9039253314694745e-04 -6.6033801187261590e-03
      1.4659199664325221e-02 1.9685109990310066e-02
      1.0883032316547303e-02 -1.6906190241905726e-02
      1.6249215564737240e-02 1.6703384350105637e-02
      -1.6350575211020079e-02 -2.5441989667089214e-03
      1.3220519792829153e-02 -6.4267854421840229e-03
      -5.7175028276698148e-04 -7.8770266322361372e-03
      1.7249163986939625e-02 -4.6504746487831209e-03
      1.1681740001567843e-02 1.5325953082386455e-02
      8.8750893257994283e-03 -1.4380276781040121e-02
      1.7627730495389328e-02 1.0467554446653050e-02
      9.6063108164342746e-04 8.8216048040395713e-03
      1.4197320791592678e-03 -4.9544083022944937e-03
      3.7306024327043046e-03 -1.0142209581100006e-02
      -1.5277025361534045e-02 -1.7399079518225263e-02
      -7.0560844528795769e-04 5.1820210427096069e-03
      -9.3621302125318096e-03 -9.2922679088181630e-03
      2.9367682541333721e-03 -1.2853590729195967e-02
      1.0965298403663686e-02 4.0039176118793554e-03
      -1.6741785791875154e-02 -4.5128784462032607e-03
      -7.8408173937620923e-03 -2.7095747641317459e-03
      -1.1633894137156771e-02 -9.8074192740520345e-04
      6.6757877173232302e-03 8.8704251420699248e-03
      4.4989467444647461e-03 1.4198232412927617e-02
      5.4893561122914391e-03 8.0938925749255240e-03
      -1.7965782307055925e-02 -2.4746793241723626e-03
      -1.4888982832164822e-02 -1.9697464850433270e-02
      -3.9575022523965185e-03 1.2031976099060296e-02
      -5.7346113021147938e-03 -1.3858191550686426e-02
      1.9765972808703534e-02 8.1579563254586922e-03
      4.0831491509861571e-03 1.4822260868741135e-02
      -2.8231235864746005e-03 2.8742659942000053e-03
      1.8007830146125881e-02 1.3647125656158797e-02
      -1.2823151984182731e-02 1.5128530530798953e-02
      1.1029088099029890e-02 -6.6669034288897857e-03
      1.2186194772284236e-02 -1.0851370617456354e-02
      1.3363407592008865e-03 1.1128803632551370e-02
      1.4066113495868031e-02 1.8970122560435652e-02
      1.9660605742302852e-02 9.9255030137599155e-03
      4.9565274456636636e-03 1.3741958641616351e-02
      3.4355829156702076e-03 5.0857004495716068e-03
      -1.5074480901973044e-02 2.0414995403702182e-03
      -9.5738055669554803e-03 1.1682377028828739e-02
      -6.1218929111478042e-03 1.8968501259790601e-02
      -3.6605924419787963e-03 1.1764708420728659e-02
      -1.0656837163581076e-02 5.5135712482499667e-03
      -8.7282792242683992e-03 1.3761971727440404e-02
      -4.7250926513491640e-03 1.1762225495159356e-02
      -1.0960864619807000e-02 7.4023826107152864e-03
      2.2229431866160870e-03 1.3878369602138914e-03
      6.8430429651830044e-03 -1.9660372691822942e-02
      -1.0766348667729088e-02 -1.4168565426049036e-02
      2.0604692926226145e-02 -1.8772899198334431e-02
      -1.4500147760903158e-02 2.1469842974999550e-03
      -1.2389067499199267e-02 1.6240614954442092e-02
      7.7467256142797931e-03 7.9477279576826571e-03
      -1.2161370197083491e-02 -1.2668247336671988e-02
      -5.7250330597105213e-03 9.1051978807205423e-03
      -1.1152863840923552e-02 1.8041164385297698e-02
      -4.2187133878629664e-04 1.0043061313070862e-02
      -1.1358898160417715e-02 -1.0214803383313851e-02
      -1.1707375078045216e-03 -1.4006931459884568e-02
      6.9549944457271314e-03 3.3707369096296004e-03
      -1.9196376943922289e-02 1.6434667916719110e-02
      -2.6430764118896602e-03 -5.7442196661732035e-03
      1.3437406536580730e-02 -2.3657227566365657e-03
      1.0296127834225059e-02 1.9430047917369485e-02
      1.9699271979996987e-02 4.8740872901031395e-03
      -1.5254652764762011e-02 2.2794705244267108e-03
      6.7788730324382868e-03 -5.5637555463361847e-03
      5.5836743409913908e-03 1.3528896805432187e-03
      -1.7307612300076984e-02 -1.1337570017678961e-02
      -7.6968724548127816e-03 -1.4647503584899085e-02
      1.4353175418638927e-03 -3.4470204202694341e-03
      -8.8409568543768285e-03 -1.1629857173118128e-02
      1.5647004979415454e-02 -1.6118512755570528e-02
      6.7797185997223765e-03 -8.7616332946639855e-03
      -8.7977136422246454e-03 4.4953737898246020e-03
      8.7686563286640349e-04 -1.3709745241445302e-02
      -1.4448021656288505e-02 7.8622926744613940e-04
      -8.2192847463567580e-03 8.7058932440126132e-03
      6.2307570216436174e-03 1.5159853766063948e-02
      -1.2584566237641473e-02 -8.4656616531503439e-03
      -5.4042265625516232e-03 5.4672906342869724e-03
      1.2969290995061954e-02 1.0453945548822117e-02
      -1.3309814997934615e-02 -1.1677960970446793e-02
      5.6430472135100170e-03 6.2349681549269762e-03
      1.1421737447970526e-03 -1.7706257689061793e-02
      5.3268065909961547e-03 -1.4519669598667219e-02
      -1.5135310559941297e-02 1.0763482545950395e-03
      8.9858153648807240e-03 6.5169834927767270e-03
      9.2805434917632278e-03 -2.0164414914432727e-03
      -1.4730554054857459e-02 -2.5576218894496197e-02
      1.8967015081410743e-02 1.4797543927913492e-02
      -1.2463504403748379e-02 1.2255562636462335e-02
      1.6738028066850884e-02 1.5895027916718804e-02
      2.4894842267569363e-02 -1.7685142485714164e-02
      5.4521757431468670e-03 -6.0892664965244018e-03
      3.0366378103871988e-03 -2.3941449040951759e-03
      -1.0104805134841592e-02 -8.3494334648303720e-03
      -1.8933775378792640e-02 6.8872903010129124e-03
      7.5830890652713728e-03 6.4601424015582913e-03
      6.3057990794896275e-03 9.0903003684097740e-03
      4.6462305958407373e-03 1.1172971185877826e-02
      2.2603008788304358e-03 -9.8110148918046751e-03
      7.2605608366777289e-04 2.2626479122799682e-02
      -2.5938012365945493e-02 -1.6627921266990000e-02
      7.1556694829936892e-03 -6.9378962093134475e-03
      -8.0044969149028321e-03 5.1498639845503616e-03
      -4.1267306185085043e-03 -2.1232762117591240e-03
      -1.3428914755770236e-02 5.1125230913958970e-04
      6.0188682226083813e-04 -1.1986221273226085e-03
      1.4141313628738076e-02 -1.4950065329706715e-02
      -6.0791650130216971e-04 -6.3965210547548531e-03
      5.1150125321091364e-04 1.6094500161188501e-02
      1.3083843911367946e-02 -2.0856629121081458e-03
      1.2978609168605893e-02 4.2178045291857234e-03
      -9.6207072882152720e-03 2.0157313449638378e-02
      2.5944184957389739e-02 1.7126718417810036e-02
      -8.0566808404654144e-03 3.1079661765892322e-03
      2.3227114986985099e-03 -1.3099011335505527e-02
      -6.7164718259390380e-04 -1.3438047178898313e-02
      1.0975853429946003e-02 -1.3811767309950932e-02
      -5.3069312557256507e-03 6.8254175624040073e-03
      1.2145195788593608e-02 1.7066715491414447e-02
      2.3319570435314227e-02 7.1134337983281073e-03
      -2.2402927718179241e-02 2.1926693618320052e-02
      8.5810974589594149e-03 1.0146640160921684e-02
      1.4028459318387556e-02 -3.2637513337655335e-03
      2.8796968607180656e-03 1.3076188234322338e-03
      -1.2613473900713766e-02 -1.3256405628140519e-02
      9.1561721172314647e-03 1.2259660890839564e-02
      2.0800517744356838e-02 2.1601307473509541e-02
      7.4691773857292164e-03 -2.1511675754457907e-02
      -6.5460664076865500e-03 -6.7775536241690658e-03
      1.5981537396152826e-02 -8.7732515388554682e-03
      -2.3137270333091185e-02 1.4674601970527825e-02
      -7.0463914320157261e-03 -1.2260951634614967e-02
      -8.6511301809175465e-03 -9.4202417722675097e-03
      1.4408081004287205e-03 -1.0030988259242937e-02
      9.3548138627359955e-03 2.2706006622361895e-02
      7.6795634115804949e-03 -1.6949891709837024e-02
      -1.3606889222951460e-02 -1.1367917898013309e-02
      -1.5332365433066082e-02 -2.0774502915930186e-02
      -5.2291623299610158e-03 -2.3583155876297130e-02
      -4.6342426684370273e-03 -2.2770772966824240e-02
      1.7064282389204041e-02 1.3286619258232124e-02
      2.5261943053911693e-02 -9.0541171584764164e-04
      -1.0266933658450089e-02 8.5013381967327557e-03
      -8.0149417171146136e-03 6.0521773008421981e-03
      1.1637623809523684e-02 2.1634023503778205e-03
      3.0484819373123077e-03 5.4948248014770008e-03
      -4.8730788207699470e-04 7.0912981298479104e-03
      8.4658334175165516e-03 -1.9121063374131497e-02
      1.2868016013065612e-02 -1.9678729285026154e-02
      5.4084005643165864e-03 2.8217060380363396e-02
      -2.3188854937679013e-02 -1.9964813059245638e-02
      1.8396474896130603e-02 1.4494014933148096e-02
      6.4410103030808413e-03 6.5200545484975911e-03
      -1.0087047563476349e-02 -9.4821895735426962e-03
      1.0362913015483023e-03 -8.9067195487305356e-04
      -1.3340198043368225e-02 4.2718200423282615e-03
      1.7103789700454321e-02 7.7886397385472017e-03
      -3.0314618665991579e-03 -2.4772141885820179e-02
      7.4341308852522072e-03 3.2187173433686420e-02
      3.4504488231992167e-03 -5.9354623464038135e-03
      -7.3040632460341162e-03 2.5857410311477039e-02
      -1.2516087103869976e-02 4.6242458380987804e-03
      -3.2103473118658115e-03 -3.6172138485113264e-04
      8.2989684177402732e-03 -5.5784138044117160e-03
      8.9230228920856632e-03 -2.7108180214753443e-02
      4.3458287503328188e-03 8.4083426295395464e-03
      9.2985352858625473e-03 -1.0326192875131746e-02
      -1.0342125564512715e-02 -1.5674515529092495e-02
      -1.6445578323337550e-02 -5.8174693969789398e-03
      -9.4503273772568348e-03 2.8472982560934428e-02
      -1.4923065493445534e-02 6.6514577837467311e-03
      -7.6647217204243090e-03 -2.2544885259541993e-02
      -9.1242918270024471e-03 3.7800418196328239e-03
      -4.8607174305027616e-03 1.2413055960336962e-02
      -7.0383683042087057e-03 9.8629519915470025e-03
      1.0783885536173366e-02 1.5856897617647202e-03
      -1.2653347387739286e-02 -8.1337660061790197e-03
      1.6203568103949254e-02 9.7744131725843331e-03
      -1.1452284228051205e-02 -4.7624091610940942e-03
      1.7018527709942337e-03 6.4546547420670621e-03
      6.0747561116345590e-03 -1.0527340192270380e-02
      -1.0565107542516510e-02 -4.5490106562969231e-03
      1.8986099071568490e-02 -6.0782092598282217e-03
      2.0021231553525077e-02 1.0973884181508773e-03
      6.5219986007311985e-03 -2.7139691869815861e-03
      -4.6403738812184269e-03 9.1490708203849651e-04
      -5.9360269378850913e-03 7.5186523774874127e-03
      4.5062945941750652e-03 1.0318313178527692e-02
      2.0249377174498252e-02 6.7359761011863877e-03
      6.9888316779402274e-03 -2.2239599130449202e-02
      -3.5666488878886579e-03 -7.9161833296344398e-03
      -1.2383577356286780e-03 3.4117254353787469e-03
      1.0253184159852335e-02 7.0454772448744294e-03
      -4.3388682035009132e-03 2.9512828150931843e-03
      -1.8987595498508125e-03 -4.0129639428362037e-03
      -5.6423195114141279e-03 -4.3939130559032076e-03
      7.1311309755324997e-03 -7.9024997819871681e-03
      2.0846820106105165e-02 -1.5709416524748259e-02
      -1.5413262167607072e-03 6.4025663365718636e-04
      -1.1833653909582529e-02 -1.8767970434352159e-03
      1.4374693296631082e-02 -3.3860661240450204e-03
      1.7664375302315193e-02 -2.3987092111805341e-04
      -1.4206818611194817e-02 1.3683992416383798e-02
      -8.6379457420364351e-03 -1.2144253970681387e-02
      1.6172759293282709e-02 -8.0552925626718869e-03
      -1.6871890628292405e-03 5.3344323504738366e-03
      -7.0169517521651787e-03 -5.7954382536675418e-03
      -1.9082320867283493e-03 1.6639107282094649e-03
      -1.6709956082371406e-02 8.1861507272110601e-03
      -7.9509491247692580e-03 2.0455432316305801e-03
      -1.8135588113496099e-02 -4.9725685518516825e-03
      4.0688853030578535e-03 1.7099925086215797e-02
      -3.2829189372960538e-03 3.2811776694091892e-03
      -2.1943183378302588e-03 -1.7139309769778486e-02
      1.5205633898403023e-02 8.4298886252687586e-03
      9.8834107058263249e-03 7.3171581732068671e-03
      -2.6723767060260039e-03 -1.8118761411469057e-02
      7.0876882474327340e-03 1.3825516784946798e-02
      -1.3347209339002198e-02 1.8732641595651217e-02
      6.7472188116979937e-03 1.8420145881858248e-03
      -1.3019840508071050e-02 1.3284603236153499e-03
      -1.6888866079304860e-02 7.4979664160044167e-04
      3.0500666119159365e-03 6.0521636787410835e-03
      2.2214944938571485e-02 -1.9982348251919326e-02
      8.4121715980276634e-03 2.6548396290740031e-02
      -2.4437347945433841e-03 1.7299341783198478e-02
      -1.5528307465516963e-02 1.2158678214555289e-02
      -8.7451546088747022e-03 -4.9364942589918460e-04
      4.6450888108257623e-04 2.0772414073629453e-02
      1.0492770639764408e-02 -9.1615618806396588e-03
      2.6124914811656044e-02 -3.2153580222331002e-02
      -7.8500050930331729e-04 -3.9197154200903868e-03
      -3.0430020083637297e-02 2.2004560468326714e-03
      -1.3524601413918882e-02 -2.5688081594774360e-02
      -1.3100797745948876e-02 -2.7593784910806586e-02
      -1.3995517425376044e-04 3.8851668163853798e-02
      1.0952424461079498e-02 5.6011924054369779e-03
      1.1172036617826961e-02 3.5484869004690179e-03
      8.8005927021725782e-03 7.0305756438260596e-04
      2.7352433700255141e-02 -1.1674131696394018e-02
      9.8985495168492127e-04 -9.2412284623305200e-03
      -1.0309257635490029e-02 7.2592243054952470e-03
      -2.2502190883508275e-02 6.5446759291912298e-03
      -1.9769617565306144e-05 2.3916375355606333e-02
      -6.9699812763494868e-03 -8.7348810370007097e-03
      3.8728292389743338e-03 5.6476898776239267e-03
      2.1403873119642289e-02 -2.3963628856003123e-02
      -2.8874981892568999e-04 2.9869353393120655e-02
      -1.7392351858923544e-02 -2.6867897378600870e-03
      1.0397658735686426e-03 -3.3943874928775333e-02
      8.4466840143091904e-03 1.8504967311705357e-02
      1.4059816990640576e-02 -7.1207350604473117e-03
      -5.6818338940997351e-03 1.8879785216862732e-02
      1.9748781697528708e-02 4.2423098895640020e-03
      -1.2670041353029451e-02 1.8339858145027362e-02
      -2.9021614170885793e-02 1.0491708633528321e-02
      -8.0626030371011761e-03 1.0229843839122982e-02
      2.2629903115568534e-02 3.6136750874660485e-02
      -3.2155825786227180e-02 -3.3212349650011234e-02
      -7.4693459886849712e-03 -3.8035099509374809e-02
      1.4992960718179677e-02 -1.0350938313402071e-03
      -3.0690295842340861e-03 -1.0809218529424227e-02
      -7.2047886317871427e-03 -3.4709558407027850e-02
      1.1631571156259124e-02 -1.1056573578050111e-02
      -5.7180801299283059e-04 -3.9293201965454456e-04
      2.3673230284640873e-02 5.9846964361912544e-03
      -9.0000013684576729e-03 2.0705205195260725e-02
      1.3803800076470554e-02 1.0057384043548142e-02
      4.9650406887032043e-03 -3.0454524188296382e-02
      -3.9483256153371477e-02 -5.3941316998695919e-03
      -4.1070382487010523e-03 -3.4218589204860754e-02
      9.1945820861742099e-03 1.6615513063138260e-02
      -7.8056582442405256e-04 3.2272258622302291e-02
      -5.4133166484413124e-03 -1.0051072217280606e-02
      -8.6441085030586704e-03 -8.7015329079924413e-03
      4.9901947092922680e-03 1.0379290888139738e-02
      -2.9652375263600210e-03 -5.7155841133292515e-03
      -4.4501976629322416e-03 -1.9421039495264162e-03
      1.5849288191035225e-02 2.1148507721010141e-02
      3.5701533041076127e-03 1.5730137893916384e-02
      -1.2727964588294977e-02 -1.5077803326482644e-02
      -1.0404304142722741e-02 -1.1906576515180602e-02
      -1.3668821380255939e-02 -1.4908017540719293e-02
      -1.5410245494633863e-02 2.5285087190342120e-03
      8.6960485140418430e-04 -3.0445105231309772e-03
      1.8616207078665042e-02 -7.4461294567156350e-03
      4.8625779398335321e-03 1.0682185351323433e-03
      -1.1959512303787907e-02 -1.3046402300869609e-02
      1.0041258377774500e-02 1.8860860743112360e-02
      1.5592542506072960e-02 1.0541591768439650e-02
      -1.0803388015162074e-02 -1.4386226592029819e-02
      -6.2215926387764802e-03 -1.8914594179413872e-02
      -5.2887715579329440e-03 -1.1439231763591799e-02
      -2.4614511514753313e-04 2.0256089550159211e-02
      1.3723040924757198e-02 1.6327574840464146e-03
      -1.4128112491538102e-02 -2.0212848387302805e-03
      -1.3273035919101389e-02 6.6092015263346984e-03
      1.0414845393224287e-02 7.4976249723198874e-03
      -4.5569069857684438e-03 -4.6604597985076988e-03
      6.5822010015957914e-03 -1.8975105410368908e-02
      1.4676814727273859e-02 -2.7046816191105601e-03
      -1.5892351881740225e-02 1.1686348113974546e-02
      -3.4433175925589125e-04 1.5001230521048108e-03
      -1.0040570220621193e-03 9.8398420005939690e-03
      -5.2495997837243924e-03 1.6664536793372209e-02
      -1.4543375739918213e-02 -1.6456532323542095e-02
      1.6310327119548648e-02 9.9070819413500828e-03
      2.0016235612391905e-02 1.2636745287558265e-02
      2.0489875112729844e-03 -1.9598564766252095e-02
      4.9949584121285629e-03 -1.1147777407980562e-02
      1.1373040981062895e-02 3.7704297920739898e-03
      8.4762742259704112e-04 -4.5847984410213056e-03
      -1.1900264377842171e-02 4.4272309212008091e-03
      9.7271594724022362e-03 -1.8567752537284033e-03
      3.9850203189291267e-03 1.2358566639866659e-02
      -3.5380887981782813e-03 -1.4352229565006551e-02
      1.3177330280600762e-02 1.7838837762005150e-02
      7.2209050950482806e-03 -1.3814627052094268e-02
      -1.4919651299263157e-02 -1.8342209189683545e-02
      -1.9279038149051516e-02 1.7151182333616254e-02
      -1.0568307246692108e-02 5.6083017432323348e-04
      1.1151556428938253e-02 4.5249827622742076e-03
      -2.1604636239998245e-03 1.1043687649298528e-02
      -3.3270593093730951e-03 1.2579405248259222e-02
      8.3834518671605726e-03 -5.6677209308771074e-03
      -8.2898346991066678e-03 2.8699616083426899e-03
      6.1060872762767624e-03 2.0405317068211372e-03
      1.2204686924751762e-02 -9.9825123213627635e-03
      3.7498320125215257e-03 -1.7271408394200140e-02
      8.8318364343878896e-04 -2.5593398036956971e-03
      -1.4119842081210955e-02 -1.6026596530790027e-02
      -9.9006635319073954e-03 1.1756997539554134e-02
      5.1880149654662420e-03 -1.3630987392518572e-02
      4.2173841595567448e-03 -4.8398301689915116e-03
      -1.2387467471171492e-02 -1.1486613381090242e-02
      1.7500329233792997e-02 1.6268559756979821e-02
      6.9363397833871795e-03 6.0884939721048440e-04
      -1.3878153869211089e-02 -1.7977851408714791e-02
      -1.5998631473604988e-02 1.0969576431452294e-02
      1.6311183992199295e-02 -1.2627210177453517e-02
      -5.5533998398612392e-03 1.0442701834507335e-02
      -5.3036322944072763e-03 1.2761845463664394e-02
      -3.3411681580930814e-03 1.3774514983179043e-02
      7.8467642432699398e-03 8.8001133037017034e-04
      7.6608567554632091e-03 -1.5964508599937881e-03
      -9.6749577360747702e-03 8.6637531664384704e-03
      -4.7228649006331481e-03 1.1037660261377993e-02
      2.4524266665237101e-03 -1.2755343589852067e-02
      1.7260073981541384e-02 -1.3823995597393729e-02
      2.2420554377637512e-03 9.8893126806291146e-03
      7.6135039060785427e-03 3.5956441194771253e-04
      -1.8106040653124135e-02 -1.8378517356990618e-02
      -3.4565531993891326e-03 1.8863494989634161e-02
      1.4057346974382613e-03 7.6593504103820527e-03
      -2.7145053432160462e-03 -3.0481914804391377e-03
      1.1218575529795638e-02 -1.9822184329048470e-03
      1.1251019030968938e-03 1.8944728612752881e-02
      -4.1273845450409052e-03 1.8204412917311282e-02
      6.3666481725542174e-03 -2.1488151473969441e-02
      -1.1407393470564476e-02 2.0056836206559128e-03
      1.2532886931050107e-02 -1.9268135612533099e-02
      -1.3544298066525370e-02 7.9549627075317687e-03
      -1.0948319414559675e-02 -1.5238305003347358e-02
      6.4845271809454473e-03 -7.8381125147554478e-03
      -1.5506171076441273e-02 -5.8661061703276828e-03
      1.6761408387464410e-02 -2.2321983713838173e-03
      1.1149379820228424e-02 4.5198022110032451e-03
      1.5703693847047041e-02 6.1672242006753919e-03
      1.6605414337736817e-02 1.0216795046744578e-03
      -1.1057752560769631e-02 1.1529592305359555e-02
      1.8287676485847219e-02 9.7459882081316531e-03
      1.5227527035418086e-02 -1.0622598603347459e-02
      -5.4043291885830765e-03 -2.8719623778714291e-03
      -1.9015774998176471e-02 3.6533357254436420e-03
      -2.1401856874046554e-02 -1.8889498873431818e-02
      -1.5195398613852077e-02 -3.8270029249134756e-03
      1.6765468824562139e-02 -7.8136490128564023e-03
      1.3427735786797660e-02 -4.8620494864990106e-03
      -1.1445562849999435e-02 9.5334346893828567e-03
      -3.4607417106367420e-03 2.0498479244166583e-02
      -9.5442897943880702e-03 -2.2781041294918131e-03
      1.7998841094168487e-02 -1.7878595385720834e-02
      -5.5750074900992883e-03 -1.5380142617491134e-02
      1.4682800107291911e-02 1.6358320503568270e-02
      1.3633141363106198e-02 1.0956407377738268e-03
      -1.2727643372758883e-02 1.2964188274479977e-02
      1.9221688817591231e-02 1.2088462754113563e-02
      -4.1600949741623892e-03 3.1278683360992606e-03
      -1.6460595572552732e-02 1.3315268740797824e-02
      1.2185226711518445e-02 -1.2841590015498321e-02
      -1.3914867491602123e-02 -2.8104213033775922e-03
      1.4656679989599514e-02 -9.7674990166392427e-03
      1.1306761299058356e-02 8.7330846614627824e-03
      -1.7205522652378080e-02 -3.4456640955388557e-03
      -3.1433627908637103e-03 -4.8255405565403447e-03
      -3.0333208891659613e-03 -6.5203159810595275e-03
      8.1617960321769580e-03 -9.3425579353957743e-03
      4.3959471935030373e-03 8.3979983622749568e-03
      -1.6019889071022024e-02 1.5141068006872122e-02
      3.3574293196476060e-03 2.0155027338183151e-02
      -1.0471699262843675e-02 1.3929447637393608e-02
      1.6407741673142105e-02 1.6784393205227673e-02
      8.9881471740358328e-03 -1.9774982329942578e-03
      -5.2431916774615412e-03 1.1233930247205417e-02
      2.4292277656506002e-03 -5.2970542974204414e-03
      2.1209313766483544e-03 4.8419892989050150e-03
      -2.4108464064675453e-03 -1.1695884338293027e-02
      7.6800960478915423e-03 -1.8852144101796191e-02
      1.3395355779101781e-02 2.2281099939296771e-02
      -1.8481503206270396e-02 -6.2732347865588050e-03
      1.1942459193798327e-02 9.0052363301122949e-03
      -1.5896236663562550e-02 1.4478392933041271e-02
      1.6223571315790400e-02 6.4330591341448234e-03
      -2.5911143926971758e-03 -5.1618623606577716e-03
      -6.5284227420288480e-03 1.3766158559364578e-02
      -1.9643878082137246e-05 1.3409780065976457e-02
      -1.4828460463805565e-02 1.8161601597536634e-02
      7.3083418313652990e-03 1.6146999535311245e-02
      1.3148446500188446e-02 -9.9019300581399475e-03
      -2.1330400949607438e-03 3.8757569364057699e-03
      1.7711837740317916e-02 1.8374346876684974e-02
      -1.3355653450319711e-02 -2.1062462357055552e-02
      3.4671840477128769e-03 3.4332379952220051e-03
      -1.7488381355519611e-02 5.9205715079017618e-03
      -2.2075379905001479e-02 -5.8999881265142506e-03
      -1.0715002067987270e-03 1.4124070969408126e-02
      2.1021554306738638e-03 7.3859552596061348e-03
      7.5512632404453736e-03 -1.9862960950240926e-03
      6.5441041979422878e-03 -3.3377089620364999e-03
      -6.8230031214074971e-03 -6.6321219014466807e-03
      1.5184290261922240e-02 1.8700342355769155e-02
      1.5363758491083786e-02 7.8882446536092249e-03
      1.1562294567306808e-02 1.5643220274077437e-02
      1.4765167851559834e-03 -4.1750441545338303e-03
      -1.6389812779797966e-02 -4.8769122638478131e-03
      -5.1051095459338676e-03 3.5165472647783985e-03
      9.0191905921717056e-03 1.3564120883350185e-02
      9.9958699276727053e-03 -8.0683844508929840e-03
      2.5586201099201707e-04 8.5024299085634091e-03
      -6.3466339483718411e-03 1.3444838885029570e-03
      1.5112875058219958e-02 -6.5799118802771454e-03
      4.1568917863379672e-03 1.7806832753358273e-02
      1.4971474012774296e-02 -2.2242313952621565e-02
      9.7366468594743596e-04 -2.3573443357864359e-02
      -1.2945102430378297e-02 -4.7388950769587605e-03
      1.2349610310315078e-04 1.9733966566232396e-02
      -2.5878473236413697e-02 1.8253246956010577e-02
      -1.1202610493627302e-02 8.1908883744887303e-03
      1.7258582178012911e-02 -1.7231788893422355e-02
      7.1241255843639785e-03 -5.6028230517123374e-03
      -2.4000915785685629e-03 -1.7514419368434300e-02
      -3.7370968719203004e-03 -1.0656870830982511e-02
      -1.6002479002171738e-02 -2.7997561496625571e-02
      -8.8090821777122245e-03 5.4375531203312401e-03
      6.8374551549255438e-03 -1.8335113779643600e-02
      -1.2203834668651603e-02 -1.6606049618773568e-02
      1.0552059660070293e-02 -1.5780348298988129e-02
      1.1167817767076630e-02 -1.5079172249434903e-02
      -1.0863592113087855e-02 1.2845413911743804e-02
      5.3827886508515171e-03 8.4081719821519855e-03
      7.6951442573615922e-03 -5.6609517942579493e-03
      1.6891539477011951e-02 -1.0977627842614782e-02
      -3.7687222011316551e-03 -2.8679519933547670e-03
      -1.0616332561774695e-02 1.9340631339003222e-02
      1.7172011621986345e-02 -2.2811913872220153e-02
      -3.1733367554344070e-03 1.7449461572243946e-02
      1.6353788847441368e-02 -2.3090097166354285e-02
      -3.0270369953961525e-03 -8.5150940024922718e-04
      -1.2859939423978325e-02 1.0379704702617799e-02
      -8.2409516883086096e-03 2.1171543840689797e-02
      -4.4785775067079118e-03 1.3753759699927683e-02
      1.7379073063524743e-02 -7.6181633655990023e-03
      -5.7102710743749405e-03 -1.0985124798882489e-02
      -1.7971894618230812e-02 2.0792768585571487e-02
      5.5789183570505102e-03 9.0423068939272013e-03
      -1.2478909221101481e-02 1.3376016076720227e-02
      -1.0029453035972391e-02 9.5557584619672276e-03
      2.7606837823912024e-02 -2.2543123683216877e-02
      -6.9227804512027816e-03 -1.6874393794095371e-02
      1.7496514773496477e-03 9.8130336366945370e-04
      -1.3558966263244506e-02 -7.1327915773754516e-03
      -1.8389216555797562e-03 -1.0848757410382607e-02
      -3.2430997535891782e-03 1.1526820689920529e-02
      -5.3133920253144980e-03 -8.5372877694977981e-03
      7.3856748735108817e-03 2.8626531538280486e-02
      1.5772299253490902e-02 -1.9683302202182493e-02
      -6.8973597349455086e-03 7.4263219118851696e-04
      -1.6283085319268406e-02 -2.2180959241725532e-02
      -9.8036304993021437e-03 -7.9909218348549402e-03
      -9.0245531483774122e-03 -1.1086102761388031e-02
      2.1970485798615728e-04 -1.4926592112297519e-02
      2.5821150762026707e-02 1.7464679902994492e-02
      2.1476174821723207e-02 -1.2469746567983792e-02
      -2.1256459164995269e-02 3.4635331215264499e-03
      6.2579505918542739e-03 1.6233547202712004e-02
      2.3218105965115449e-02 1.9323443230553024e-02
      7.0475138816900886e-04 7.3323570757878771e-03
      -4.2219241146276808e-03 -2.5322214379544662e-02
      6.8236114864424421e-03 -1.9066209448969990e-02
      2.2650472091976750e-02 1.0027189402213525e-02
      -2.6029283159180860e-02 -6.9041280024952478e-03
      7.5030322838866535e-03 -4.9945204715890696e-03
      -4.8308789663400091e-03 4.1142298962745828e-03
      3.7461627949847837e-03 4.8872253443496307e-03
      4.1177739458968122e-03 -2.1010527386404312e-02
      -7.0169829904119761e-03 -2.8582930061596252e-02
      8.6332801410359851e-03 5.7096186180562499e-03
      -2.2488755592922044e-02 -2.3247534797655803e-03
      -4.8136193227870010e-03 -9.4124001256747796e-04
      1.4652647976762082e-02 2.8006231909831994e-02
      -1.8204402267247392e-02 5.4510576345329301e-03
      -2.1539336637062128e-02 1.5108377607019630e-02
      1.4032689313556855e-02 2.9035363346303069e-03
      1.7581689511095022e-02 3.0957013182523713e-03
      -1.5252299023131204e-02 -3.0751885525886371e-03
      -1.8192251856481764e-02 1.5130549158912232e-02
      1.8837823979073184e-02 -2.1634790402012445e-03
      8.5583206248170725e-03 -1.0511261922312252e-02
      5.8735340717920659e-03 2.2567049360781556e-02
      2.5537001754390568e-03 3.5040475702891281e-03
      -7.0858811643769682e-03 2.7506210694843547e-02
      1.4393557640956242e-02 -2.1347226526111700e-02
      -1.8045492359889687e-02 3.6056136416186798e-03
      1.8774729410903700e-02 1.7938243596602940e-02
      1.2683332076278142e-02 -1.5791074898269097e-02
      -2.6232881283068787e-03 -4.5236477163449074e-03
      -6.5174575871798490e-03 -7.7217195428686148e-03
      -1.4088188843986219e-02 -1.4621511608581702e-03
      -1.8422429519414314e-02 4.5147782760836539e-03
      -9.7047599411325975e-03 -2.0501042344889961e-02
      4.3384989357058050e-03 9.6570094437300000e-03
      1.2535826038781458e-04 -1.4029169540267981e-02
      -3.0689782053218693e-03 1.7588829090167714e-02
      -1.5462533272106492e-02 6.0221280234315387e-03
      1.9520450867948014e-02 -1.7583522146741653e-03
      -1.7381194630162491e-02 -1.8146449257769176e-02
      -1.2196266041902375e-02 -1.5577662499690275e-04
      5.4889615955059914e-03 -1.3068095270108731e-02
      -2.0572741031370762e-02 1.0071466921567256e-02
      5.2481317786594248e-03 -2.0143610845375557e-02
      -9.5034382263708018e-03 1.6355170010345275e-02
      -9.8428575114757073e-03 -1.0092650314664074e-02
      1.1800567306546961e-03 1.0943879188126410e-04
      -8.8359755542908505e-03 1.2835843102039599e-02
      8.0363112677389863e-03 -7.6061054050929880e-03
      5.4884676948610068e-03 -2.8850529815448349e-03
      -1.8855599479013940e-02 1.5332172814750817e-02
      7.8571985483403481e-03 1.6550497586333947e-02
      1.7389803796165559e-02 -1.0452017815851769e-02
      1.3787992338268953e-02 -1.5978073286830818e-02
      1.0209943727972057e-02 -5.1397917510700747e-04
      9.9046213648041367e-04 -2.1399638759692936e-02
      1.2308705167091863e-02 1.5390398233536692e-03
      1.0309070558283562e-02 -2.0117027806148399e-03
      -2.2249520524788074e-03 1.4227326640515337e-02
      3.8678854606667406e-03 -1.0456358772613292e-02
      -3.7255712690054971e-03 1.8178673798925619e-02
      -1.5499052443357171e-02 1.7128650784388463e-02
      -1.4862756181141802e-02 1.2533533166338902e-02
      1.3574382522730705e-02 -1.3454583001579147e-02
      -6.7423533620735343e-04 -1.6111178472560377e-02
      -2.1269589287254186e-03 -5.3568747050537898e-03
      -9.3973743459287405e-03 -1.5983896448365030e-02
      2.7443724771669393e-03 -4.5676948033075626e-03
      -1.9616259900831975e-02 1.5891913308517802e-02
      -1.0362800409343250e-02 9.9874131864845974e-03
      -1.4803969300724947e-02 8.0135527346028197e-03
      -3.5273413063369153e-03 -9.9700156171002689e-03
      -1.5190062143417083e-02 -1.8683588230774869e-02
      7.4529795393342563e-03 1.8427459666826455e-02
      9.0458023405205357e-03 1.0972584663497017e-03
      1.9633659037500792e-02 1.1203662767704157e-02
      1.4861421391473940e-02 1.2851493898005396e-02
      4.7703500603466283e-03 4.5649597924629776e-03
      1.8563633332810175e-02 5.6038018777386216e-03
      -8.5370521284475441e-03 -1.3917059233779847e-02
      1.4667764878049940e-03 -1.2609934085400294e-02
      -6.2814066899033773e-03 9.1930433963147054e-04
      1.5993356260667333e-03 1.4347684397238851e-02
      8.9532694118785172e-03 -1.1473803683849277e-02
      -6.5640950295637983e-03 7.9711333885994166e-03
      -1.3428182514198923e-02 3.6010658637669430e-03
      -2.8388621377918484e-02 -5.9915914417029087e-03
      -2.2038552088583657e-02 -2.3206594986854803e-02
      7.1384078028358770e-03 -1.9556018262159091e-02
      -1.1813344758251526e-02 -3.4543841615785899e-03
      1.0313907877633598e-02 -4.5351585552543703e-03
      8.6214044690748684e-03 1.5233259126203854e-03
      -6.6334078039021194e-03 -7.3481989417410916e-03
      2.3009545384872186e-02 -1.0893504393519196e-02
      5.6913507663171490e-03 -1.1687214730541856e-02
      -2.2603792912046553e-03 -6.7891024157386562e-03
      -5.0438622949284320e-03 6.8920822017541291e-04
      2.7583720902805810e-03 1.1490134714011791e-04
      8.8824683104634788e-03 -9.3706238560257241e-03
      -1.1230014938040907e-02 -1.6450681541921006e-02
      7.7910591664870693e-03 -1.6232024683643806e-02
      5.3607619527467143e-03 1.1817060787072449e-04
      1.4975147235379351e-02 -1.2040277201910298e-02
      3.2606194252368719e-03 -3.3658633659323541e-02
      -1.0925783849688382e-02 -4.5368893108193569e-03
      -1.3493270138375597e-02 -1.3260285875192665e-02
      2.7434142329692134e-03 1.9954154735270433e-02
      2.4786086464767187e-03 -1.5617995629790890e-02
      -1.1528795690509087e-02 4.2147248160582414e-03
      -1.2784373012916969e-02 4.4811623625376149e-03
      -5.0010272436498597e-03 -1.9071122907263798e-02
      6.0326063650971923e-03 6.7073280070871141e-03
      3.3397089015941672e-03 -1.4934732350547550e-02
      1.3722913109107945e-02 3.2564550706222044e-03
      -6.0283396316370853e-03 -2.8612403128899899e-02
      8.5168509786605201e-03 1.2671132226695530e-02
      -1.1181284067044894e-02 -2.0671254279366136e-03
      1.3311151914787159e-02 -1.5020683193915606e-02
      -1.2900140380488936e-02 1.8379855819338067e-02
      1.4873606506428874e-02 1.7408974074643822e-04
      8.5985743116536936e-03 2.2149431664603911e-02
      7.0306065038712338e-03 2.5226647424036162e-02
      -1.8420257107780506e-02 -3.5771547863964696e-03
      2.2947131680373725e-03 -1.5797141490019279e-02
      -3.2916337665028078e-03 3.6617831935036979e-03
      -1.1626378139723633e-02 2.0680446258572602e-02
      1.3846847945712327e-02 2.7743019394835696e-02
      9.2748541336675691e-03 1.6935891757962760e-02
      -1.3709066859039878e-02 -1.0208866935426567e-02
      -4.5060009581812058e-03 -6.0159977361297122e-03
      -8.7800403805759798e-03 1.6588372487242584e-02
      9.6151060554693600e-03 -9.7925168136901442e-03
      -6.4543632099533970e-03 -2.0032698364305091e-02
      1.0192940009431269e-02 2.1269740887671442e-02
      -1.2427453131712752e-02 -4.4469521283742163e-03
      1.2413676696832300e-02 1.9179793415492846e-02
      4.8644239692771445e-04 1.3742428097961369e-02
      5.7407004671178076e-03 9.7293300665697909e-03
      -1.1525486483807258e-02 7.9844439743459710e-03
      -2.2001918775772992e-03 1.4561762732420998e-02
      -1.6378965039622287e-02 1.8249728370289674e-02
      9.5820051057117425e-03 2.1318653242071228e-02
      2.2449590859685384e-02 4.1473745250043071e-03
      -1.9409690193589554e-02 -2.1678243285327727e-03
      -4.7472706281907369e-03 -1.0216165777330723e-02
      1.5878027863621663e-02 -1.5879371927566416e-02
      -1.8274389302273611e-02 5.3612516963539086e-03
      -1.4515736083021046e-02 9.4697267430781818e-03
      1.7061214121918779e-02 -8.6691535936263327e-03
      1.7604610594333533e-02 -3.3146673605320069e-04
      -2.5890538085579775e-03 3.9005870638012482e-03
      -1.3752997670936505e-02 5.2329159127677152e-04
      4.2091615970996791e-03 -1.6111589628023025e-02
      8.7259688254876736e-03 7.4082080628799212e-03
      1.3838318112525391e-02 1.7557049327597378e-02
      -1.6342499006025128e-02 4.7216455767122032e-03
      -3.1373139023009484e-03 1.5823076383782126e-02
      1.3905789160878574e-02 4.1614885215001925e-03
      -1.0395480813928005e-02 1.4200524908939820e-02
      -9.5029809268598574e-03 2.0667987727305635e-02
      -2.8945808821822208e-03 -1.2053178253761069e-02
      7.7648223362190979e-04 -5.2940446699591224e-03
      -2.2683833034689661e-02 -2.2172909833566491e-02
      4.2212893614928812e-03 -1.4472016815722090e-02
      1.2095526214388128e-02 -1.8672173888716719e-02
      1.3460787518795213e-02 1.0117259112428114e-02
      5.9846523344524681e-04 1.1289758708048422e-02
      1.5493967644281671e-02 -7.1123982904194279e-03
      -2.0787476881224950e-02 7.5597920150922912e-03
      -9.9887363021420143e-03 1.7513287737869494e-02
      1.4186568622761270e-02 -1.0999814965803882e-03
      -1.8096842662687879e-02 -1.4060902649896116e-02
      -1.7313962096283466e-02 7.2333189832412843e-03
      3.4302729995427305e-03 -1.1252685487551978e-02
      -1.0175377996985045e-03 -2.4148675385438096e-03
      1.6881442888115349e-02 -6.2331667702602367e-03
      -1.5712292053421555e-02 9.9282777319881568e-03
      1.6786147520416433e-02 -6.8725075774444533e-03
      -1.5463150487867120e-02 -7.0732719708450588e-03
      2.2936696756669693e-04 1.9272803257680855e-04
      -2.0841850765017959e-03 -1.9294772701294160e-02
      -1.6778193815039179e-02 1.3224527646648021e-02
      6.6622231244559153e-03 6.3363873056362166e-03
      -1.6014616777841443e-02 -2.4325684002231996e-03
      -2.2533339566304252e-03 -1.3825411108027656e-02
