<?xml version="1.0"?>
<opencv_storage>
<opencv_ml_ann_mlp>
  <format>3</format>
  <layer_sizes>
    14 100 100 2</layer_sizes>
  <activation_function>SIGMOID_SYM</activation_function>
  <f_param1>6.6666666666666663e-01</f_param1>
  <f_param2>1.7159000000000000e+00</f_param2>
  <min_val>-9.4999999999999996e-01</min_val>
  <max_val>9.4999999999999996e-01</max_val>
  <min_val1>-9.7999999999999998e-01</min_val1>
  <max_val1>9.7999999999999998e-01</max_val1>
  <training_params>
    <train_method>BACKPROP</train_method>
    <dw_scale>1.0000000000000000e-03</dw_scale>
    <moment_scale>0.</moment_scale>
    <term_criteria>
      <iterations>900</iterations></term_criteria></training_params>
  <input_scale>
    5.1839970612889008e+00 -2.2996516598167012e+00
    8.9405531313273112e+00 -2.1001885289671836e+00
    1.2814057506259593e+01 -2.2026826076457833e+00
    1.7345822988271614e+01 -2.0327088088036347e+00
    1.9923833439966543e+01 -1.8612444031069706e+00
    2.5521067377008332e+01 -1.7774683356168328e+00
    3.2374794023768281e+01 -1.8664434520239666e+00
    3.6852879451267036e+01 -1.6818043825190467e+00
    3.9931681221128244e+01 -1.5518026806732164e+00
    5.4572764289565363e+01 -1.7202483997495546e+00
    7.0435208604965652e+01 -1.8761117204536903e+00
    8.5715931695459716e+01 -1.9285745210858711e+00
    8.9003918776895603e+01 -1.7713412585856403e+00
    1.0255917168986015e+02 -1.8795535577643099e+00</input_scale>
  <output_scale>
    5.2631578947368418e-01 4.9999999999999994e-01 5.2631578947368418e-01
    4.9999999999999994e-01</output_scale>
  <inv_output_scale>
    1.8999999999999999e+00 -9.4999999999999996e-01
    1.8999999999999999e+00 -9.4999999999999996e-01</inv_output_scale>
  <weights>
    <_>
      -2.2016183282070287e-01 -1.7032490610453666e-01
      -1.1437836116190606e-01 1.4339566735982406e-01
      3.6764006910192888e-02 -7.2110484718161602e-02
      -9.0834287614931425e-02 -4.3567509352743165e-02
      1.9766315722397487e-01 3.5249722255201948e-01
      1.4235989513542802e-01 -5.3372807813455929e-02
      7.2760359704098332e-02 1.4972323446257557e-01
      -8.5532657996926859e-02 1.3699288964923551e-01
      -1.3748326917187806e-01 -1.7097141661330723e-01
      -4.3198095519772557e-02 1.4532115418279701e-01
      5.1957271379782191e-02 1.2843546223512742e-01
      1.2019831544310581e-02 2.4094295887159507e-02
      7.8548102062985140e-02 -9.0575538961571139e-02
      1.5937178921328238e-01 2.9062423707298245e-02
      -2.1940541864436758e-01 8.6973454215801077e-02
      1.2033301666406537e-01 -1.9574161479260802e-01
      -5.6899265780334030e-01 -5.5554471294899453e-02
      2.9753292539406777e-02 -1.0876725696304644e-01
      -2.7756844009906428e-01 8.3813759256224543e-02
      -5.1358061028816411e-02 1.7850136996547397e-01
      7.3232149408725827e-03 -3.4365649513621127e-01
      1.9016995757255406e-01 -6.4883617165670204e-02
      -1.1588344602365113e-02 1.3626196413385397e-01
      8.3356890540159004e-02 -6.6539135140637959e-02
      2.5655796497641017e-02 1.0699408166802934e-01
      -1.1180731532719410e-01 1.7597443824191794e-01
      -1.2405277779506255e-01 1.3001221429340193e-01
      4.1019094059574594e-02 -7.8490544090807468e-01
      -1.7707395460454606e-01 1.0696631883737694e-01
      1.9161700596683440e-01 -2.0109150738152334e-01
      -3.4000050921839949e-02 -1.4341310946040770e-01
      4.6177173338149916e-03 2.6000301326066921e-01
      1.6292275857762673e-01 1.1330438968873809e-01
      -7.1828679813732796e-02 2.3900485725075582e-01
      -6.6784004267652575e-02 4.3370904924508333e-02
      -2.1551299640518346e-02 -2.3764288104209366e-01
      -2.5990474384369605e-01 2.5025834849474832e-01
      -8.4514626887612528e-03 2.4324514478935627e-01
      -1.4724212177534313e-01 8.1277147972777283e-02
      2.3749588655491542e-02 6.1327101075899955e-02
      1.2782468846735939e-01 -5.0248720077218326e-02
      6.3294119809783767e-03 -3.3648800394671760e-02
      1.6253546616908321e-01 2.5477432790394914e-02
      -2.5749691950643461e-01 -9.7069290274372957e-02
      7.7302674796947690e-02 3.3240514860824917e-02
      7.3794336975457217e-02 -2.5640335884489157e-01
      4.2820611379680046e-02 4.8190544618682835e-01
      1.7380082648671419e-01 -1.7254352264626846e-01
      1.1830044669433704e-01 1.0526704436154867e-01
      6.6436629505243608e-02 1.8277470113661234e-01
      -9.4508724183841181e-03 -1.1195135604492676e-01
      1.1915764037149502e-01 3.0710176832287727e-03
      -1.4972709968851641e-01 2.4722858469227203e-02
      1.9181340168189942e-01 -4.0384702111134201e-02
      -9.3838760118159836e-02 7.5479145540332984e-02
      1.6218659143624028e-01 9.4621592298003293e-02
      -1.0360321685837642e-01 5.0680117066317136e-02
      9.8831464115642677e-03 -8.5771978425343981e-02
      -1.8321226348993475e-01 9.0823414944893932e-02
      9.3264861802550933e-02 -1.2425129190882485e-01
      4.7601403532109600e-02 1.0180158999193478e-01
      -1.1062947523607190e-01 1.1735258852318017e-01
      1.0188191957816846e-01 -2.1213821333695797e-02
      -6.0806007816230134e-02 -1.3619969769327236e-01
      -2.7287016941875003e-01 3.0820825608602903e-01
      -1.3603384007900790e-01 7.1831614015150688e-02
      -2.1202073288318031e-02 1.1830193791215209e-01
      1.1572327314977550e-02 -1.3263098210180146e-01
      -6.2516708705415480e-02 -2.5942313240465826e-02
      9.2897557923798169e-01 1.0633575037688266e-01
      -7.5922032887549326e-02 6.9501200801276433e-02
      8.4989621336534649e-02 1.3344256150459999e-01
      1.0022642959721990e-01 1.1542651779382532e-01
      -7.4775656126933265e-02 -2.2185582368232905e-02
      3.7751741780521840e-02 6.4036698424869809e-02
      8.5117276293305622e-02 1.0522524831460559e-01
      -1.1879341704125200e-01 1.0852514486431482e-01
      2.7147292172733074e-02 1.7966431853400178e-01
      -9.1383145920044956e-02 3.6867449983678233e-02
      -1.1038309293256642e-01 7.1466009033087988e-02
      1.0301667406991837e-01 1.3808441704085056e-01
      -1.7446975050174138e-01 -7.9823237552893431e-02
      1.0543563639308658e-01 -1.0935849593549493e-01
      -1.3009415151740897e-01 3.6483553531917498e-02
      -6.8064962783450589e-02 -6.3854595323957167e-02
      1.1072942201444119e-01 7.8541449304707286e-02
      -2.2627912840818562e-01 -1.1906446818739798e-01
      1.2174659015185846e-01 1.0871728931475302e-01
      1.9188342157996571e-01 8.0685464701411469e-02
      -2.5424297152172232e-01 1.4705994730847474e-01
      1.5305584635034422e-01 3.1822979528186974e-03
      1.4966484659723309e-01 9.8445459348490319e-02
      -1.7704828293564828e-02 -1.0053868493605967e-02
      8.9877883532051964e-02 1.5520641456668058e-01
      1.6327290744474407e-01 -1.3532478227078407e-01
      -2.0522562330238511e-02 -9.8216709730972004e-02
      -6.9757987076009331e-02 -3.9202846062899355e-01
      1.1516060335711398e-01 1.2853059208246288e-02
      -6.9277534701432775e-02 1.0547696977982136e-01
      1.5479893136819134e-01 -8.4225830520989808e-02
      -1.4054601095654290e-01 -8.5601183111171791e-02
      -2.0264074459270077e-02 -1.3650772947591688e-01
      -9.3710538075466823e-02 -1.5258527303867850e-01
      -1.9293308263911094e-01 9.9529773802043697e-02
      4.7044031977408884e-01 2.3946189705407872e-01
      1.6128206920334139e-04 1.3033617322233393e-01
      -3.9536060425434318e-02 1.8074272056968013e-01
      1.2046217262318011e-01 -1.7597624360032876e-01
      -7.5854604566214248e-02 -8.0352652345919262e-02
      1.1544714382471890e-02 -1.0384518584263651e-01
      1.9006062175124600e-01 -1.3837655200692875e-01
      5.6930527006367401e-02 -5.9159251444449550e-02
      -1.9045406934752862e-01 -5.8706693491283934e-02
      -7.8473915269544586e-02 -4.2108731685689422e-03
      2.8380097800418097e-01 -2.3827155315491455e-01
      9.2521132371514062e-02 -8.9389353014087083e-02
      -2.0416485162920994e-01 -6.2937925986492685e-02
      2.2519257459574872e-02 -9.6204872221924753e-02
      -1.3419476370524849e-01 2.1473269906852224e-01
      6.0046685952290091e-01 1.0714982940185358e-01
      1.2295731861184432e-01 -8.7827138764976456e-02
      1.4460336981637098e-01 -5.5604447317208899e-02
      3.5013976597953946e-02 1.6465857942586445e-01
      -9.7333110116669605e-02 5.9293755279238546e-02
      4.3787653334381397e-03 2.6080895392434650e-01
      8.2480440673210240e-02 -1.0156227737092630e-01
      -1.5007206240348783e-01 -1.6646317914443828e-01
      -1.5673066373692907e-01 -8.1215194914842037e-01
      -5.1106851479746834e-02 -1.2314452627968980e-01
      -4.6826109365588293e-02 8.3335678875800893e-03
      1.7681289959455568e-01 9.8564124914602799e-02
      -1.8680324455881003e-01 1.1155552532803764e-02
      -1.0929391027772442e-02 3.1821847854037677e-01
      -1.5530067845749090e-01 3.3291167491738514e-03
      -6.4216283599883711e-02 1.0479741986369934e-01
      2.3812628152403331e-01 -2.5846585498318958e-01
      -1.0098673899975977e-01 6.8636218417169867e-02
      6.3764844921217062e-02 2.6771197486026965e-01
      7.3917400463730618e-02 4.8648412022654582e-02
      2.8853527554826012e-02 -1.0305636380757141e-01
      2.0529234573141453e-01 -7.1229468963261600e-02
      1.8811872897285969e-01 -1.6721618183626280e-01
      5.1214597041258393e-03 8.4040846606709720e-03
      -6.0994316479472628e-02 -1.7729524036946451e-01
      -7.7759387293249299e-02 5.4096992703487001e-02
      -1.4982217681827437e-01 1.2660215526706379e-02
      -5.2869446180919280e-02 2.7077131062368243e-01
      6.2061248526939929e-02 -1.0398763790847280e-01
      1.2237038525542951e-01 1.3293218506602092e-01
      -2.4601759114207675e-01 6.9107818089829867e-02
      -2.0139737982465936e-01 -1.2910931855840321e-01
      8.5026950685710367e-02 6.8080192527910102e-02
      -4.6326510342827247e-02 -2.4327741293313503e-04
      -1.8255850200944241e-02 4.8938071659412649e-02
      5.8123259851667786e-01 2.3966812996386058e-01
      1.8323639052471513e-01 -5.0408992933616645e-03
      -4.9387125208169992e-02 1.4561432260000493e-01
      4.9548063839152112e-03 1.0706424830825746e-02
      -1.6566521864605771e-01 -2.1211168411023562e-01
      -1.7111644016451058e-01 1.9312402031036446e-01
      2.9573446070538700e-01 1.0804012503076579e-01
      1.1125605555505699e-01 7.5968787543836833e-02
      -1.2527873647457133e-01 -1.4773751340659591e-01
      7.9685671504544101e-02 -8.9452760512934409e-02
      7.0670322760074386e-02 1.1528185208521076e-01
      -6.3829392611453881e-03 -1.5884566688853130e-01
      -2.1322241953531507e-01 1.2617475708556200e-01
      -2.2715001504361967e-01 8.7751870019197730e-04
      -3.0494434345328120e-01 -6.7429907171442968e-02
      6.4542925452715250e-01 1.9680124293375048e-01
      1.3372759739141266e-01 4.8215972203758282e-03
      8.5813315829645645e-02 1.5464334257145582e-01
      1.3199406354959400e-01 1.3792604355428961e-01
      7.4931234886003409e-02 -3.4367841511477927e-03
      -7.4098740921927919e-02 1.4001593274327281e-02
      -6.9519983604658483e-02 2.4883354593517987e-01
      -8.6474555017068938e-02 2.3492975099262119e-02
      -1.0933995332595753e-01 5.0596836814279358e-02
      -5.5879461068567941e-02 -7.8354359533654327e-02
      4.9562679493145072e-02 -1.8292690292519154e-01
      2.3538839255817709e-01 1.2945520226652921e-01
      -2.1476136987580655e-01 1.4491060870424596e-01
      1.1149849414104233e-01 2.5951895161018423e-01
      -1.1995633579808941e-01 2.0574748572144608e-01
      -2.5656302018574263e-02 1.5737625072799258e-01
      -5.2448535201441653e-02 -2.2696004906983380e-01
      -2.3046083236234882e-01 -5.4541812993548475e-02
      1.5155202999052320e-01 2.9364440990050228e-02
      -1.1297812838378084e-01 1.1996656381693842e-01
      -8.5065187115428445e-02 1.3766507321241492e-01
      -1.8405110388001421e-02 -8.3312216069813025e-02
      2.2458181287782573e-02 5.6892936840098371e-02
      -1.2204512600793863e-02 2.6316276905175573e-01
      -6.6687182493864017e-02 -2.9418551372020440e-02
      -4.7436747122920904e-02 1.8291203537066836e-01
      -8.6215834703180796e-02 -7.2877682720554032e-02
      2.3580130534643251e-02 -5.2570921092843080e-02
      1.6113387533735374e-01 -6.4710386846967782e-02
      -2.4276612943027399e-02 7.9550218302320952e-02
      -2.4065570031102174e-02 1.3853477614245963e-01
      -1.7266873591718301e-01 -1.1384804999816560e-01
      9.1262119620334370e-02 1.2867928221704000e-01
      -1.3282712138374664e-01 -2.7993984222637922e-02
      2.6102475487582009e-02 1.5786010541292689e-01
      6.1205103078384511e-02 8.4038508604131548e-03
      1.8969776428719845e-01 -4.5314935160386816e-02
      -1.5158863541972784e-01 1.6844739886482105e-01
      -1.0295574412369153e-01 -2.2465511823960092e-03
      -1.2113938014984323e-01 2.7451156762984090e-02
      6.0794183163019488e-02 1.0918568057065546e-01
      1.2853836061159163e-02 4.3359563882502013e-02
      1.4430392085195035e-01 -1.3089283967677356e-01
      1.7097983149531734e-01 -1.3360711942891296e-01
      -8.4539344089747268e-02 -8.9442921024826413e-02
      -1.3923704497882133e-01 8.7936286341558492e-02
      -5.1846442776248142e-02 -1.7029015082511889e-01
      -1.4137244987655273e-01 -7.3404444693784071e-02
      -1.6435265845720334e-01 -3.5289860276345224e-02
      -8.9978942680363730e-02 -2.2998842612753387e-01
      -5.1239841101724956e-02 -8.8435727282228996e-02
      8.1448988777952286e-02 -2.7795708381971120e-02
      2.0051704137806697e-01 9.7261532658556901e-02
      -1.3779026504464073e-01 4.0192549106925698e-02
      -1.1423905920196971e-01 -1.1915621655076640e-01
      2.1126610571767446e-02 2.3025037227739706e-01
      1.0920812177077754e-01 2.3589829948481039e-01
      1.0345024759540668e-01 1.9497458310275842e-01
      -1.3163197877291128e-02 4.5757468400711754e-01
      1.0105652208758560e-01 -1.7413366764640764e-01
      2.3565852745786153e-02 -1.4930007125169495e-01
      1.1424934105816871e-01 -8.7373147050829339e-02
      -7.4264784998144859e-02 5.9597371052149344e-02
      1.5664432378382892e-01 8.5198733140070357e-02
      2.5697112879557314e-02 1.2443563069702112e-02
      1.6897547600603124e-01 -9.7526086759901709e-02
      1.6832050817307528e-01 -8.0294996454731898e-02
      1.3011528863128566e-01 1.8273265574491493e-01
      -1.6389490589040878e-01 3.1965300630426006e-03
      9.8162466669932998e-03 -7.5265833832469986e-02
      -8.2331767854570206e-02 -8.9346706065304440e-02
      1.2885099011347381e-01 -5.2289435183922012e-02
      2.1164360412711616e-01 4.1162163653853147e-02
      -1.0016948600237968e-01 2.0662398589570544e-02
      -1.6764198401801300e-01 -1.2578991658001170e-02
      -9.4382235682028900e-02 1.2864106280408011e-01
      -1.1828221962564907e-01 -3.2369876663874502e-03
      8.5161940666154179e-02 -1.6099546471429765e-01
      1.7261574054662945e-01 -1.7195492777791482e-01
      1.3866312208410747e-01 3.0107402840440625e-02
      1.0780854531649524e-01 -1.1222835572149135e-01
      -1.0813943811566731e-01 6.1173175964550196e-03
      -6.4900773544819337e-02 -4.1866528556885343e-02
      -1.4337825507073537e-01 -2.3264487365072140e-01
      -5.0865492939785720e-02 2.0061075242029058e-01
      -3.2507497562866822e-01 1.1752896299768888e-01
      2.5982961437978912e-02 -1.2247311887820944e-02
      4.4165646408106107e-02 1.4441377824445445e-01
      3.4345791646510256e-02 -1.6261918262007002e-01
      6.9975901657386166e-02 2.5777207722007889e-01
      -5.1244676266270113e-02 -1.4815862579070502e-01
      -7.6025771948537449e-02 4.0933571351665289e-02
      9.1196906276283796e-02 -1.0375006832726656e-01
      -1.2380143070189722e-01 4.1588373407059780e-02
      5.6394637446907106e-02 5.4373068733357302e-02
      -1.7873856017952516e-01 -8.7864867061227328e-02
      5.2896281739500783e-02 -2.6850182568609932e-01
      -4.4779659419345691e-01 -6.3887475005648911e-02
      7.0974353457989039e-02 -1.3399611339368181e-01
      -6.9619304149517447e-02 -9.6827205709073091e-02
      5.0226210809808103e-01 1.5609471638841596e-01
      8.0938207207660678e-02 -1.2953939134003636e-01
      1.2857015574805622e-01 1.6844218315981863e-01
      -1.5991619978028079e-01 2.5105645337566061e-02
      4.2802226314429766e-02 6.5709123921669790e-02
      5.6669054811156687e-02 1.0126965164603149e-01
      -1.4399012657761756e-01 -4.6004343692735037e-03
      1.0323374158812659e-01 7.9320021503936369e-02
      -1.0060598272338485e-01 -2.2972694213037399e+00
      -7.6630404368707855e-02 -8.6929119182035906e-03
      -9.0157236789189160e-02 -8.7425694523429326e-02
      1.3314312230683301e-01 -1.2313153217499230e-01
      -4.2934446302574647e-02 2.6023484610346609e-01
      -5.7249131993666311e-02 -1.3419719970503622e-02
      -1.6861676821335500e-01 2.2119051373006401e-01
      -2.9740326676982287e-02 -5.1316383437273634e-03
      1.2097782140992602e-01 -5.4851111413253599e-02
      3.7467778128093920e-01 2.5750336593179124e-01
      6.1816203595910085e-02 2.2989853460085874e-01
      -7.2806990310068320e-02 -1.3818980990661395e-01
      9.1695117959129310e-02 1.2846858051115675e-01
      5.3892367696183892e-02 -1.0340385801108433e-01
      1.3203806700132270e-01 2.0031774080888526e-01
      1.4638982208067550e-01 1.9705654303002956e-01
      -3.1889665826584862e-01 1.0406529621596770e-01
      -3.1509911218456583e-03 1.7277751087457511e-02
      -7.1387887943323181e-02 4.5788035830731488e-02
      1.6949772066671223e-01 -1.4993763320851142e-01
      5.2539220007928759e-02 -8.2228352443781141e-02
      1.8622423329845270e-01 -6.8264071752821093e-02
      1.1317091166911303e-01 7.4813867908789536e-02
      2.4090350205242583e-02 -1.5449111271419505e-01
      -8.0269687453648521e-03 7.2143852049787530e-02
      3.6513085430811096e-02 -1.9424481855288681e-01
      -5.5881120421599879e-02 1.6175165479592057e-01
      2.0333521012308875e-01 2.5053699640667548e-01
      -1.3841841169941872e-02 9.0176685265916337e-02
      -1.9517269770876211e-01 -2.9011277028781594e-02
      -1.1197733382319508e-01 9.0313048257100209e-02
      -3.0536940370161202e-02 -1.5089952262230189e-02
      1.1048543757103710e-01 4.7879598449766098e-01
      1.5934836971534563e-01 2.2699771986060383e-02
      2.1452365695421785e-01 -4.1928500318080836e-03
      -4.0971777893785762e-02 2.2719989083986161e-02
      -5.0849356341574198e-02 1.0791829794018820e-02
      9.6096809122857597e-03 -1.4801392805551164e-01
      8.6840147189497521e-02 4.7194283992234479e-02
      -5.2116670794045050e-01 -1.5538078879369938e-01
      -1.3958758885538555e-01 1.2262176870754505e-02
      -1.6805129591512402e-01 2.6463487118741399e-02
      -5.2663910990995810e-01 2.9933915015988549e-02
      8.3627764952558067e-02 -3.2349802358766344e-01
      1.5887643241278246e-01 1.2207596041085012e-01
      -1.0976648359025970e-01 2.0366736825435097e-01
      3.8796662518204128e-02 5.8731167997137783e-02
      -1.3836556608081113e-01 1.4400727421300116e-01
      -1.8731027666205474e-01 2.0914942831574954e-01
      -1.2687879481971354e-01 -9.6875542137189991e-02
      7.3402791347411539e-02 -5.4686245300824676e-01
      -2.3764307869864602e-02 8.0866232045320841e-02
      1.4874185743070734e-01 -2.1889977516501768e-01
      1.5942843714961439e-02 1.6125612021087282e-01
      -8.8148030182030490e-02 2.0896287794290130e-02
      1.4089175509462115e-01 2.5102206760478829e-01
      -1.1770024335565188e-01 1.5843463080001061e-01
      7.5817890887327877e-02 1.3027995426692066e-01
      2.0299026045401103e-01 -1.4168041155377004e-01
      3.4826479290120843e-01 8.3332164773394710e-02
      -7.2463228074135522e-02 1.9350687417771253e-01
      -1.6815007799794435e-01 -9.7762399440293260e-02
      6.9733776441456397e-02 -1.4284428339276522e-02
      5.7416441203544784e-02 -1.0937911116121558e-01
      6.2521518209048263e-02 -2.1880025755973992e-01
      -1.1504625570619416e-01 -5.0923264685254252e-02
      -1.3849741973083926e-01 -3.4475575436644076e-02
      7.5738530051251154e-02 1.1466922187431141e-02
      -6.4960189239643751e-02 -2.3935010161738077e-01
      2.1891204439447070e-02 8.0214394279131671e-02
      1.6785553086864891e-01 -2.3619093996080334e-02
      1.3639170857469166e-01 -1.0308645393399797e-01
      -1.3500517554243205e-01 5.3387869599641181e-02
      -1.3736772674868408e-01 -1.0236149554064866e-01
      1.4200305283724546e-01 -2.2270217013575255e-03
      -1.5379989579348008e-01 -1.0902541804453786e-01
      1.9928823454487335e-01 -5.2901920275570828e-02
      -3.9382992653854421e-02 1.2196564032688161e-02
      1.5631811599753074e-03 1.0287207671216129e-02
      1.8030306047335975e-02 1.3146467898056952e-01
      -1.2563387595901671e-01 2.6039118186842517e-02
      -4.2628937181477984e-02 -7.3432855361537694e-02
      9.5264459109022537e-02 1.2836100685728749e-01
      1.2560304758921306e-01 6.0678942243419270e-02
      1.4769146003558628e-01 9.8862937778785048e-02
      9.2910438005197202e-02 1.5008335238747786e-01
      1.1763749988819719e-01 1.4790290820038351e-01
      -2.2527451753624309e-01 2.5435388691821625e-01
      1.3285430785536935e-02 3.1769723562840461e-02
      -4.0878725471587002e-01 3.3348308439200156e-02
      -7.0395262264679945e-03 1.4034918628845966e-01
      -2.0182067094361356e-01 2.0787607133109605e-05
      1.2132741487804820e-01 5.0928780695608501e-02
      1.5060619383942556e-02 -1.7049462375418367e-01
      1.0467926146525790e-01 -2.5352377675378998e-02
      1.0325502387241954e-01 1.3446276213975084e-01
      8.2990238945821082e-02 -1.2394412480658669e-01
      -1.2488164069072724e-01 3.8804087579352699e-02
      -7.4911352706313911e-02 4.5604009688880918e-02
      -2.3511535226882360e-02 2.0666642856376563e-01
      9.4937370196643320e-02 -3.0554531801503965e-01
      5.1068917046984970e-02 1.4015654308823935e-01
      -5.8552488129339553e-02 1.9840540049879500e-02
      4.0919006896815435e-02 -5.5692224598677335e-02
      -1.8834785980117066e-01 -1.2570046893995071e-01
      8.2520487455493730e-02 5.1073048021157641e-02
      -1.1132522664929646e-01 -3.9941340368627315e-02
      1.4876390521214025e-01 8.2574079445263376e-02
      1.4613172168000763e-01 3.5032633031750672e-02
      7.9101148547508784e-02 -1.3030974620844310e-01
      -3.8748219826435969e-02 1.6221558808840655e-01
      -1.0770642111052176e-01 6.9344424596973528e-02
      -2.2172895522631672e-01 -8.3828205245555953e-02
      9.9041448743411267e-02 2.2807015534368383e-02
      1.2757507656920139e-01 -8.9659039344032812e-02
      7.5620105278092292e-02 -5.7627625570376637e-02
      7.3217289486179130e-02 1.6559824346813570e-01
      -8.5186121955161259e-02 -9.1211722336843062e-02
      1.3191333384105053e-01 1.2874793991100059e-01
      -8.9282532827402884e-03 -1.1713780241976381e-01
      -9.8216465463959166e-02 -4.0127518660724421e-02
      -6.3710275648048070e-02 -1.9077400927208839e-02
      2.1117039647428307e-01 4.2768937485617078e-03
      -9.7582959287441609e-02 -1.5285894933545641e-01
      1.0397390036706122e-01 5.7946864969211025e-02
      9.9079510906772104e-03 -1.2020265644809026e-01
      8.4523837801765700e-02 1.3489141065986851e-01
      6.3513931861399267e-02 1.4160396217537538e-01
      1.3218645469035809e-01 -1.8316310196961147e-01
      -1.8474292328308486e-01 2.6889068688692237e-02
      8.0920563081662580e-02 -7.7268748486934241e-02
      1.2170201147702948e-01 4.4592451279386901e-02
      -8.6398295260555168e-03 -8.3413205033698271e-02
      1.4968778470771561e-02 2.8282660121097737e-02
      1.5653365623516013e-01 1.0452245585975600e-01
      6.5987510639174712e-02 -1.8421101247537006e-01
      -2.5449433562870225e-03 -9.5451437865111625e-03
      -2.1630782722753947e-01 -6.2573341926491929e-02
      -1.0435148221032318e-01 -1.0227221128256184e-01
      -2.8547742307011187e-01 -1.1014686137506073e-01
      -5.2027940998989504e-02 6.4613214499540661e-02
      -1.7142915683893006e-01 3.8123858173575123e-02
      3.3985969388298243e-01 -5.6829948530365652e-02
      -7.1165283287018155e-02 -9.1551604970388778e-02
      1.0871290013953779e-01 -6.1568504724624960e-02
      -8.1920348688241329e-02 1.0213490149538865e-01
      1.0618812333410810e-01 -2.0954779684201494e-01
      -7.0417934033884747e-03 -8.7745748849580153e-04
      -1.0221287216011979e-01 1.6126304177432643e-01
      -1.7490066357458525e-01 2.7536804532815859e-02
      -1.4900208455681127e-01 -1.2014994953116271e+00
      1.5629872369675146e-01 5.2423268362341124e-02
      -1.0971330261454390e-01 -1.1040334846415883e-01
      2.3439293757799828e-01 4.8593650684612549e-02
      2.1941466375164187e-03 1.1173696373433759e-01
      -5.2864322285826161e-03 9.3448035980180519e-02
      -1.2284190995930094e-01 4.7490052457345158e-03
      1.3157796410556491e-01 6.6160091341335076e-02
      1.4285832289611322e-01 -3.8424197824263200e-02
      4.2841286562151615e-01 6.2297230594408094e-02
      6.7874947581948175e-02 6.8014287696107303e-02
      -2.4770449021598574e-02 -1.1914365774884109e-01
      -2.1569203920168015e-01 7.0989528134340521e-02
      1.0263690284542054e-02 -1.9621900570451759e-01
      1.6778141444587788e-01 -1.6390037479018238e-01
      1.1464093267337598e-01 -1.6970408804786615e-02
      3.1361352504908610e-02 -1.0083886191225447e-01
      1.3650169617009681e-02 1.0360798574970763e-01
      5.4252435940602625e-02 -1.4433470849175592e-01
      -1.4112106755859560e-01 -4.0191590258004561e-02
      2.2447280237176796e-02 5.6527108380862298e-03
      8.1855609631680440e-02 1.5338151594079402e-01
      1.4239377862970573e-01 8.9390140159019277e-02
      7.8116607385858308e-02 1.4260145390212118e-02
      1.4680535948578646e-01 -1.6258761542023686e-01
      -1.6675408311962095e-01 -1.6408484746861676e-01
      1.2133385587853109e-01 1.3559756768120401e-01
      1.4284022762288004e-01 2.5983890081335448e-01
      -3.1990568925373657e-02 -7.3984604392337963e-02
      7.8319673531119668e-02 8.6163686533829262e-02
      8.4197787200204682e-02 9.7263392457579159e-02
      1.3007121290086507e-01 -3.3570371648247838e-01
      -1.2605163831395502e-02 1.5516828846508018e-02
      1.7033583130282023e-01 -1.6149639913154903e-01
      -4.6518136815185317e-02 1.4446176273271222e-01
      -1.0497516167161758e-01 -1.6223008346120826e-01
      1.1030810179296929e-01 -1.4368143100060821e-01
      1.4913788504392546e-02 1.5944695229924055e-01
      -1.4515921657122613e-01 -2.5803980199318038e-01
      -4.8204599443055163e-01 -1.0774667366219795e-01
      -1.1515724389040309e-01 6.0636087722673794e-02
      -1.3453781567592774e-01 1.7209017477794480e-01
      2.0501847494693748e-01 1.6938630277012556e-01
      1.7200427896332646e-01 -2.5335798120710745e-01
      1.7275613327245515e-01 1.5454382526649285e-01
      -2.1333605839120309e-01 8.9430596021334741e-02
      -1.7565043253842530e-01 -1.4870135836287615e-01
      -1.5007731957474371e-01 1.4375172295076868e-01
      -1.9321148897994073e-01 -1.2180148237061400e-01
      -2.3264406516152542e-02 9.1632891901350488e-02
      -1.6348812317590428e-01 -6.3919238920219135e-01
      -6.2727227144475303e-02 -5.4233023845269450e-02
      9.9504216867780965e-02 -1.8672786052401019e-01
      4.2929984901270375e-02 8.6073051875706436e-02
      -6.0686434475617640e-02 1.4790057723488748e-01
      1.6161659092450065e-01 2.0330612011909396e-01
      2.7535065710266170e-02 2.2222724294255805e-01
      -6.0379720104150686e-02 -7.4975898844632155e-02
      1.0598362911498263e-01 6.6583793604615943e-02
      -1.0948228443876407e-02 2.7636727874004940e-01
      -8.8909919047139532e-02 1.2559484330352474e-01
      7.4125490268846569e-03 2.2126312613051063e-02
      -9.9882154811801016e-02 1.2935719609315155e-01
      -1.0118305695371928e-01 -1.6203241441104788e-01
      1.8240681419117352e-01 -1.4896484645205127e-01
      1.4661150215102950e-01 1.5555787465033302e-01
      -6.3447923276608059e-02 -1.5884934883988910e-01
      -6.4731682280567804e-02 4.6506716270869046e-02
      -1.3270984263683316e-01 -2.1060003067212177e-01
      -3.3732874842324317e-02 4.7186299192563030e-01
      1.4391245201270719e-01 1.3364588416962309e-01
      1.5952563198893610e-01 1.7443012238906780e-01
      -5.0517884005753570e-02 4.1273522770515735e-02
      7.4327896451314976e-02 -1.8024514825692647e-01
      -1.2325293948737630e-01 -6.0677529598260775e-02
      -1.4534380398596228e-01 -1.4156240918426891e-01
      9.9044462852958232e-02 4.5814237273759953e-02
      1.6093965260447732e-01 6.9366764473559892e-03
      -7.3752156584373896e-02 1.3908717760771178e-01
      6.0200359785448423e-02 -9.2349685759438804e-02
      7.0933593880859361e-02 -1.1414504076407744e-01
      -1.2446532436377588e-02 -4.0354987138942250e-01
      -1.7003380496277207e-01 2.3997082121195351e-01
      2.3070946566697237e-01 -1.5847653999603414e-01
      9.1229988557712943e-02 1.3375919700743916e-01
      -8.3619883213048210e-02 -5.5700232936373384e-02
      1.0719170989188058e-01 -9.7733978202594010e-02
      -6.9427363455207655e-02 1.7007023713672467e-01
      -3.0944892574539234e-02 -4.0863427135632161e-03
      -4.5808632339698002e-01 1.9172298658882776e-02
      -1.3759891914851530e-01 -7.3162158703096961e-02
      1.5168966255958619e-01 2.1184239484394080e-01
      1.8094178722586216e-01 -2.7694133613178032e-02
      -9.4433121080222601e-02 -1.7190096941937918e-01
      -6.1261593406625993e-02 1.1610578440918984e-01
      -9.1937073023910187e-02 1.7995195920373522e-01
      -8.3604255461026677e-02 -2.0195066746012996e-01
      1.9954174502714070e-01 2.3605744369847731e-01
      -1.1183871196250020e-01 -5.5600457765553300e-02
      -5.3641629415736955e-02 -8.1940365494213629e-02
      -1.2853569328068792e-01 -2.6727792057092614e-01
      6.4014461660042557e-02 -1.1984832660194751e-01
      1.1061016184496507e-01 -1.4443795681085256e-01
      2.7693392912780560e-02 1.4688320900191643e-01
      -5.1215971465778790e-02 1.1893620191614900e-01
      1.1535694714224554e-01 -9.1820242277962455e-02
      3.7412974936992582e-02 2.7699389136266031e-02
      -1.1076557193282902e-01 9.8014584818747613e-02
      1.1306302029223947e-01 -1.9436669102122237e-01
      -1.2045864688625989e-01 1.6614370731853989e-01
      -1.0230773491252332e-01 5.3405397050177689e-02
      -4.8921071431396436e-02 -5.8798991839891665e-02
      -1.1949625965177776e-02 -8.9505327768602552e-02
      8.2116434610532682e-02 1.0410141256846767e-01
      2.0471098922287179e-01 -2.0771721540256519e-01
      1.3794445110661788e-01 3.6136637588580718e-02
      -1.1192439964638626e-01 -2.4062780935676129e-01
      -6.1484894875057407e-02 -9.2225318480631934e-03
      1.0192107938513929e-01 -2.3277250332995802e-01
      -1.5380639127909521e-01 5.9280733844096711e-01
      1.4048664320604606e-01 1.3506296416720505e-02
      4.8440092606365268e-02 1.5589329803966565e-01
      5.3280284570982744e-02 -6.7951731956804762e-02
      -4.8526346233285521e-02 -1.5160235212435721e-01
      -9.6784600731917469e-02 -3.4673968113444267e-02
      -1.4464352266066091e-01 7.9509690355514070e-02
      1.8838486280782973e-01 1.2025028639857703e-01
      2.1813719312271490e-01 -1.6822139364115942e-02
      1.1185106977984680e-01 -5.1863302378487124e-03
      -1.6546032047354515e-02 -4.4621134452509287e-02
      1.0643286772622089e-01 -1.0634731868703598e-01
      -2.0615607307468245e-01 4.1107051530298949e-02
      -9.2460603048659957e-03 2.1799887481204927e-02
      1.6623231373886413e-01 -1.1819658649597229e-03
      1.6495932964693591e-01 -9.5231926308012374e-02
      1.7013511856786623e-01 1.3187494691376300e-01
      1.5725438258585203e-01 1.1313577437423221e-01
      3.7483375963371708e-02 2.5152636223675146e-01
      1.5592921438656313e-01 -1.6097772851915246e-01
      -4.3969710974954124e-01 1.6521607049021808e-01
      -1.4610436049788095e-01 1.2489381587555062e-01
      -7.8634281759455096e-02 1.2795522809532503e-01
      -3.0373944889386034e-01 1.2462266944731014e-01
      -1.0474382743905007e-01 -3.1271228452038313e-01
      1.8047403186855637e-01 -1.0545128628827038e-01
      -1.0468724897842369e-01 1.0378360232811111e-01
      7.9243443193447491e-02 4.2067916967043449e-02
      -9.0990316823846173e-02 1.3208792789771476e-02
      -1.8931795392087256e-01 1.7644318997766090e-01
      4.0498192361506813e-02 2.1349351224705523e-01
      2.7602433288037249e-02 -1.0924156601901471e+00
      7.6773352909842899e-02 -7.5831404397669666e-02
      5.9342506422689421e-02 -2.4343810802001653e-02
      -1.7810458378141183e-02 -4.8881419901835858e-02
      1.4433910421537732e-01 2.8024933143841141e-01
      3.4296095229393392e-02 9.0091170762196748e-02
      -1.9374752925897458e-02 2.1427199317628456e-01
      1.2089739136348962e-01 1.5696939725467288e-01
      7.1712786223129363e-02 -3.7747675659269120e-02
      6.3153268307807620e-01 3.0057562287139528e-01
      2.0338412516324028e-01 1.1144476184968302e-01
      1.4278272608073614e-01 -8.7699869395571783e-02
      -1.7106506168895402e-01 3.1710361400994036e-02
      -1.4161112371476359e-01 1.1881061516560040e-01
      2.2044276394931586e-01 6.5705793793292680e-02
      4.3026272990174072e-02 4.7691862592180063e-02
      -3.1400063850667626e-01 6.7171307002987915e-02
      -8.1563745818652666e-02 -1.2192877879371120e-01
      -1.4368162766252598e-01 8.5523546095640404e-02
      -1.4974137142620461e-01 -3.7827642193519223e-01
      1.4071264610182416e-01 -2.2023904451968826e-01
      1.8053220703197087e-01 -1.2939352331528461e-01
      -4.6279485952911365e-03 1.3287964435875932e-01
      -1.2595963774344021e-01 -1.9121948099293151e-01
      6.6280588390019698e-02 -1.0081137948442494e-01
      5.7624820289378952e-02 -9.6907379009716063e-02
      7.0755731410225120e-02 1.4957251240670272e-01
      2.4037588595893949e-01 2.5215992206548560e-01
      -1.1581165657060148e-01 -1.5878952325440054e-01
      -2.0225656494730071e-01 -7.3837445541187124e-02
      -7.8808791740275441e-02 1.1856995224775475e-02
      -8.9611530079162255e-02 -3.5655092118109677e-01
      -1.9349591983953721e-01 1.3189352068998150e-01
      2.2588456823822639e-01 -1.6027471223794101e-03
      2.2469885842627049e-01 -7.3163379320918140e-02
      -2.0777733105050822e-02 -3.8406951539058543e-02
      1.4768927188012118e-01 -1.7670416721832558e-01
      -1.5206115932926892e-01 -4.1489937454943476e-02
      -9.1058860772012570e-02 -2.3898258190055885e-01
      -5.7633940908581915e-01 -2.6145913301462379e-02
      9.9148312964016758e-02 -1.4032716317496724e-01
      -1.5234317048419330e-01 -4.0752971796095327e-02
      -4.7474679492822802e-02 1.2988560216885853e-02
      1.4745118995450712e-01 -2.1440708142007012e-01
      -2.8004382750354398e-02 2.2432246730881185e-02
      -5.9590007805809184e-02 -4.9627763046136968e-02
      -1.3884878979829337e-02 -6.2784817483965985e-02
      -8.7336335920774916e-02 2.1796551666191530e-01
      -1.2654863039472422e-01 3.8539012416163559e-02
      1.0018233205217106e-01 -1.1126254410802261e-01
      -1.1349316808094316e-01 -5.5932382101542732e-01
      -1.1757494047442585e-02 2.2101842967792041e-02
      1.4498428954475404e-01 -1.6163909211465874e-01
      -1.1766031790216797e-01 3.5277833768613362e-02
      -1.8503402349379813e-01 7.7739221403702707e-02
      8.6506314679396651e-02 1.5795254288440083e-01
      -9.2812543852079751e-02 1.2186985090839279e-01
      3.0982245225214412e-02 1.3763818234230429e-01
      5.7819114173133880e-02 -1.0903719148784310e-01
      2.0266881165676739e-01 1.2171838911687764e-01
      2.6148992865633339e-02 1.3868768313829291e-01
      3.8034874944603697e-02 1.1537373816234797e-01
      3.5869976700124260e-04 -2.1052479279956227e-02
      1.6338433193940516e-02 8.7621674021212459e-02
      2.6298261761370723e-01 5.0741623218811087e-02
      1.7127578215410919e-01 2.0042552278361297e-01
      -2.5563012812647445e-01 9.9727155634017198e-02
      1.3036008089923110e-01 1.6860743878072301e-01
      1.9043505283549613e-02 -1.4363204317367753e-01
      1.4856530554127789e-01 4.5163934352871438e-01
      -4.3172166458297544e-02 2.9989724389096598e-02
      -5.4289074569998430e-02 -5.4939763303549168e-02
      -7.8637184841320387e-02 -5.1711818841234825e-02
      -1.5517502794963134e-01 4.3224266523899102e-02
      1.0409728815825425e-01 1.4203485990444173e-01
      -1.3571151865956457e-01 -1.2859979373112149e-01
      1.6762314065457501e-01 -1.1775148382832080e-01
      2.5644114103105642e-01 1.5469364765304824e-01
      1.1168409230622645e-01 1.1696791331811052e-01
      -1.8025509617791766e-01 6.9003441182733669e-03
      1.0222773317824081e-01 -9.3242738143423289e-03
      1.5293997549688916e-02 -4.4807854732079327e-01
      -2.1902710651470927e-01 -6.1703412921819711e-01
      1.4893011369899395e-01 -1.3870909381969984e-01
      1.3098003095618949e-01 -5.8829222760031601e-02
      2.3524564520281885e-01 1.3012164004666366e-02
      -7.4350282469787837e-02 2.2458395863415779e-02
      -2.2671605392272867e-01 3.2707426124368205e-01
      9.5334516058725352e-02 1.1596485708687608e-01
      -7.7360368358637777e-01 2.8103880268604153e-01
      -5.8673912343961382e-02 5.0506140461220587e-02
      -9.6875082277216043e-02 -2.5237991848755909e-01
      2.6907623278929244e-01 -7.8638018104243528e-03
      1.9288651075845054e-01 1.0481571563072734e-01
      1.3844794884192643e-01 7.5308058318572027e-03
      1.0251343470052085e-01 -5.7243982993935613e-02
      4.0121462585318089e-02 -1.3029302025032694e-01
      8.9317162456429469e-02 2.0976254240347442e-01
      -4.7514463499171482e-02 1.1634875547711464e-01
      -8.0215414794483131e-02 4.8786663227251087e-02
      7.4093445867052965e-02 1.3122788285878153e-02
      -1.2864899307076916e-01 -9.1628547139306293e-02
      1.2169885146029236e-02 -2.1594855980162092e-01
      1.4006217228381343e-01 -1.3786412145307467e-01
      1.6407216217130813e-01 1.7768620702863877e-01
      -1.8142161967245518e-01 2.0082947923730571e-01
      9.0521917482367154e-02 6.0152354000697100e-02
      -5.0249634013727076e-02 1.7486810693690130e-01
      4.5033767576311591e-03 -1.9921669236605688e-01
      1.3707144711637351e+00 -2.1314100274924136e-01
      5.3138197909514184e-02 -4.5988254048932260e-02
      1.7777362336996805e-01 -7.7862119972515872e-03
      -2.1658528237775952e-02 2.3429783407448390e-02
      -8.6554793635412269e-02 -1.3320538960256739e-01
      1.7502194463711329e-01 2.3745324846707877e-01
      -3.6490904685874806e-02 -3.4055523252629762e-02
      2.0023981217454842e-02 2.6233416765460071e-01
      1.7998339003779079e-01 -2.7036665272644306e-01
      8.6057514770218446e-02 -2.1803516873832832e-01
      2.7505164561147606e-02 6.9938744462733704e-01
      8.9234673397979511e-02 1.2683661517900205e-01
      1.6595021825237077e-01 -8.8991160557568227e-02
      1.9647188250480582e-01 1.4103806822860554e-01
      2.9731792120931716e-02 1.0751220285183848e-01
      1.0203125197055693e-01 -5.1114041766572374e-03
      7.0785572566042385e-02 4.8839117643752789e-02
      6.1535163724696910e-02 -6.4727026906378785e-02
      5.1169343100114492e-02 -7.0401747395252290e-03
      -3.7947916464057499e-02 -8.1306541602359270e-02
      -9.5278956248354904e-02 -2.4675148226263894e-02
      -3.5276029010123632e-02 -7.8706134932262570e-02
      6.8398930308304393e-02 -4.3463153647312514e-02
      9.9321546656863630e-02 2.5771459155228943e-01
      3.6053142537186049e-02 -4.1544020123879264e-03
      -1.1622308313085895e-02 5.8184912481763756e-03
      -3.6285485321247361e-02 -1.4140785974267349e-02
      1.5241832172413433e-03 3.7816270362023570e-02
      -9.1915960291360482e-02 -2.6805082890777817e-02
      -7.9884028897626695e-04 1.5217368963207804e-02
      2.7892215856081709e-01 -4.6325662854266071e-02
      -4.0907815398660896e-02 -9.9920657084551362e-03
      4.2773321250299201e-02 -2.9196513808916438e-02
      1.8274173760683204e-01 -1.5726839569756845e-02
      -8.3534364386875521e-03 -5.3687115706382835e-02
      -4.3124025885340672e-02 1.9025857567559465e-02
      6.7184410522309092e-03 -8.3723735719690873e-03
      -5.5571645537311224e-03 -1.8088874017712139e-03
      -6.5090912229798115e-03 -1.5834457423450521e-02
      7.6461330702402071e-03 1.6631785729755180e-02
      1.0135810503975936e-02 1.9714241990757723e-02
      2.5372010942887459e-02 -7.5405294448240634e-01
      -7.8809270698947803e-03 -6.3467941615878943e-03
      4.0760647331839271e-05 1.1882674888985601e-02
      9.0665334278814246e-03 3.1051039167441535e-02
      -6.7059950775062022e-02 -1.4539086426735966e-02
      1.1056830272703707e-02 -2.6332783665344545e-02
      -1.4731783988207304e-02 -2.4437536425986291e-02
      3.8916867283177191e-02 -4.0525355414013454e-02
      -1.3164585860623228e-02 -1.1865259996947047e-02
      9.3000640580697500e-02 5.0477540396630889e-02
      3.0427257030747765e-02 1.3115903255282495e-02
      -3.9295858162237171e-02 -1.6788331009169450e-02
      -3.3207515214126078e-02 5.2313385783463945e-03
      -6.0286207218884814e-02 -5.2308910875217461e-02
      -5.6706213753030872e-02 -6.8030020729580670e-02
      5.7328927653098674e-02 -5.1885315099551306e-02
      -7.0076473709570361e-02 -6.1390731777552582e-02
      -4.3272447434363391e-02 5.5390264376666415e-02
      1.5961834575400419e-02 -8.9189471456611168e-03
      3.9145249406069657e-02 -4.7773059498566715e-02
      -7.6971066312798028e-02 6.0880690827616511e-02
      8.1825188988045763e-02 4.9044684715587199e-02
      9.1728157055514487e-02 -5.7426270381263432e-02</_>
    <_>
      1.0095095408992492e-03 -4.4321552156918560e-03
      1.5336012575223658e-02 -1.1802262894588453e-02
      -1.6320662379046464e-02 -2.4926764213728182e-02
      1.0134920758402123e-02 1.9096766716859354e-02
      -2.5055884744818038e-02 -9.3944109254205412e-03
      2.7249987625470149e-03 -1.1695700407958014e-02
      1.7779515463784729e-02 -8.2571620359490200e-03
      -1.1308297560471447e-02 -1.9876063271413922e-02
      1.2817861066614793e-02 9.1929194804814141e-03
      -2.6830300947785395e-03 7.9218212506113779e-03
      -1.8756159973771225e-02 5.1379479649261506e-03
      -1.5015391928526514e-02 -1.7906534137310127e-02
      -1.9777984044383318e-02 1.1825796189868036e-02
      9.0057840134827108e-03 1.3427572443151471e-02
      -2.0101365457365045e-02 -1.5554651036985202e-02
      -7.9774391280111479e-03 -7.6176932479162310e-03
      1.4538058375605858e-02 -8.6196609625250626e-03
      2.2221352271756176e-02 -3.2439015608832396e-03
      2.1544944025292140e-02 1.2773909381810106e-02
      8.5927677930176995e-03 -1.8390348297794828e-02
      -6.6015984018368201e-03 6.0846694605668720e-04
      -1.1527399809064113e-02 4.1627153182215186e-03
      -6.8081949903230658e-03 -1.1831330542378827e-02
      4.9013565904100845e-03 -6.8007029916354973e-03
      3.4103590970691227e-03 -1.8155379691818570e-02
      -4.9308525837094353e-03 -1.1601411638736249e-02
      -2.3975432108106709e-02 -3.3760160677886956e-03
      1.3133655701335104e-02 1.0147936499241710e-02
      2.0953057350684933e-02 2.4577512544509662e-02
      -5.6336454614503385e-03 -2.9707537519196628e-03
      -1.6019601922416436e-02 -5.9363197907110555e-03
      -1.4474477397390230e-02 -1.6758363481991730e-02
      -7.6388528424940942e-03 2.5809203453997745e-02
      -3.1818960693611514e-03 -3.1153182961937628e-02
      1.5448065968581028e-02 1.1845112816890604e-03
      -2.6274932519991436e-02 9.3857422983231603e-03
      -1.9786966470079704e-02 1.9095231754269852e-02
      7.3856827505044539e-03 2.0333345074314918e-02
      1.4308374110509546e-02 1.2657345079901997e-02
      5.3449337027712158e-03 5.1351834553310816e-03
      -1.5271080829512777e-02 1.0525370889113816e-02
      -1.0463411619898645e-02 7.3080101390970249e-03
      1.9248184252357785e-02 7.3720558993188579e-03
      -1.0160646567661793e-02 1.7834804062412536e-02
      -6.0272647284919378e-03 3.6446219538080237e-03
      -1.0109554357748868e-02 -5.5071349769486915e-05
      1.4579760868683584e-02 2.6282568359351055e-02
      1.2145812256668777e-02 1.1126897996629713e-02
      -2.4546595563436142e-02 -1.3375085535998310e-02
      -7.6930885621047450e-04 -1.1125383821475139e-02
      1.3173360808842150e-02 4.5910769785379151e-03
      8.7507362210743206e-03 2.1128201498472722e-03
      1.4816211096089710e-02 -1.9480066658047777e-02
      -1.0244908905995243e-02 1.4315199976857268e-02
      -1.0143921707833521e-02 -2.0818541662888702e-02
      4.3953142795342057e-03 9.2815400544263658e-03
      2.0159637270615226e-02 -7.2510307236474565e-03
      -1.3463683754545559e-02 -6.7401853189024211e-03
      -1.2958397904002139e-02 -1.7676072078969006e-02
      1.8894630268633528e-02 -5.6263690566511733e-03
      -1.6836574910578463e-02 9.6115033416707147e-03
      -1.5236611447209223e-02 7.8916090050620436e-03
      -1.4522805118636432e-02 6.0359526965593048e-03
      -7.4552672541966470e-03 -6.9716649387088951e-03
      1.8163194605396681e-02 -4.6861886915439722e-03
      9.7801635599229723e-03 3.4456843140271178e-03
      4.8411165924104795e-03 -1.8673182064693157e-02
      -9.7384921588206715e-03 1.5540434504326702e-02
      1.3817170787729913e-02 3.7110567344626321e-03
      -1.9384879474193244e-02 1.6001706514800415e-02
      6.0482686686080361e-05 -1.3841863888568083e-02
      1.7116824921506926e-02 -8.3666299529560374e-03
      4.3363852209858623e-03 -6.5310022569520180e-03
      1.0115475773091428e-02 -6.2550246982174826e-03
      -2.5734184865549123e-03 1.0888703192141066e-03
      -9.8541527679947105e-04 6.0710653568821788e-03
      -1.5777828865916197e-02 2.1756874585264138e-03
      1.2185191426982757e-03 8.0103684719211345e-03
      1.5013563366061923e-02 1.7755200384623911e-02
      8.3914622930385194e-03 -1.0307113806200360e-02
      7.1375390571015032e-03 -9.1561118889721196e-03
      1.2252342189283625e-02 -9.9899489585098290e-03
      1.3416742230885612e-02 4.9997195647715331e-03
      -1.1396569032400064e-02 1.1397975009818267e-02
      -3.7746090449365883e-03 7.7903836151031695e-03
      1.4650657127171251e-03 -3.8131523078961177e-03
      1.1770398558812839e-02 -9.5826426549018538e-03
      1.8986193258771763e-02 1.8642547911500554e-02
      1.6273434310620088e-03 4.6985605812792678e-03
      1.4771943946782916e-03 -2.0342194941330889e-02
      1.7689073419070878e-02 -9.3632840012127811e-03
      -1.1594071900682002e-02 -9.2935944203767148e-03
      5.3213426889783585e-03 -1.7660549456105228e-02
      1.4046878267515408e-02 5.9212052015981077e-03
      -2.1688131302940623e-02 1.3664884411875154e-02
      1.4183607019437550e-02 1.2647277072149238e-02
      5.7028289460483777e-03 5.4156487291866966e-04
      7.2113905838141956e-03 -1.1367569413994834e-03
      1.2891178920555090e-02 -1.1445642423874572e-02
      -9.7181383162223463e-03 -1.3326523984440340e-02
      -7.9072062926675620e-03 2.3489592174168414e-04
      6.5767258221362283e-03 1.1326888995877204e-02
      6.3728945277989578e-03 -1.6551751942303116e-03
      -8.2288975288055642e-03 8.8332782464365638e-03
      3.4704730593714734e-03 2.1079109161339735e-03
      -1.4894823274306544e-02 -6.6744948117070258e-03
      1.5194059496524573e-03 -1.8304070282261005e-02
      1.7065518372285850e-02 4.2875474080394374e-03
      1.3909707407071576e-02 2.3522665419086278e-02
      -2.6351143720452008e-02 -2.3375868260550603e-02
      1.8489889108810633e-02 1.0486441422375942e-02
      -4.7281707603833182e-03 3.1254170803036309e-02
      -1.5202455914150531e-02 -1.9524758215524957e-03
      -2.0175394197380894e-03 -3.4828186279527817e-03
      3.0580044635759085e-02 6.0545162219287673e-03
      -2.4092754715726869e-03 -1.6803949181348407e-03
      1.7869105063076894e-02 4.0883793206173873e-03
      1.1869415733491483e-03 1.9818988796842765e-02
      -2.3424909560739965e-03 -3.0071911405987078e-03
      -1.6404032075384451e-02 1.8465927912688158e-02
      4.4228635718996595e-03 2.7528989528957583e-02
      -2.5688140115763874e-03 1.9013226495509850e-02
      2.8112654206088130e-02 6.4816080589080345e-03
      -1.0791117109886747e-02 -2.5728905870855551e-02
      -2.4805848112271323e-02 -8.4520124658169389e-03
      -8.7588447841912883e-03 -9.6696988040662086e-03
      -7.6080631072547216e-03 -5.2798236140605209e-04
      1.8003037912740556e-02 -1.1517120774737371e-03
      -2.4138144456207135e-02 -1.7697634139977079e-02
      1.5212013753545139e-02 3.6513376237514252e-03
      1.2098313108021534e-02 -1.4064488971523506e-02
      -3.1771416063645056e-03 1.8965017277787870e-02
      -3.2144291607604035e-02 -1.2251947218047675e-02
      -7.8433477556682594e-03 9.9731925385565124e-03
      -2.1497417635947237e-02 2.2128680384118520e-02
      2.0372159720173949e-02 -2.0215511679465756e-02
      -6.6439016169810765e-04 -1.2067345251336079e-02
      -1.4540266387913793e-02 -4.3872935608488947e-03
      -1.7470089318340249e-03 9.6495950918359663e-03
      5.6595367968687357e-03 7.8265240901187264e-03
      -1.4333903776522838e-02 -6.6612052282750368e-03
      -9.4718138502115443e-03 8.7671412017797518e-03
      -1.4074086600378115e-02 -6.6506815152872567e-03
      -2.1221043646548705e-02 -4.0313763532043951e-03
      1.2912564766321822e-02 1.5407054801733268e-02
      1.7726358288345498e-02 1.0537379476530360e-03
      4.2852024201754709e-03 -1.3798808615605167e-02
      -3.4034367335869535e-03 3.7426155488324794e-03
      1.2403027544958284e-02 5.0804399701647514e-03
      2.2113615258927532e-03 9.7143557728873713e-03
      -1.7808688043444418e-02 -1.1468595377828033e-02
      4.5536834521966761e-03 3.3539981448199432e-02
      2.2764663430696653e-02 -8.5920733108593868e-04
      -3.7973717857044204e-02 -1.4688581255005044e-02
      2.7673268795996984e-02 2.4007882528253349e-02
      -6.1385615888831539e-03 -6.2018124738945192e-03
      -6.4643903496799217e-03 1.2919822605909497e-02
      -7.9817384200295705e-03 4.2249336478265501e-04
      -7.8531993748330482e-03 -1.2380431442288726e-02
      -8.0215016932151627e-03 -1.3867932912422377e-02
      -7.8153399484060838e-03 1.9807629182580430e-02
      -1.2200133557691416e-02 6.9968671217990292e-05
      -8.6534465586864014e-03 -3.3548116774862347e-04
      -5.4290061822607457e-03 -1.7246291754145642e-02
      2.7350230472673931e-02 2.2853997186594914e-02
      1.6888798356795239e-02 -8.0436183563212867e-04
      1.1231025740915368e-02 8.6844559330676863e-03
      -9.5646434616324365e-03 1.4448518939432197e-02
      -5.8250314255192280e-03 7.1984975352141880e-03
      1.4690003246688151e-02 -2.4229317651658210e-03
      1.5643634287061843e-02 6.0149845298089911e-03
      1.1857800868056712e-02 1.8936923869040955e-02
      9.6777700777040399e-03 5.4704535006066812e-03
      1.5087718116664510e-02 1.0640078384354950e-02
      -9.3369871418060441e-03 1.6588589190467927e-02
      8.7073979145399806e-03 9.1472782698247216e-03
      1.5062462847398997e-02 -1.5912697904461714e-02
      -3.7787284346521110e-03 -2.9053872742646927e-03
      2.6341575457761745e-03 -2.0477883998397135e-02
      1.8100644242393080e-02 -8.4945693533835780e-03
      4.0388632061247069e-03 -2.8769839033529971e-03
      2.1669866825758027e-02 1.0916132951007457e-03
      -1.3234094598275781e-02 3.9202804370264497e-03
      3.2422144841423211e-03 1.3948944336676001e-02
      -1.5990465929023055e-02 6.2190711421543643e-03
      2.2349849323356923e-02 -1.8954821546292288e-05
      2.1059864849628851e-02 -2.1223269301740403e-02
      -1.9414113157935498e-02 -2.5622868926646340e-02
      2.6029774248635331e-03 4.0594873067277227e-03
      -9.8276005890236568e-03 3.3159920073579075e-04
      1.1518088035788882e-02 1.9498765911572791e-02
      4.4077954562991312e-03 2.6872050900220799e-03
      1.5217750196403399e-02 2.1359058379486498e-02
      1.4532638530787645e-02 -4.3730548463983231e-04
      9.8038559361448181e-03 4.2915191669211259e-03
      5.5667776404233742e-03 -9.0619697476173964e-03
      1.6699629288527331e-02 -1.4772133404319567e-02
      1.0181326833657044e-02 -4.8001807145927776e-03
      1.3033706568190558e-02 -3.7512282997143819e-03
      1.0117038834100731e-02 -3.2696168955081016e-03
      1.2676152535358146e-02 1.1058859289106538e-02
      5.3928899327092541e-03 -1.2057640094325268e-02
      3.7090569651244466e-03 -2.5870007240112017e-02
      -3.1781245769056153e-03 7.6880346205399934e-03
      -8.7542116526197569e-04 4.8074684949349911e-03
      1.4811814704201266e-02 -2.1094371993296800e-02
      6.5489169717172909e-03 1.5236641751297257e-02
      1.2134528280494672e-03 4.4271980973204323e-03
      -1.1804203086246476e-02 1.0399547443098152e-02
      3.1162658999728749e-03 1.0095320365743090e-02
      -1.7085996358860406e-02 -2.4166500738234967e-02
      -8.2547361025037402e-03 -2.3419980377953711e-03
      -1.5332921466184668e-02 -1.6498480068155685e-02
      2.3148493993206828e-03 -1.6408457077391640e-02
      1.1650330181706163e-02 -2.6473124922194537e-02
      -1.8362647505585569e-02 -1.2062748524417177e-03
      -2.1980564632211076e-03 7.1578848321625734e-04
      -6.0771379539831796e-03 -2.8516011059896715e-03
      2.9766397097621220e-03 -1.5299859502783248e-02
      5.3483547245479881e-03 1.6344475948271819e-03
      -8.8522217093779717e-03 1.8598540841878836e-03
      1.3132036451493408e-02 -5.5138311940734997e-03
      9.7649223201356301e-04 1.2041066042767336e-02
      -3.5333396133266758e-03 -2.2249608237976475e-03
      -8.1088240932727929e-03 3.6270470684376097e-03
      5.4382418444396292e-03 -2.3083252981446600e-02
      -2.8044701859758141e-02 -1.2849269994250173e-02
      1.1616783345215645e-02 8.0415607575129132e-03
      2.0290236654975567e-02 2.4712136376878524e-02
      -1.2562483965958682e-02 -5.0837126777101725e-03
      1.3391749249779327e-02 7.7994598971821774e-04
      -1.3015454936055727e-02 -2.0738477418218989e-02
      2.6775966482717295e-02 1.9890630619608708e-02
      -1.1494948304083751e-02 -1.4434913155997188e-02
      1.4600553065211505e-03 -1.1970496291774206e-02
      3.1982050504276305e-05 2.0177540582864670e-02
      -5.5048662932657933e-03 1.0310273539144300e-02
      2.2141933873335160e-02 -1.0333445055650077e-03
      -8.7736551897676270e-03 -1.0421534240384443e-02
      -2.1696120384346190e-02 -5.9057800748616345e-03
      -4.0960992203014183e-03 -9.2628678605002172e-03
      8.4526021947067057e-03 -1.9803641470553558e-02
      -6.0067620000929037e-03 -8.7114902503765621e-03
      -7.3227557046299883e-03 4.8328425916465368e-03
      7.4397736059255646e-05 5.7487638507791473e-03
      -2.5883713652663037e-02 -1.6721634481669908e-02
      -9.5386538834497207e-03 8.4550082639085703e-03
      3.2208271684692120e-03 1.5315620719527013e-02
      8.9135111873153081e-03 -2.1006802513551109e-02
      1.7303463208737279e-02 -2.1455254824925623e-04
      2.0254379279678186e-02 -1.2595097318162590e-02
      -3.9355123180758837e-03 1.5102314180911932e-02
      1.7467203408324575e-03 -1.1362149127969179e-02
      1.7843164428729508e-02 -1.4613389502015715e-02
      -3.4181562377600355e-03 -1.3154784329454510e-02
      1.4119899510915612e-02 2.0099066849047268e-03
      2.1274890723675041e-03 -1.3057516489552624e-02
      8.2517607253120139e-03 7.5336082847254860e-03
      -1.0078295677126601e-02 -2.0452744959514262e-02
      1.3980003648912985e-02 1.1920951741079236e-03
      -2.7463016327452842e-03 -1.5138324524198042e-02
      -5.5531806080164753e-03 9.0551411699326973e-03
      -4.1920129336989837e-03 -9.2285974504483677e-03
      1.6801493595951924e-02 9.5460764326249295e-03
      1.1025980317105426e-02 8.6802500277181269e-03
      -4.1876052825225362e-03 1.6035467268342110e-02
      -4.2667917520629456e-03 -2.2696120939204544e-02
      9.3321010811236462e-04 8.9534387218407809e-03
      1.2098421746352858e-02 -9.8764058363262179e-03
      1.8605039999328804e-02 1.0232667226300755e-03
      -1.9342079839013118e-03 3.0878866616885006e-03
      -3.5614781397701758e-03 -1.3152353193766616e-02
      3.0005930061450226e-03 -4.9700835502334197e-03
      1.3414808190293454e-03 -5.2219223609814016e-04
      -3.7895402263731382e-03 3.9428901863462805e-03
      -3.1984309005580955e-03 -2.6886441867389373e-03
      9.7709847884957408e-03 -2.2212918790440210e-03
      1.4894464609302943e-02 -3.3434311768793705e-03
      -7.3549267212530750e-03 -2.9599021306251421e-03
      -1.2954880505912567e-03 -4.3292378213610858e-04
      8.2742003300178887e-03 4.5380015261521573e-03
      -1.3028797682747933e-02 3.5175216866668133e-03
      7.3172721127836866e-03 -5.3731821298543181e-03
      -6.5549581470662031e-05 -2.1002468542920552e-02
      7.2596197376504409e-03 2.2050744731531243e-03
      -9.1998599692260027e-03 -3.1097823120542524e-03
      3.8192775993353763e-03 -1.3465207066639444e-02
      -1.3525258210705578e-02 -2.7984606792552679e-03
      7.6656985678849512e-03 -1.7323911367098518e-03
      4.7793339297114400e-03 -1.8173810680262446e-02
      1.9698817095285804e-02 1.1259432632320784e-02
      -2.6194881795582690e-03 -1.8776872530484642e-02
      -1.5940704905627223e-02 -6.9334646425544101e-03
      1.5448853863138915e-02 1.6810745261293593e-02
      9.9065837507337409e-03 1.9810845158262331e-02
      3.8448284221953197e-04 -1.9050406783382382e-02
      -1.0803005174013317e-02 -1.3738436929893724e-02
      1.1831063607756858e-02 8.7785973296793073e-03
      -2.3905423811855845e-02 7.8395739904049602e-03
      -8.0709686232557729e-03 7.7414967836378704e-03
      -1.5848377598901484e-02 1.4128914302585277e-02
      -2.8627234056395834e-02 4.5690637452588022e-02
      2.1884774400523339e-03 3.1997443969468048e-02
      -4.1165739448636114e-02 4.1672875984218889e-03
      1.0030784355033262e-02 2.6658991718291909e-02
      -1.6601100097107059e-02 -1.7220867456493043e-03
      -3.0451606304990716e-02 -2.0185847019974702e-02
      1.8139507933287925e-02 -2.1664168329572672e-02
      -6.7883135622502045e-03 1.6769359900485399e-02
      -2.9419869102105815e-02 2.0812574967792388e-03
      -5.4268468914029184e-03 8.0076061847231504e-03
      2.0914933566940897e-02 3.1947495992394236e-02
      3.5984556973314148e-03 -2.7080181864167878e-02
      2.2328396442796870e-04 1.0915793580466801e-02
      2.4972207527300571e-02 -2.5528349059147199e-03
      2.3345014415473115e-02 7.0274640658768029e-03
      1.7520038765947554e-02 1.3653280419943301e-02
      -2.6414784584074213e-02 3.3884771491731094e-02
      -2.0285837119794179e-02 7.1038577478567434e-03
      1.6919037938370643e-02 9.5290469066670568e-03
      -1.4659342262346081e-02 -6.3922143423394010e-03
      -1.3652199920461147e-02 1.5995887167136080e-02
      2.8772050302202104e-02 -2.9794390282966758e-02
      3.3550099767517674e-02 -2.5441565413574452e-02
      -1.2682123539605262e-02 5.3615593717835537e-03
      5.6171292483746301e-03 1.4386923198345126e-02
      2.1226395211284534e-02 9.5427660889397300e-03
      1.7534293233755969e-02 -1.8860716982823659e-02
      -3.4844317511889059e-02 -4.0613120745622566e-03
      -1.9910684187966453e-03 -9.8637897225485605e-03
      6.0265158677242654e-03 -2.9751165440185306e-03
      4.1191976141395879e-02 -4.3736284347876894e-03
      -3.3600424009521498e-02 -8.6863175588148718e-03
      -4.3171960191215148e-03 1.8598523684842758e-02
      6.4044914322283781e-03 7.6064368148224875e-03
      4.1063478404435000e-02 -2.2717842807447902e-02
      -1.2886543220861472e-02 -2.7751805608861809e-02
      -1.6442537791056793e-02 -2.5055869476732101e-03
      -2.3853579059164114e-02 1.2781656001021033e-02
      -2.8483749096266512e-03 1.2851507643411910e-02
      -9.6209360800274344e-03 7.4133055395216108e-03
      -2.6150113937217060e-02 6.9651133521879153e-03
      -9.7998456640537579e-03 1.9361894414221540e-02
      -2.9551848634838465e-03 1.7284260933232858e-05
      -7.1457587533123074e-04 -1.5158449328101428e-03
      1.2442580481329475e-02 2.6575752076776479e-02
      -9.4669967776656698e-03 -2.3539304946557919e-02
      -1.1449801123461393e-02 -1.9967657001474189e-02
      9.7580138429823517e-03 2.0689809287087819e-02
      -2.2076970917663367e-02 -3.3801807578085333e-02
      2.0756116770697951e-02 1.2131651419349777e-02
      4.5690816957309000e-03 -1.8123089072456577e-02
      1.2580190846338414e-02 -2.5637703202246578e-02
      1.4825997090996352e-02 8.7503001900957819e-03
      -5.4912409393937820e-03 -4.2767405215838623e-03
      2.6391273546474237e-02 -1.1817702509070703e-02
      4.5790741678401158e-03 1.6170483408703463e-02
      -1.3089039043880099e-02 -1.0610342125033692e-02
      -1.6472400139126282e-02 1.0440645368336802e-02
      2.6880309232924084e-02 2.5429504576920739e-03
      8.1903701071931040e-03 1.1945689267404460e-02
      5.0789214867208114e-03 -1.6050928357250406e-03
      1.3932900901477288e-02 7.5739785967116439e-03
      -6.7699115084841627e-03 -1.2161083311310401e-02
      -1.5599031565048310e-02 1.0201442551340794e-03
      1.5574522716733930e-03 -1.5226971126899271e-02
      -2.1903372045329115e-03 7.1699969315811435e-03
      -5.6839533073423597e-04 -7.9663271079164783e-03
      2.2824293372364110e-03 -1.6306475273084611e-02
      4.0011291157869590e-03 -2.2251063473614965e-02
      -2.7379729231695195e-03 5.6279759105004462e-03
      -1.7539201783095641e-02 -7.9005670159752067e-05
      -2.1385232421693164e-02 8.6718733639508817e-03
      5.6617925855749554e-03 1.4659168360572633e-02
      2.8614146811077441e-02 -1.1208816667819387e-02
      -1.6604858674581363e-02 -1.0574748145509934e-02
      3.6141474924834978e-03 -1.0245417267367538e-02
      1.3344139791848818e-03 4.2907495528168790e-03
      -6.5467024135649919e-03 1.5825788575994999e-02
      1.4217026867874832e-02 -1.8547569404582853e-02
      -3.0995544656234326e-03 1.0532996330451816e-02
      -1.0149664615378926e-02 9.9806983726011666e-03
      1.9096778567319575e-02 2.0040070718823784e-03
      1.8076400129732419e-02 5.5640630965113026e-03
      7.6313503674893986e-03 1.6004366022344056e-02
      -1.4071009909902506e-02 2.5552840163073236e-02
      3.1344689785359047e-03 -3.1088515136892146e-03
      -7.4204382767580016e-03 1.0116231277267042e-02
      1.1167798863400365e-02 -9.4664940064436501e-03
      -7.2835817347184405e-03 -1.6009552139763635e-02
      -1.2769862199335296e-02 -1.7550834250178917e-02
      4.7977063605151799e-03 -1.4588571308998625e-02
      -7.5689154547843142e-03 8.8268928925155383e-03
      -1.3894692177491888e-02 1.2432125513205368e-02
      -2.1735599283110106e-02 -8.4361969532370067e-03
      7.8857204881449990e-03 -4.0715536247607851e-03
      -4.4761066625368523e-03 4.3205766488296242e-03
      9.6202273033261353e-03 2.1213527038345423e-02
      -6.0805179127030925e-03 -1.9153126809535317e-02
      9.9563136546489267e-03 2.5928426352616394e-03
      -4.3261100632827162e-02 4.0204097795165622e-02
      -6.2129745010912285e-02 6.0785696234660923e-02
      3.0645542814964954e-02 4.6587454201395651e-02
      -9.0922578177613247e-02 -4.8011065104920460e-02
      3.9949880279235003e-02 7.3606259501674737e-02
      -5.2288468138533981e-02 5.5062808057828705e-02
      -6.2300437183143327e-02 -1.6317537536976869e-02
      -1.5520087222881188e-02 -1.7550530684214451e-02
      2.1185931225260357e-02 2.9819682103962245e-02
      -2.0072654879059171e-02 -1.8602472237463516e-02
      -5.0674246539042641e-03 2.5539500733439257e-02
      2.7515104783328435e-02 8.2150835408106290e-02
      1.5623279752746836e-02 -3.0582906549353719e-02
      2.2754899598548785e-02 1.7097674941014211e-02
      6.8829571670747797e-02 5.7826955504020665e-02
      4.9109948323484975e-02 2.3552320206447801e-02
      1.8466087241560868e-02 5.3118878203445755e-02
      -5.4366262251027232e-02 9.0863463822638907e-02
      -7.5042121355883160e-02 1.7932009630420274e-02
      -8.4293612227390928e-04 3.2484778248262527e-02
      1.9248830901235768e-03 4.4392633570746749e-02
      -5.6934892900290177e-03 7.8329640394650540e-02
      3.8147158801275720e-02 -3.8821307664388266e-02
      3.0673861601979734e-02 -3.3409826483364248e-02
      -6.6915394645787843e-02 3.8936638405075767e-02
      3.0901488776169932e-02 6.2337019361462270e-02
      8.9587889937722417e-02 8.2331194200052603e-03
      9.4386724333690719e-03 -7.9480465222913896e-02
      -2.7950379814947211e-02 -4.2604311827424433e-02
      3.3208288399449101e-02 3.7916568948723833e-02
      -2.1041669249505426e-02 2.7331536546529910e-03
      7.5656481217556235e-02 5.1692582082914003e-02
      -9.7759018099896261e-02 -4.0147394814816204e-02
      1.3049826663908096e-02 8.1763980417159279e-02
      -4.6634597730818912e-02 3.4662957870819786e-02
      8.9598859256035349e-02 -2.8856477671895864e-02
      1.7279031791396830e-02 -2.2315231265211944e-02
      -7.1434802037690995e-02 -6.3574848062532441e-02
      -1.1054761622713533e-02 -9.3304622908844037e-04
      4.2335649923939823e-02 7.6865326419263760e-02
      -2.4526899627383688e-02 1.2389165625110849e-02
      -6.5203045472279328e-02 4.4921284631450918e-02
      2.5763244347494529e-04 -2.0162736171130762e-03
      -3.6878656536132501e-03 -3.5853730263733848e-02
      3.7420965461428535e-02 -2.0275519137180769e-02
      3.9100488519398867e-02 4.1025884534290645e-02
      2.5741562789497525e-02 -4.6379551773473825e-02
      -2.8562319607011499e-02 -6.7457185693546879e-03
      1.4659346085471352e-02 2.7740289071742349e-02
      1.0092142851242745e-02 -5.0768613266961228e-02
      -2.2795572139427026e-02 -2.4192125764786165e-04
      -2.4501145391713868e-02 1.8994422838904037e-02
      -5.8818106079927867e-03 2.3718797040458758e-02
      -2.5612632814088696e-03 7.6649035283591922e-03
      3.2854003929674302e-03 3.1823233203459596e-02
      9.8702553567337047e-03 2.2218619962192005e-02
      -1.1284271909469366e-02 -6.9062357123927248e-03
      -8.1900227915990345e-03 1.3213487068960432e-02
      2.0764422884836688e-02 1.5048943858131845e-03
      1.5108798996744801e-02 -9.6478374523390979e-03
      4.7196154697744258e-04 2.1888770919226017e-02
      8.5691400949150390e-04 1.6980355126435991e-03
      1.9255333194401554e-03 -3.9422330923564037e-04
      1.3316913651062320e-02 -1.0260478469218126e-02
      8.3372918492103463e-03 -1.0005439340558435e-02
      6.6850585046314519e-03 1.0720238598458481e-02
      -1.6077931893572289e-02 1.7483773318402455e-02
      -1.1975856466461370e-02 1.9734383447280148e-02
      -1.7762269688026945e-02 1.0267371876405884e-02
      -1.0022746618560070e-02 5.4027566224612604e-03
      6.1457787755563797e-03 2.0611892617276303e-02
      -1.8093785345312790e-02 1.7365308941181826e-02
      2.4846906035878916e-02 -8.3747308660421186e-03
      8.1018738937229679e-03 -9.7208055526391487e-03
      -1.5839886578864596e-02 1.7591596101834278e-02
      8.2300406470636885e-04 3.7254945903548559e-03
      1.7002608960561008e-02 -1.9003368052284999e-02
      -9.9940010160571163e-03 -3.0079879233823183e-02
      -1.1291903230586469e-02 -2.6544225565788102e-02
      -9.3261371604291880e-05 -1.4799052198404352e-02
      8.9673014201383065e-03 5.3327463234401741e-03
      2.4042342591990969e-04 1.2655648568373569e-02
      2.7838422753809562e-03 -2.7988409076177303e-02
      -1.3598452200896982e-02 5.3224063455053570e-03
      -6.5374448718384720e-03 1.8089779543288571e-02
      3.1932876215489063e-02 -1.8674853424290618e-02
      -7.6240874727967530e-03 8.0958053965277457e-06
      -1.1900363281383086e-02 -5.6520997058288440e-03
      -1.0059674278070939e-02 2.0407569913687237e-02
      -4.4057583780905095e-03 1.6561882272239411e-03
      1.1351498898748582e-02 -4.6754163967681860e-03
      -2.8534492906797864e-02 2.2276270837427954e-02
      -1.3645985313159149e-02 1.3183414552650123e-02
      1.4701384414004343e-02 -1.4391054064025995e-02
      -4.3065137954865357e-03 -3.2511108563206305e-03
      4.3735078868712149e-03 5.3459548237855961e-03
      1.6633183336931124e-03 5.8394197913923702e-03
      -1.6222461629171608e-02 1.3219597979419275e-03
      -5.3471599527380948e-03 2.5684726618394023e-03
      -8.9961686107805933e-03 6.7006396044234614e-03
      -4.6772820697734557e-03 -4.7791821014937421e-03
      2.6979894252426168e-03 1.2473573581417078e-02
      6.9707263243139628e-03 3.1351631294862931e-02
      -3.9936073430371269e-02 -1.1126624007566524e-02
      1.5526388066412071e-02 8.2178557928775757e-03
      -1.7434578980093519e-02 -5.6366769850589278e-04
      -3.1565297250863039e-03 -1.4638564390416425e-02
      -1.3217996721205136e-02 -1.8555866127410930e-02
      1.8812693147645384e-02 2.4381669954186853e-02
      -1.1616785147374284e-03 -2.6234535700848684e-02
      5.1893166228014105e-03 6.6556741679099744e-03
      1.5846631489070312e-02 2.6900881106780922e-02
      1.3542956521018244e-02 -9.7823571853049400e-03
      -2.7442535092221674e-03 -1.8205163783712938e-02
      2.3107664173028852e-02 2.7553031457652429e-02
      -6.1206515082591942e-04 -3.2015891775148300e-03
      7.6019826762056923e-03 -2.0127092369594360e-04
      -9.5502034353988005e-03 1.3672928873702278e-02
      -9.7463357894092759e-03 3.7506539237768997e-03
      -9.4391402352782226e-03 -2.2331728280342751e-03
      1.9839346272441161e-02 7.2627491992212547e-03
      7.2460837919590621e-03 2.5556256519709684e-02
      1.2114854033592005e-02 -3.8389767605285750e-03
      1.3100224548644715e-02 -2.4467758356776195e-02
      3.0152986313186363e-03 -4.8679043446277779e-03
      2.3046252506103169e-02 5.0301175686587893e-04
      3.8212479850771079e-02 2.4097177505610374e-03
      1.2674384492152625e-02 -1.1726942860014139e-02
      -9.2607137146260383e-04 -2.8335205613046886e-02
      -1.5762161680021808e-03 1.3411229105865051e-02
      -1.9609782000571244e-02 1.4047518746538720e-02
      1.1604039806414002e-02 1.4213722101679763e-02
      -3.5731366192595995e-02 -2.8306715124339039e-02
      -1.0113284043835496e-02 2.4974616667286960e-02
      -2.1348698995316377e-02 7.2988410167048410e-03
      2.4057470221941785e-02 3.9243560101079166e-03
      1.8125940021193363e-02 7.3489588436058545e-03
      -1.8386288502959650e-02 -2.8278186940489135e-02
      -3.2407386251732881e-03 1.1200613254823086e-02
      1.1281421611351023e-02 2.6063035515012389e-02
      -8.9148484842232149e-03 -5.7751707586180430e-04
      -9.1078558126389975e-03 1.1310442011162550e-02
      -1.1564185406488294e-02 -6.4012225334263333e-03
      -1.9418580157655799e-02 -8.4774464450211289e-03
      1.4528721294861822e-02 9.9100096747738956e-03
      2.0575049850416853e-02 7.4799759466583115e-03
      4.8970569305655659e-03 -2.5698773399385283e-02
      1.3090986644005221e-02 -1.0624824699487907e-02
      -1.3475331106309494e-02 2.3605898007060054e-02
      9.7993281287969223e-03 -2.8767016003793753e-02
      8.0248644192781639e-03 7.8230920430459004e-03
      4.3222021140140645e-04 -1.0168222411299837e-02
      -6.7702275500870178e-03 1.5576442630927422e-03
      -3.5920339407310917e-03 1.6966726076284723e-02
      -2.1816649871887143e-03 1.3326081485734848e-02
      1.6164486085766688e-03 1.1823025701929267e-02
      4.8243285937759353e-04 4.0619876992515694e-03
      1.0950448253531321e-02 6.5299208001550566e-03
      -7.5735779969898680e-03 -6.1151098818554017e-03
      -4.5947300874866698e-03 -7.4787711538387724e-04
      6.5855787352395280e-03 9.0591032143476635e-03
      -1.4727940143210399e-02 9.1135892307442398e-03
      -1.7953399624652294e-02 5.3360927329352322e-03
      -4.5571198996873204e-03 -7.3451231603543984e-03
      -7.7548879322173383e-03 9.4316377766692060e-03
      1.3523345779098845e-02 -7.8222779842760833e-03
      1.6962599207826286e-02 7.4792360437423433e-03
      -1.0818678137019021e-02 1.3398010555393906e-03
      1.1393819994834948e-02 1.1179696875245750e-02
      -1.3747993501862756e-02 -6.2848019361255395e-03
      -1.7492925331514021e-02 2.3152167389406653e-03
      1.1357607225747491e-02 -1.4830952980702656e-02
      1.2005684923994478e-03 1.4546067902806173e-02
      -7.4435205618591854e-03 1.0668514416700954e-02
      -3.5246469016959707e-03 -1.0385522777138337e-04
      5.8559345952086091e-03 1.0241773313099181e-02
      -3.1292368923516319e-03 -8.4716908528663685e-04
      -1.8505824025280525e-02 9.3075446444982612e-03
      -2.3539543039121846e-03 1.2081716000625778e-02
      -1.1687524137042710e-02 2.0057768929585891e-02
      -9.1072481095779197e-03 2.7000071602643842e-03
      1.2767555916544309e-02 1.0729789567252989e-02
      -1.5060868661147021e-03 -1.0191975119407195e-03
      1.6393911797274410e-02 -1.5602919463574871e-02
      -1.1820127892043843e-02 -1.3608490581261680e-02
      5.6407727598381183e-03 5.6691562041215424e-03
      -2.0626369962867420e-03 -1.3997780668603670e-02
      -2.7087045759887078e-04 -9.9089499560302066e-03
      -1.6501843012886794e-02 1.2200480399497629e-02
      1.2604590440826742e-03 2.1939749650866278e-03
      -1.2459155726542446e-02 -7.2544712927136209e-03
      3.9925957606471675e-03 7.4481359996053844e-03
      1.2630490036772624e-02 -1.1654756788350590e-02
      4.4177496920502031e-03 4.2554014324519300e-03
      1.0835878380863391e-02 -8.0738264997205836e-03
      -1.5106279872314433e-02 1.4505017526940651e-02
      -4.9458264853695791e-03 -3.9600958128823546e-03
      1.5908496651726674e-02 1.1952094481911641e-03
      1.2280819054250085e-02 -5.7625476579870379e-03
      -1.7742526788266669e-02 3.7516334649444123e-03
      -1.1959184989515608e-02 -1.8277888768695093e-02
      2.9238953853961476e-02 -8.0108301312193046e-03
      -1.3683790419408384e-02 -1.0083560870059419e-02
      5.5741140243001910e-03 1.4200536202494417e-02
      3.2403654896913468e-03 -2.0858580226237624e-02
      1.9751520937007404e-02 -1.4721469288242497e-02
      2.2242876653862306e-02 -1.4820332295351027e-02
      -2.4362849672917588e-03 -2.5548595092849817e-04
      9.0996663441031567e-03 1.0076744720593559e-02
      -5.3066456761016751e-03 -6.3411596518968957e-03
      1.7680612759809797e-02 -1.9481908312464098e-03
      -8.3276806954969730e-03 -6.8292101350538861e-03
      -2.1655594999779690e-02 -5.7094660195484599e-03
      -4.3944331357759553e-03 -4.9523694835769769e-03
      -3.0033639022783529e-02 -1.3434767717920428e-02
      -1.6582625946858894e-02 4.7158730160358339e-03
      1.3761610668864526e-03 -3.0035589726956333e-02
      3.0054361998958297e-03 -6.3943021076115093e-03
      1.6898611943996784e-02 -2.3482493551714952e-02
      1.4280648166621144e-02 4.9865817563454554e-03
      -1.2490422727031904e-02 3.3169618263352448e-03
      2.3401720845440143e-03 -3.1284511612576373e-02
      -3.2083753412197581e-02 5.8069376796532389e-04
      -3.5841958621469095e-04 9.4412675836568639e-03
      2.3919548367765293e-02 -2.2685922161910156e-02
      6.5301972168361529e-03 -1.4055686108376738e-02
      -2.5104655417771595e-02 -8.7143792389600908e-03
      -8.6317088672331816e-04 1.1496664598499441e-03
      -4.1645962802114933e-03 -2.9273443496821024e-03
      -1.6836804151260730e-02 5.5228245345927685e-03
      3.1734496295549156e-03 8.3685301066284204e-03
      -2.7367263033903715e-03 -4.5325152780563479e-03
      5.6408010362911688e-03 1.9735366048889518e-02
      -2.9220701935306478e-03 -2.5800353704154105e-02
      -7.4506832505318345e-03 -1.5549046345441325e-02
      -1.8629025493896056e-02 3.0986065338473520e-02
      3.1120012512704572e-03 6.4335868570281575e-03
      1.9641235528490121e-03 6.8569885556297606e-03
      9.6524317361234614e-04 -2.4624106846431314e-02
      -7.4621730672050895e-03 -2.7672176725172005e-02
      -1.8035475667622040e-03 -1.4896664086575962e-02
      1.2491251257407876e-02 1.6253446409819633e-04
      -1.5837445065637139e-03 -4.2377428492469567e-03
      -6.5615961265684895e-03 -2.2074059572558258e-04
      -1.1020606188877366e-02 5.5105113536129914e-03
      -2.5806550654370538e-02 1.1319739331353567e-02
      1.0653216907395022e-02 1.3064811060548463e-03
      2.2215722852395245e-02 1.5629792062511973e-03
      3.0696341080479494e-03 -2.6384291974827733e-02
      7.4631230298538593e-03 8.1068118781839407e-03
      6.8116416190268370e-03 9.7493282138993390e-03
      -1.7812022998982054e-02 2.1539128618634443e-03
      -1.2777048352777515e-02 -7.6029261091650011e-03
      -9.5590594322868642e-03 -2.0533063031588042e-02
      1.3503745816245292e-03 7.8173966823982324e-03
      1.4662924309883500e-02 1.2982583445318330e-02
      -1.7193772241399806e-02 1.2148264950566362e-02
      1.1419578775625234e-03 -2.1853599165987586e-02
      -6.8384747786417698e-03 1.3050050834923926e-02
      1.8865262383148913e-02 -7.2955335056674141e-03
      8.6462748456074216e-03 -5.4525565278101332e-03
      1.0315646916291901e-02 -7.0933386899792962e-03
      9.3296805473990236e-03 -1.5950820930851147e-02
      -1.5529327166115084e-02 -2.0797121434291721e-04
      -1.4571691654867301e-03 1.2169706409349629e-02
      -1.1782763030838583e-02 -1.2313880287834190e-02
      1.2092298453346981e-02 1.2043042779057458e-02
      -2.1059323802025486e-02 8.2691063974822034e-03
      -1.5509367204913121e-02 -7.2775810030023848e-03
      -1.7010702980720126e-02 -1.3681623653127185e-02
      -2.0825373895900785e-02 1.6165403922747051e-02
      -1.2929026574209615e-02 1.7477605295499157e-02
      2.3479483447315885e-02 1.2433526991674812e-02
      2.1422015431843185e-02 -2.1353953284937471e-02
      8.9799490852833942e-03 -4.8083072181686866e-03
      -1.3014837379189959e-02 -1.3238736572531312e-02
      4.4632266123393240e-03 9.4702692340671458e-03
      -1.3239095765392834e-02 3.7337338467950242e-03
      7.0331431161298258e-03 -9.0666804809634675e-03
      -2.7026925705172407e-03 -1.0428555839092321e-02
      -1.3370011962115055e-02 -2.9689493288099032e-03
      -1.2074144572896125e-02 1.2943841165177309e-02
      -2.2918562594629613e-02 4.6236044279792101e-03
      7.0828672750609849e-03 -1.0067835844954021e-02
      5.0078929555954239e-03 9.4023712040205171e-03
      -5.4593506943597303e-03 -2.2180223241247351e-02
      -4.9995297315687487e-04 1.7088708472195766e-02
      -1.1721868845935565e-02 -2.0832982818812556e-02
      1.7640781012182357e-02 -1.3820266441651624e-02
      1.6789790426547428e-02 4.7359748916985092e-04
      -1.0083727857155167e-02 -9.6785151255232363e-03
      -7.3423191253934273e-03 -4.1571507046878672e-03
      2.3352651668355055e-03 -6.1929582096388307e-03
      1.3148693461585429e-02 -1.4299624976885522e-02
      -1.4267625230482168e-03 2.5923125196458518e-03
      5.8374235928552298e-03 1.4432638806873479e-02
      -7.1399243328283610e-03 -2.4764608361285131e-02
      6.3884644473540747e-03 -1.7892541123765270e-02
      2.0761974077419167e-02 9.5997553790230447e-04
      1.6083111584655672e-02 1.4077170563335982e-02
      -7.7219292194537405e-03 1.9365766967107321e-02
      -2.2826593681932886e-04 -9.5191595135697745e-03
      -1.8572683003078728e-02 -1.8292632350788030e-03
      -1.5199039517338274e-02 -8.2060471451811390e-03
      1.7432170831487376e-02 -8.1137539296017060e-03
      1.2928764039365295e-02 1.0326103214034082e-02
      -7.9117765371599525e-03 -4.0901100548174424e-03
      8.7186089597547558e-03 8.4348687597234854e-03
      -9.1352447522463961e-03 -1.7810093692328274e-02
      1.3303909374262941e-02 -1.0547552158343379e-03
      1.1618759986377382e-02 2.8521212137005802e-03
      -1.4874472322057797e-02 -2.1454626103881609e-03
      -5.9396078446742832e-03 1.2057543948286578e-02
      -1.4159989357306129e-02 4.3908014067814867e-03
      1.7088473305456677e-02 1.8201758509361139e-03
      3.4408308250737599e-03 1.4682589959401718e-03
      -1.9192219937126009e-02 1.2482717261737887e-02
      -1.4885962927581837e-02 1.2647662297745296e-02
      -4.5001579075547565e-03 4.9839740123897667e-03
      2.0071786263084077e-02 -8.6388273220696695e-03
      2.7280600942567682e-03 -6.1547800806458809e-03
      -7.2624703085131847e-03 -1.2308162946729801e-02
      -5.9164430270407823e-03 9.8635011264788606e-03
      6.5296655804019310e-04 8.6626150576220098e-03
      5.5240732373256262e-03 -1.8869297845616192e-02
      -2.1161329653569105e-03 1.5309330524288855e-02
      -1.2738032147330701e-02 1.8765202377889426e-02
      -8.7341069467569265e-03 -1.8548010683550855e-02
      1.7457018371074655e-02 8.8157941141333122e-03
      1.9855664650711362e-02 1.0057940351800545e-02
      -1.4538308297330700e-02 -1.8238121391509765e-02
      -2.9180244065660472e-05 -7.8067303085134427e-03
      -1.8869006437131835e-02 1.8785948038334870e-02
      2.0887723124243446e-02 1.2287646275263275e-02
      -1.6281963258916385e-02 -5.6839779707678478e-03
      -4.1214609875758956e-03 -4.9538579209299806e-03
      8.6314715372908506e-03 -1.5421088460114092e-02
      1.8014211977203083e-03 4.1262984696785994e-03
      1.3147681956481616e-02 8.5480910835382101e-03
      -1.3938290697772715e-02 -5.9646699059657500e-03
      4.9412629780996456e-03 3.5168379556641816e-03
      -5.3519117531007057e-04 1.1347706653083873e-02
      3.8692559639383517e-03 1.0590683827413671e-02
      3.1760864598977864e-03 8.4688887027100975e-03
      -3.4985103950800488e-03 6.6165710890947957e-03
      6.8422528637154941e-05 1.3566524935602336e-03
      -5.6122461535997930e-03 -1.4683095713335715e-02
      1.1546166056837835e-03 9.4541717617835815e-03
      -3.7395299478379428e-03 -6.6682213800320789e-03
      -1.5332693500525204e-02 4.3692409160298639e-03
      7.2454031940725992e-03 1.2223832634943404e-02
      2.4004460504123349e-02 2.8736707230833042e-03
      -4.6110794490666906e-03 -4.3026872689177625e-03
      -1.5377429188097957e-02 2.2322814069197547e-02
      2.1194007171773913e-03 -2.5440753682932016e-02
      1.7402714161522323e-02 -2.0003575601687397e-02
      1.6834579717728743e-02 4.8785941823134759e-03
      -1.6539998354145130e-02 -4.4384670870695770e-03
      1.1576490074406793e-02 -9.6370451747032036e-03
      6.2269672885818745e-03 -3.4979184128959965e-03
      -6.8478464044550175e-03 -5.5582456862017645e-03
      -7.8451248953952547e-03 6.5045913721915559e-03
      -1.2362892972390948e-02 -5.2956273248100589e-04
      4.8947574538153174e-03 -7.7361867115355847e-03
      6.2491472147534867e-03 -1.9085175157915517e-02
      -4.0120117086858897e-03 -2.4237519962787652e-03
      -1.0018771648967037e-03 5.0141034281646138e-03
      1.3052772623332591e-02 -2.4513175618914442e-02
      1.0613613839347417e-03 7.1328284970014269e-03
      2.3067782313107052e-03 5.6847242956548942e-03
      -2.7653597501534170e-03 -4.6095875919762736e-03
      2.5912812504898616e-04 -5.1529490594816995e-03
      -2.1483812715495346e-03 -6.9519840096133097e-03
      -1.4489328063796662e-03 -9.1968013507095596e-03
      2.3574617135511638e-03 -2.2776578100132620e-02
      -7.8389592161531452e-03 -8.8171917260018457e-03
      -5.0652515327095976e-03 1.3540718299366598e-02
      -1.9527670152433202e-02 -1.2261225269256526e-02
      1.0675256936480835e-02 6.1373479726010965e-03
      -1.4381139065587035e-02 -1.3603451137692612e-02
      -1.1004927255374263e-02 -1.6119614269032988e-02
      -1.4873581147902482e-02 7.4954182182138196e-03
      2.0660602382110378e-02 -1.0235386541140154e-02
      1.6778078508531340e-02 1.4462407693414444e-03
      -1.7412216471510784e-03 -1.1781818877428139e-03
      -1.8581870909663994e-02 -5.6895415450262422e-03
      -1.8213684279156903e-02 4.7448164407047693e-03
      1.4552495145612706e-02 -1.0720026083425623e-02
      -8.4542572154634420e-03 -2.5112157258834828e-02
      -1.0595746131289991e-02 -4.0615020730373980e-03
      -8.1085406520350276e-03 -1.1511960178534467e-02
      -1.4853127932605173e-02 -2.1374759958102791e-03
      1.1002476255431907e-02 1.6554437029768460e-02
      -7.7716948840074549e-03 -1.7739126447683027e-02
      -1.5150822156675063e-02 3.3997058756953893e-03
      2.8212165828360057e-04 -4.4161788450427673e-03
      -8.8839128703742786e-03 -4.0761335556581575e-03
      2.0806821090412976e-03 -6.0738825453041968e-03
      -3.4282648575324989e-03 -5.2520958717474347e-03
      1.0235582226419003e-02 3.8921201272405018e-03
      2.2221946853773981e-02 1.5172185679268714e-02
      9.7882867560643520e-03 -2.5427080444190807e-02
      -1.9254330088238378e-02 -2.3791370066366536e-02
      1.4739771581616011e-02 1.7949320314297624e-02
      -2.6119523581661575e-02 -2.7788828503918294e-02
      1.9100600374175939e-02 -1.6866438116852116e-02
      1.6017372278224810e-02 -1.9420709228595522e-02
      1.5475109060048577e-03 -3.2410888587764005e-04
      9.2456335577682479e-03 8.7365482439303154e-03
      -1.7810666835247416e-02 1.6404347701552788e-02
      -1.2873824124814859e-02 -5.3473557128758155e-03
      8.9980846621789991e-03 -2.8291950434198260e-02
      -1.6278991699420493e-03 2.6268014226156076e-02
      1.4055467781613181e-03 1.0618509135869736e-02
      -8.2353780640412738e-03 4.8937147704585368e-03
      -1.8550756525996821e-02 -6.1431907667126966e-03
      -5.3494276136764130e-03 -3.9830296482633220e-05
      -7.7701700510811658e-04 -1.1144227171881646e-02
      -5.0859280072866192e-03 -9.2739694594406556e-03
      -1.2063106271064565e-02 3.9761703129023674e-03
      4.1499247450644192e-03 -2.2638443306897099e-02
      -4.2736972741857972e-03 4.6419793566516831e-03
      -2.0817226650749483e-02 -8.9501147385768285e-03
      -1.4275237384979154e-02 1.5366241159561620e-02
      4.0665241773578257e-03 -6.4811953757485210e-04
      -9.9997110566289443e-03 4.0883513353180446e-03
      -7.8742942974663836e-03 -1.3520549293801311e-02
      -1.9376212842876821e-02 1.1324390208154683e-02
      5.0592213710649696e-04 -1.5432586185258337e-03
      -3.9995972476961020e-03 5.5770619155439882e-03
      -4.3021710112605364e-03 -1.6794997469254828e-02
      -2.1842361781321148e-02 -9.7810976525159830e-03
      -5.0966806373941497e-03 3.0607390013996294e-03
      -1.7860315598557941e-02 -2.5195185229162507e-02
      1.7521927597447300e-02 6.9908296175580512e-03
      -1.6717086485645644e-02 1.9459349489303210e-02
      1.6538620166793205e-02 6.5816673240051650e-03
      9.6674268939049741e-03 -1.0160132647060931e-02
      3.3882478788602424e-03 -8.2131141999854302e-04
      7.2809957869888137e-03 -1.0012433834803481e-02
      -3.6446272541709444e-03 -1.8077017556411040e-02
      2.7601827107005504e-02 -1.0044672913920756e-02
      -9.2585810782999656e-03 -6.3206635572619829e-03
      -1.5075850362992570e-02 1.6200581888398503e-02
      -2.0246959441100637e-02 -1.1161878815147847e-02
      1.1750835042328241e-02 4.0949792382889731e-03
      -2.2790836766510964e-02 1.6842645122441994e-02
      8.9677561150560449e-03 1.1457580427830648e-02
      -6.9164093192183394e-03 -1.2141108097547983e-02
      -1.2555869860861232e-02 6.0521721160933838e-03
      4.8096776866321895e-03 -2.8332005837253742e-02
      4.0826494240267193e-02 -3.9034906407305829e-02
      -3.9178437882275589e-02 -3.5861645657553370e-02
      3.5064647675206236e-02 5.3911661578151394e-02
      -2.7427384447508332e-02 -4.6526290016169439e-02
      2.0498949705669074e-02 -2.4481537578621294e-02
      1.9596076310732513e-02 1.1444726139604811e-02
      -1.3480858811096157e-02 7.7179314680052031e-04
      -1.4810453635628084e-02 -3.4348458039131703e-02
      1.3539778635831091e-02 1.2022149896539413e-02
      -1.6516169400711905e-02 -1.8818096029890992e-02
      -1.5796975139996769e-02 -4.2336037574208174e-02
      -1.0911976039375563e-03 2.7097486745325545e-02
      -1.5726025640671010e-02 1.9708569779972301e-02
      -3.1319311221603384e-02 -2.0537216356151421e-02
      -2.5193565114297527e-02 -1.3571248180260312e-03
      -6.8157911172266840e-03 -5.3650331793490123e-02
      4.2358521849282772e-02 -4.1245918501915717e-02
      4.1533844458255795e-02 -4.2776786225290846e-02
      -8.0275875021653172e-03 -2.9833677901419307e-02
      -1.3829379033591089e-02 -1.0115671720457577e-02
      1.7095141240440880e-02 -6.5094263350101531e-02
      -2.8591794767773869e-02 3.2312478804409628e-02
      -3.0023076151192298e-02 2.0461488644448977e-02
      5.0009046063563600e-02 -2.7914671816291377e-04
      -3.1759547193959237e-02 -4.6315113971839669e-02
      -8.7263087612568263e-02 1.8152250300156048e-02
      4.1230954355511587e-03 4.2279756256151352e-02
      1.7307442886171545e-02 3.2818795418814967e-02
      -2.1783988681074697e-02 -1.5456208271522727e-02
      2.1036463243529410e-02 -5.0694457849861877e-03
      -6.9200566700281463e-02 -2.9239894487834307e-02
      7.4407232059464284e-02 2.4706796217195081e-02
      -1.1254404504437349e-02 -6.2727575503408392e-02
      5.7881223905678104e-04 -2.6563365386829373e-02
      -8.4240577765502478e-02 3.7689498943419456e-02
      -2.2406393640531753e-02 1.7474734170871361e-02
      3.9260935837015995e-02 1.5620700563311447e-02
      1.6579468928460600e-02 -1.5043918279364485e-02
      -1.6228455912496033e-02 -5.0194275565519711e-02
      3.1587357125472233e-02 -2.2880296611245340e-02
      4.0570506241148926e-02 -1.0952316937361187e-02
      -1.4352229149616114e-02 2.0161591083883348e-03
      3.2377294038147941e-03 7.1467142676648505e-03
      -1.8874303266439449e-02 2.9561732138005534e-02
      -4.3931428693207798e-02 -3.3026230144513183e-02
      -3.2064764946909607e-03 5.8411278906626736e-02
      -6.8010027613169518e-03 -3.6842900927074615e-04
      -1.6799554420323094e-02 -4.3585089189241782e-02
      5.7920827008703931e-05 4.6815976067489558e-02
      -9.1693755878157774e-03 6.8229038896717121e-03
      1.2539199698019564e-03 -3.0157069597834571e-03
      7.7497742592436084e-03 1.2154850738158142e-02
      1.2106074097290139e-02 -5.2523063931201137e-03
      1.4559349701706639e-03 -1.3390865388869187e-02
      -1.1598601082877320e-02 1.0643322855713998e-02
      -1.6548927348263090e-03 -1.2126920902336956e-02
      -5.7974492418769660e-03 8.3171150159014034e-03
      3.7070181681992602e-04 -1.3454832603429563e-02
      -1.2951911920655772e-02 -1.8265835683190425e-02
      -7.0647539735913490e-03 1.9587096785043535e-02
      9.8073489948250522e-04 4.6940956273569933e-03
      -1.4678904863667021e-02 -5.4779589636125602e-03
      2.9951428422399663e-03 7.9679644928625608e-03
      5.5894362417443768e-03 -2.0930276191173424e-03
      4.4158200425529074e-03 4.1848796169958085e-03
      2.1096101231801119e-02 6.3683390506685247e-03
      6.1264634846368623e-03 -1.3290588857167135e-02
      -2.6732987714007152e-03 5.6378075807003757e-04
      -6.0340127179536853e-03 1.5938629297758602e-02
      2.0457773390337889e-02 9.9273639343229296e-03
      -1.5654353385332092e-02 1.7091391953394881e-02
      1.6188569315237135e-02 -1.7230473325975510e-02
      -2.8956493295490865e-03 1.3778676883388139e-02
      -4.7154701516259534e-03 -9.5872243403265201e-04
      -7.9175256453632749e-03 1.7814897351518214e-02
      -5.5986737565201419e-03 1.2445973354098406e-02
      1.3515993620263848e-02 9.5657790667113586e-03
      -1.3852895065300311e-02 1.6764704162595963e-02
      1.0299677564898668e-02 1.9892658379945570e-03
      6.6775968577929426e-03 3.2512046150028626e-03
      -5.0832283235312933e-03 3.7395767294023017e-03
      -1.0664990680396823e-02 -1.3949771551130537e-02
      -1.5617771300667955e-02 -1.3722183161083397e-03
      6.0653662698668415e-03 -9.0995206168743171e-03
      -8.9806567517987448e-03 2.7788862915338127e-03
      -1.1965874105038866e-02 1.1474358911670337e-02
      5.2111737894859457e-03 -1.6476458274019272e-02
      -4.4719392451921828e-03 -7.6760811787676018e-03
      -3.5259690603496431e-03 -1.3188677465529004e-02
      -5.7959620671749136e-05 6.5355630930404168e-03
      7.7717114052638014e-03 4.1405295012136292e-03
      1.2635633697204855e-02 5.0216288661782222e-03
      8.0696383503776354e-03 -1.6653878920142022e-02
      -5.3371000254915160e-04 -1.5751690004904995e-02
      -1.7935055374575216e-02 -2.6955883026143360e-03
      1.0922853123138681e-02 -6.5580212685677659e-03
      -1.5427309207048847e-02 -6.6458200218797179e-03
      -2.4973785485515698e-03 -1.5581725693476408e-02
      -1.7068645708665061e-02 -6.6462583078285035e-04
      2.9863136367931288e-02 -4.3635351453162830e-04
      7.7992029681911060e-02 -9.4781829648886026e-02
      -2.4493872772736822e-02 -4.9478240053886936e-02
      7.1592414574127211e-02 6.1564429885175055e-02
      -3.3887949021355106e-02 -8.0696618875669368e-02
      6.0670507930530887e-02 -2.4596620364534329e-02
      7.2370398192313098e-02 2.7315131835857903e-02
      1.1248570699346996e-02 1.9953859059207171e-02
      -1.5761955188422244e-02 -2.5491703794495679e-02
      3.7225666370246747e-02 1.1013889500431320e-02
      -3.8212715736892568e-04 -4.6507360442790011e-02
      -8.2366198473830879e-03 -8.3915375838663583e-02
      -7.7727565180876297e-03 1.6431925887275940e-02
      -2.1317401240314531e-03 -1.2503979306163220e-02
      -5.0495293811754882e-02 -5.6118263454597556e-02
      -2.0327845892287373e-02 -1.1330098748228205e-02
      6.4982131323346364e-03 -7.5964308573235023e-02
      8.0353651884350882e-02 -8.1766405776036014e-02
      7.5741725434937651e-02 -3.2857554459805545e-02
      -1.4550346072538309e-02 -3.8703648934731778e-02
      -1.1294322327642756e-02 -2.0484765786370162e-02
      -1.6769284815087972e-02 -9.0722354603040456e-02
      -5.2486606915644503e-02 2.9624822791008708e-02
      -2.8152790539642147e-02 3.6929993255113931e-02
      7.1703737137318813e-02 -4.4292976650747655e-02
      -5.3319316322730029e-02 -5.5198277047658902e-02
      -8.4673303511911879e-02 -1.2246760842913703e-02
      5.5546089300881072e-03 7.5441721040268542e-02
      5.7868669204342513e-02 4.5894947142680775e-02
      -3.2017742446164982e-02 -3.2597351414047793e-02
      3.9093291602880931e-03 1.3499513149824281e-02
      -8.2953739657434800e-02 -6.7888718446075663e-02
      9.8371111293424074e-02 4.3114189682673866e-02
      -1.3347551742817052e-02 -7.4934585843256948e-02
      2.5599358085106938e-02 -1.3484837768262970e-02
      -7.0351573416587002e-02 6.3154091866880799e-02
      -1.3564018637039960e-02 2.0672316911102179e-02
      6.7490512739366126e-02 5.5394989400180436e-02
      2.0709348830343543e-02 -1.2925298526472034e-02
      -3.8011223696008560e-02 -8.9608684666599367e-02
      6.6052571486240504e-03 -1.8405479355257215e-02
      3.9577790047043183e-02 -4.2865611403645761e-02
      1.3135358876647731e-03 -1.4835219562272930e-02
      -5.7432578113703302e-03 4.7154676869970033e-02
      -6.2908800861063444e-02 3.3573113531313113e-02
      -6.8027813149092148e-02 -3.8259423445270606e-02
      -1.7876286159464398e-02 6.3739812665786599e-02
      4.2117903899170742e-04 2.6291805106626310e-02
      -2.1155467755824602e-02 -5.9245760607659473e-02
      -1.0040563533385274e-02 4.1496121938414246e-02
      1.3534569828066594e-02 -1.0546615387423098e-02
      -2.5813671128007691e-02 8.2279454569463928e-04
      1.8053685380099417e-02 2.4126092467538267e-02
      -3.0281584450631712e-03 -2.6209727907625512e-02
      -9.5712211806814329e-03 2.8347005886373625e-02
      -9.3370119323741910e-03 1.0897807088604865e-02
      -2.7401823343816308e-02 -4.7878636711246496e-03
      -9.1594562113614941e-03 -2.6934269177232139e-02
      3.4581751870706510e-03 1.4591023319677007e-02
      -1.0290058602152123e-02 1.0689176431076188e-03
      9.3413148324525477e-03 -3.0959839237970519e-03
      -1.6747862692591955e-02 3.6181980628124416e-02
      2.3324710226109584e-02 -1.6474211297519175e-02
      2.0887191352803397e-02 1.9616821206345312e-02
      3.1690047629291972e-02 2.9793545196055857e-02
      -1.2884707242697078e-02 5.6358884480410419e-05
      -9.5761365318631064e-03 1.4542450547406225e-02
      -1.2405772982633867e-02 1.3091768677684058e-02
      -1.4971173096721782e-02 -6.5516229894139215e-03
      7.0692133320734724e-03 9.4824003843824965e-03
      3.5092085416371060e-03 2.5764515381078733e-02
      5.6203951231866183e-03 1.5030295113102173e-02
      3.2228013471627986e-02 -8.2977669507864286e-03
      1.1071944171907380e-03 -1.0602346249646004e-02
      -5.9078336277677990e-03 -8.5519818998728726e-03
      -2.1109530119489675e-03 1.7478610514897009e-02
      7.0866120342171603e-03 -7.0254247302685121e-03
      1.5984028780299524e-02 -2.0973546258606954e-02
      -1.8430549654245676e-02 -2.4376225626980177e-02
      4.5362030822159068e-03 1.1823523056679684e-03
      1.4918225006835476e-03 2.8937189077278716e-03
      4.1611922522528733e-03 1.5065534119663064e-02
      -1.8966367624169134e-02 -1.6649849812941389e-02
      9.5966431259652141e-03 3.4446466946496994e-02
      -1.9707358869018313e-02 2.4393695747951930e-02
      1.6381701047360028e-02 -1.6488804236229455e-02
      2.0297191922618311e-02 1.0783268985832267e-02
      -4.4412999493758888e-03 -2.1825485387251608e-02
      -7.1183460426167263e-03 1.1584149074879944e-02
      1.8741899354923904e-03 1.8030785405338551e-02
      -1.8577299222832470e-02 9.7111425603658413e-03
      -2.1239642555378531e-02 5.2148459411289214e-03
      9.7652529629037085e-03 1.1363315557648156e-02
      1.1150495710734006e-02 9.1339327968007061e-03
      1.0614281826092470e-02 -2.6443819970869750e-02
      2.5180278728850737e-02 1.1485581115189481e-02
      2.2554192522638489e-02 2.2538871644026326e-03
      -9.7182558404205056e-04 -8.4816623234573781e-03
      1.7489381884669714e-02 -9.2458754329952687e-03
      -2.0224796604746624e-02 7.5548982482800215e-03
      1.2844291088907238e-02 2.0182497254228611e-02
      1.0143628640606870e-02 3.7989655976489746e-03
      -1.1544528778484171e-02 -4.0006253544904526e-04
      -1.1644568494181957e-02 6.8800801943642194e-03
      -7.3818614875892762e-03 -8.0221003655400625e-03
      1.7008513926205621e-03 -2.0155041572146861e-03
      -1.6517094392390717e-02 -1.7995420159301660e-02
      -5.6774548539116629e-03 -6.7542872592092369e-03
      -1.2374006538342098e-02 1.1629278970787790e-02
      7.8105520821284075e-03 1.7674628525021165e-03
      -3.3943025031139941e-03 -5.1205334801535949e-03
      -2.5867238651154320e-03 -6.5771313665430181e-03
      -1.4803977241554201e-02 -8.0739339274800877e-03
      -1.5567205915442582e-02 -4.6340851727821430e-04
      -1.0658793954020205e-02 1.5932947889741141e-02
      1.5035485555281732e-02 1.7515982736687894e-02
      -6.1251804150674405e-03 -6.0863897703275650e-03
      5.7597657248877176e-03 8.8636775733705962e-03
      8.1867175858183015e-03 2.2337737833315177e-02
      4.0671984510399405e-04 6.5113184046238068e-04
      2.5073040452332639e-03 1.5502696686757857e-02
      2.9160963062636693e-03 1.0942101370395209e-02
      -4.9609404286035941e-03 6.4225830369823711e-03
      -1.3752145664570874e-02 -4.6138612638179713e-03
      5.2048209298829404e-03 -9.9249673797142286e-03
      -1.0080086732855757e-02 2.3200241480927870e-02
      1.8254617747391101e-02 5.3924607953173102e-03
      1.8101196747960992e-02 -1.8405452177624612e-02
      -2.2020724958277678e-02 -3.3269783277427569e-03
      2.9919825200830801e-03 -1.5745701314588422e-02
      1.1600220368413232e-02 4.1400070248946621e-03
      1.8694486503970889e-02 7.1020635187504606e-03
      -2.5215985203820523e-02 -6.9554585633318147e-03
      2.1875937921362162e-02 1.5686769259882043e-02
      -1.9727344984521382e-02 2.9923290898489855e-04
      2.7036471673392841e-02 -1.6249092047789713e-02
      2.3308066887336586e-03 -1.5303626265598754e-02
      -1.5989831393425982e-02 -6.3886746204988283e-04
      -1.4005295775582814e-02 1.4591583260591661e-02
      -1.4747416177497355e-02 1.7490542698701719e-02
      2.1986576275161381e-03 9.6025716875573278e-03
      -1.1216973596263681e-02 -2.9884257814576628e-03
      -9.1690831421887033e-03 -1.5156933716285147e-02
      -1.0116667427891211e-02 -2.3854237208667046e-02
      2.5402517367152294e-02 -1.5882203151259246e-02
      2.9824229853879104e-03 -9.1497258439181568e-03
      -1.0853224774783472e-02 -1.2363196082981981e-02
      1.0254380285833994e-02 -1.0521578870843653e-02
      -6.9099009191333667e-03 1.9915577998676014e-02
      9.6558947827942235e-03 -4.3783451068230917e-03
      7.1682883487889110e-03 -1.6051270423012413e-02
      -5.1201337965834561e-03 1.9673643100669271e-03
      9.2091293434852228e-03 -1.6787259544544131e-02
      4.3503306644997568e-03 4.5646112684507361e-03
