<?xml version="1.0"?>
<opencv_storage>
<opencv_ml_ann_mlp>
  <format>3</format>
  <layer_sizes>
    19 100 100 2</layer_sizes>
  <activation_function>SIGMOID_SYM</activation_function>
  <f_param1>6.6666666666666663e-01</f_param1>
  <f_param2>1.7159000000000000e+00</f_param2>
  <min_val>-9.4999999999999996e-01</min_val>
  <max_val>9.4999999999999996e-01</max_val>
  <min_val1>-9.7999999999999998e-01</min_val1>
  <max_val1>9.7999999999999998e-01</max_val1>
  <training_params>
    <train_method>BACKPROP</train_method>
    <dw_scale>1.0000000000000000e-03</dw_scale>
    <moment_scale>0.</moment_scale>
    <term_criteria>
      <iterations>900</iterations></term_criteria></training_params>
  <input_scale>
    5.1839970612889008e+00 -2.2996516598167012e+00
    8.9405531313273112e+00 -2.1001885289671836e+00
    1.2814057506259593e+01 -2.2026826076457833e+00
    1.7345822988271614e+01 -2.0327088088036347e+00
    1.9923833439966543e+01 -1.8612444031069706e+00
    2.5521067377008332e+01 -1.7774683356168328e+00
    3.2374794023768281e+01 -1.8664434520239666e+00
    3.6852879451267036e+01 -1.6818043825190467e+00
    3.9931681221128244e+01 -1.5518026806732164e+00
    5.4572764289565363e+01 -1.7202483997495546e+00
    7.0435208604965652e+01 -1.8761117204536903e+00
    8.5715931695459716e+01 -1.9285745210858711e+00
    8.9003918776895603e+01 -1.7713412585856403e+00
    1.0255917168986015e+02 -1.8795535577643099e+00
    1.0389247638861936e+02 -1.7672327670590822e+00
    1.1451837231789989e+02 -1.6423041145376456e+00
    1.2524359746391005e+02 -1.6800770391241215e+00
    1.3460393404136178e+02 -1.6786812272464695e+00
    1.5138466946894303e+02 -1.7459193365182066e+00</input_scale>
  <output_scale>
    5.2631578947368418e-01 4.9999999999999994e-01 5.2631578947368418e-01
    4.9999999999999994e-01</output_scale>
  <inv_output_scale>
    1.8999999999999999e+00 -9.4999999999999996e-01
    1.8999999999999999e+00 -9.4999999999999996e-01</inv_output_scale>
  <weights>
    <_>
      -2.6891043933285863e-01 3.4350325547452744e-02
      -1.3061428970772060e-01 6.0227103472309557e-02
      -1.8223708513629830e-01 1.2893048848770813e-01
      2.0712781631251390e-01 1.0434711001066116e-01
      -5.2725939731226112e-01 1.6396587825862002e-01
      6.4367177814528970e-02 1.4776978311758446e-01
      -1.0628423457931073e-01 8.4572225845171753e-02
      -2.4811507082514758e-01 6.3956709230443054e-02
      4.9063770022790519e-02 4.5654950855639052e-02
      5.5341733302314823e-02 7.7511656985469135e-02
      5.1048119709865246e-02 -5.3644857288449740e-02
      -4.9753071885534253e-02 -9.5337679437856065e-02
      -4.4722539693996033e-02 -1.1501048500307352e-01
      -8.0784234091419618e-02 -1.0517223175603414e+00
      -2.7001383799944438e-03 1.3733655337105058e-01
      3.4315111698723109e-02 -4.0886222894818615e-02
      -8.3421993821476623e-02 5.1635549202073076e-02
      4.1352830707260518e-03 -1.0314602517722814e-01
      2.9469282351951166e-02 3.4638270740198963e-02
      -5.7828015726240724e-02 -5.9981540486602578e-02
      6.0496729367202295e-02 -2.6019625086471598e-01
      -1.8157413937276445e-01 -1.2221705096406139e-01
      5.5438773826706839e-02 -1.0206212125679516e-02
      -1.6856352193290769e-01 3.0730832397533860e-02
      3.6629929173497294e-01 -9.6687278570513527e-02
      2.5680363110874255e-01 3.7062709554260532e-03
      4.8033267053042887e-02 2.8722984760659240e-02
      -8.1256321523322378e-02 1.3760228428239724e-01
      2.0291162120186665e-01 -7.0873842365696021e-02
      -2.0106677296979533e-01 1.2889032276981941e-02
      6.5764399402896107e-02 -5.0943065249966071e-02
      1.4959797986925008e-01 1.4666535991046409e-01
      7.7887371133655139e-02 -2.4952227014897646e-02
      5.2748351562282636e-02 -1.2056424044985348e-02
      1.0040153155791635e-01 2.5152146887463079e-02
      -1.1204570677780133e-01 8.8964868678037337e-02
      1.2263307141606387e-01 -5.0699241171475742e-02
      6.6403075022292465e-02 -8.4540122809903154e-02
      2.7627488999729283e-01 1.3460338368832045e-01
      1.1200650637290877e-01 2.0888255006135888e-02
      1.4489536049367304e-02 2.9123746409479786e-02
      -4.4779614356020701e-02 -1.6714782462519764e-01
      -1.3793938973677641e-02 1.5901960065398921e-01
      -3.5377970487399611e-04 -8.1108463061189115e-02
      5.2215874669531405e-02 -5.8389866009706838e-02
      6.6347075792949087e-02 1.3544542375463633e-01
      1.1064627090556292e-01 6.0740942263691401e-02
      3.1859639199308892e-01 -5.7858073085344998e-02
      -1.0696875982725526e-01 1.5225744067028102e-01
      1.2833116299261071e-01 -1.0011908556691362e-01
      -5.5510161547930557e-03 -9.7573331797800367e-02
      -8.7441713538623123e-02 -1.1577158444700220e-01
      -1.2372474155678671e-01 1.6964234785315532e-01
      -7.9218672274074704e-03 8.5605889575569458e-02
      2.0544791721033157e-01 -4.8906689332858001e-02
      -9.3952483619427249e-02 7.5233555516887721e-02
      -1.0911044287920636e-01 4.9400711787152427e-02
      5.7067485048668418e-02 2.8735669640270592e-02
      -4.0031010187481501e-02 9.1723110429343849e-02
      3.5904949694525116e-02 3.8849716233357911e-03
      1.2609608378351922e-01 -1.0318245459893734e-01
      -7.4279153254279154e-02 7.3113796484518351e-02
      -2.8253164033385686e-01 -1.4438347331605883e-01
      -3.1924029893049329e-02 -2.7642047997569619e-01
      5.5257556905235414e-02 -3.6327209930952120e-02
      -7.4987923408132776e-02 -1.4363053232909681e-01
      9.5228260510638874e-02 6.4098337252231782e-02
      1.4574315119452613e-01 7.8565085136064666e-02
      4.7185095232921540e-02 7.0621082104303387e-02
      -6.7629267247774710e-02 -8.1391090476486613e-02
      -7.7844056067268547e-02 2.6280093421195611e-02
      -5.7220573015796687e-02 1.1101271286027449e-01
      2.4596923860803019e-02 3.5612387497819246e-02
      8.4684678804453573e-02 9.9821492226285766e-02
      1.4939881028423127e-02 1.0989618049442060e-01
      8.9539129189864289e-04 -8.1548834259431588e-02
      1.3980116105601678e-01 -5.5361548055272393e-03
      1.8884814071760164e-01 5.4419897827039806e-02
      2.9604877819712427e-01 1.2514573126950532e-01
      -2.5320606393654820e-02 -8.9888902424937925e-02
      1.4228519615800278e-01 -7.0393349482325188e-02
      1.0464415418757114e-02 -8.6371659499147255e-03
      -8.7043953542693828e-02 -1.6240717304209773e-01
      1.0540055427419939e-01 -5.2662079263945533e-02
      -1.2486818853718454e-01 -4.3159980281367277e-02
      7.2563329232344834e-02 7.7225592488020911e-02
      -4.6436963447550821e-02 -1.4520557572973405e-01
      -2.5249135798655301e-02 1.1099399926740786e-01
      1.8810791206925784e-01 -5.3384199631408072e-02
      -8.0087621989044289e-02 -1.0447259957223486e-01
      3.5386829347139599e-03 -6.7942705597014347e-02
      4.1612542495394991e-02 3.9687130812166689e-02
      4.7798842528811933e-02 5.5941185355453039e-02
      9.7801685642466635e-02 1.0365067106427028e-01
      -1.0714535284272740e-01 -6.5224221505470178e-02
      7.5466897172562400e-02 -3.3875059471867711e-02
      -5.7837197156044351e-02 8.2366001430415909e-03
      -1.3157045871774683e-02 9.3551421205140504e-03
      -6.8180284029681681e-02 -1.9241530035838953e-02
      2.5197990835316254e-02 -6.1210683012984345e-02
      -1.9650372855385792e-01 -8.4785624990217523e-02
      5.1385859263969123e-02 -1.0863449029144603e-01
      -1.2364075248013567e-01 8.6757604416646011e-02
      3.0536661820587480e-01 2.3038602763951529e-02
      -3.7919875670011749e-01 5.0739321744276762e-02
      1.0980251988761383e-01 5.0261734587785427e-02
      -7.2555404246781197e-02 -6.7083262581980038e-02
      -3.5292694665517033e-01 9.1199399304490392e-02
      -4.4640984390459715e-02 1.4829428469934910e-01
      -1.5896617904723415e-01 1.1680899212902322e-01
      6.6207036016522919e-02 8.2508059436569456e-02
      5.7299175375799608e-02 -1.3641569151814542e-01
      -2.0455879755848261e-01 3.8338740649353970e-02
      1.7514514360544131e-02 -6.0348034339085865e-01
      7.3314315852195056e-02 -7.9416475820266882e-02
      9.8840265924606777e-02 -1.4597922290192844e-01
      2.7894823572941173e-03 4.6395714849868562e-02
      1.2445498291320056e-01 -1.6270716175308911e-02
      1.4265418029843409e-02 2.7322027146287155e-02
      -7.7720859465082351e-02 -9.3818177150930535e-02
      9.9827658234766942e-02 -2.0074468324957573e-01
      -6.6299398722528671e-02 6.5661616249586496e-02
      6.1871028417653490e-02 9.9719862444938245e-02
      -5.1386599791486555e-02 -9.7226093135163963e-02
      8.0802427633402743e-02 -2.7767636899640374e-02
      1.9768789595093761e-02 1.0310958824070337e-02
      1.0116803634692713e-01 -7.2361966392788649e-02
      1.5962612238463042e-01 -5.3289220888264523e-02
      3.9388332136616250e-01 9.1497484193836007e-02
      -1.0087085269746449e-01 2.7538295434873853e-02
      1.1674577744597896e-01 -1.9454051848527311e-02
      1.4230414768681793e-01 1.7041858622864534e-02
      -9.0500810015050753e-02 -1.6109634646588172e-01
      -8.2766525167778660e-02 -5.5274803767918039e-02
      6.6496970296703551e-03 -1.3417779336842751e-02
      -5.1968955750750521e-02 -9.5733002410351223e-02
      1.1331752985950647e-01 5.2698713214069222e-02
      -5.7824733438759622e-02 -1.1942114532283053e-01
      3.6957619008808706e-01 1.2951180312920083e-01
      -1.1400443408241537e-01 -9.1976538935712282e-02
      8.5500159209782059e-02 -5.6639540041173449e-02
      9.0955734768994836e-02 -3.3093749223237913e-02
      -1.1634597924270898e-01 1.4423675841654976e-01
      -8.2316236044841604e-02 8.3633826284455065e-02
      2.1552134098248108e-02 -7.3513324832438748e-02
      -4.6041624491058440e-02 -1.5886472894654859e-02
      1.1633798270422335e-01 -5.1626132665645953e-02
      2.0014596910025687e-01 -6.6823005302280331e-02
      -6.6927476228012062e-03 3.4389653743256009e-03
      2.8471672415605546e-02 -3.7888598622346052e-02
      -2.0607742589650213e-01 -1.1568727270192547e-01
      1.6560617214806513e-02 -3.5394241224891543e-02
      -1.2240024655674878e-01 8.1179758760726056e-02
      2.5679916798440205e-01 1.1615527516020187e-01
      4.8616909948669718e-01 -6.9056240891435224e-03
      -5.2009797964048164e-02 1.0068161671864471e-01
      -9.0464512570264083e-02 -3.8745391401666600e-02
      -3.3324502343878964e-01 1.7143866327167187e-01
      3.9322994054199721e-02 6.7866166910042963e-02
      -4.3268244789617952e-02 -1.0733465839025141e-01
      -6.0348399235568242e-02 7.8297125121312081e-03
      4.8179132128850612e-03 9.7068544018719654e-03
      -2.7009655339362232e-01 -1.6670897858547187e-01
      8.9242007635325551e-03 -4.4993285533006314e-02
      6.8712562516101874e-02 1.9288675271007423e-02
      1.0404213829735351e-01 -5.9581204165472461e-02
      3.6389660478111763e-02 1.6739195152911077e-01
      1.0638196212509544e-01 6.7192528728244353e-03
      -2.9276090977333875e-02 -1.8767937933132656e-02
      -1.7912966431561733e-02 -7.0426793992471162e-02
      -1.8564420263959408e-03 -2.5014623217156490e-02
      -6.4642591019228576e-02 4.9938469586091140e-02
      -4.9611514486986912e-02 1.5558518370533200e-01
      -1.4458191581771232e-03 9.6382112823870714e-02
      2.6478985238780828e-01 1.6450643906563533e-02
      1.2642500315785488e-01 -5.9235078340841435e-03
      1.2037891024402007e-01 -5.0183649338361849e-02
      1.7559189557706784e-01 6.9935512638326175e-02
      -1.6971961576181679e-01 -2.3907090177985084e-02
      -1.7724089002197493e-01 5.6593995702915742e-04
      -3.8265561774413252e-02 -1.3470964098795712e-01
      -1.0421103709240494e-02 -2.1931207746528368e-02
      -5.6659121238245617e-02 6.9134508283089628e-05
      -2.8162957637393096e-02 6.7262070060641221e-02
      5.6559144016389257e-02 2.0071509881283207e-02
      4.1786691406781887e-02 2.0831679158191636e-02
      1.3584927529973737e-02 8.1493731973475689e-02
      8.9669774914964140e-02 -6.1995175019450240e-02
      2.5612606568996715e-01 9.1375140516334497e-02
      -4.2773449822512244e-02 -9.7522691987961638e-02
      9.7949462891772348e-03 -2.1216726931809082e-01
      -4.0250571951361641e-02 5.2305929661314199e-02
      -5.4760747989684729e-02 1.1478893009322537e-01
      1.1021537496907555e-01 6.9574754034414030e-02
      2.1011970262411486e-02 9.8520557573081396e-02
      -1.0697649647012177e-03 -8.8862233580418476e-02
      1.8876738047800165e-01 -4.4886199331838642e-02
      8.6200327708379126e-02 5.3201453620349094e-02
      8.1384058866200135e-02 8.5381819952568050e-02
      -4.7184091040477015e-02 7.4701184518503175e-02
      -2.6265058463772223e-01 2.2145713253584658e-02
      -1.1251897439288108e-01 -1.1328877525070422e-01
      -1.3411922363598427e-01 -2.5127329904949595e-02
      -7.4208204126189059e-02 1.4458636012066445e-01
      1.4144004228606261e-01 -6.6217544680152951e-02
      -4.7796876117732895e-02 1.0235646450346851e-01
      -4.7684660588920645e-02 -1.1484271505164995e-01
      -2.8730609953689468e-01 -4.2443313521865353e-02
      -1.3517274638983431e-01 9.9069364824555216e-03
      1.2195908884410013e-01 -1.1217184271872171e-01
      -6.9488053007860928e-02 -6.0221180488040017e-02
      4.7571878444132160e-02 -4.4494267042817968e-02
      -2.9890510723392144e-01 -1.6702853167283307e-01
      1.0063338949906209e-01 2.1885194234653366e-01
      1.5352984767152805e-01 1.0220574858352650e-01
      4.6688837423095209e-02 -1.7178684866979638e-01
      1.4282282418893547e-01 -2.4683536384462034e-02
      8.0914962122400499e-02 1.4430792603245174e-01
      4.4811557697712952e-02 6.6654322008140574e-02
      -8.9074809315950007e-02 4.6141508690142864e-02
      4.5892131184078123e-02 -7.3485170328189584e-04
      7.3218912201964539e-02 -8.5342136060572255e-02
      7.9314413880915313e-02 9.8054918461223772e-02
      1.8551005036635492e-02 -5.9482547565753587e-02
      5.3806118035736483e-01 9.4859775830631488e-02
      -5.3205638592026983e-02 1.2155506751996542e-01
      -4.0633320769977114e-03 -6.7584110427297076e-02
      1.6679971618550196e-01 1.4766222450297370e-01
      -3.3321539662357791e-01 5.2327804967613509e-02
      -1.1200536128513842e-01 -1.0842697827074935e-01
      1.2397587472398051e-01 -1.1072228979632155e-01
      -1.2196093765279346e-01 -8.5101325359669466e-02
      5.4839579002001190e-02 -1.2657134723657423e-01
      -8.0347322654662878e-02 1.1977491242083802e-02
      -8.6197217743585013e-03 6.5131587516728040e-02
      4.7999448153842481e-02 -9.5508902330059320e-02
      1.3008673301611315e-01 8.8429781401044100e-02
      7.8420171538757910e-02 2.3207807853456094e-02
      3.8304838204716818e-01 9.3799986572273859e-03
      -1.5671736288123208e-02 2.2389631644077021e-02
      -5.4765460260848900e-02 -1.2870382589566720e-01
      8.9445648038337031e-03 -2.8009251898476965e-02
      -4.2441958470498233e-02 1.6305695538088158e-01
      -3.9352956264119852e-02 4.4771766552077250e-02
      -7.9508388971045438e-02 -7.3293938427193187e-02
      8.9005711115956676e-02 -4.0414099189158080e-02
      1.0385229419796917e-01 -8.6663143454164537e-02
      1.6540642034937662e-02 -9.7565017443882476e-02
      6.1087153837419500e-02 4.6963146088056455e-02
      -7.2178058401699094e-02 1.0990357105875556e-01
      -1.4953208634308052e-01 -1.2657611185740025e-01
      1.0515083216617886e-01 -1.2222631536754723e-01
      -1.3979668588412719e-01 -1.1938222814239657e-01
      -2.1828977154767032e-01 -5.9041975594992843e-02
      -1.0089326476911137e-01 1.4561562121128382e-01
      -8.5164001315169963e-02 1.8459373368045601e-01
      2.8954150461672889e-02 -1.1257292869391225e-01
      1.9979314803398318e-01 -6.6853071276472248e-02
      -1.9163404110214902e-01 5.2477506477508484e-02
      -1.6820157631574395e-01 7.0436791526534148e-03
      -1.8031770676055721e-02 -5.4121827005041930e-02
      1.0531751839463600e-01 -6.7958803043757968e-02
      -1.2426026814438715e-01 8.8060062149056040e-02
      -9.0026218430078575e-02 -1.8915106916869413e+00
      1.3085311153028711e-01 1.7859786544430178e-01
      5.8421785274964180e-02 -1.0356595925046148e-01
      1.7976140875843618e-02 -1.2610795816071929e-01
      1.5223296095479155e-01 1.4645017761132151e-03
      5.0984012359633485e-02 1.2694932759984065e-01
      3.5837329868866161e-02 6.8609295541334214e-02
      -1.0766016066660562e-02 -2.0383004848522082e-01
      -7.1910158860805484e-02 -1.9299511815217887e-01
      -5.9907629616608137e-02 6.0718656012274351e-02
      1.2676815300499858e-01 7.2999470746617251e-02
      5.9718619354793681e-02 -8.6617461032452492e-02
      1.8379278693074422e-01 4.0312267591866213e-03
      9.1146858303327138e-02 -1.4415173770622727e-01
      1.2474860782339692e-01 5.9013629095429447e-02
      3.1983671510831813e-01 -9.0838632280961937e-02
      -1.7174225796882969e-01 4.6124888532116659e-02
      2.9935136011562093e-02 4.9486197738006915e-02
      1.0429868291835045e-01 1.4384238845219316e-01
      -3.5010795825787568e-02 -6.6290069491179673e-02
      -4.5381406865901759e-02 -8.1971627198087996e-02
      -9.6987606460864961e-02 1.1795947616575959e-01
      1.0185226991437299e-01 -1.0817711366769493e-01
      1.3699071201836957e-01 1.1972572904995581e-01
      1.0845489016264001e-01 1.1280435290448478e-02
      1.4295729905891694e-01 1.2635151462080976e-01
      -4.0245422747056427e-02 4.5641952658706034e-02
      1.2010560905638908e-01 -1.1316325827483922e-01
      -6.3938457616761812e-02 -9.2665403177703033e-03
      -1.4959364522739837e-02 2.0309864552497894e-01
      9.1942320442528189e-02 -1.9858484133818213e-02
      1.1641879571260070e-02 1.0739378090687347e-01
      3.6658448409623484e-02 8.3349122049915958e-02
      1.3217148300282008e-01 -1.0315085078791013e-01
      1.3638358662798250e-01 1.1630002835890617e-01
      -1.3781999328755762e-01 1.3946472509735436e-01
      1.4183653080951011e-01 1.5271391912311957e-01
      -9.9078181108863642e-02 -1.0707220366049068e-01
      -5.1683042349565632e-02 4.5622746812842098e-02
      5.3548755241718288e-02 5.0064122365277741e-02
      1.1410932475590620e-01 3.2372689164102464e-02
      -1.2057758611928403e-01 -1.2039472661818675e-01
      -9.3511269935003749e-02 -3.6100304766466355e-02
      -5.3866528649245439e-03 -8.2556408548872279e-02
      -9.0854483428724292e-02 9.2259655463824919e-02
      6.5341274174205877e-02 1.1890068819845075e-01
      3.6729832422924033e-02 5.2644566346432206e-02
      -5.9765983932592026e-02 2.7266782101081560e-02
      1.2472075186466164e-01 -3.3883784406826267e-03
      -4.2970185747884269e-02 3.2229047875158137e-02
      -7.8467889280882358e-02 -4.5744098762614149e-01
      1.5992372670574323e-01 1.3014695176266020e-01
      6.6536153495461603e-02 -6.1971429979508483e-02
      8.7419013137495574e-02 1.1801781161469526e-02
      1.1370206773083878e-01 2.2553918610095595e-02
      -5.6897627521893181e-02 -9.2422401609166729e-03
      -1.7936573449366992e-02 -8.4295980072726054e-02
      1.0442471540545128e-01 -4.9187781057316207e-02
      -3.2729734507154384e-02 -5.1714643915026802e-02
      8.2271111237541508e-02 2.2647585502170456e-02
      -6.7781765704736555e-02 -2.3249649435840757e-02
      2.4279967474622954e-01 1.4571951033909323e-02
      8.9198139979687840e-02 6.4713986256499587e-02
      1.4027973467180740e-01 8.0468653138245111e-02
      -1.8865079509027660e-02 1.4284272584245025e-01
      6.6513531802167969e-01 -4.0132893208522778e-02
      -4.9892622172260932e-02 6.1162783280677133e-02
      2.7203668733576623e-02 5.3557423400644261e-02
      -4.2753793823673017e-02 -1.0528346165800530e-01
      6.6271197718504732e-03 2.3534813814895993e-02
      8.1541709703416010e-02 -7.6969310536817048e-02
      -3.7564635201379599e-02 1.6114785541196865e-02
      4.2367621613496800e-03 4.9447343719967278e-04
      1.2932210618383555e-01 -1.2043381749353109e-01
      -2.9999089434048033e-02 2.0187914030679075e-02
      3.0262964859687970e-02 6.1027521068670564e-02
      3.3522294069325741e-02 -1.7327446024866591e-02
      -3.6908414421436123e-02 8.6024786454758362e-02
      6.7308645885360702e-02 -8.7641793808495849e-02
      -5.8104181630689221e-02 -2.5502282332068221e-02
      -1.2363515034134966e-02 -9.5777319142839157e-02
      -7.5919303035184377e-02 2.5530196003839732e-02
      7.5414747758681386e-02 8.5436558560562981e-02
      8.5061546653383849e-02 -3.2185483800293076e-02
      2.0776585158482758e-01 -4.0134404742125367e-02
      7.5186510864494877e-02 -3.6381520024629917e-02
      -9.4213712884356454e-02 7.3426316447726039e-03
      -1.8986385793310029e-01 -9.7357446209177301e-02
      -1.3134544407263224e-01 -8.6623999676693195e-02
      -5.5238996560378131e-02 8.5368414771765155e-02
      3.4421091148631469e-02 1.6368697340378077e-01
      4.7535746983536117e-02 1.4002987872504181e-02
      -1.4289182810779588e-01 -1.8148510331585807e-01
      1.1669734610341471e-02 -1.1853156551066257e-01
      -2.0450675037677091e-01 1.3140500335472607e-01
      1.1739758868173567e-01 -7.3308340815940815e-02
      1.1653997960010547e-01 -4.1929190577353115e-02
      5.8375444421459172e-02 -4.4148897268134125e-02
      2.3732840028474696e-02 -3.1078969463647195e-02
      -1.8335545770500353e-01 -1.6077309836558257e-01
      1.3723875515989765e-02 -6.1324261789304346e-01
      -2.0147526311410445e-02 1.2608623834049337e-01
      1.9478953555705628e-02 9.0722301281554174e-02
      -1.2386788234553708e-01 1.5880643157458818e-01
      -7.9161186721873472e-02 1.5272177647959760e-02
      -5.7881468736473055e-02 8.1322582008939784e-02
      -9.2944921008078413e-02 1.0410559936884882e-02
      -6.3610337138844342e-02 -1.3510902716480977e-01
      2.7661811061570854e-02 6.6898581476034072e-02
      5.7330516522607324e-02 4.5379533191754695e-02
      -5.9003341682897309e-02 -2.3825243597288388e-02
      1.6821819201464872e-01 6.8481724004418633e-03
      2.9863850688093770e-02 9.0202276506906182e-02
      1.1738709584977153e-01 -8.4599356472285087e-02
      8.1722867043050818e-02 5.8838669240693243e-03
      8.5225162222851525e-01 2.5279181116640362e-03
      1.4511364169703972e-01 -1.2172762772228311e-01
      7.4785871900494155e-02 4.8126461841797391e-02
      -1.4346626797570272e-01 1.8951204808499201e-02
      1.0205273586806313e-01 -6.8640591832208844e-02
      -4.7016670343189786e-02 1.0301300864396366e-01
      3.1066296114237529e-02 -2.8319107209740926e-02
      1.5122206777470443e-01 -4.2674618558536132e-02
      1.0107873973399033e-02 -1.0569823219111327e-01
      7.6807816920893390e-02 1.6190308051034016e-01
      1.5179773558487972e-01 -9.7566520431747586e-02
      -1.1512757917838875e-02 -9.9833140264199375e-03
      5.0430921957083465e-02 1.7216229383886958e-01
      1.2752929107860916e-01 -7.0320850800401027e-02
      5.1731440365705497e-02 -5.5915054132983998e-02
      5.1795485673162472e-02 7.4533299869147307e-02
      7.1855440183868052e-02 -4.8051953159787997e-02
      -3.2745356621194752e-02 -5.0077049812329348e-02
      6.0025045537147055e-02 -6.9026619898303948e-03
      1.4704263032232051e-01 3.4184241640741929e-02
      -2.6734026579151953e-02 4.1886382328775555e-02
      -1.9048051280457151e-01 -1.0483194920120147e-01
      -9.7895111591353390e-02 2.7764062867653871e-02
      5.7152130200584426e-02 -1.9470629594289236e-02
      -1.1645476398067071e-01 2.8149203523690536e-02
      5.9199613917381946e-02 5.4948425199286173e-02
      7.8813441575354259e-03 -6.8663363521829085e-02
      -1.2316800084529043e-02 9.0471193053766635e-02
      9.5991934137337837e-02 -1.2747297035149349e-01
      1.0586915463816411e-01 -1.0932127975364261e-02
      -1.0497031791624353e-01 7.5170495230815593e-02
      2.4363902476165569e-02 -1.6392381131127259e-02
      -7.4459689379060612e-02 -1.0231279481665752e-01
      1.1303250460320610e-01 -1.2843471197488107e-01
      -2.9087989542459952e-01 9.9399274809806912e-02
      5.6225429277172089e-03 -9.5466432203043217e-01
      -3.8320877754688079e-02 1.8341317933836687e-01
      -6.6261836397289442e-02 3.1369466586455320e-02
      1.2862360414933810e-01 -5.5039332621975225e-02
      -2.6390523728804646e-03 4.6391525407772777e-02
      1.0585331671037099e-02 1.0516860331792804e-01
      6.7116044692915641e-02 -1.3892727328137400e-01
      -1.0150356400601942e-02 -1.2873062311006492e-01
      1.0423756327758220e-01 -1.0431278438495195e-01
      -6.4390180750135334e-02 1.3701863892874749e-01
      -1.3800391031035414e-02 7.4458681768234697e-02
      1.8778962586640074e-01 6.0784548231121935e-02
      1.5521465884801838e-01 1.2204828521272190e-01
      1.2667674811616442e-01 -1.3754415283354651e-01
      1.9396479548905174e-01 -7.8800020798534182e-02
      1.0869527823611635e-01 8.2334904745893361e-04
      -9.6857273795424720e-02 8.5054096022081402e-02
      1.4036079535475726e-03 -1.1637704748656308e-01
      5.8233348103133464e-02 7.0237415998165256e-02
      -5.7773718237053566e-02 -8.4552690285135748e-02
      -1.6984690072655382e-02 -1.1793350977374500e-01
      -1.9928858723487378e-02 -7.1860625511399948e-02
      1.4224294464504167e-01 -3.9225138068073075e-02
      7.5136086198315369e-02 1.2277950562562130e-02
      8.5323327869460980e-02 -1.1014989314956480e-01
      3.4389433955042020e-01 8.8378623864037012e-02
      -1.3109188889455035e-02 3.9996760765481143e-02
      1.0472712941770701e-01 -6.2418868149279674e-02
      -1.4004076844141725e-01 8.5961871961773836e-02
      -9.6728789428047732e-02 2.6031140801660885e-02
      -5.7089439674445359e-02 -2.3791648467708034e-02
      7.6513257755595449e-02 9.9174629782532130e-03
      1.3603898001578152e-01 1.0610678502598710e-01
      1.9772293628463306e-01 5.8884046700561805e-02
      -2.4177829910098182e-02 5.9957435214968401e-02
      -3.2968207423596074e-02 -4.6012917397854236e-02
      8.7161637134604605e-02 3.6332266902340336e-02
      7.9855304013174935e-02 -1.1308701933456369e-01
      8.1440236731124480e-02 -1.3387833196860993e-01
      -8.5393452372046846e-02 1.8776285650672025e-01
      2.4263403399371022e-01 8.9165253448442117e-02
      -6.1042997898515783e-01 1.1238542369069321e-01
      3.6490023143883766e-03 1.1646651940286082e-01
      8.0923897278663615e-02 -1.3201427221526172e-02
      -1.4421282544695371e-02 1.3009530496080660e-01
      -7.4857490760785420e-02 -5.1285549183235288e-02
      -1.2421532872608861e-01 4.8148384463210098e-02
      -7.7635525202784203e-02 5.8771302650393129e-03
      9.3322401333619728e-02 -1.1091735318900363e-01
      -7.7200791059696114e-02 8.8700587931339767e-02
      -4.8449618635091007e-02 1.1393064291377972e-01
      1.2862099612249597e-01 -7.3154602367763263e-02
      1.1671702595731412e-01 -7.3929168644011667e-02
      8.7511104809607873e-02 -1.1614602422678524e-01
      4.2435353795923760e-02 -4.1593807129797947e-02
      -8.1634448816472152e-02 -7.7174308676298597e-02
      4.2351382265452146e-02 -3.8128443979003106e-02
      5.9026061116938353e-02 -2.8995513166208336e-02
      -5.3334371877068361e-02 -2.2280619845554686e-01
      -6.4951144190540280e-02 1.3571759586306220e-02
      1.3440821148729140e-01 5.0033719203519756e-03
      3.4610066561309577e-01 -7.0966691556376651e-02
      8.1845448722965859e-03 1.1287553841494493e-02
      3.4679593659539279e-02 -4.0759709443756072e-02
      8.2344486663270919e-02 -1.2234207131327876e-02
      -3.2921300690819394e-01 2.7559340689301052e-02
      -1.3467710885746442e-01 -1.1274746202447319e-01
      -1.1061140040557783e-01 -1.0787045603957943e-01
      -2.7948091389810364e-03 1.0627949339256686e-01
      -8.1477891587149007e-02 -9.6342431845658189e-02
      -7.8264046987326905e-02 1.8913291488233688e-02
      2.5070723335331255e-02 3.7385792043350572e-03
      8.9177609885414642e-03 -1.1573194339048665e-01
      1.2474834849913886e-01 8.7360647492532154e-02
      -9.4561984285926257e-02 -1.3166408741336025e-01
      1.2504326317982989e-01 1.5238537346865058e-01
      -3.9512801203876825e-02 -8.1407138003466786e-02
      1.4037860413319656e-01 -1.8564590289658733e-01
      -1.1659265939765867e-01 -7.8772102062836760e-02
      4.7596179794481920e-02 3.6228413677719611e-02
      1.2021163605838891e-02 -8.5545626436879477e-02
      7.1720079207406903e-02 2.4846663944550981e-02
      1.3850612129201598e-01 6.5643634193428557e-02
      -1.0742741072884898e-02 -7.6613204493903769e-02
      1.1690754449300057e-01 2.4666213666042762e-02
      -9.5859854350638332e-02 -5.1904402802766356e-02
      9.8577141379456390e-02 -1.0012984454745121e-02
      9.7931813182363700e-02 -1.1274677343898648e-01
      8.1380173205649799e-03 -1.0588642925173096e-01
      -1.2807093839471828e-01 1.7324328794857738e-01
      2.2972770823870645e-01 1.4957345038123540e-01
      -6.0900499336920177e-01 1.4430498296871838e-01
      -4.7156268479166590e-02 -1.6492265985942538e-03
      -4.4093351311657959e-02 -1.9334854216240524e-02
      -2.0252868241796507e-02 1.6140153792110126e-01
      -1.2263727462732939e-01 -3.5465558018397972e-02
      -9.6446073255035278e-02 1.2120212081084894e-01
      4.2014083612284363e-02 8.7620519047569619e-05
      1.0499069688839308e-01 -1.5077410356509668e-01
      -1.0120946688654063e-01 1.0471093834855805e-01
      -1.4958180656263528e-01 -1.0293811167679301e-02
      -2.1715627714270741e-02 1.3723167781186377e-01
      -8.9029288495699271e-02 5.7480633351547863e-02
      1.0056947081494348e-01 -8.6132827645081914e-02
      8.8347160114202142e-02 7.3273683331743347e-02
      1.5434511378591836e-01 2.3502835761396553e-02
      -6.9491447669896692e-02 -1.9485169796636448e-02
      1.4560620534295535e-01 -7.4978936340038368e-02
      1.5650510541845200e-02 2.2036212747654250e-02
      -3.7063761746216513e-02 -2.4784198660588837e-02
      8.3440825785148873e-02 7.8009526778218749e-02
      1.7008714646746279e-01 -6.9730694914622554e-02
      1.6121167480039672e-01 -3.4156476212447065e-02
      4.4025468875623910e-03 -5.8191723892695481e-02
      1.3288912549361065e-01 1.4188064044026508e-02
      2.3951213309249587e-04 -1.5668638285228725e-02
      -9.1247726247334557e-02 1.0629828010600373e-01
      2.1529673671188413e-02 -1.0441314102640764e-01
      1.7065553788800555e-01 1.0787685840338862e-01
      -1.3875342338141652e-01 2.9214405276298407e-04
      -7.4436867349232091e-02 5.8886633232439589e-02
      7.5844754678141182e-02 -6.5796781348604227e-02
      9.5043923923817872e-02 -4.4252408755328217e-02
      3.4111968054581845e-02 1.1251711662061045e-01
      4.6480566986918534e-02 -8.6097974360366841e-02
      1.2277943519021259e-01 -3.2669333519835725e-02
      5.5068539075661484e-02 -8.9032972964663143e-02
      2.3342309220900567e-02 -1.3051197369034226e-01
      8.5120883170503384e-02 -9.8287335527122890e-02
      -1.3701405221736648e-01 8.3874571094787229e-02
      -2.7663597912618207e-03 2.5233835442394749e-02
      7.1477037275803457e-02 -7.7361416764918506e-02
      1.2484068637887671e-02 3.3584584301569215e-02
      5.8534255750900537e-02 2.6017812190943287e-02
      2.6409110291535889e-02 -3.7093148836099467e-02
      -6.8910531899844099e-02 -8.2395870360653600e-02
      1.7586540801485293e-02 4.1499609270284635e-02
      -5.3231782590610302e-02 1.4860546794383776e-02
      3.8887980170795151e-02 -9.8526561222557096e-02
      -2.5807950611329438e-02 1.2045909321182198e-01
      4.5012030744981127e-02 1.2746071173601897e-01
      3.7476389386738174e-01 7.1231722653245177e-02
      -3.5730491891421872e-03 1.0824836594591783e-01
      -1.1984373033145450e-01 4.8468229208002214e-02
      9.3615330014339609e-02 1.0727369043126998e-01
      -1.3600571306056028e-01 2.7303833212891163e-02
      8.9931134886118119e-02 -1.8009723423277876e-02
      3.1116054599484057e-02 5.9782912752823957e-02
      -7.4489281361620377e-02 1.4590867504790837e-03
      -1.8110632206276800e-01 5.1833034393741637e-02
      -2.9713290256951986e-03 -5.8828936738173010e-01
      1.5386594292779740e-01 2.7105587820568853e-02
      -8.5389227336864756e-02 -2.5618430076643248e-02
      6.4153448064031740e-02 -2.8366044569161766e-02
      -7.8961528454440759e-03 8.6644675127989360e-02
      -5.5709698529538929e-02 7.3274254191737026e-02
      9.9730416167939415e-02 3.8455942184935324e-02
      4.6481548468161250e-02 -4.7221182763155595e-02
      2.0077527016170348e-02 -2.1142325790231631e-01
      -9.3481934593190444e-02 5.1737222410606180e-03
      -1.0026118056912571e-01 1.0191058365619064e-02
      2.2329523999906636e-01 -1.2468194152289921e-01
      1.6474375526194171e-01 1.0728433051639293e-01
      8.8001546147736892e-02 -8.0376522310611778e-02
      1.0583191457413733e-01 7.6639204938194178e-02
      -2.0542602801970694e-01 9.5830057780329506e-02
      -1.5715263714560856e-01 -2.7875247785620606e-02
      -1.1291479721253733e-01 4.1236483649398470e-02
      -4.7649143342537399e-02 5.7906335642834546e-02
      4.4016509863384255e-02 -3.2635777357753165e-02
      -8.3771716883688452e-02 -1.2849008867677458e-02
      -1.0789170652221113e-01 -8.7936170903211194e-02
      5.9962604646892008e-02 -3.5769426831411919e-05
      1.1962727010268516e-01 3.3759859719242537e-02
      5.2999735836738275e-02 1.0278870581839192e-02
      1.0754159625878568e-01 7.1661352032390366e-02
      6.2855544220526416e-02 2.9773221814627715e-02
      -1.0406340973004377e-02 6.8962182583506143e-02
      4.5273303884917356e-02 -4.6737200003135114e-04
      -4.7495046119954080e-02 -2.5928402137519312e-02
      -3.9657056752247406e-02 -3.3807997073172086e-02
      -6.1297069640514595e-02 6.3295857746367104e-02
      -8.9046826657314226e-02 9.7556670363850434e-02
      9.6652564090200344e-02 3.3149432474936229e-02
      -5.2831742669035647e-02 1.0004390070173244e-01
      -4.0472933105048979e-02 1.3221018415500480e-01
      -3.2249091324729175e-02 -6.4243960232025249e-02
      -9.3643760054753014e-02 -3.7697119065763875e-02
      -2.6514560230398394e-02 3.5409558992575842e-02
      -1.4292717629061952e-01 1.2363134733071863e-02
      1.3311762507578523e-01 2.0753025716889223e-02
      -2.6629378684038768e-01 -5.9983017601998964e-02
      1.0279993535563031e-01 7.8851159888046224e-02
      -6.0487450428083421e-02 -2.4592779697906043e-03
      1.2938717242831457e-01 1.5446663322123733e-01
      -5.1041107808704481e-02 1.0653987128092621e-01
      -9.8696144681930126e-03 -1.0425934157628433e-01
      1.2341660676174875e-01 -5.5489387853813077e-02
      1.0566742352421381e-01 -3.8877201306904620e-02
      -2.8348603618187773e-01 2.2135416317154457e-02
      9.8556255458886660e-02 -4.6266976950517419e-01
      4.8323690955170265e-02 1.1156419995437894e-01
      1.1519996081283718e-01 4.3300926284464039e-02
      -2.1545778198369236e-02 6.8797052426113068e-03
      -1.6403728489324417e-02 -8.3896833259989534e-02
      -4.6977667519284144e-02 1.2417956508882826e-01
      -3.9686611818815901e-02 9.1020297535090319e-02
      -6.5698047228727172e-02 -1.5758395206684270e-01
      -2.7177337286697550e-02 -1.5545298083387202e-01
      5.1049448369776318e-02 -8.3209820629119594e-02
      -1.0994889843910682e-01 -6.1762002788745975e-02
      3.3872658583658977e-01 -1.0053772002237943e-01
      4.2843766013224933e-02 3.4294436588710751e-02
      1.5468526090720600e-01 8.8825941146617057e-02
      2.0054573218154501e-01 7.8580300332021055e-02
      1.3327219014862687e-01 5.1072086087173590e-02
      -1.0256812997284866e-01 -8.6010139608154207e-02
      -3.7753484980658277e-03 2.1064818311200034e-02
      -4.1557929483958277e-02 1.2519342848765821e-01
      -3.3145345217909912e-02 4.9212010378195226e-02
      9.8534235503606113e-02 -1.1065083923464929e-01
      1.3283162493188672e-01 9.1723112271562351e-02
      2.1078086643481868e-02 -1.5540607878847680e-02
      -3.2566008901805416e-02 -7.5855527872338985e-02
      1.0875364296781234e-03 -1.1755898242146777e-01
      2.5800300477878746e-01 4.1867925081241764e-02
      1.0033959090418397e-01 -1.1317352791349798e-01
      7.4999542170093678e-02 -7.6683216286388661e-02
      -1.6846653080468111e-02 -5.0938196396878473e-02
      -9.1541651252058209e-02 1.7271136565417031e-01
      -3.8906150027982311e-02 -1.1019782073739190e-01
      -6.6462097717719876e-03 -2.5932020852686644e-02
      3.2045690685450504e-02 -6.3641266084580636e-02
      1.5881808849146689e-01 1.0035826317874258e-01
      1.1999054236061391e-01 -6.4125341570212782e-02
      -1.1168806575585011e-01 9.8602118378597101e-02
      -8.2898562791100680e-02 -4.1896401985776202e-03
      -1.2988260285522973e-01 4.9825059203634968e-02
      -3.5479108282635403e-02 -5.6406248741789337e-02
      -7.3111656259444269e-02 1.8447525602267567e-01
      1.9012754224257308e-01 1.7569887373706999e-01
      -7.4527298113341600e-01 -1.2268378958817783e-01
      -6.2460662001305345e-02 -1.3025813118267851e-01
      9.9777868359055069e-02 -7.5089914893862630e-02
      -1.5245015425889674e-01 1.3088188197140899e-01
      2.1508713607268082e-01 8.1024144402548418e-02
      2.0204829977152311e-01 2.1113316749880259e-02
      1.1680080460422859e-01 -5.8346187801466103e-02
      2.5011574435656145e-02 -1.2417262405264484e-01
      -3.5049901866820860e-01 -1.6782513038979846e-01
      1.2722752628633630e-01 -2.3088450036074520e-01
      1.7674741337511876e-01 1.5460332514736382e-02
      1.3225284290415690e-01 1.7872630957576796e-01
      -2.9529666523738662e-01 1.4623414254505418e-01
      6.9795632187344900e-02 -2.6564171543038834e-01
      9.7908613442584516e-02 -2.5490186408793750e-02
      1.0853277133096759e-01 -1.1381734186804751e-02
      -7.5607334564410392e-02 -2.2666241502806608e-01
      -1.1339817123271134e-01 9.4091279480859394e-02
      -6.4400787152800884e-02 7.8749434244779773e-02
      -2.0692501031115368e-01 1.0406354074810499e-01
      -3.3523088875677121e-01 -1.2364621549605384e-01
      8.9517966652245984e-02 -1.1685335091277642e-01
      -1.0420718668473749e-02 1.8092784998364184e-02
      1.7076960212973155e-01 1.1480296716835039e-01
      1.6565787119643334e+00 1.3265982213681926e-01
      2.9066108853887655e-02 2.4517022019312090e-02
      -5.8783493567493746e-02 -5.5133560711012976e-02
      -1.7638733421805722e-01 -4.1125141882861302e-02
      -5.0451803207117611e-02 -3.3414570938744829e-02
      1.4725938039420169e-01 -6.5400281405417704e-02
      -5.0030066558441159e-02 -1.8300245859719576e-02
      1.1812001160808569e-01 2.3213284474268417e-02
      1.5819626705357470e-01 -7.4438330122394897e-02
      1.1353379147201251e-01 1.7062952992085928e-01
      -2.0815191466322341e-01 1.0867753465227870e-01
      -4.2058286888171537e-02 -1.0830579884442872e-01
      -5.0796207391267681e-02 9.6042447142703311e-02
      6.4178684838959305e-03 -3.3161289792353631e-02
      -4.7812910038746777e-02 6.2008412763943869e-03
      1.4292891404665559e-01 6.8085716732777829e-02
      1.2442342266036055e-01 -6.1926380534791006e-02
      -1.2451273753581621e-01 -5.8497140194793190e-03
      7.0934979189029648e-02 3.5175805594330700e-02
      1.7481003286821625e-01 -1.4061498529081559e-01
      2.5995485823794299e-02 3.9735886669420857e-02
      -9.1983533096817990e-02 -1.8858725554247130e-01
      -1.8768105783863978e-01 -2.2245564710924561e-02
      -9.6423916676393509e-02 -8.9292538488590048e-02
      -1.0046494763464639e-01 5.8235228619414915e-02
      9.3231669237750142e-02 1.2904461803821335e-01
      -3.5847254735258849e-02 1.4660505454298497e-01
      -9.0839227756936480e-02 1.4609874526653979e-01
      -1.1578796360716186e-01 2.3335530675174541e-02
      -2.1830080475254909e-01 -5.7913485752909812e-02
      2.6412324877760022e-02 1.2287714752816525e-01
      7.6531561180300618e-03 -6.7793668326923337e-02
      -1.0154495977003275e-01 8.8940327859895085e-02
      -1.8235700338258425e-02 -1.2632337008373529e-01
      -9.9103337158432642e-02 -3.8118124492952668e-02
      3.6377038314298421e-02 -3.9515427972155298e-01
      7.4928033553037982e-02 1.2490806616008231e-01
      5.6966124213217506e-02 7.5443388758612159e-02
      1.1051696020518836e-01 -9.3029528971228723e-02
      -3.1236796432706486e-02 -7.3380296998058356e-02
      6.7801971676664435e-02 1.2007142871031190e-01
      -1.2478526347781160e-01 8.7304815096287375e-02
      4.8352471618279078e-03 -1.5662009617749637e-01
      -1.2204768111472356e-01 -1.5499765639203630e-01
      -7.1087078634116604e-02 7.3641772374072628e-02
      -7.0006429421528973e-02 5.5265085171717986e-02
      2.8445088253803513e-01 1.6893057743181464e-02
      1.9295625976722061e-01 1.3107441441385398e-01
      1.1612368414575384e-01 9.8592267336555114e-02
      1.7596878277176678e-01 -8.0739794437155274e-02
      -1.5629340319430104e-01 -5.1162011295185130e-03
      -7.2184828321164990e-02 8.3799830670238940e-02
      -1.1025268325833688e-01 2.6407578298999444e-02
      -3.6495121440099372e-02 1.5665488330686073e-01
      -9.2361301391635148e-02 -1.0590452928002005e-01
      -7.7464985760000077e-02 -9.2438371599772667e-02
      -5.4567356120593255e-02 4.0920491117525562e-02
      8.6161917700077376e-02 9.0780322711579875e-02
      1.5015441359433818e-01 2.4671686035853076e-02
      3.6239595568825451e-02 -7.4933570951243131e-02
      2.1567352065464285e-02 -2.9013375937353227e-02
      -9.5424394541226865e-02 5.9796600902240871e-02
      7.9962148163418387e-02 3.8684077373273520e-02
      -1.4292935131442680e-04 -1.4181917719490608e-01
      -1.2728199450128447e-02 1.2316526452587159e-01
      -1.1635629427144922e-01 -8.5170387908698408e-02
      1.0867133418209941e-01 -9.0192748658264779e-02
      -1.0396151689561544e-02 9.2050580015461431e-02
      4.6320513710541432e-02 1.1212248982348691e-01
      2.0695124845712815e-01 -2.9780588888180807e-02
      -6.9504422575705119e-02 -4.1695931779021839e-02
      -5.0478611539694219e-02 8.3122907788211853e-02
      -1.9390092943784204e-01 -8.3073273397607311e-02
      -2.4931106531493347e-02 -1.2236869963258420e-02
      -8.8511418200401565e-02 1.0844892595554125e-02
      2.7445940024448967e-01 4.2997124622447244e-02
      4.7028266561550741e-03 1.0235969766718876e-01
      4.3323129851723534e-02 -4.4775815050944731e-02
      -3.4703947544521510e-02 -3.8159331626700127e-02
      -1.2199359375123117e-01 1.3215793308421742e-01
      -6.4133091390002964e-02 1.0110019894121264e-01
      -4.0473867526255133e-02 4.9219996471566635e-02
      -6.0341641041853168e-02 5.9178663439859280e-02
      6.6244973146809036e-02 5.2329996647583914e-02
      -1.6794948456188741e-01 8.6160019411714361e-02
      -4.0794949935764248e-02 -6.5779540408668580e-01
      1.6201154383786459e-01 -2.7339721372913853e-02
      -8.5290943721676282e-02 1.4966825672718986e-02
      5.6973653418347064e-02 4.3356783103431600e-02
      5.6775627892603202e-02 -1.0940230602692957e-01
      7.2397765352633413e-03 -3.3986069412984106e-02
      -2.9173717086664198e-02 1.2609089684551539e-01
      -5.0861665604275977e-02 -9.4330274036018152e-02
      4.2858874710080166e-02 -2.0693656083830114e-01
      -6.5157829801401140e-02 -1.1229319657476237e-01
      2.0211813069613534e-03 2.6434271320056785e-02
      -6.6404440884790389e-02 -1.1885929700638520e-01
      3.0275958745680415e-02 -1.1370652350915619e-03
      8.6137420970207865e-02 -1.1931385568835233e-01
      1.6347350396698909e-01 6.3665568488395607e-02
      5.5827653104328545e-01 8.1154057731943050e-02
      9.2769279574499194e-02 -6.6957989283189454e-02
      -1.0021030975639248e-02 -2.6635480830450732e-02
      -5.5222898238685314e-02 4.1497174408143399e-02
      -1.5008546330975278e-01 -1.1447188092165554e-01
      -2.7228574327100179e-02 -5.7632372784969042e-02
      -1.2095926852144516e-01 8.8361517178540280e-02
      -1.4505093339215807e-02 2.1280323385751934e-02
      7.5387267694693200e-02 1.8997693561063327e-02
      -6.6156680394452660e-02 3.7801507856939393e-02
      -6.2579687046567689e-02 1.1418264163461311e-02
      -1.0282025169582064e-01 -6.0455018063460791e-02
      1.3286070988060467e-01 1.0719434179217928e-01
      -1.3015207535048962e-01 -1.0738530423326419e-01
      6.1268728367352976e-02 -5.4055159639081141e-02
      -2.3030336427931258e-02 -5.9048763414539830e-02
      9.6305259594117981e-02 2.9845202673690004e-02
      7.8767228162239980e-02 -6.3601580167173766e-02
      -4.7470610388031680e-02 -7.4355838340758942e-02
      1.8216057356800522e-01 -4.3188582711665140e-02
      -1.0228498815000954e-01 4.2576872582395689e-02
      5.0862124626650469e-02 -8.7142032589994003e-03
      -1.6254146800589858e-01 8.8195762735635286e-03
      -1.3342444632275918e-01 7.7253680474111769e-02
      -5.2435600222660528e-02 1.4760609039472700e-01
      1.3881318801053980e-01 -1.0522278347806677e-03
      -1.7645264667969268e-01 -4.1395555461271896e-02
      -2.2009444758549462e-01 -2.3193670893726964e-01
      8.8673150196672795e-02 1.0684424889786151e-01
      -2.7391020713763620e-01 1.2796320171599693e-01
      3.9718137839514178e-01 -7.0438023022499213e-02
      1.4958703360050871e-01 -1.0821953099969392e-01
      1.6918133386270937e-01 1.3178480565348305e-01
      1.0143020815759655e-01 -7.2576477330823064e-02
      -5.9123288394750305e-02 -2.0733760476079841e-01
      1.9415253559210227e-01 2.2421773789562663e-01
      1.5752147263858342e-02 1.8506197596726609e-01
      6.1550878242640800e-02 3.3057065072080305e-01
      -3.0728816288179778e-01 2.3221386687128517e-01
      2.6766500762081799e-02 -5.8068521110086223e-02
      5.8521693338130197e-02 -1.1895026060638340e-01
      1.4588996064182100e-01 6.9480108088527420e-02
      4.0071137280873130e-02 -2.2322077437697041e-02
      1.0637123869890658e-02 2.3551609924343489e-01
      -8.2929585991386740e-03 1.2866745347507116e-01
      -1.3779979599869321e-01 1.4710293663597881e-01
      -4.4218305176780792e-01 -1.1268727280534667e-01
      1.5803389179035196e-01 -1.4853583823166483e-01
      9.1897969100315571e-02 1.0149575095621248e-01
      -3.0010415824631861e-02 6.2978218597062267e-03
      1.5525704839140158e+00 1.6439192639124425e-01
      2.8950782340293324e-01 7.4040213166141249e-03
      8.9951914072723994e-03 -2.1222442820373555e-02
      -6.0520182452882008e-02 -3.8231173557254659e-02
      -3.5723105102921655e-02 8.2170206593128944e-02
      3.9026274946260278e-02 -2.0315165280025152e-02
      7.1713109138658956e-02 -1.3775246572407635e-01
      1.2622482635359106e-01 -8.9872764888062118e-02
      1.0205734172311882e-01 -2.0979292912404179e-01
      1.5022540697248937e-01 2.8147211139283662e-01
      -4.6056336403350462e-01 -6.1213315289564731e-02
      -1.6620439413482019e-01 5.9739463368152293e-02
      5.8348372829305724e-02 3.7829422404167956e-01
      5.9299508111392639e-02 6.3755869338835994e-02
      1.5030489889201340e-01 -6.8452130188613097e-02
      6.7266637599776857e-02 -8.6940995342924779e-02
      -6.1096322324382370e-02 2.8305898562943205e-02
      -1.3646501029673405e-01 -1.4022004555182982e-01
      -9.8281371969434608e-02 9.5820010441372602e-02
      9.5336333900489525e-02 -1.1579153604850861e-01
      1.2217230989535989e-01 -2.4062211585196697e-02
      -2.4378234679314745e-01 -2.3448406568703006e-01
      -3.6368485041646088e-02 6.6156745629464567e-02
      -1.1080847586127497e-01 -8.3699524660185015e-02
      2.3485550334138603e-02 1.2910615319676705e-01
      7.6071949938110464e-02 1.8153204109120336e-03
      6.3143829480981739e-02 2.8175322948577813e-02
      -2.0955581811226595e-01 1.8421960528132554e-03
      3.4899073473255680e-02 5.9571295560215544e-02
      2.0927316108147114e-02 -2.8004106571426293e-02
      1.2019796879084174e-01 -5.3024708458914868e-02
      7.5931267620886644e-02 5.7159018298040765e-02
      -9.8581789263190486e-02 -8.8584789094866043e-02
      3.3395247584867969e-02 -1.0127747926201744e-01
      -1.0435814530219639e-01 -5.6867709459174201e-02
      -4.7659518283259046e-02 5.0418548251645612e-01
      3.2592049761013013e-03 2.6629178909309763e-02
      1.4199202364696970e-02 1.2682710828550092e-01
      -3.7926550733227427e-02 1.3899456649044428e-01
      7.3177668299119786e-02 -2.0337729659139960e-02
      1.5658339720733944e-01 -1.7256725924910295e-02
      2.2030121887379669e-02 -1.1685892547761377e-01
      6.2277111060001375e-02 -8.3369436554371734e-02
      -8.0246127556752547e-02 -1.3136875236437326e-01
      -6.3748679113394754e-02 7.6219046235492929e-02
      -1.6217624075610546e-01 -6.3884094926014452e-03
      2.4495403136500962e-01 -5.7640069790805597e-02
      4.8690699287768605e-02 4.2383842692305863e-02
      1.0669320256305509e-01 -3.2492495630533906e-02
      2.6461202593612003e-02 3.0447909368613618e-04
      -2.3606047028243751e-01 1.2331150622295228e-01
      -1.8494089199533764e-01 -5.9950996301641218e-02
      -6.6002269589185807e-03 2.8178992588132341e-02
      -5.2139283210973247e-02 -3.2770899914864780e-02
      6.1611191395905374e-02 6.5435900745206332e-02
      7.3718632467771276e-03 8.6541265317516325e-02
      -1.8494383736606432e-02 7.0949598503720096e-02
      -3.9665809324313114e-02 2.6360279844957531e-02
      9.1869151251117678e-02 6.9707842398047934e-02
      -3.5735513841896931e-02 -6.1865807257243423e-02
      1.6322672725831214e-01 1.3366702806472472e-01
      -1.2516080081566283e-01 7.8300498092661458e-02
      1.0589495534671207e-01 -1.7479025868155249e-01
      -3.5037705680686267e-02 -9.4872581281833235e-02
      1.0180025250007457e-01 1.6922478891459647e-01
      -5.3552397066491952e-02 6.9379399467262584e-02
      9.7855153354831081e-03 -9.9045076770792731e-02
      -5.1936787671886718e-02 -1.3184933612257747e-02
      6.3222950392773813e-02 9.3268391860280672e-02
      8.5949477607189864e-02 -1.3221945222044273e-01
      1.1083664605186658e-01 6.6362534497862377e-02
      -2.5693218247110877e-02 3.1504547838543985e-02
      -1.2918416583094169e-01 2.4847744700966887e-02
      4.4743272912047508e-02 2.0456309723099517e-02
      1.3746911839920712e-02 -7.2955751326543227e-03
      2.2768208266532139e-01 1.3107872416062738e-01
      1.9791292005115285e-01 6.2742727564016956e-02
      5.8835505179067896e-02 4.7338902940744575e-02
      -3.0428005533273149e-02 -4.0559241575407932e-02
      -3.3022589048230067e-01 1.3592451031880989e-01
      7.8484549104560902e-02 4.3193681662834684e-03
      -8.2752985290189582e-02 -1.4585717699834345e-02
      -1.6955779299352797e-02 1.6034147826864714e-02
      -5.2413452018067144e-02 6.2893844091327186e-02
      1.4059797971205001e-01 -4.2281404014281654e-02
      2.0613850533862509e-02 -3.2999076299903995e-01
      4.3310406864126509e-02 6.8814854090684255e-03
      5.9399849366084258e-02 5.3875643307593223e-02
      1.7386397266195557e-02 1.1364825605988402e-01
      9.5346864735953288e-02 -3.0055354763096658e-02
      -7.0999861221143254e-02 -4.4248846980144557e-02
      1.6048301989713566e-02 -3.5922764695691563e-03
      -1.0139707129670053e-01 -8.5255199253042480e-02
      -4.8295196614340008e-02 -2.2487289914775485e-01
      -9.5021317903123681e-02 1.0200133340483580e-01
      2.6712618935961760e-02 7.3601595271698170e-02
      1.0524762894570303e-01 -9.4819450104703759e-02
      4.2857735044717050e-02 1.1517340901203693e-01
      1.1084796993632835e-01 -6.7836680602916158e-02
      -1.1366171862039620e-01 6.8404533819051788e-02
      -5.7998289326878852e-02 1.2736203630728021e-01
      -1.5817046960208689e-01 -4.2659418799431241e-03
      -3.0533092768620162e-02 3.6160798661079942e-02
      2.0660865122548458e-02 1.2736866131188734e-01
      1.0105262885891714e-02 5.2421951869976793e-02
      8.2897505401945515e-02 5.6462529760772311e-02
      -5.1404532919454640e-02 -9.4216687649502945e-02
      1.0916581687954677e-02 9.4481091734339495e-02
      6.8520289300028542e-02 7.8304787732958001e-02
      9.0987972474591866e-02 -5.5755320062431217e-02
      -7.4445910549887284e-03 1.2682658764640509e-01
      2.0237622914617312e-03 -2.8684920850982409e-02
      -5.0910428506950205e-02 -1.1590200170164702e-01
      -3.8583852510254944e-02 -6.2747621347618049e-02
      2.2457091204315643e-03 5.8484547298840575e-02
      9.1240026794015883e-02 7.7133439994373550e-03
      -7.2156116301363565e-02 -4.7547864917465238e-02
      7.3832712292643307e-02 1.4004467675890227e-02
      8.3276721268319559e-02 9.3214026992122931e-02
      -5.7847164447919285e-02 -1.2659639155715041e-01
      -1.0309272295703131e-01 -3.6531061236412234e-02
      -5.6506087945810822e-02 -6.8292843072332299e-02
      -7.1164590414232051e-02 -4.7217837464776938e-02
      -1.1306824071015936e-02 -5.9107385870942530e-03
      9.9855672694931473e-03 -7.8927315086912836e-02
      -4.2039811442847630e-02 2.9721759823852769e-03
      1.2328934813360261e-01 -5.7442514781848010e-02
      -3.9497487863494461e-02 -5.4234255490292545e-02
      -3.1117188110985076e-02 6.9836978145262187e-03
      -6.5488741636556070e-03 -4.1200600971481323e-02
      6.1711553599404841e-04 1.6117529221258346e-03
      4.7329806493385529e-02 -4.2510832407019326e-02
      2.8299848924168640e-02 1.5807332391695302e-02
      2.8642496477082655e-02 9.6892176283769327e-04
      8.5945731734993619e-02 -6.5363692917193624e-03
      -9.7947129539207520e-03 -1.0132999356285513e+00
      -6.2955827842043774e-02 1.7427104221899501e-02
      -1.4473742198902089e-02 -1.1537335707085568e-01
      7.9339068897638115e-02 -1.7048179053100253e-02
      1.0288044905988255e-02 3.5926886636913201e-02
      -4.3054218044497716e-02 1.3542935026818479e-02
      -3.0255093728452680e-02 -1.9929380986281119e-02
      2.3872637138418498e-02 -4.3713502500521374e-03
      2.0091895773279005e-02 -2.4625383475214868e-02
      1.1828457186757025e-02 -1.3546380528297274e-02
      2.6464040040694196e-02 -1.9647265163378794e-02
      4.3215824275252453e-02 4.0067861879216474e-02
      5.0008162428561733e-04 -2.2572367629827947e-03
      -2.8833099233686984e-02 2.3432765873087916e-02
      -3.0127123173984737e-03 -1.1544389574412249e-02
      3.0810251655522597e-01 -5.2380551251936150e-02
      1.3743050817645668e-02 2.4787835548835120e-03
      1.2499477014477991e-03 2.1060980780254989e-02
      -9.7475188422830126e-03 -1.6221954164965205e-02
      2.6585250251388040e-02 -1.0044868768793186e-02
      2.7238485001565321e-02 -9.5017742145198196e-03
      3.8411768339733829e-03 -1.7887456514703859e-02
      3.0369817097408605e-03 1.8990451701947426e-02
      -1.9291045640152465e-02 -2.9442426257703883e-02
      -1.8545263145535194e-02 1.8118889629724640e-02
      -1.0104343508911349e-02 -5.4909814371542340e-02
      -8.6129894168040563e-03 5.8902368817415666e-02
      2.9631482691945348e-04 2.2750468358448243e-02
      2.1453923590615445e-02 2.3835061027960285e-02
      5.9052474535110817e-02 -3.8537687035486150e-02
      -1.7278460159973856e-02 -7.0608735504886803e-03
      1.5484153204348235e-02 -4.4797912162105706e-02
      -5.3936575488183008e-02 4.6248440208418284e-02
      1.2908667165578668e-02 -4.7627642833227096e-02
      -5.4754367917429561e-02 4.4721704039570329e-03
      6.2088014784859452e-02 -3.3134546716155136e-02
      -4.3263368521942326e-02 -1.8845064740835506e-02</_>
    <_>
      -6.4290510796288338e-03 6.0156645090570122e-03
      2.0508556254954690e-02 1.3414191154405090e-02
      1.3811241850862993e-02 1.7081385392768857e-02
      1.9941868345122117e-03 3.2536556258764672e-03
      -1.2380823779022027e-02 1.2615969893055372e-02
      2.8200148838092846e-02 -1.1893473247855663e-02
      -2.2604920423755528e-02 -1.0704141655811608e-02
      2.9338959075705950e-02 1.7810499766329872e-02
      8.2254104179540263e-03 9.0679675655583620e-03
      2.5128595069051990e-02 7.0573821933525337e-03
      6.6938540280176454e-03 -6.0966266029530503e-03
      1.3410267649584516e-02 1.8824490229934977e-02
      -2.7513284653210720e-04 -1.8541197598316152e-02
      1.6825186326604642e-02 -2.2859734187073207e-02
      -3.2413944550824542e-03 -4.6680796032788144e-03
      3.6763406109683529e-03 5.8089279453788934e-03
      2.8057663036147953e-02 -1.1150071258491623e-02
      -1.5726646857317027e-02 1.3972207077174351e-02
      -7.4318209901000050e-04 -4.3796469181895406e-04
      1.0318712816496047e-02 -9.6092120196648312e-03
      -1.8752347152479528e-02 -1.9279556183851694e-02
      -1.3466240264772987e-02 -1.8829451551110602e-02
      1.7096440336318103e-02 -6.8587727008944943e-03
      2.6515935781154354e-02 1.8133215212282013e-02
      -8.0534717941081399e-04 1.6323994093119232e-02
      2.3230004932230475e-02 -2.2740563613925867e-02
      5.4472462815671344e-03 -8.1764481183191802e-03
      -2.0554350109117363e-02 -7.2921364279508218e-03
      -2.0809095065700094e-02 6.0549445154819085e-03
      -1.4070264439264905e-02 -2.5947025381512990e-02
      -2.5289024321450894e-02 5.0024045853948188e-03
      -6.9600203707964863e-03 -2.6404749942246838e-02
      1.7440514587700667e-02 -2.0058439852832871e-02
      -2.1053318019377625e-03 1.3517763251855427e-02
      1.7315675940255799e-02 -2.8710891814137822e-02
      1.6511845695676867e-02 3.0786292328155271e-03
      2.4844463142230183e-02 -1.6735084551691922e-02
      -2.1817185584503965e-02 3.1164203924018640e-03
      2.3956928119138736e-02 -2.5613434976668372e-02
      4.0210559142855117e-02 1.2098995461667560e-02
      5.0937434262730390e-03 6.4571174943904635e-03
      -1.4915962039343733e-02 1.8745326515710370e-02
      2.9155249940206827e-02 -2.8221014314876895e-02
      -3.1098493421582069e-02 -1.0457197213637201e-02
      8.3358131418293773e-03 1.8175185713397764e-02
      -3.6549212562138771e-02 -1.7782745313494458e-03
      9.2829269326305996e-04 -5.2479685589263692e-03
      -5.7270537708179817e-03 2.5235527317299583e-02
      7.0244433575296214e-03 3.5332907396049278e-03
      -6.4249767403455980e-03 -2.4131313268344497e-02
      6.6619852114236143e-03 -1.7038185269285699e-02
      7.2259571196452556e-04 -1.7223981629022871e-02
      -1.2035415167744944e-02 -2.7982029033547465e-03
      -1.7804667295218023e-02 1.0294730143804618e-02
      1.2216174861358359e-02 -1.9342079138506406e-02
      -1.5796898438934285e-02 -1.2455215275185878e-02
      1.8970136654562750e-02 1.6336459911169214e-02
      4.3346879069552039e-03 6.0426361849117800e-03
      1.2757990127249581e-02 -1.6373819305467005e-03
      -4.4728970107789211e-03 -7.3866391773595918e-03
      -1.3178008441518275e-02 5.8610667700654574e-03
      -2.1299806114493974e-02 -1.5503886467350559e-02
      1.2167850663641677e-02 -7.2617589668561248e-03
      1.0882283833225041e-03 5.3718991333104428e-03
      -4.2233522466850835e-03 7.8305559055384354e-03
      -8.0324287586052198e-03 8.0934077676431283e-03
      3.5080683644789705e-03 2.3363065629602329e-03
      1.0422459967103198e-02 -1.1663416797311576e-03
      -1.1290288716113728e-02 1.5376863212010951e-02
      -7.1960635985503030e-03 1.6972126152017493e-02
      1.7059026443337677e-02 -1.2222490504298822e-02
      1.3281608130648838e-02 -6.2589943129570044e-03
      -1.4337125732505680e-02 -1.3304917609423109e-02
      7.4911133832556492e-03 -1.5590726245858723e-02
      -5.6024973509165620e-03 4.3935726130841712e-03
      -5.1443444943868434e-03 8.2478255183224720e-03
      5.7061372520510389e-03 1.3215463053019540e-02
      -2.0434694530779008e-04 -1.1920356967859293e-02
      1.7135295541776452e-02 -2.6948210359707264e-02
      1.4108894962997429e-02 -1.1477747975732075e-02
      -8.8277355923559279e-03 -1.1549676171814615e-02
      -3.7292590171732749e-03 1.7003881722930193e-02
      -1.1218031889751158e-02 -5.3603151147300424e-03
      8.7002706743002558e-03 3.2154773821635330e-03
      8.8570607168508252e-03 -2.7361061791314257e-03
      -5.6128841798496155e-03 -1.6318725939643293e-02
      9.8622409540313569e-03 5.0908151211091204e-03
      -7.2239182270243786e-03 8.0623685742537577e-03
      -1.8129526507887895e-02 -8.9738597254423007e-03
      -2.6893971498820543e-03 -7.4815938038615155e-03
      3.6304858646408968e-04 -2.4451751720463443e-02
      1.9318943427254001e-02 1.6730863146801646e-02
      -1.2586588360989456e-02 -7.8748318351257660e-03
      -6.4998808977597107e-03 -1.4999684984913308e-02
      1.1353200360581340e-02 6.8600216907366450e-03
      1.4701874524728488e-02 -1.0672455754829516e-02
      1.6869386985006216e-02 -8.8936820801048169e-03
      1.3642950324732936e-02 -1.2189928836139232e-02
      1.9897274832455052e-02 4.2039804877520319e-03
      -1.5270212105275485e-02 1.6053784918037790e-02
      -3.1370774289442904e-02 3.3074652749800468e-02
      -6.9020975770746479e-03 3.1007456744933937e-02
      1.7139741794802908e-02 2.6545326411857157e-02
      1.6397466734276000e-03 -5.0904969649042519e-03
      -1.8250476181334220e-02 8.4681203544442155e-04
      2.1820165228497272e-02 -1.7957659678652090e-02
      -1.6970400739062478e-02 5.9983592151159736e-03
      3.5496274852708572e-02 2.1877889352036096e-02
      -8.1031487963788718e-04 -7.2224260217048936e-03
      -2.5230257007972522e-03 2.2999200285992605e-02
      -1.4171049358890020e-02 1.8505106895432587e-03
      2.6362804832859195e-03 1.3735952053744820e-02
      2.1683842551025432e-02 1.1474496409425331e-02
      4.3537024361222192e-03 -2.4186411064254115e-03
      -1.4281700183999253e-02 -1.5540804231362294e-02
      -3.2849198770435711e-02 -2.0859933374659061e-02
      2.4404217255093591e-02 -1.4105741479230424e-02
      1.3133942412835742e-02 -7.3666728411687721e-03
      1.8243422751176802e-03 -2.3551606334834836e-02
      3.5723691531346566e-03 1.8042056817945542e-02
      -1.7673456052137198e-02 -2.7734138736582089e-03
      1.9536351728723134e-02 -1.8666360268017088e-02
      4.0303708357095812e-02 -2.7411386450463312e-03
      2.8781766102189108e-02 -1.1263660593194029e-02
      -1.4224270886558912e-02 7.3937644552252565e-03
      -1.6643431706277920e-03 -2.7920669441030610e-02
      -2.9492672752851383e-02 3.0776170872451472e-03
      -3.0453430562452557e-03 2.0309229162399712e-03
      -1.4457362116139556e-02 3.0235120770212277e-02
      -3.1017051406340829e-02 -2.6333119592799343e-02
      -1.2426321765319048e-02 1.3380225256400750e-02
      1.0617879407132212e-02 -3.5455173913994200e-03
      1.4128240776792271e-02 6.5782443178214944e-03
      7.5984708609198974e-03 -8.3564477169963611e-03
      2.6631502680597285e-02 -2.5173172746077221e-02
      -1.1378566386513732e-02 -2.4655885959130455e-02
      8.8063233790180041e-03 -8.5590097638633500e-04
      -8.6221419861550743e-04 1.2766235688230223e-03
      2.1737510369494395e-02 -3.4773279559654098e-02
      2.1755456209307543e-02 1.1968920348956589e-02
      -9.2566816470402574e-03 3.6537076046396944e-02
      1.2071464548312700e-02 1.1089390012478327e-02
      2.6311677906149964e-03 -2.3714250087869412e-02
      -2.6755818704582296e-02 -1.1909566647891326e-02
      -2.1543983800942856e-02 2.7335111930748349e-02
      6.9688224035103887e-03 -2.6542090736223354e-02
      -1.0251130683310421e-02 -2.0220508000890979e-03
      9.7039795340912987e-03 2.6498033713764014e-02
      -9.1591064833974646e-03 -4.1212511789828783e-03
      1.6925830679226657e-02 -2.6427008003742800e-02
      3.0905871385006386e-03 -1.9491365576693030e-02
      7.8684287260977655e-03 1.3206790782583064e-02
      -1.6062157731716487e-02 -2.1748101874887162e-02
      1.3335617716801550e-02 1.4844821488252515e-03
      -1.9966400379597415e-02 -1.5916707953891447e-02
      1.4473323655655971e-03 5.0302988872850648e-03
      1.1015401550510839e-02 7.6826696986510307e-03
      9.6905788540297948e-03 -6.6872710990259383e-03
      -2.1063435584540307e-02 5.7034108716636093e-03
      1.2028072868518072e-02 -1.0272425119445360e-02
      7.5177031810884859e-03 -5.2941151582446260e-03
      1.1403072459019857e-02 -1.4945434635773081e-02
      -1.2823999712606704e-02 -1.1999924075470238e-02
      4.2974561841418258e-03 -7.6270534151608926e-03
      -6.2991811746418141e-03 6.1137501431903843e-03
      -1.4781085740168039e-02 5.7272508283530274e-03
      -2.2554302711571324e-02 -4.2833566184943481e-03
      -1.8571075257735027e-05 -1.4813733353975355e-02
      1.2757628730537681e-02 -2.3231734493119501e-03
      -1.5051249935572296e-02 -5.9147552301322343e-03
      -1.7448267416467468e-02 9.0876448656368181e-03
      -1.6501201295442462e-02 -1.1148109352033990e-02
      -1.8772806191801827e-02 6.4732075006427572e-03
      -1.5937956863024426e-02 2.7570503943058094e-03
      1.3494350013007653e-02 -7.5305460590154747e-03
      -1.6937042309998779e-02 -1.3679203688213057e-02
      1.3286928894536454e-02 -1.1869629188287831e-02
      -1.8766129073548857e-02 -1.0506435828343078e-02
      -8.9099722738327555e-03 4.3561257142019734e-03
      2.9891211196801009e-03 1.5592202172619210e-02
      -1.5266020920844571e-02 1.0066810061754399e-02
      -5.8424228904425599e-04 1.9932282364162737e-02
      2.7664744604872379e-03 -1.5088916969886979e-03
      1.1354156769003885e-03 1.9996496785146374e-02
      1.1937318677523337e-02 4.8350601723233386e-04
      6.4029572185299623e-03 4.7190096591074931e-03
      -6.7992034658452957e-03 -8.3326955713120075e-03
      1.3899388571313679e-02 8.8310000288586311e-03
      -1.7648842061130592e-02 2.5396446290873501e-03
      -1.0892348191529256e-02 2.1329147504517944e-02
      1.1613875784157018e-02 5.4473137670717105e-03
      1.4625884135603510e-02 1.1537801044458151e-02
      -1.6074506339962609e-02 -1.4449110489213463e-03
      2.9990741747551800e-04 -1.3451386899361534e-02
      -1.0914167873048108e-02 -1.9495460872622876e-02
      -2.2066435121538323e-03 -1.5570268651368048e-03
      -4.9119623480440213e-03 -8.4889598180621067e-03
      -1.3249171383079315e-02 -2.4496930959786042e-02
      -3.0532258045112104e-03 1.2185365258561062e-02
      -1.8250300619310753e-02 9.8117208148803363e-03
      1.1950440556738840e-02 -2.7521773342760340e-02
      1.5387700452037334e-02 1.0826383118290896e-02
      8.9620062515701742e-03 -9.9471075682487919e-03
      -7.7681110926484803e-03 -1.5302289619907582e-02
      -3.6657259570044387e-03 -5.0181722756071833e-03
      1.2038710407327386e-02 -1.6346641365381758e-03
      -4.6756788052474459e-03 2.7252969340755689e-03
      -2.8075006202334447e-02 -7.0006709138168179e-03
      -1.9623206043822460e-02 -1.6541035503843417e-02
      -3.7252953560367396e-03 -1.1953787632127878e-02
      -4.3106504700874569e-03 -1.5610539686818449e-02
      -1.8384672825912479e-02 -1.3109743425688204e-02
      -1.4127048746017092e-02 9.7865918365340667e-03
      -9.9171066685319487e-03 1.0012387553803339e-02
      1.1608208395778931e-02 1.4284480925413089e-03
      -9.7773794737224013e-04 7.9547903431728441e-03
      2.0019424622133531e-03 3.3726552844388848e-03
      -2.9020391012175412e-03 -3.2836185851822948e-03
      -1.6895586411543869e-02 2.4373473421874525e-02
      -8.1863424267694283e-04 7.8380856842424629e-03
      6.5245964597489669e-03 2.0281213170044634e-02
      -8.2118708438528518e-03 1.7765290755244342e-02
      -1.9358300242036986e-02 -3.9023030558502672e-04
      -5.9038133149966424e-03 1.7450343992769723e-03
      2.5917126596554260e-02 1.5672711573431371e-02
      -6.0208708386303806e-03 9.3697267720669244e-03
      2.3536666303526296e-02 7.9643775553421402e-03
      1.6402524032843140e-02 3.0998372429699335e-03
      6.7185041238357881e-03 -3.4783965354454695e-02
      2.4014048400526761e-03 -9.9998543236884158e-04
      7.2137903651398856e-03 4.4480841084068431e-03
      -7.0884765366178559e-03 4.7882977393009282e-03
      1.3526444743754546e-02 9.0080502100486903e-03
      -2.8240755467450387e-03 1.2301683536991523e-02
      3.7646989051542254e-03 1.4067892411371626e-02
      1.1978040493720057e-02 -1.2849181094209617e-02
      1.3790859996693317e-02 9.6935191920155678e-03
      -2.5133987461952176e-03 1.0343094228710530e-02
      -5.3222527672327682e-03 2.0430136053957619e-03
      -2.9001754968190564e-03 -9.6595408440692636e-03
      -9.7837362186159321e-03 -1.5705501468624851e-02
      -1.0165114641347521e-02 -1.1718432660916232e-02
      4.1000924795006003e-03 -3.2340769671257261e-03
      1.4283065050444913e-03 4.6897572941936221e-04
      -1.2615080557558507e-02 -4.6707360789277581e-04
      9.8755998348094946e-03 -1.0589905218134486e-02
      2.3999327013136298e-02 -2.2372988442450831e-03
      -1.2866913059903801e-02 8.6768335671129921e-03
      2.5083079379470505e-02 2.7827714243612253e-03
      -1.1225802456626488e-02 1.1176763363762124e-03
      6.1835494412834958e-03 -2.6121342152621060e-02
      1.2801560789063342e-02 -3.8190216824765227e-02
      -5.9444076144413334e-03 -2.9353406950785733e-02
      -7.2165464715108407e-03 1.5363276592087421e-02
      -1.0508401873363191e-02 -2.5007778642536505e-02
      -3.2991453877877212e-02 2.7100733336140072e-02
      2.0934402250358933e-02 5.4297313116991605e-03
      -2.0119618202057151e-02 -3.8161010131542251e-02
      1.0200995957825311e-02 -2.7718004409985283e-02
      -2.5261116389045671e-02 -2.4954943827239704e-02
      1.5868436298753650e-02 1.0394836899081487e-02
      -8.3206879063005938e-03 -2.9896117558310308e-02
      -2.0063535701721848e-02 -3.9822003168622430e-04
      -8.9211516260572048e-03 2.5982770059634338e-02
      3.2364445464816384e-04 2.1841563169381930e-02
      2.1363715434542900e-02 1.4690484432872266e-02
      1.7929513754861880e-03 7.9894791649423331e-03
      -1.3590466090393979e-02 -2.3958671487392140e-03
      5.0904840283957113e-03 7.8299646696157314e-04
      1.5791318254069847e-02 -2.1179516688693634e-03
      -1.1277316282410681e-02 1.9077654747564912e-02
      -2.0344906439547106e-02 -3.2881129499814413e-03
      -3.7223094601898453e-02 -7.3078564365820558e-03
      -2.1413449377374234e-02 -1.4433372777967890e-02
      1.6777298014600907e-02 1.4031389038513056e-02
      -1.2257302130721986e-02 2.9481661382362256e-02
      3.0916364593208699e-02 -1.0345253900872018e-03
      2.5641749643460928e-03 -7.3025246551638740e-03
      -1.3071964399637044e-03 -2.9746958715328297e-02
      3.4897797163561616e-03 -3.8631921101454805e-03
      2.6358445376982335e-02 2.5459980604733371e-03
      -3.1342926706418882e-02 2.2477007350136607e-02
      -3.2356280885884343e-03 -7.9210292328908347e-03
      -8.3754676238243057e-03 -1.4957872217821407e-02
      1.8556833568920247e-03 1.4134752988876082e-02
      1.1277167414886881e-02 1.8154535449753026e-02
      -6.8449577381775209e-04 8.1060451396124458e-03
      1.8263576220571245e-02 -1.5165041437752914e-02
      5.7319680485344287e-03 3.0280605656741425e-03
      -1.5491569342303786e-02 2.5319663173190617e-02
      9.1407969361162011e-04 -3.8418015358519755e-02
      1.9794766991897222e-02 -6.6227872565871575e-03
      -9.6124610009574590e-03 1.7866094344058704e-02
      2.1212635375823897e-02 1.9619360250398073e-02
      2.2206492599241807e-02 2.3754807078622697e-04
      2.6693895870246179e-02 -1.4490532510723025e-02
      9.5360686414394207e-03 -1.4612248080344791e-02
      -2.4653230989449382e-02 -2.8957531267953057e-02
      1.5896843246519854e-02 2.6157909740825110e-02
      2.0298431358263666e-03 -1.3333968117511660e-03
      3.1639050899281707e-02 -6.7329430103110946e-02
      8.8817533115233775e-03 -4.2572423023344928e-02
      -2.8146556458813726e-02 -4.8523067941356038e-02
      9.6795149677473980e-03 2.7767359556281759e-02
      -1.0965981721184081e-02 -3.7486555648415826e-02
      -3.4797024215802552e-02 8.7748050518342089e-03
      5.8499740114218986e-04 3.8710925664418534e-02
      -5.3841820759459612e-02 -5.6348762145818500e-02
      1.5800285019372019e-02 -4.1990641528894611e-02
      -2.0136865467142918e-02 -3.0667147791000379e-02
      1.7477145662523671e-02 -5.6190107849661934e-03
      -5.1295826325220457e-02 -1.0006691344279686e-02
      -2.1691154271515366e-02 1.9627533051703078e-02
      -2.4576252917043830e-03 2.7493737395834567e-02
      -1.2544222545900059e-02 4.9245274644371272e-04
      4.9714918934630196e-02 1.6795932547339659e-02
      -2.1857938959167142e-02 -1.8380075502016278e-02
      2.1279040881425432e-02 1.0939048485495149e-02
      -1.1576425810782718e-02 4.1555859963363639e-02
      7.1782276087521430e-04 3.3600256827888788e-03
      -1.1363003392422248e-03 3.2390827454298263e-02
      -2.5514096923624406e-02 -2.5329348505532959e-03
      -4.0767343446675035e-02 -1.1333861226706239e-02
      -2.2390958435665055e-02 -1.0838193572715166e-02
      4.2119351262824664e-02 3.8247838318270037e-04
      -2.2966009547607882e-02 3.9718267298623107e-02
      3.9874831992736025e-02 9.9026633850640301e-03
      -2.2441860190181447e-03 2.8889578192554236e-02
      -3.4496444374380848e-04 -3.2960378692508473e-02
      2.0764778929175894e-02 3.5113908158222108e-02
      1.1965181233672986e-02 1.7433625572710456e-04
      -1.7953317754610587e-03 1.3710897835984696e-02
      -5.0466450761286130e-04 2.4991322324945414e-02
      -2.8258183789326190e-02 2.0917699898283036e-02
      -3.8988064848972520e-02 4.5515856503319345e-02
      1.1981241410906264e-02 1.4803010655906309e-02
      -2.2962137140893322e-02 -6.3786157664223839e-04
      -1.9044993264345578e-03 2.7002921127074218e-02
      -2.3891417815966542e-02 2.4952168857617030e-02
      -6.2138830461558235e-02 1.4999127537698380e-02
      -3.6296405397267334e-02 -3.9418440514846491e-02
      1.4175367879610554e-02 -3.0903023464907066e-02
      -7.4236445078193387e-03 5.8220167186115328e-02
      4.8133300868702857e-02 1.0436913568653084e-02
      3.4280013623346367e-03 -1.5011177526153193e-02
      3.2238468737155787e-02 2.7745483889126024e-02
      2.2947820382559950e-02 -3.5489862921716096e-02
      -3.1555942714735372e-02 -4.2763218148463018e-02
      1.6612995303930806e-02 1.4380188937574971e-02
      -1.9300196636975187e-02 1.2072190988966653e-02
      -4.2917475414570297e-03 -5.2549728202883278e-03
      1.7113612589086228e-02 -7.5636994654953741e-03
      -1.4867301480413651e-02 -1.6069114695697738e-02
      -1.4647748361328126e-02 1.4691694407625246e-02
      -1.7463167259533181e-02 1.3560127572582216e-02
      -4.1408013621492041e-04 1.2751633983767944e-02
      2.0595653372783188e-02 -1.7926546762830016e-02
      -2.6422352213195707e-02 9.8119078294699787e-03
      5.4777892774729069e-03 -1.3900954200589254e-02
      1.1269130348974110e-02 -2.4663125771447424e-02
      4.0617551644237700e-03 -3.8024299503272227e-03
      -1.0479948822561969e-02 1.4991354816598421e-02
      -6.8120504357605527e-03 -6.5161397132999050e-03
      -4.9922686544864418e-03 2.1415142037374612e-02
      -7.3750034212215721e-03 1.7501208116320107e-02
      1.1587624759410192e-02 1.3479681915917564e-02
      -1.5069614405842507e-02 -1.4984489773117922e-02
      1.3911032855744816e-02 7.7917805017590804e-03
      2.0394008107772036e-02 2.5903306801176398e-03
      6.4886897150781934e-03 1.6776413929604495e-02
      1.4636106430600726e-02 -1.4709297452527127e-02
      -2.3235356655765375e-02 -1.1855644107804281e-02
      -2.2246149914332349e-02 -1.8093600116622185e-02
      -2.6564929210957301e-02 -2.2055091875721244e-02
      6.8673435023125159e-03 1.5513123141578773e-02
      7.8521094573098995e-03 -9.9516796364481405e-03
      -3.1321128746228132e-03 1.0042689729223299e-02
      7.3638662929399108e-05 2.0199079301480856e-02
      -1.2000379844817558e-02 -2.3233690320875806e-02
      1.5408714770262951e-02 -1.2966487578565505e-02
      -2.2381298665724103e-03 -6.8944844950227140e-03
      -9.4329414968310939e-03 -1.3126475369515184e-02
      1.7033383047840717e-02 9.8778748271071224e-03
      -1.5638251161824622e-02 -1.7030604005471098e-03
      -1.1623594358581499e-02 2.9251953731220864e-03
      4.5392693833231487e-03 6.0695194288818656e-03
      4.7284571284644697e-04 -2.4319985264818029e-03
      -6.2859183781395305e-04 -8.3398491194396577e-03
      -1.2516234065131514e-02 8.8758946070890757e-03
      -1.0665624801500954e-02 -1.2332205280060200e-02
      -1.2974225589761983e-02 -3.1509866571190322e-02
      3.1323111771215813e-03 1.7044121370479550e-03
      1.6780923038359190e-02 1.5303935323167551e-02
      2.6566173498266473e-03 6.3410421492379309e-04
      -1.0121954077103087e-03 -4.7239808747261717e-03
      1.2861640131906259e-02 1.1085689144036985e-02
      1.7690685276043167e-03 -1.6594232294626866e-03
      1.5047979613697911e-02 -2.1854873468830006e-02
      1.3221125486670237e-02 -1.3161452770054692e-02
      -7.8140094248570421e-03 -1.2221990227278176e-02
      -1.8279481330157099e-01 1.6008137444446641e-01
      5.8012795240192754e-03 1.4032421277931276e-01
      5.0634144432959285e-02 1.7501988312011446e-01
      -4.0583637550326047e-03 -3.4113839471757522e-02
      2.3620775160252544e-02 7.7510207174825041e-02
      9.3200167048088089e-02 -8.2741305859494588e-02
      -7.3133277990972329e-02 -7.5461215928554468e-02
      1.5107012060167088e-01 1.2527798872423143e-01
      -2.4520229034547475e-03 7.5738365880684139e-02
      1.0046701823222100e-01 5.1398833894340828e-02
      -3.9034688628053593e-02 -1.2466387038951915e-02
      1.4665321917705934e-01 1.3461710622514048e-01
      8.5127251360434142e-02 -2.0575508004380346e-02
      2.2927367752755515e-02 -6.7454999008282668e-02
      -1.2743633003660600e-02 -4.7793121445610917e-02
      -1.0898387379447481e-01 -1.5949512894976956e-02
      9.2382636877115884e-02 1.2362542784257314e-02
      -1.8394715295445233e-02 -2.3961790591426814e-02
      3.7711863373394938e-05 -7.2509409072942219e-02
      -1.3384525921561178e-02 2.1705570071052886e-02
      -1.1805378860343984e-02 -6.0947172527578773e-02
      7.4984236261454798e-02 -1.3930296787317288e-02
      1.6666947154233552e-01 4.7967191229548928e-02
      1.0495452000498409e-01 -7.5379111561654872e-03
      -1.5093153759391548e-01 -4.9050347573146170e-04
      1.0412347856405736e-01 -8.4318734849898241e-02
      -1.0188555253811853e-01 1.2629161702646427e-02
      -3.9559171538486364e-02 -7.6187396227896345e-02
      -3.3328829107494212e-02 1.8664244414443359e-01
      -1.0100216526228803e-01 -9.5235189855256794e-02
      -1.8981165470379105e-02 -3.4777439390331261e-02
      6.3870454932539580e-02 -8.1334598552554344e-02
      3.5942559354191522e-02 -6.1592268748259772e-02
      8.3339532255100809e-02 -1.3580543323607039e-02
      8.2090131349793163e-02 -1.1662125057372183e-01
      -7.4512786717665846e-03 -4.3696051947737451e-02
      9.9613298859504998e-02 -1.3022869160495651e-03
      -6.8838919619107014e-02 -1.7783901362466190e-02
      6.9907654135561131e-02 -1.2349956812127234e-01
      1.7694506492987741e-01 -2.0498513908813833e-02
      8.3847217327999310e-02 1.9558273338435012e-01
      -2.6927872882208676e-02 4.5076088187694083e-02
      7.5871916551421587e-02 -1.4399781166338527e-01
      -1.2443866595590718e-01 1.6322977684891486e-03
      -3.0316483566413033e-02 8.5718268810763873e-02
      -1.2187531792800915e-01 -3.8692675203418680e-02
      -1.2270426824823828e-01 9.8445897018964001e-02
      6.0336214197490211e-02 1.5818851362300518e-01
      -9.9210411122368156e-02 -3.9055113780183920e-02
      7.4423309589178671e-02 -1.0292289618575166e-01
      -4.7665935758189698e-02 1.8780212202240260e-02
      2.1100175298493879e-03 2.4864063136862163e-02
      2.4479208072589510e-02 3.7203972724398092e-02
      -1.2787719137346160e-02 -9.3128439163913165e-03
      1.5701941875493765e-02 1.5641974657956720e-02
      1.9061383060300603e-02 -2.0169941259431237e-02
      4.2914911913031397e-03 -1.4542152213746520e-02
      3.4263374474184392e-02 7.3074327742954142e-03
      -2.1424525300063075e-02 1.1412332909408639e-02
      3.0353746523352852e-02 2.2133246830107330e-04
      -2.7686739175189871e-02 3.6487005005848786e-03
      1.5943688890852504e-02 4.2785800234437309e-02
      -6.2274746631287518e-03 -1.8256862223446847e-02
      4.4780362733371510e-03 -1.6056034641362526e-02
      8.2131307012381274e-03 -2.7180749441586580e-02
      -1.1200385543927292e-02 -1.2794465208253536e-02
      6.9572743913163902e-03 2.8995086246050615e-03
      3.3840064356966686e-03 -1.6891021291954172e-02
      8.7729822738868597e-03 -3.0641506140053989e-03
      2.3350029235158303e-03 1.4336297722128888e-02
      1.6483230756017501e-03 -9.4027323566053221e-03
      3.4431788668367732e-03 -2.0165118897734282e-02
      3.6108904527948578e-02 1.9780343290927427e-02
      2.1490196679212672e-03 -1.7343031533213624e-02
      -3.7078990984141975e-02 1.4611309068066597e-02
      1.3741898225284188e-02 -4.3877254387208889e-03
      -1.3595568521029846e-03 -8.2628735442057018e-03
      -5.0511225811574294e-03 -4.7836334724169881e-03
      -6.0564327289857247e-03 3.2681795099290215e-02
      -3.0485926045015880e-02 -4.5281387160969518e-03
      7.3535107671761635e-03 -1.7314436005307642e-02
      1.1136679776579006e-02 -1.5315827101883584e-02
      -2.9226494888124192e-03 -5.6983696176053362e-04
      2.7055265033544235e-02 -9.0210924850988548e-03
      2.3419899982659722e-02 -8.2601967914510063e-03
      -6.9334715829575027e-03 -2.1322620887659863e-02
      8.9039699409737810e-03 -1.3312626759918724e-02
      -7.4598903364055938e-03 -1.4503372880122130e-02
      3.5286868745350677e-03 -2.4552920075571302e-02
      1.7987739161252955e-02 -1.2285051922588667e-02
      4.9235430238312779e-03 2.2233243066387531e-02
      -6.2604866283442672e-03 1.5481635077584932e-02
      1.4171630206537002e-02 -4.1843884067502959e-02
      -3.0941031240285775e-02 -8.3508081253147199e-03
      -6.4662151907739626e-03 1.5070522181317705e-02
      -8.6366957437135385e-03 4.4957684562911479e-03
      -3.2976870767901616e-02 3.2846580049045310e-02
      3.1873168574246629e-03 3.4826754962182328e-02
      -1.9748867953787663e-02 -2.5254608075064435e-02
      2.6488362579355527e-02 -8.8595711832511938e-03
      -3.8716941086334493e-02 4.6318398136924427e-02
      -1.7656710013025569e-02 2.1113697393267288e-02
      1.3061170396344492e-03 4.2850409582466234e-02
      6.5210561794598661e-03 -8.3027178974844507e-03
      -1.1637646214104970e-02 2.3885533514378443e-02
      2.2948281461575258e-02 -2.0892465181121794e-02
      -2.8496332631025752e-02 -2.2985427273058772e-03
      2.9298243213418319e-02 2.2822517323146625e-02
      -1.3558950893726234e-02 1.4123583758307055e-02
      3.7287938623703429e-02 9.0104173825687611e-03
      -2.0110756848416414e-02 1.8543871293470269e-02
      4.0967449273183458e-02 3.7745195219149777e-02
      2.5797288106575205e-02 -6.0092557061179122e-03
      1.9922994285603922e-02 -1.8568942935658639e-02
      -2.0139137608203350e-02 -1.4212587071550431e-02
      -5.4938029696820906e-03 3.8941736016283499e-03
      1.1121552669844060e-02 1.7314794546418839e-02
      1.6029218959672732e-04 -8.7287927148459177e-03
      7.7060907401692242e-03 -2.0298580819516535e-02
      -1.1310743906417535e-02 1.1984173023184949e-02
      -1.2791178647836786e-02 -6.2305576205524786e-03
      8.4058814936152759e-03 -9.8997866274875522e-03
      3.5550558035963631e-02 8.1756990595866826e-03
      2.0061551500021247e-02 1.5625030709958101e-02
      -2.8436845698842979e-02 1.6815532062040447e-02
      7.5402771924675460e-03 -2.9741353959487803e-02
      -2.5751070080682413e-02 -1.9093141837036074e-04
      -9.7499200000341138e-04 -7.7547298306418601e-03
      -2.7930615710235161e-03 2.7353894503309970e-02
      -1.0808113317461364e-02 -1.8599255901889006e-02
      -1.5820377463132671e-02 -6.1616968321638130e-03
      -1.5333778953629455e-03 -8.1958731613615676e-03
      1.1349134881212052e-02 -1.3758671468273070e-02
      8.2341325504990247e-03 6.8542906002724553e-04
      1.7405108789449123e-03 -3.9634412483698617e-02
      -3.8676178628516680e-03 -3.5629521420567252e-03
      1.7947705952286647e-02 1.0192053952551032e-02
      -2.2776803263206510e-02 1.2995916387450545e-02
      2.1387783087495626e-02 -3.2820564667141852e-02
      1.8583521674756905e-02 -2.3093932571726650e-02
      4.8601678865080305e-03 4.9557827362172180e-02
      6.8386466956501949e-03 2.1752432722704475e-02
      3.0588128135574530e-02 -2.2238171559730943e-02
      -3.7876778973781181e-02 -1.1721335678151663e-02
      -2.3941385806179664e-02 2.5023637969598372e-02
      -1.4886327849471772e-02 -3.0610236344909843e-02
      -9.4576442861381161e-03 8.7232073684862660e-03
      1.5034286679945979e-02 4.6511534774450428e-02
      -1.8750045639518161e-02 -2.4965537286862370e-02
      3.1503601900977028e-02 -1.1445875570504721e-02
      -2.4381862906998474e-02 2.3903705367033231e-02
      2.2702142072551824e-02 2.8605732825683929e-02
      1.0009937799201375e-02 3.4780484590533713e-02
      -1.1547624102447550e-02 -2.3562449254672522e-02
      -1.5422714795848164e-02 3.5826034069265510e-02
      2.7890360637287835e-03 -3.1529200373667729e-02
      -3.9494249281157457e-03 -3.5277883415154976e-02
      4.4604683377812301e-02 2.2607363507031998e-02
      -7.3739755763397238e-03 3.4003412686280515e-02
      3.2065763559411528e-02 9.3018022765116535e-03
      -2.9305031727942556e-02 -5.8339176176945319e-03
      4.9165020378710254e-02 3.4049545168759049e-02
      -2.9466988422788970e-03 5.2258761775777251e-03
      1.0717710107833581e-02 -1.4261105485432867e-03
      -8.5560785422136472e-03 -1.5637156054153983e-02
      -1.5035889167753820e-02 -3.6043715946454647e-03
      1.4228874414635223e-02 1.7017093558108824e-02
      -1.9557997979694113e-03 -2.2785952453085512e-02
      -1.9863522914754649e-02 -3.1266134660683738e-02
      -1.1716010817826795e-02 1.5662267127883427e-02
      -2.1084335847512962e-02 3.9229719430984144e-03
      -4.7766025438061906e-03 2.3906862292529365e-03
      2.9226610732046892e-02 2.6130506896635823e-03
      2.0328644101177736e-02 -8.3989088889599699e-03
      -2.0877314640372586e-02 1.5374315369156483e-02
      2.4942863790577131e-02 -4.0123532160804318e-02
      -6.6123800272015944e-03 -7.4532796768809629e-03
      -2.5760742859646281e-02 -6.2943940270189591e-03
      -7.6195892376800488e-03 5.7818931148341871e-02
      -3.9890020751727019e-02 -2.8593599241171334e-02
      -3.3446574489899599e-04 -1.5443664060940603e-02
      5.0551156258825157e-03 5.8240154302919894e-04
      5.9286270160356057e-03 -1.7521596534418285e-03
      5.6793671757901483e-03 -2.6722550872555914e-02
      4.5468255706554049e-03 -2.0141587066472306e-02
      1.3548962594938469e-02 -2.6366279211398846e-02
      2.6576232510265162e-02 -1.1485051801889546e-02
      -2.1872639428345223e-02 -1.2821115199063949e-02
      1.6909632021816178e-02 -3.8931423637982333e-02
      3.2728184735340150e-02 -1.4425497704629382e-02
      3.2673193712236911e-02 3.7396703056002727e-02
      2.7164312612416096e-03 -6.3560067909963153e-03
      2.1206967718967188e-02 -3.5580016964798809e-02
      -5.2662806889957744e-03 -1.8706763231610673e-02
      -9.3672971535270228e-03 9.3569537329439671e-03
      -4.1017275659062193e-02 -6.0634772657918376e-03
      -1.6542161925411900e-02 -2.6138142653535051e-03
      -7.6133914736363582e-03 1.7510465103999905e-02
      -2.0157519370068511e-03 1.2747927800587904e-03
      2.8064192299162835e-02 -3.6033269643015529e-02
      -8.9171133958877626e-03 -5.1643450874510619e-03
      6.7223384057768515e-05 -4.9219324658217323e-03
      8.3692408794936394e-03 1.1236891811286110e-02
      -5.7883173849924670e-03 -4.3709343728204116e-03
      1.5090416948237789e-02 -1.7652290599911951e-02
      -1.3665569791279680e-02 -1.0094133530241843e-02
      1.6823058772040860e-02 2.5304662286933299e-02
      -7.2061986807249673e-03 4.8314997896586696e-03
      1.7510211096214888e-02 5.6951415439413485e-03
      6.9777564470513229e-03 1.6063514002872252e-02
      5.3538135472206982e-03 -5.0969089650536020e-03
      -1.8288653492542960e-02 -1.0966612128661287e-02
      6.5735374859789194e-03 7.9370128694515717e-03
      -1.4771255181757053e-02 1.0498582262595004e-03
      1.8731986020372859e-02 -1.2613367298934199e-02
      1.0362749000487162e-02 -1.1227893670390034e-02
      -1.2409952025948918e-02 2.2068498932174756e-03
      -1.7497526089384860e-02 -2.3712273827573346e-03
      1.1743567194087494e-02 -1.5011411758862827e-02
      1.4311309957482365e-02 -1.4282689771047683e-02
      2.7048955324885907e-03 1.4560215710636247e-02
      7.6196382827457432e-03 1.8208202333574616e-02
      -1.2493431303706224e-02 -1.2234299998589587e-02
      -5.3951237407601190e-03 2.0881638750282188e-02
      -5.7274306919890099e-03 3.3742311638065804e-03
      -1.2102844170098671e-02 -1.1019706259854101e-02
      1.0346520506634085e-02 1.8886288385053643e-02
      -1.2707889346139700e-02 -2.8979367840703805e-03
      1.1047291456772990e-02 -3.6995926928671779e-03
      2.1149286150078172e-02 9.0766502395982461e-03
      -4.3483670529756721e-03 1.9223189114709913e-02
      1.9212370444913356e-02 6.9788428609412088e-03
      1.6545642580888802e-02 3.1015755344588102e-03
      1.5048553566612492e-02 6.5938318961060744e-03
      -1.1758375440326848e-02 -1.4786357431741280e-02
      1.5945030168585436e-03 7.8917694605987864e-03
      -1.0571754550377182e-02 -1.2697280642511122e-03
      -1.4876211160006036e-03 -1.6657617979446360e-02
      -1.5453230335960674e-02 5.6077188514365710e-05
      -1.2761887374222028e-02 -5.4686768476763939e-03
      9.7179081668088661e-03 -2.1359515016781978e-02
      8.0800450792209433e-03 -1.5719899938930214e-02
      -1.5044389148177705e-02 2.3106439321804749e-02
      3.8559867970070446e-03 -1.7341059090874385e-04
      -4.7775936682371203e-03 5.5573406689101669e-03
      2.2976645843542684e-02 -2.8909434570323296e-04
      -6.3542342515070793e-03 6.1558792007972108e-03
      -7.6369484005296071e-03 -2.1747723285640803e-02
      4.0916636529474597e-03 9.3701888091028314e-03
      -2.6378113123224430e-03 1.8574012141593179e-02
      -6.7085874081559580e-03 -1.7702405204363184e-02
      -3.1419282302163893e-03 1.7531882999182662e-02
      -6.7004864190587463e-03 -9.6083729135505447e-03
      1.5994073819513517e-02 -8.0110283707295078e-03
      -7.8527911087181330e-03 -1.7818056461786896e-02
      -3.7166208556441240e-03 -8.3321323992242916e-03
      2.5732488163681066e-03 9.9328764010584939e-03
      5.5259071251202241e-03 -7.6892747660697851e-03
      -7.7136902687001338e-03 1.0043813398816994e-02
      3.3454824933716568e-03 -1.4382523148317370e-02
      -1.3707540028906460e-02 1.1114652924247018e-02
      1.2100159359333586e-02 1.2042435475297129e-02
      8.8945793562496926e-03 1.7971063176217602e-02
      1.3464080642283008e-02 1.2764800026459130e-02
      -1.0734962706275239e-02 1.8789697267672288e-02
      1.2072201209239004e-02 -6.7096652758581678e-04
      -1.9546707434817196e-02 1.4048466600456214e-03
      2.5863600841525103e-03 6.4332241861043780e-03
      4.9867358676096030e-03 -5.2294888095152404e-03
      5.0070452543459400e-03 -1.8593370865787617e-02
      5.7030166740646153e-04 -1.2379644248397194e-02
      -5.7293874751442120e-03 -3.0334496167459556e-03
      3.7418234859455213e-03 -9.6926020307293251e-03
      1.1982739355177302e-02 7.2271550455962333e-05
      5.8836847482381712e-03 -8.2688492140516848e-04
      -6.6721016359876425e-03 1.9877871030217837e-02
      1.3879137931207512e-02 1.2885429762415506e-02
      1.1236447965905980e-02 5.7389831537330330e-04
      6.0714857669752955e-03 -1.2034735281757211e-02
      3.6866785060874594e-03 -1.4248974814591931e-02
      2.5411007332270430e-03 3.5115216116748172e-03
      -5.5824760560141381e-03 -1.7145149649148549e-02
      1.1737949922858700e-02 3.4348388813493129e-03
      1.3576407579120318e-02 1.1805719922321823e-03
      8.7554584250370427e-03 -6.7510284596762936e-03
      -1.4077717469368289e-02 1.4097832123670479e-02
      -2.1485205546733319e-02 3.7510438743153830e-03
      1.1057812375060413e-02 -8.2129714965910958e-03
      2.8892988115090876e-03 -9.4281701236060833e-03
      2.2616480768491674e-03 5.9582332531747219e-03
      -7.9109624261645001e-03 -1.1734033500778534e-03
      -9.1977566678798205e-03 -9.9340001717901031e-03
      6.3656051438586766e-03 -1.7544110579094697e-02
      1.2201922594549492e-02 4.9777025192796354e-03
      1.7707591735867712e-02 -1.2341918119625879e-02
      8.8192712238056841e-03 -3.1421092630145430e-03
      -1.5195984945225489e-02 1.4038610837106356e-02
      -4.3105818055557124e-03 1.6459864725223722e-02
      9.8574942008240497e-03 -1.0062780656913599e-02
      -4.7476383300961312e-03 6.7816545248999922e-03
      -6.1320921168948779e-02 9.2715308286913309e-02
      1.8369160930950992e-02 5.3656046707128043e-02
      3.8119676523072528e-02 9.6056041135730436e-02
      1.8791740216268272e-02 -1.7964024473029673e-02
      -7.4981276464829822e-04 3.1288731195760297e-02
      5.6511158688515951e-02 -1.5286869139391019e-02
      -2.8841550261818477e-02 -1.5160855640854991e-02
      6.9142722910787588e-02 6.1776600651501722e-02
      1.1183668286524191e-02 4.2166195082373743e-02
      4.1847591914992592e-02 2.5487569117329550e-02
      -1.8462254559998292e-02 1.1138132344167122e-02
      6.1958890985861832e-02 5.1784924047282889e-02
      1.4508662234847688e-02 -1.0629726470018981e-02
      1.8670014327299807e-02 -5.2323731045197421e-02
      3.4471864535868700e-03 -2.4873462908830777e-02
      -4.1539300660380141e-02 -1.6022770058501140e-02
      4.9350087017408444e-02 -1.1297656518776799e-02
      -4.3056208180573680e-03 -9.9114292970674273e-03
      1.5703030126253088e-02 -5.7175135333764927e-02
      -1.6298348826818843e-03 2.4382394993855288e-02
      -1.5530366589196026e-02 -2.8991076819688644e-02
      2.3129851477762305e-02 -1.0885921148128492e-02
      8.3553012574797469e-02 1.6261258659561018e-02
      4.5096289790221629e-02 2.7019503053445086e-03
      -8.1625682818677422e-02 -9.2965286846169899e-03
      2.3245578594635493e-02 -4.8422919067265514e-02
      -5.9504657394962177e-02 -5.3681973378250395e-03
      -2.7753610732939440e-02 -2.4472075663526056e-02
      -9.7467982814817920e-03 6.8827846625727065e-02
      -3.8934018598380651e-02 -2.7656991565632991e-02
      -3.7665155457295096e-02 -3.1098478076936532e-02
      2.1592223827990999e-02 -3.4306945734693665e-02
      3.2114768194605341e-02 -1.0949927810358785e-02
      2.3607670211335849e-02 -2.1815821690983429e-02
      4.7976945615377180e-02 -5.0410708974446335e-02
      8.6228135339866379e-03 -2.9387673724591432e-02
      6.4324354414782695e-02 -3.4567584915880883e-03
      -3.0118578000383478e-02 9.4797691063715477e-04
      1.6940876124320176e-02 -8.3673697138688150e-02
      1.0209028247911295e-01 -3.0909170353556829e-02
      4.0596665403447953e-02 9.8835196305834164e-02
      -2.6773762595388273e-02 8.4594425501697719e-03
      3.1973973335942742e-02 -6.8001575695847583e-02
      -5.2033981485123247e-02 -7.2554796351674477e-03
      4.3209818629385320e-03 1.9993900104578299e-02
      -5.1351289791220278e-02 -3.0538823937312189e-02
      -5.5861970055110816e-02 3.2413779810670923e-02
      3.8771783408474578e-02 8.3627059443097590e-02
      -5.2446499893022101e-02 -9.4820034370117733e-03
      3.4346291021881331e-02 -3.7442035979284687e-02
      3.0959684720447384e-02 -3.8131719909702343e-02
      3.6771573917609426e-03 -4.2312011989895839e-03
      -1.6249332606981956e-02 -2.2079044849132656e-02
      -1.0315860187964274e-02 1.1924237660263827e-02
      -1.4355398128991802e-02 -1.9088887360657548e-02
      -2.4334163645314464e-02 1.8666805494374734e-02
      2.2333025837658938e-02 1.5589022162492052e-02
      -3.5099857165895136e-02 -9.3441732336693312e-03
      -4.2246335774371001e-03 -1.3170527900318956e-03
      -4.2958439142936813e-03 4.4015382373836821e-03
      3.9248610654138661e-03 -8.3677942799796918e-03
      -3.3599634628910295e-02 -4.5861907770205953e-04
      9.3884232372829068e-03 -9.6625235437050785e-03
      -3.7602236129016739e-03 1.4132551169598637e-02
      -1.4555710494233555e-02 1.2880765387685318e-02
      3.0838283146314080e-03 8.3638295920570680e-03
      -1.6930777630921320e-02 -5.4173514342922583e-03
      -6.0432757509703353e-03 2.2087094136759813e-02
      -5.2673764041573064e-03 1.7788503320459337e-02
      8.0785925082075601e-03 -2.8603932847027433e-03
      1.0156324296082658e-02 5.7673616378051832e-03
      -2.3285906646875257e-02 1.5870355342881660e-02
      -2.6246893105376506e-02 9.8155165567792978e-03
      -2.1886723351301388e-02 1.7191699599866214e-02
      1.8967148306103725e-02 8.8888024962681840e-03
      -1.6041838440559804e-03 2.1900726188301873e-02
      -3.3930493720473348e-03 -7.2463091373467488e-03
      2.8940625197109255e-03 -1.0624763604917870e-02
      2.1396091634501790e-02 -2.4173888878003567e-02
      1.3368152488182995e-02 -4.9119679593626021e-03
      -1.0929267133300363e-02 -7.8793220327310915e-03
      -3.9411642315902171e-03 -8.2936714256725327e-03
      -3.2695596209081539e-03 6.5696731733615246e-03
      6.6084780246681027e-03 1.2969297291600354e-02
      8.1213760018149939e-03 7.9901307798776779e-03
      -1.9491196461684662e-02 7.1483725927161514e-03
      -2.2480051086382325e-03 1.3160173199557052e-03
      1.1664988327264382e-02 -9.1860063781505792e-04
      -8.6464041096826500e-03 1.7588511593528314e-02
      -2.0508327512908625e-02 -6.5808883734191003e-03
      -1.4533343888154289e-02 -3.8439940782034041e-02
      6.8136525119147692e-03 -1.1929001131851635e-03
      9.2418796155809956e-03 2.1502954659971672e-02
      1.3144600109711363e-02 7.1042617794131707e-04
      -8.2212477734026155e-03 7.2360536658197857e-03
      4.2792441435473170e-03 -1.6578914450502899e-02
      2.2245689293813129e-02 7.5562298392652506e-04
      -2.3021880267110474e-02 -3.4006877647985337e-02
      8.5403148740686163e-03 5.1314825698295912e-03
      6.5395066406864575e-03 -7.2585241221083847e-03
      5.8623709989406012e-02 -6.6382332469421240e-02
      1.4937700304923193e-02 -4.4021519683505150e-02
      -1.6690159187686697e-03 -5.5149525528155004e-02
      8.3560575786891331e-03 1.4522676654123195e-02
      1.8838828943012247e-04 -1.4667453724847063e-02
      -2.5382861610722736e-02 1.5430688234361407e-02
      1.2128923662905257e-02 1.9662055535712115e-02
      -5.4937011442439135e-02 -3.9170039372907320e-02
      1.3777655752739666e-02 -4.6562772815657370e-02
      -3.0181628477988508e-02 -3.8164911865533543e-02
      2.1571843442135839e-02 -3.2949311502629862e-03
      -6.6742389432191254e-02 -4.8270293059562479e-02
      -1.4101233134641232e-02 2.2166903911602791e-02
      -1.5335070121757987e-02 4.3614114800385788e-02
      1.0862358105258272e-02 6.9841070678499850e-03
      3.6464615586733404e-02 2.0828513065202923e-02
      -2.0286159692002065e-02 -9.8771503933669669e-03
      -1.5207039018884734e-03 -3.5431432031154827e-03
      1.6904638862150875e-03 4.0619130967164047e-02
      -1.0189048814101770e-02 -5.3753396202273068e-03
      2.2298780525881176e-02 1.5246942439352373e-02
      -7.5081455447305471e-03 1.5000504226938595e-03
      -5.2179086413578830e-02 -8.5293119013109871e-03
      -2.3359308350485476e-02 -1.8165850631648055e-03
      4.7752241606111058e-02 -2.1052794769121100e-02
      -2.0419416515571658e-02 3.0131954672118981e-02
      4.3454003999413494e-02 -1.3704489664480920e-02
      2.7157791423435690e-02 1.7570919319356081e-02
      1.3661561930445914e-02 -5.3527345992809221e-02
      4.3052171589153213e-02 3.2365784829487043e-02
      1.0013123493302531e-02 2.9805100644180713e-02
      -3.9657297756971327e-02 9.9128359273314096e-03
      -2.2622206118055845e-02 2.7646911893617378e-02
      -1.7751734790872956e-02 8.7188790716743042e-03
      -4.6487848005039176e-02 3.7829228807845033e-02
      -1.2617508135155067e-02 1.1558630830331201e-03
      -1.8123690812748713e-02 -3.9335073950019159e-03
      1.9840776089932590e-02 8.5924326825371491e-04
      -2.7624780418727561e-02 5.0965033381278904e-02
      -5.6579788787587258e-02 2.2115389529128421e-02
      -3.5530520229550069e-02 -5.8255744229657416e-02
      1.7130627737272596e-02 -3.5881771613645755e-03
      -3.0470455030721256e-02 3.1997569305204067e-02
      5.1216622242131131e-02 -1.8354323720800628e-03
      4.9892083637562024e-03 -1.0570212888560998e-02
      4.1488514811732095e-02 2.5468046466291635e-02
      2.9237721151741607e-02 -4.7577241121674586e-02
      -1.4146637081918483e-02 -4.2807832126983601e-02
      1.9436756981929613e-02 1.4735793904792080e-02
