<?xml version="1.0"?>
<opencv_storage>
<opencv_ml_ann_mlp>
  <format>3</format>
  <layer_sizes>
    9 100 100 2</layer_sizes>
  <activation_function>SIGMOID_SYM</activation_function>
  <f_param1>6.6666666666666663e-01</f_param1>
  <f_param2>1.7159000000000000e+00</f_param2>
  <min_val>-9.4999999999999996e-01</min_val>
  <max_val>9.4999999999999996e-01</max_val>
  <min_val1>-9.7999999999999998e-01</min_val1>
  <max_val1>9.7999999999999998e-01</max_val1>
  <training_params>
    <train_method>BACKPROP</train_method>
    <dw_scale>1.0000000000000000e-03</dw_scale>
    <moment_scale>0.</moment_scale>
    <term_criteria>
      <iterations>900</iterations></term_criteria></training_params>
  <input_scale>
    5.1839970612889008e+00 -2.2996516598167012e+00
    8.9405531313273112e+00 -2.1001885289671836e+00
    1.2814057506259593e+01 -2.2026826076457833e+00
    1.7345822988271614e+01 -2.0327088088036347e+00
    1.9923833439966543e+01 -1.8612444031069706e+00
    2.5521067377008332e+01 -1.7774683356168328e+00
    3.2374794023768281e+01 -1.8664434520239666e+00
    3.6852879451267036e+01 -1.6818043825190467e+00
    3.9931681221128244e+01 -1.5518026806732164e+00</input_scale>
  <output_scale>
    5.2631578947368418e-01 4.9999999999999994e-01 5.2631578947368418e-01
    4.9999999999999994e-01</output_scale>
  <inv_output_scale>
    1.8999999999999999e+00 -9.4999999999999996e-01
    1.8999999999999999e+00 -9.4999999999999996e-01</inv_output_scale>
  <weights>
    <_>
      -2.5346018235542461e-01 1.0780995870088975e-01
      5.6685246546958341e-02 -2.5100360226028484e-01
      -2.0854832478415908e-01 -1.5121005438132948e-01
      1.3165437741919511e-01 -1.8586224423053330e-01
      -3.6267251224625041e-01 -2.1627471173749549e-01
      1.2837187327148122e-01 2.4611114566122649e-01
      8.0601847178786920e-02 2.1681140580272215e-01
      1.7279159269193384e-01 2.5072228848708161e-01
      -9.6108169876103100e-02 1.5448164826396996e-02
      1.8058204207623865e-01 1.5567081116813591e-01
      1.5052973657817384e-01 -1.9035403363633324e-01
      2.0638669828696052e-01 -3.0150394708762845e-01
      -1.9634647569879909e-01 -5.8049323012344424e-02
      7.8722476598358376e-02 8.2213920606525881e-02
      -1.0680668823400565e-01 -6.4729389783181102e-02
      -4.3736913779328368e-02 2.1121139468081795e-01
      3.6380348096080886e-02 1.2421664260642781e-03
      5.9573015273808094e-02 -1.3198736194027308e-01
      1.3677405204681212e-01 5.7490299893533624e-02
      1.5827391520467163e-01 1.3645909897509970e-01
      1.3111557374060670e-01 1.2630452666636904e-01
      -1.5970135973213820e-01 3.4761833034610452e-02
      -6.7622126907558158e-02 2.2201017234209192e-01
      -1.2488682125677474e-01 -2.0491386380226415e-01
      -2.2893733099282298e-01 7.6381854692566670e-03
      -1.3607480716172052e-01 1.4375766160756853e-01
      -1.8059326270172740e-01 -1.3179586916576247e-01
      -4.2130547772371879e-01 2.6723239554871553e-01
      -5.0326361419684239e-02 1.4300918605087984e-02
      2.4495044666930413e-01 2.2483820324038206e-01
      -6.8635215207910633e-02 -2.1527037081920306e-01
      -9.1866385412907869e-02 1.7054435505796279e+00
      -1.4657439354771859e-01 2.1468518923598440e-01
      5.0499317215102535e-02 4.1725554964008829e-02
      4.2426027242496930e-02 2.0204902368933975e-01
      -2.1379145324998483e-01 1.0410286709563113e-01
      5.8974621557519952e-02 3.1053865462581159e-01
      1.2997128835591074e-01 -7.1183227781151770e-02
      -1.0365818197629120e-01 -5.3099282487852277e-02
      -1.3759676891575526e-01 2.0386481825735714e-01
      8.4945937940297700e-02 1.7171082723118636e-01
      -2.8407347904205998e-01 -1.2890140584897306e-02
      -2.2876129683313795e-01 1.1516425713107076e-01
      -1.9589251333273230e-02 1.6740723405380234e-01
      1.8199812879857993e-01 -1.3509603337985274e-01
      3.6269688481949253e-02 -6.0766160862986023e-02
      -2.2848119888975121e-01 4.2081689723531580e-02
      4.6079642036737554e-02 2.3499734230685757e-01
      2.0621571691652535e-01 1.6881856367315978e-01
      3.5461129766747042e-02 -1.8025807394730944e-01
      -1.0797215229617477e-02 -5.3935982415801283e-02
      -1.3292609325857818e-01 1.5927204364210878e-01
      -1.5888850767042403e-01 1.3742742043642328e-01
      -1.6376614123498565e-01 -2.3759506393212090e-01
      -1.9484206216419217e-01 8.4203116013777557e-02
      2.5074044608278534e-01 2.2223153448729707e-01
      -1.4887850768672257e-02 1.1658410398040750e-01
      1.2054506771327969e-01 2.1293074474394866e-01
      2.2219444508896563e-01 8.1716690007839446e-02
      -7.7632083144417871e-02 7.8920918522018838e-02
      -1.9241921868418022e-01 1.8298106270868926e-02
      1.5982206455077266e-01 1.8284319402721694e-01
      -2.2474956398965673e-01 -2.6130719863325469e-01
      1.1139129940924629e-01 1.3197262442947472e-01
      6.0623046276752190e-01 1.6997831381298859e-01
      2.7240145239120044e-02 6.5801076077111567e-02
      9.2360314769152092e-03 -2.4565298817955750e-01
      1.9373437252248371e-01 6.7181489709372136e-03
      3.7481103330945724e-02 3.0596947974318195e-01
      -2.1769666487354419e-03 -9.5546205841823592e-02
      2.0375743385207121e-01 1.9367462731756258e-02
      -2.2919851111329378e-01 1.1277904871660867e-01
      -2.4766927670896877e-01 -2.2558583989570899e-01
      2.9402232531742950e-01 2.5737789670670471e-02
      -2.2097082681384844e-01 -2.5710973781608165e-01
      -2.0746079425828776e-01 5.4544340040136294e-02
      -1.3363577721766787e-01 7.2556981752239860e-02
      -4.7726224617310610e-02 -2.0455996041356516e-02
      8.3558536068260129e-03 5.8876381888246887e-01
      -1.7854373418370992e-01 -7.5695223928899762e-03
      -1.6185211110035980e-01 -1.3450369520908256e-01
      -3.0731181160465082e-01 1.0194538610438354e-01
      1.7516852999417273e-01 9.9452537030865484e-02
      1.1425893298780913e-01 -1.5218720743139993e-01
      2.5305718065096433e-01 -1.3526918659961160e-01
      3.1260343335943580e-01 9.3664393470303420e-02
      1.2138534843749499e-01 -1.1884470318360665e-01
      1.2110073952642145e-01 1.2755183069135598e-01
      -1.8041115941534763e-01 3.0715287368536748e-01
      -1.7139387063084138e-01 8.2395571661133010e-02
      -1.8134580881769854e-01 6.2771024363299566e-02
      1.1158017574085870e-01 -7.1778966397450369e-03
      -1.1406665480967111e-01 7.5723491660560263e-02
      2.0726724905857291e-01 -1.6263675697729424e-01
      4.7804158473325399e-02 -2.5012969992212919e-01
      1.9538733377295578e-01 3.6436454274955316e-02
      2.5314745887972273e-01 -2.3230600362215281e-01
      1.5100518350153938e-01 1.0923125510297801e-02
      2.1613757599183245e-01 7.2688379524196725e-02
      3.2786247864320828e-01 -1.6612087777910300e-01
      -1.7823101361844984e-01 -2.0882741433674554e-01
      -8.5092738084604963e-02 -1.0365069526517676e-01
      3.0747965592174891e-02 -1.0596758067064424e-01
      -1.0159291529292493e-01 1.8826052045128772e-01
      -2.4479078490668946e-01 -2.6491401628650635e-01
      1.3367527938634291e-01 -4.4611559456149974e-02
      2.1452391078966626e-01 2.8717750730968622e-01
      -4.6872435217721713e-02 8.9351735422444512e-02
      -2.7179896544273185e-01 -3.4687545491565747e-02
      -2.9603583994892477e-02 -2.0688189391296488e-01
      2.2606423369540896e-01 1.2490305023667969e-01
      -2.9542642706095926e-02 -1.2961405939375056e-02
      -1.0163954755851078e-01 -1.6262458964334775e-01
      -1.0424600756851503e-01 1.4874807628608236e-01
      -1.4245213886274011e+00 3.9987284613011258e-02
      1.4169903238552572e-01 2.4587201836653561e-01
      8.3397844517482889e-02 3.8077710696117636e-02
      2.7229241474796712e-01 1.7403582472117085e-01
      -1.5695477557142312e-01 -4.3209862072775301e-02
      2.6818732019889702e-01 -2.1533624167091014e-01
      2.1661037150158466e-01 2.6980229476821299e-01
      2.2019342958098517e-01 -5.6899771530022923e-02
      1.3452273025096292e-01 2.2646791134525646e-01
      -2.7738627964457829e-01 -3.2020934849793489e-04
      -9.6727705291790866e-02 -1.7880098122024660e-01
      2.7719802306628197e-02 1.2877476941260255e-01
      1.1205338215676382e-01 2.2413980066878722e-01
      -1.9505991833340330e-01 -1.0044388851515047e-01
      4.1856522065792795e-02 3.5891054861139815e-01
      -5.9949194966610934e-02 8.2461751883160822e-02
      2.0985582111007275e-01 1.6832299350742572e-01
      -1.8403857980411450e-01 1.6401993622599620e-01
      -1.5015392693117299e-01 -4.2852683951658664e-02
      1.4694466080172172e-01 8.4683854122171415e-02
      1.8495050946203662e-01 -5.4115567463951034e-02
      9.8730860974722653e-02 -1.2208608405851222e-01
      3.7522044656813731e-03 -3.8766786147619546e-02
      3.2074783951510200e-02 2.1182634528558578e-01
      -9.0608028069701918e-02 -6.2632184293493112e-02
      -1.5535286108502913e-01 2.7485492080580831e-01
      1.8564300474969561e-01 -1.6050894440425070e-01
      -2.7341318220570476e-01 -1.9907612507764047e-01
      -7.9203214943306371e-02 1.4208936153430201e-02
      2.7606501087018182e-01 -1.1761118207204441e-01
      2.0147752433387681e-01 1.0508268216811719e-02
      2.5487476376228790e-01 -2.0542422899011628e-01
      -1.5858000910226686e-01 -2.0230248566820638e-01
      -1.5242278053168259e-01 -1.2512138521784177e-01
      -1.0513532267815094e-01 1.3578341676934572e-01
      6.2248990347083845e-02 -2.4626709436484087e-01
      -2.3341995963325621e-01 -1.9838938145372004e-01
      -1.6584803214812302e-01 1.0792771242783428e-01
      8.3036823930258019e-02 7.8753836200402716e-02
      8.2181028321123492e-03 -1.5734894608773498e-01
      -2.1122172996874836e-01 -1.4562853958343092e-01
      1.3386128328143854e-01 2.0805789289864923e-01
      2.9775435563151026e-01 1.0888324876146785e-01
      1.4187668730398423e-01 2.4972400985170001e-01
      1.4213554050869406e-01 -4.2892138753319281e-01
      -3.0137365484712696e-03 -1.5930312995485776e-01
      -2.4573904963019762e-02 -2.2723387894020747e-02
      1.6699722998017885e-01 -7.9281935525123443e-02
      -1.9960023143377073e-01 1.8659344602659764e-01
      -5.4956840864208940e-02 -2.0809040719204408e-01
      -8.2930286194598013e-01 -6.2834718896935621e-02
      2.8700057429562653e-01 6.7381856595251755e-02
      6.2636447822450331e-03 9.1825351330641555e-02
      1.3168700645210746e-01 1.6218328111462654e-01
      -1.5026634558703478e-01 3.3155604404119826e-01
      -2.3473139063378876e-01 7.3939601506616492e-02
      -1.7267931065197678e-01 2.5439439381478773e-02
      2.2118379180202041e-02 -1.5691724285136380e-01
      -7.2594924143500342e-02 -2.7900406898250126e-02
      7.8493465975095530e-02 -1.7525130451503490e-01
      -2.1374969193764254e-01 -2.1651235521073015e-01
      -2.0829476931897470e-01 -3.6767427681188897e-01
      -2.2724407232781508e-02 1.4384189746520698e-01
      -3.8783555202385989e-01 -4.4348318706358483e-03
      5.3403370198790746e-02 7.3568717637523640e-01
      2.2665337188549798e-02 -1.3349031815662601e-01
      2.5037879418422637e-01 2.2732961892722395e-01
      -1.5545855491218039e-01 -7.0959078667224940e-01
      8.2527927263756073e-02 -1.6913530841445087e-01
      2.5052914703756601e-01 6.5193672193697441e-02
      1.5904147419698828e-01 1.2404780169966613e-01
      2.7949586207737953e-01 -2.4799184960004436e-01
      -1.3201366382662558e-01 1.1150919496220089e-01
      -3.2299557494885271e-02 -1.8231325398419224e-02
      -6.6366293815925820e-02 1.5939833418319524e-01
      -1.0338196193539922e-01 -1.4868080807661190e-02
      -9.7457960669901176e-03 -9.6356184055904223e-02
      6.3851290928088514e-02 -2.7122045553000923e-01
      -8.2509627049007564e-02 -1.6502879198967030e-01
      1.5302421940387753e-01 2.4240407839024845e-02
      -7.9139461941894487e-02 -1.9799695643167803e-01
      4.0864519829189727e-01 1.2632676809470691e-01
      6.1903383510551101e-02 -2.5161409681143099e-01
      1.5013606881160635e-01 1.6067426343027555e-01
      1.4886020316556031e-01 -2.3445508773795654e-01
      1.4160984655795578e-01 -1.7547928201192992e-01
      -2.0742022049465553e-01 -1.5176195298532821e-01
      7.7486707161781077e-02 8.1130710407505344e-02
      -1.8109983603962840e-01 -2.5362759537414464e-01
      -1.2464536298139690e-01 -1.7937538671379477e-01
      -2.2352557784146523e-01 -1.5844925151703534e-01
      -1.2921145804473336e-01 1.1742489555648868e-01
      -2.1429420467413374e-01 3.4210076316648047e-02
      2.3623414717595903e-01 2.2360785132258876e-01
      2.0157145357278311e-01 -2.1036986047164208e-01
      -1.4378183834477598e-01 2.4694345691355463e-01
      2.1681528360994521e-02 -1.8386672904753146e-01
      1.1011239661816874e-01 1.8873220874410643e-01
      -1.3353510457166456e-01 -2.6222205109233016e-01
      -1.4666080478279095e-01 1.2162265648596650e-01
      -4.3485514393380181e-01 -1.0330013569839637e-01
      -1.3066032590327048e-01 -1.2679555079048704e-01
      -3.0047924832976602e-01 1.1324015984796693e-01
      3.4495049113174490e-03 2.0485002299659683e-01
      1.5540888708777986e-01 1.7880234843128565e-01
      -2.5623382115241666e-01 -1.7372852731089572e-01
      -9.9196910616751927e-02 -1.9044588049460973e-01
      -8.7807141157505431e-02 2.0523800176751308e-01
      -7.4365971304440025e-03 -9.3983743139956180e-02
      -2.4341333572113159e-02 -2.2295779360078036e-01
      -2.6474125272502952e-01 -1.9795718891341541e-01
      -1.8450721319731009e-01 -2.5196855162653059e-01
      1.6512950225719231e-01 1.1730495512637386e-01
      -6.8692040711371152e-02 -2.1684878798884724e-01
      2.1706331793032210e-01 3.0066226840837679e-01
      8.1595123951477638e-02 2.1151924362230498e-01
      1.1717648733388300e-01 1.2675142439187903e-01
      -2.6516415802790638e-01 -6.9418592674732482e-01
      1.3128584620369657e-01 1.7118059848524875e-01
      -1.2513275994556258e-01 -2.5023328694512914e-01
      1.0701528639652234e-01 -1.7100057009506664e-01
      8.6505408181455157e-01 -1.4736053457150852e-01
      9.0591588514088342e-02 1.3298853448608683e-01
      1.3752381267245506e-01 2.3514383313893319e-01
      -2.2635045046200389e-01 -2.0907638638807019e-01
      1.1588837776816828e-01 2.9683359410056354e-01
      1.0180864983644811e-01 5.4953916295315064e-03
      1.6570472123134483e-01 -1.7764466878339291e-01
      1.5839390247233434e-01 -2.3500339436828452e-01
      -8.2213140282363130e-03 1.3129441295879661e-02
      1.7102588100803626e-01 -1.9959431088988561e-01
      1.6090929624606135e-01 1.5146868752916093e-01
      5.8673609979820351e-02 -1.5055377842591575e-01
      -1.3481111572017959e-01 1.4976067668395077e-01
      2.0471650115217985e-01 5.2365680565052156e-02
      2.7786494703854325e-01 4.1948571397606299e-02
      -2.1537008368319338e-01 -2.2802419895422935e-01
      -1.9005576820764764e-01 -2.4327876779929369e-01
      1.5611151761420256e-01 -1.0835874981822735e-01
      -1.6168620994646682e-01 4.4288467971294104e-03
      -2.9370898846467947e-01 -1.7217096674365540e-01
      -2.2912380668611837e-01 2.7423206026317096e-03
      -1.0102457427415659e-01 3.7846510557244373e-01
      -1.3966046059850237e-01 1.0820804094284121e-01
      -5.5152314171363539e-03 2.8211895793094405e-01
      1.2337758756480281e-01 1.2910372552367383e-01
      -2.6451172483712698e-01 2.7810620354352784e-02
      2.4577708663329126e-01 -2.1734240912123343e-01
      1.0393117885600414e-01 -8.5428788966165833e-02
      -1.7885018593051380e-01 -5.5843116838938181e-02
      -7.6161949615451030e-02 1.9473112512461352e-01
      -1.2901819296611403e-01 2.5061667711875207e-01
      -3.0335189780116173e-01 6.1555636057078700e-02
      7.0596681499520100e-02 1.8925258051719393e-01
      -2.6537156062527656e-01 -8.3442757677731100e-02
      -3.8353182517794120e-02 4.2890146218739898e-02
      4.6807054101255463e-02 -1.2288874733090253e-01
      -9.8595902418565584e-02 1.6543881685710785e-01
      2.2663025397178935e-01 1.3997115895359355e-01
      -8.9881029550409428e-02 1.3915152295988933e-01
      -7.1607410086893322e-02 -1.2792220272274762e-01
      8.6285186280278939e-02 2.8091403907188661e-01
      -1.5346751148536647e-01 -2.8075622654840714e-02
      -1.2343089345737587e-01 5.7096248709368441e-02
      2.2636720710820710e-01 5.0199195271558417e-01
      2.6756676535822621e-01 -1.1329363041559190e-01
      1.2664605077813343e-01 -2.2048381038581788e-01
      -1.4596215429324305e-01 1.5708597125596335e+00
      -1.1637110915538885e-01 1.7920125457766148e-01
      -1.3770683646882662e-01 1.8398791988341501e-01
      2.3413084616316432e-01 1.0706107182314258e-01
      5.9274933501337411e-02 -2.2859687568238612e-01
      1.3725766543336604e-01 4.7781309756437684e-02
      2.9408737561654047e-01 -1.3668411470298492e-01
      1.1828055146103554e-01 -2.6719324887932619e-02
      1.4126843083697066e-01 4.4941674167862988e-01
      -1.0268534412771843e-01 -1.1944003895598600e-01
      -2.8492328233115277e-01 -1.2652140375915960e-01
      -7.9144993532246244e-02 1.2644133072201560e-01
      -2.5170741661809365e-01 -1.5004581302705594e-01
      -7.2947881339582077e-02 -1.7836473797591806e-01
      2.3937301420023996e-01 -1.9474182057268286e-01
      2.4448302583865411e-01 -1.8513865533709987e-02
      1.6116478572947809e-01 9.7783045064679469e-02
      -1.1975951909369256e-01 -8.1956560185219626e-03
      -1.7151762825580238e-01 -3.1600029146182812e-01
      9.5146690999651382e-02 -1.9558204188365583e-01
      -1.8091166439118894e-01 -7.1378361247450686e-02
      -6.8719124923067906e-02 -1.4057716274531540e-01
      1.6508543428709058e-01 5.3186906155285874e-02
      2.4232620302167879e-01 -2.0067779135158792e-01
      -4.8771893731655261e-02 1.5761179469445685e-01
      -2.1153225949715172e-02 1.6189112294932437e-01
      -5.0805070868627919e-03 -8.6142633643389921e-02
      1.5350947261093276e-01 -9.8764503852884038e-03
      -2.7131865252071519e-01 4.1367532403004378e-02
      -1.1317324618317287e-01 -2.4414110891378296e-01
      -3.0626757882795702e-02 -1.9653550436080752e-01
      -4.0516015272395366e-02 1.0253121346498198e-01
      -1.8439155547938024e-01 2.8429610279627215e-01
      -2.5767378548781994e-01 -8.3182092416478073e-02
      1.8110497119215618e-01 8.0755138632483625e-02
      -3.3142750682667234e-02 3.7903305295849993e-01
      2.7097904097762160e-01 -8.3516223841894194e-02
      -5.8415128133573233e-02 2.2485679237077495e-02
      1.6570091451459448e-01 -1.6565719131442996e-01
      -1.3680018127028074e-01 1.3437680663661900e-01
      6.7960653895787579e-02 2.2625718124056285e-01
      2.6076583319374269e-01 2.1643316892346426e-01
      9.3919426521043514e-02 -8.9556998384183822e-02
      -1.9709939303504811e-01 1.4894736536733840e-02
      1.2625681002774408e-01 -1.0875727788214504e-01
      -2.3051850429481877e-01 2.0253259123723732e-01
      -2.0096659034389466e-01 4.0885959141994388e-02
      2.5626868271894476e-01 -3.7504025604272317e-01
      2.1705623714304334e-01 1.9635349253382298e-01
      1.2275777428467209e-01 4.7738783241863710e-02
      -2.4297037471565935e-01 2.4414177857812427e-01
      1.2513000875691832e-01 -1.3809821314804185e-01
      -6.6849636737778578e-02 2.7878743235395054e-01
      1.7455396552887695e-01 1.4102380779831142e-01
      7.0749100806368825e-01 5.4707468491099351e-02
      -2.8091020705397812e-01 9.9299113582470358e-02
      -1.8506761004892592e-03 -1.9126907867081500e-01
      -6.7447696927168163e-02 2.0708467840589029e-01
      -1.6309045774810565e-01 3.2606635749091936e-03
      2.5470819565679148e-01 1.4722970843938696e-01
      6.7023939673049135e-02 1.0491609073748097e-01
      -2.8904345898067053e-02 6.7838879289915319e-02
      -8.8904479135623327e-02 1.7237284810658626e-01
      2.5343185346886149e-01 -5.6824460205336033e-02
      -8.9250905495047939e-02 2.0143455730679241e-01
      -3.1236059692760179e-02 -2.0466154078562913e-02
      -6.8290966710896212e-02 2.4138120389595072e-01
      1.4168240808961444e-01 -1.1338115487786467e-01
      1.5631907727976638e-01 -1.3611761283101087e-01
      -1.4947772856175104e-01 -6.0318177936282927e-02
      -1.8523587733412428e-01 1.7538682831444785e-01
      -1.6691921897602396e-01 -2.3519990501557944e-01
      -1.5127383684007739e-01 -1.2975289572695087e-01
      -7.0971315413085156e-02 8.2997988563324673e-02
      6.2020592002166676e-02 1.5736754683257709e-01
      -1.6789671156398383e-02 3.0367612924734150e-01
      2.5000514411074198e-01 -8.6296725906406524e-02
      2.2921368084692878e-01 -1.7749013058346730e-01
      8.0871207855077995e-02 1.5925863184754141e-01
      -1.9317352939370763e-01 -2.6027761524443366e-01
      -1.8447259259214019e-01 -5.8126974526358198e-02
      -1.1247506523778081e-02 2.2061426679999729e-02
      -2.9438385858051108e-01 3.0176621157649441e-01
      -1.7392028172814358e-01 5.8967647041222260e-02
      1.7942256839384113e-01 -1.0631642344616758e-01
      2.4065981886264968e-02 3.1703700733191081e-01
      -1.6878362570827235e-01 -1.0383113771363614e-01
      3.1688911057856130e-02 4.4318396378567930e-02
      -1.0719221748479153e-02 1.7292675718975681e-01
      5.7983790414178997e-02 -2.2983716910475629e-01
      -1.3339032479602667e-01 -1.3423133653136812e-01
      1.9531247029429783e-02 7.2154993413502455e-02
      9.2902781698672512e-03 -1.5101135219805512e-01
      -2.7321636517596770e-01 -5.9891651216726134e-02
      -1.3083243390216842e-01 6.8557191218360208e-02
      -9.6160727439093027e-02 -1.8752674933884536e-01
      -2.5344699146541999e-01 2.9110929120574663e-01
      -8.0068009758272968e-02 -1.7424527110472751e-01
      1.3153297955485541e-01 -5.7478122836610218e-02
      3.7956710300592398e-03 1.1391447605455133e-02
      -1.0798735078980798e-01 7.6248871924977280e-01
      -1.4195897890432663e-01 2.5467602598916027e-02
      1.5605994058867786e-01 3.0747450049236791e-01
      -1.4891405106841649e-01 2.0269422921342295e-01
      6.7271563413151436e-01 -3.6008984990717120e-02
      -3.2420909042754081e-01 3.0017287099839712e-01
      2.4898110926694117e-01 -7.0368207771654145e-02
      -2.6344884194278778e-01 1.3273013019340391e-02
      -1.9978870452665630e-02 -2.6670020715730158e-01
      -1.0995523690614717e-01 1.5027086000256612e-01
      -1.5586131306945630e-01 -1.5358140870957879e-01
      1.0083160071618326e-01 -1.8912099553340145e-01
      8.3100198918382287e-02 -1.1365886138880532e-01
      2.1268186249867299e-01 -1.8003628961147616e-01
      8.4598486636237633e-02 8.1814667974498129e-02
      1.6765545782053141e-02 -2.7656105131576958e-01
      -1.1006255596013990e-01 -4.4861251976327066e-02
      1.0941181541669447e-01 2.0877429568066697e-01
      2.0422732897027068e-01 -2.8109474973160870e-01
      -1.6357617800025986e-01 -2.0165846931416540e-01
      9.6474836425199634e-02 9.8755969153877243e-02
      3.9572707183514251e-02 1.3832154666059940e-01
      8.0127752961154930e-02 6.2470913866585459e-02
      -1.8392249095039423e-01 6.6138446606657325e-02
      2.2370109800893507e-02 -1.1437939643970153e-01
      1.3891386786003329e-01 2.7066065632450736e-01
      9.6916613082432393e-02 2.0289521434123617e-01
      1.0030409051183234e-01 1.3638423321971854e-01
      -2.4771406083521585e-01 1.4306004198857930e-01
      -3.8777524664399161e-02 1.1026762874625233e-01
      9.7311390106832277e-02 -4.9024026559284783e-02
      2.0873196030539776e-01 -8.7898500584069478e-02
      -1.9338536954527635e-01 -5.6962876595649747e-02
      4.3034489101652318e-01 -3.0108943700383628e-01
      -2.7031448392333120e-02 1.6998395892249502e-01
      -2.1016975861218634e-01 1.9450232593115979e-01
      1.3871384028331432e-01 1.5199663715381577e-02
      8.4787994581582080e-02 -1.7289996514612130e-01
      -6.3675851965288785e-02 -4.9196860321249911e-02
      -8.1103515427603246e-02 2.7716114887153153e-05
      -1.9559828913736746e-01 8.2790488601588372e-02
      2.1976208702557945e-01 -1.4075466659000743e-01
      -2.1380875782881018e-01 1.4672451248742543e-01
      -2.6466748773757753e-01 1.5215184807086163e-01
      1.4026544890179007e-01 -9.3229226362170226e-03
      3.1749101743055043e-02 5.4045400409483260e-02
      -2.2585473126898364e-01 -1.1334114790886515e-01
      -1.8421494185957921e-01 3.8737582583066882e-01
      2.8312003265156244e-01 -5.8840310349045119e-02
      -1.7119488555320636e-01 7.7428834604024735e-02
      8.2255284486715277e-02 1.5878064198853357e+00
      1.5762684201961441e-01 6.7910284787580613e-02
      -8.9787314728109524e-02 2.0198108585399399e-01
      -2.9573553016246250e-02 1.9382303493078976e-01
      1.5622083277660784e-01 -1.1014367779393261e-01
      8.0068171982968055e-03 -9.2173013263039630e-02
      2.1755383972318781e-01 -1.1179607906461819e-01
      1.5406810016178668e-01 6.3297550229494931e-02
      -2.2142731056382164e-01 1.6546669141619214e-01
      -7.0817130190571315e-02 -2.0452123242904199e-01
      -1.4483155027899874e-01 -1.7729205392564704e-01
      2.6736912829411680e-01 -1.1326849029026838e-01
      -7.4267158315739670e-02 -1.7241571463121846e-01
      -1.0035314629481266e-01 -2.5211815743327470e-01
      3.8505947839647575e-01 1.5861128375399811e-01
      -9.5767970853779694e-02 2.0335735582909728e-02
      1.3921800793195541e-01 1.8523593600718727e-01
      1.3343505682194340e-02 8.6366273390138165e-02
      2.3108322412741944e-01 -2.5376272926004845e-01
      -8.0032541039577437e-02 5.5382550494463667e-02
      1.0651359432036951e-01 -1.2153589176737568e-01
      -7.9151963954428764e-02 -3.1605159178925347e-02
      1.1334421997067587e-01 -4.1713478235175655e-02
      8.0680834052236097e-02 -5.1736001503311486e-02
      -1.2386929468545645e-01 -8.9035819615143064e-02
      -7.4287907918528170e-02 1.1879316742538393e-01
      -3.3928771297990448e-02 2.9972137990745298e-02
      5.2694980729492524e-02 -1.2162666104156998e-01
      -1.4638374236186633e-01 -7.2133371874923982e-02
      -1.7707127353377060e-02 -6.6625762145235273e-02
      -2.5016402444465713e-03 -1.0306334842854142e-01
      -9.0166445797846051e-02 -7.3176992262771579e-02
      -3.3029144320128448e-02 5.3286129156446281e-02
      -2.6364790799296295e-01 4.8826649735367891e-02
      -5.0714574409596279e-02 -2.4232423157205168e-02
      3.8812590595839786e-03 8.8748733385860173e-02
      4.2408616547001031e-02 1.6838745498705492e-02
      4.7789462431368349e-02 3.3891742219569483e-02
      -4.3105834997434742e-02 -3.1915096873418460e-02
      4.1694649459918364e-03 -1.7891358912359406e-02
      -1.4922255060439074e-02 5.0803192479679593e-03
      -1.9729578892992011e-02 7.6577015915975481e-03
      3.5844620434490396e-02 -4.7102578431146526e-03
      -4.8924338479091396e-02 1.5760432062000262e-04
      -4.8690211218305511e-03 -9.6179253706434840e-03
      7.2697084112216255e-04 4.4948429358898125e-03
      -6.9312563857683404e-02 -3.3827491610093005e-02
      8.5400530256287601e-03 2.2338288947736673e-01
      -2.4444714139758014e-02 -3.2796984983687596e-03
      5.2988010931897873e-02 4.4242647153146832e-02
      -3.3641349427799942e-02 9.6312601925796570e-01
      2.5231899628731017e-02 -4.8086775966457829e-02
      -4.8552907462318530e-02 1.1305909668749191e-02
      2.3897977276552296e-02 -7.1047877569154913e-02
      9.8844101638644055e-01 -2.5638123709707818e-03
      -1.0079946357502084e-01 7.7204736787843439e-02
      -1.0853017459125455e-01 -8.5115721174351650e-02
      6.3852858954926400e-02 1.0447472298085508e-01
      9.8729785568749447e-03 1.0713915083734568e-01
      3.2795852860503433e-02 -1.0545720527399660e-01
      7.3901468129237508e-02 -1.8845917664284124e-02
      -2.9912233927691129e-02 -1.2343430022399048e-01
      -6.8679521563523180e-02 6.0253349970556563e-02
      -4.6551009894206338e-02 1.7466526979156977e-02
      -1.7133649488914441e-02 -6.6698677364199432e-02
      1.9112484166794694e-01 5.3063986644836580e-02
      5.5002858953179913e-03 6.0767499194791033e-02
      1.1659750142187257e-01 -2.8754576979820045e-02
      -1.6018435833937980e-01 5.2529488532911311e-02</_>
    <_>
      2.8792197767624525e-02 -1.2536368800676483e-03
      2.5518250211999674e-02 1.1515710215182898e-02
      8.7687693555278277e-04 2.3459146778495834e-02
      -1.4051818607400401e-02 -1.2226531692508440e-02
      2.5396170548804315e-03 8.7197026332584797e-03
      -8.3946823958807211e-03 1.5967814992874894e-02
      -2.0284114143543017e-02 -2.2779510587078704e-03
      -2.2365365271133177e-03 3.9173603411282567e-03
      5.4753108773885183e-03 1.8595845165289977e-04
      -2.2680378226960996e-02 1.1454547949201350e-02
      -7.6682936382695447e-04 -1.3850889053283416e-02
      -1.8996655338151293e-02 1.3560646241915610e-03
      -3.1094789135587297e-03 2.2944812396581207e-02
      -8.7160516933094175e-03 1.8361796104760227e-03
      1.4245618579440955e-02 -7.3053678986751466e-04
      -1.1812513982080036e-02 2.2842285367177865e-02
      1.3014962835913912e-02 1.9831855456246533e-02
      4.9096242800990000e-03 -4.2154182636954547e-03
      6.8097652248086601e-03 -1.0546771204110799e-02
      -2.1344933992793191e-02 2.1957066407416953e-03
      2.0549933170179044e-02 2.1578075132919022e-02
      -2.4908763393401601e-03 1.7386875682618697e-02
      -4.0258701586498285e-03 -5.0946016368125053e-03
      1.8852078328433813e-02 -8.3127260939643913e-03
      -1.5343729990934593e-02 1.5083744098638009e-02
      -9.0222629162375594e-03 5.3762131833433287e-03
      -9.9613770216370467e-03 -3.3855645983455716e-02
      1.7058762175459440e-02 5.3818733950873566e-03
      -9.0517077947783954e-04 9.7197749663272374e-03
      -3.6306523433723196e-03 3.0790917800200324e-02
      -8.7918217625061381e-03 -1.6965575670599236e-02
      -5.5132287117867626e-03 1.1970061399643381e-03
      -3.5250849421549187e-03 1.7926021255767362e-02
      -1.3967699620774741e-02 -6.7686968711150632e-03
      1.0936704636619096e-02 1.0398097092798517e-02
      -1.6905193149018335e-02 -1.5693784534850094e-02
      -1.3002395459179250e-02 -8.6810718296339833e-03
      9.8618943478301982e-03 -1.2922867120754791e-02
      -3.6867688579046644e-03 2.2459833788364371e-05
      -2.5813678779387107e-02 -2.6848901456199486e-02
      -9.4676938979938313e-03 7.2532801240653383e-04
      3.0629190785142050e-03 1.4958907223712282e-02
      -8.4029855615306362e-03 1.5766483062120029e-02
      1.0940240075059724e-02 -1.4031317682383401e-03
      -1.3068998165237352e-02 -9.4270312757269246e-03
      -6.7140924894317743e-03 1.0759051990817880e-02
      2.8061518338784418e-03 3.5259403483604271e-05
      2.0838663412362780e-02 -1.0704725481356666e-02
      -2.1296731042160753e-02 -3.9045308348940563e-04
      -1.4735592635061790e-02 2.1436493619287605e-02
      -7.0504510191652424e-03 -9.2091376693836328e-03
      -1.4390559151052414e-02 -2.0000443270488787e-02
      1.1747007793609899e-02 -1.1466182124694878e-02
      1.0646340787048819e-02 -5.3671369718919053e-03
      2.5797529056170526e-02 -1.3983384972760618e-02
      1.4106266299032907e-02 -2.0698630084989383e-02
      2.1888241245206323e-02 4.6532097535157213e-03
      -2.4636875361341445e-03 5.0610895810233973e-03
      -1.5004361701741695e-02 -1.6252271200831621e-02
      -1.1630767281292311e-02 1.5373961882723839e-02
      -1.1069903881314019e-02 -1.2253961841381391e-02
      8.5723304684052343e-03 -1.0693481248787716e-02
      1.2327169664633913e-02 -4.8268340526607841e-03
      -7.5634638524662741e-03 9.1684288252118114e-03
      8.8519511415261782e-03 -6.2057064659526203e-03
      -1.9581389675411173e-02 -1.0073442038602481e-02
      7.5286184829819105e-03 4.4687668105663205e-03
      -1.1700762616006027e-02 1.5411564248452813e-02
      1.1545576542304828e-02 2.0859982249807809e-02
      -3.7444791621351237e-03 -9.1189607302629150e-03
      2.3307725521940392e-03 -2.6980347216486152e-03
      -9.2453859264259811e-03 1.9573473786535837e-02
      5.1641994284795101e-03 -1.1520246514255048e-02
      -2.6034743705291092e-02 -1.0208551789550215e-02
      -2.4603433436251087e-03 5.6457572235295451e-03
      -1.4853419094763749e-02 1.9996295029533751e-02
      -1.2646942780604242e-02 9.5831912968217404e-03
      -1.0743914692113193e-02 -1.0178468985454547e-02
      -1.4589678175236750e-04 -2.5987371590719924e-03
      1.0434868793555992e-02 1.0036715238264250e-02
      4.3720959559290567e-03 -1.5318977980838526e-02
      1.2290123221513993e-02 -9.7943556459038073e-03
      -1.4420741200567138e-02 5.8325992306099668e-03
      3.9660996546141665e-03 1.4030548943523664e-02
      -2.2766936549675397e-02 -1.3113550024755579e-02
      1.2545248802389492e-02 -2.5701343384567045e-03
      -1.0447562265036379e-02 2.0736921216229217e-02
      -3.5232633929657016e-03 1.9339904663320237e-02
      -1.1389685477839107e-02 -1.5525560183607340e-02
      -1.2452084277891110e-02 8.9763903874990440e-03
      1.5744240526424688e-02 -1.1377152204980787e-02
      3.6279860052710888e-03 -1.9835931551992272e-02
      -1.2453547579833628e-02 -9.3967115669622793e-04
      5.2478293235280939e-03 -1.4150935752947916e-02
      -8.8678767980125018e-03 -1.2738952560357349e-02
      1.7959132249009153e-02 1.9391528936615501e-03
      1.6393662607142541e-02 -1.1888521145223260e-02
      4.8703033113252142e-03 -9.0437628980248033e-04
      2.1422671389636220e-02 -2.3564489842814264e-02
      -7.0833241263501233e-03 -1.1902307048578658e-02
      -3.1507248235991157e-03 3.4789585104265846e-03
      2.0840524501258215e-02 -2.6344864370837083e-03
      -7.7473237872055234e-03 1.6717337075456008e-02
      1.3812453032778111e-02 -7.3583313971425602e-03
      -8.2806149917392362e-03 2.0133088429369693e-02
      -1.5839994824492852e-02 1.9647385033516075e-03
      -7.3474694698697537e-04 -8.3255081274643064e-04
      1.1479925073634451e-02 1.5904477434881156e-02
      -6.1437814706351386e-03 -4.8018918790539667e-03
      1.3511137564466744e-02 -1.3556847841197055e-02
      -1.2929906891993177e-02 -1.3699109779294519e-02
      1.5432969390077678e-02 1.9656334617860621e-02
      -2.0412388468675582e-03 1.9169996995551861e-02
      1.7921947996129530e-02 9.8535157537284028e-03
      1.1783006097376042e-02 1.8478903758175024e-02
      3.9098143537904737e-03 -3.9291215282747510e-03
      -1.0341650040105255e-02 -6.2271870349321677e-03
      7.6280292278713916e-03 7.5457105233543908e-03
      -1.6200078282030860e-02 -2.8154775583123784e-03
      1.6790886122697531e-02 -1.2947536387767557e-02
      8.4538149647799508e-03 -7.1455330730315599e-03
      -7.8494378537967771e-03 1.9982866716070388e-03
      -2.0056234250488338e-02 -3.9939856834397556e-03
      1.4575285992254784e-02 -1.9285668639582809e-02
      1.2110523462604765e-02 -1.1225487046698811e-02
      1.8419853663710218e-03 1.3398376914007261e-02
      7.8064857527946879e-03 9.9813513697515326e-03
      -4.1871816174275187e-03 -8.8810413892537292e-03
      -3.0329649351258313e-03 1.9904223036971216e-02
      -1.0956768544891478e-02 8.5169777364142631e-03
      -8.3893969078500368e-03 -1.6028813277127740e-02
      7.4123171905690925e-03 1.8638102874188361e-02
      -1.3671084268549306e-02 -2.4264208905766965e-03
      4.2434170044854114e-03 5.2691839378524417e-03
      1.8016076919090164e-02 8.1648216270184988e-03
      -7.5387890356103191e-03 1.3212524878990505e-02
      2.0927233715553235e-02 4.9732933179856879e-04
      1.9980610994827092e-02 -1.2264792930539827e-03
      1.7699086473653463e-02 4.7741200433809236e-03
      -1.1853614627765253e-02 -1.9720965662536873e-02
      2.1787483952736457e-03 5.5284123406512172e-03
      -7.0569970763475869e-03 1.5292030670350221e-03
      -7.4495032703010696e-04 -1.7597573771738199e-02
      -1.4834767438150508e-02 -2.8471565299518853e-03
      -5.8323394986803251e-03 -5.4045649452307146e-03
      1.1207320025008082e-02 -1.5592162600929070e-02
      3.4923414501192799e-03 -1.8289711570735938e-02
      -1.1966294119979020e-02 1.3883821843069707e-02
      -6.8796321209267988e-04 1.0412240332851595e-03
      -4.7037980269760311e-03 1.1674230079379884e-02
      3.5235000921753259e-02 7.4605870069637719e-03
      1.5805268436890445e-02 1.5439676048869512e-02
      2.4251804596929695e-02 -6.0556587471161070e-03
      1.2735155518424338e-02 -7.6109479861904868e-03
      -4.4013450716905392e-02 1.5501742727753731e-03
      -1.1907001096424763e-02 -6.8265306988200703e-03
      -6.4641927162167106e-03 1.7535325222617346e-02
      1.3119470695874959e-03 -2.0493118448474564e-02
      1.8574408974475577e-02 -3.5935597433386203e-03
      -2.2953989301398994e-02 -1.1665147619464682e-02
      -1.5277975281780570e-02 -1.7872172859829286e-02
      3.0496799459204639e-03 -8.8056856492561772e-03
      3.8135556440646928e-03 2.1109286262652509e-02
      -1.3690724583625522e-03 2.0379729337769503e-02
      3.2160498456661879e-04 -1.0936967396432165e-02
      -1.6809009861781479e-02 2.0057688653742117e-02
      2.1893893197747524e-02 2.1864975188565158e-02
      -4.9223055567708561e-03 1.1289367095045185e-02
      -1.3345789088534640e-03 -1.0034738355429453e-03
      -1.6577805842130824e-02 3.0546553157170978e-02
      2.1395096123790182e-02 1.8658722752111372e-02
      -1.1089796460919534e-02 -1.2020277482701872e-03
      -9.5964076327434041e-03 -1.6460125247704120e-05
      2.4430933884670082e-02 -1.4978427951952982e-02
      -9.3754289143950110e-03 -6.3375090201531802e-03
      -3.1310232048286676e-03 -1.6639063326827026e-02
      -1.7333835648051778e-02 -3.5725506727436608e-02
      2.3683069034082259e-02 1.9888388767288253e-04
      9.6113881880651991e-03 -1.3192439227490549e-02
      1.5593427328753430e-04 2.0001532351633055e-02
      -4.1419923366992871e-03 9.5462946793896195e-03
      1.8355409020213178e-02 1.6444420992852912e-02
      -5.7348769071923996e-04 1.6077291970033152e-02
      -1.9572667359050125e-02 -6.7065560964533486e-03
      1.0065712873045585e-02 1.2811182192449887e-04
      -1.0756685951793325e-02 -1.9744825599718404e-02
      -3.1414104791651376e-03 -3.8783192593570534e-02
      2.1427974395060983e-02 -1.5422867358915593e-02
      1.8944566656953848e-02 -9.6197752031041139e-03
      -3.5291387259941570e-03 -2.3629451904781287e-02
      -2.1864019123911498e-02 3.3305763220468554e-03
      -1.3495379560393407e-02 1.6353068916735332e-02
      1.6725791057382651e-02 -1.5553797726109219e-02
      2.8900397059480965e-03 -1.8240301676565466e-03
      1.0305285002005827e-02 1.7763095931309841e-02
      -6.9665192133105619e-03 -7.5876089211686744e-03
      -2.7466806408694443e-02 -2.8074623047025057e-02
      1.2983498705204741e-02 -4.0743376678213740e-02
      4.4897201835178398e-03 2.1188964917227032e-02
      2.4859358966049076e-02 4.5027446505663321e-03
      -1.6537535774945600e-02 7.7420064619466026e-03
      9.8936979653221728e-04 -1.4402180028770951e-02
      1.7901373254801688e-02 -1.9778320553704012e-02
      -3.2602282575882871e-03 -1.3957942968214416e-02
      8.7684861623653805e-03 -1.2894069753681448e-02
      1.4811599910163523e-02 8.1822148078612971e-03
      1.6423604183217193e-02 -5.5901980552276536e-04
      1.7656572686177860e-02 1.8894294047272633e-02
      1.5404426262099077e-02 -3.0064170351164891e-03
      -3.7347830120691553e-03 -8.1058436358772603e-03
      1.5522793479936544e-02 1.7022308675428817e-02
      -2.8231045723145659e-03 2.2273509107905872e-02
      -3.8048017453552714e-03 2.5253643707781560e-04
      1.4411162988183924e-02 -4.2888850014133348e-03
      -1.1537306319343906e-02 -2.9769552271050287e-03
      3.8369440399079603e-03 8.7387215432528469e-03
      -1.2087502624676240e-02 -1.8997517059480195e-03
      -1.5982546606980789e-02 1.3242740949602684e-03
      1.1816999070002913e-02 -1.5476469566197472e-02
      8.5609059405912218e-03 -2.7091363166749285e-03
      4.6208802089228078e-03 -8.8409760316880727e-03
      3.2760214932471515e-03 -7.9069298828677425e-03
      3.3295340801717775e-03 7.2646571336501238e-03
      1.0839827502246192e-02 -1.6773380346735242e-02
      7.4390527373984052e-03 1.2988284905732016e-02
      -2.3273417940434314e-03 -3.2365614681531156e-04
      -3.1001911346737339e-03 -5.0085005422900722e-03
      1.2248632253268558e-02 -5.6063377956399492e-03
      -3.6910870888240913e-03 5.3416227271047625e-03
      -1.7710889878462952e-02 -1.3695411991977810e-02
      -1.7466077529258953e-02 -1.6047844830602879e-03
      -1.7820674034228635e-02 -4.6416258431442679e-03
      -1.7915282477204270e-02 9.5744868855115739e-03
      8.2613482219421972e-03 -1.2380406135329466e-02
      3.9110267600536864e-03 1.6276674217876871e-02
      -1.8753477548444579e-02 -1.3016205058816512e-02
      -1.0207517483840882e-02 -1.0693126921620488e-03
      1.4395541852269881e-02 1.9285280277003942e-02
      -1.1559072317159325e-02 -9.6722226995599615e-03
      6.5905599215207201e-03 5.2052851650097559e-04
      3.1783702935776958e-03 -5.4099351455286614e-03
      1.7174831039745465e-02 -1.1482651074775934e-02
      -8.3682083165146966e-03 1.6736559842604925e-02
      -6.7374795285972035e-03 -2.1435326863072788e-02
      1.4659968979306805e-02 -1.5434557053761878e-02
      1.1469740709600185e-02 1.6216549072182333e-02
      -6.7793128097569030e-03 -1.0217068554199786e-02
      3.4711936577031335e-04 -2.4208088276046762e-03
      2.3379498245877095e-03 -3.9846030034024595e-03
      1.5027241039239730e-02 -1.5971223011611059e-02
      3.9383603989223991e-02 5.9854731074776143e-03
      2.7658341370808630e-02 2.1925195537247939e-03
      4.9549393464663576e-03 1.2524777464088742e-02
      -1.6444968072846122e-02 1.1929039399587336e-02
      -3.3248502312154801e-02 5.8229146358357931e-03
      1.3737601104785575e-02 -1.2101631904466880e-02
      -2.8340192778496046e-03 5.0404729658126042e-03
      -3.5490000902516764e-03 -1.7490391692219835e-02
      -9.9341669527464004e-03 1.5906830491965576e-02
      -2.9925287864256710e-02 -3.5647443891016440e-03
      -2.9860725296182382e-02 2.4528566404963644e-04
      1.6840722640539142e-02 -1.4246314735849348e-02
      -2.2655222695282442e-02 3.4941202317143628e-02
      4.5561452213030403e-03 2.1613427898430498e-02
      4.7785664571777017e-03 1.1408353595181461e-02
      -4.4282209426465893e-03 4.6424843400427705e-03
      -1.2847167141521530e-02 1.7300498212384035e-02
      1.0446513685479807e-03 -1.6179275705249900e-02
      -2.1412905893838007e-02 -5.7576511968812760e-03
      -2.2741661341670723e-02 2.1569037285325356e-02
      5.0654038470890408e-03 3.2059615968385614e-02
      3.5136107352435747e-03 -7.8332029550512265e-03
      -2.1320201577023051e-02 1.5208701789671064e-02
      1.7818539691218844e-02 5.1164559437952273e-04
      -7.7767863658964580e-03 1.1556262951606399e-02
      3.1254225389822769e-03 9.6357171783523676e-04
      -2.8292347949481756e-02 -1.5798910314371577e-02
      6.5657827984538109e-03 2.4052493112094536e-02
      -1.4997178626984464e-02 4.6309161448183046e-03
      1.1186644729147242e-03 3.1103070903442141e-02
      8.0591919212510375e-03 5.9727916504307061e-04
      -9.2709129912948718e-03 -7.2733928839231925e-03
      -6.6980437179764594e-03 2.4931260208400003e-03
      -1.1399196668654769e-02 -7.6223082649421294e-03
      9.9129494906611253e-03 2.3995953412127864e-03
      -3.2233648520232458e-02 -3.5473387468900622e-02
      4.9150809877967598e-03 -3.8228324871515493e-02
      1.3449972832987439e-02 -1.5711173488678856e-02
      2.0899806929271597e-02 3.9686821874753931e-03
      7.2007605946813815e-04 -1.7128914066174880e-02
      -2.1844406920122916e-02 -7.0995106673010103e-03
      1.5108987654603888e-02 1.5715218257646615e-02
      1.8416350959329492e-02 -8.8739789950742914e-03
      -7.9185995722385622e-03 1.5661372216777100e-02
      4.1976924156158536e-03 2.7376372234834558e-04
      -1.0489531753857523e-02 -2.8195499615877313e-02
      -1.9494599827358960e-02 -1.7358675345841727e-02
      2.2492043735288961e-02 -1.7433812141852849e-02
      -8.7462680789806308e-03 1.6272222571657634e-02
      -1.7449669352179445e-03 3.2360544091167419e-02
      -2.8315360355906977e-04 -4.4233739648313272e-03
      -3.1851883247025082e-03 -9.9443290978179257e-03
      1.2828372614965614e-02 6.2619043072327796e-03
      9.1399625004497925e-03 1.5083595336557788e-03
      -7.6158047045102187e-03 -7.9028782072900570e-03
      4.8225171444998279e-04 -4.8436664935604633e-03
      1.8025038231063301e-02 -3.4319970521300607e-03
      1.2715651362709756e-02 4.5324451095819758e-03
      1.1334774988887910e-02 -3.0434462282289868e-04
      5.0287459551278599e-03 1.2443947466584398e-02
      6.7635731680447181e-03 -6.5462887764881168e-03
      -7.0840845512876900e-03 -2.5923678902652035e-03
      -2.4912367548883719e-04 7.1539268247252045e-03
      7.3733144520448145e-03 -1.6580047049563292e-02
      1.0574461116633106e-02 -1.7591701430546881e-02
      7.9740461689017696e-03 -6.0748507930094156e-03
      -8.5272431795356055e-03 -8.7097183243565468e-03
      1.2208056989383927e-02 1.4086079184517984e-02
      -5.0098097753944418e-03 1.9462947482700294e-02
      8.6753059639615698e-03 -1.3198573386983607e-02
      -1.6914686053470335e-04 9.7502760271069595e-03
      9.9697600893402932e-03 -1.1542253757932521e-02
      -3.6782515761532531e-03 -1.6720002491667836e-02
      -9.5301866525534298e-05 1.4018891052207454e-02
      -1.3437708081965436e-02 1.2003906226049923e-03
      1.5507097324014870e-02 -6.3290494968193294e-03
      1.2449420409876297e-02 -4.2024260854481464e-03
      -5.2093098202579094e-04 6.0087375127034119e-03
      1.1419530333224927e-02 -1.0566266774681356e-03
      1.7372425259511400e-03 -2.0419569630727205e-02
      9.2046023039043072e-03 -1.5691752533942046e-03
      1.1981813288581127e-02 -1.3486139947266306e-02
      1.9771838341645146e-02 -1.2119722361367789e-02
      5.4409746179334140e-03 1.3100690507006922e-02
      1.0482990295136206e-02 -2.5456740732704552e-03
      1.0172923415331082e-03 1.8564560835739048e-02
      -1.5849856354003468e-02 -1.1327500124202606e-02
      -1.4172664073756114e-02 7.3565130420881024e-03
      4.7788657108239173e-03 -1.2041688570571846e-03
      -1.3024300097634620e-02 2.0043843404026237e-03
      -9.4140132649497762e-03 -1.4857118476095471e-02
      1.2314354404351878e-02 9.1233111648226324e-04
      1.1403987964537807e-03 -1.0326525555779873e-02
      -8.7148791370354594e-03 2.4454508981096145e-03
      5.1728138346718647e-03 1.0307041261412953e-02
      -1.2794561965622453e-02 5.4310681811909935e-03
      7.7479971121877248e-03 1.2201036996326511e-02
      -9.3271253928009969e-03 -1.3255063835148429e-02
      1.5648758290296553e-02 -7.0404728485044558e-03
      -5.4971899215039274e-03 1.3732316649657910e-02
      -3.1377004600990445e-02 -3.4761696124939977e-03
      -3.5877327954798505e-02 1.9915200334884114e-03
      -2.1895964022674518e-03 -3.0678980198760610e-02
      -4.6466788244221048e-03 2.0842301882116301e-02
      3.7362372157963973e-02 -1.3643217047112874e-02
      7.3478678237112582e-03 -2.3894681118276986e-02
      7.6750441953719051e-03 1.2049599123044891e-02
      -9.3136159595507018e-03 2.3370795326778434e-02
      -5.6096711569825356e-03 1.4511659111558007e-03
      1.8762627062281675e-05 -9.0995552342998508e-03
      1.0431552741625383e-02 2.8254982019668404e-02
      1.8781796118177856e-02 1.0312089392424164e-02
      -8.4639448167680292e-03 -4.2492082224562392e-03
      -1.9048360742138820e-03 -1.6574915071591589e-02
      1.7523452025497991e-02 -1.7393998313923215e-02
      -7.3039801066893950e-03 -1.3945280512850444e-02
      -1.1890878776694385e-02 -2.4501183371079423e-02
      1.6328639753224499e-02 -1.5666237439931011e-03
      2.5566510987719015e-02 1.7373123610962212e-02
      -5.1335123575128620e-03 -3.0716520625423859e-02
      5.2396706614232986e-04 -2.4127782953499582e-02
      -2.3312159258223174e-02 1.6560481445069702e-02
      2.7338612994751984e-02 -7.6357373605788880e-03
      -7.3590803035110397e-03 1.2164639953285936e-02
      3.6721405185455337e-03 -2.9815575606144559e-02
      -5.9691158994133612e-03 1.3502215221929972e-02
      1.4357954948835565e-02 3.5327382461688504e-02
      -3.2294666096267868e-02 7.4942023300667319e-03
      3.1088261529459964e-03 1.1104368037123179e-02
      -3.2687420593521827e-03 -1.8133783761310859e-02
      -1.9894992651539961e-02 -5.3936368974429596e-03
      -2.3666130924555804e-02 -1.4121914893325382e-02
      2.4756983474610399e-02 -2.2226172583570059e-02
      3.2106965287293850e-02 1.8024071744909970e-02
      6.4393404748268833e-04 -3.3783381635776842e-02
      2.5305944926375796e-02 2.2292133935292158e-02
      -5.6154872273514915e-03 5.7140100938159804e-03
      -2.0138133577010664e-02 2.2800693962242297e-02
      1.2963469694076224e-02 1.7763447859613170e-02
      1.3492560833828321e-02 1.8308892272665014e-03
      9.0791004099511561e-05 5.3955590098873031e-03
      -2.6782706136035672e-02 -1.0923039903066171e-02
      -1.8676650396821076e-02 1.7754336732126710e-03
      -1.0554487506840187e-02 -1.3994603194466156e-02
      4.7093504019174448e-03 -1.6611783924545410e-02
      -2.4802814000422649e-03 1.4701854527371845e-03
      1.3652556519743876e-02 1.9752520167513082e-02
      -8.5954956316557692e-03 1.1568270748413191e-02
      2.9544859676832673e-02 -2.5174848187678152e-03
      -2.5252886750365841e-02 4.6848996135299877e-04
      6.2867555498466690e-02 -2.9422304320743373e-02
      3.0109918474169588e-02 1.3996235626909213e-02
      1.4571924801569203e-02 2.7555580407538794e-02
      -5.2763410690250343e-03 -2.6140314694136062e-02
      -5.2996086508429040e-02 5.5627225911679878e-04
      -1.6777603914397567e-02 1.1719639482119588e-02
      -2.5206124958809910e-02 -5.8590179024680302e-03
      1.7792443007670966e-02 -6.8125480882405441e-03
      1.0771673939987719e-02 -2.6548041256800260e-03
      -1.6944056512233432e-02 1.4239962444843582e-02
      -4.5922148691856686e-02 -2.9688087990745168e-02
      1.0149470641626379e-02 -1.7475445309350610e-02
      -1.1975555842642352e-02 6.6660292835306514e-02
      5.5696584847807250e-03 2.9750129412188988e-02
      -1.9338915596494217e-02 1.2088136325919334e-02
      -1.7333689687307245e-02 3.6532222334595766e-03
      1.1071193874392062e-02 7.0130413851295882e-03
      -1.8954547286824809e-02 -2.5709418363988715e-02
      -4.4280922574841050e-02 -1.1461020288264083e-02
      -6.1510656302602336e-03 7.6287850418164001e-03
      2.3898962827903894e-02 3.1784172956535996e-02
      7.1771252823707955e-03 -1.9719582741225965e-02
      -3.9484206727721481e-02 -2.9911721545471420e-02
      5.0661027910314224e-02 -2.8533075858682186e-02
      -1.4294126986772926e-02 4.1322865754854492e-02
      9.4775427689627410e-03 1.5545282610055848e-02
      -4.1079050280244729e-02 -5.0613949254083919e-02
      2.6584971363999569e-02 2.6438125199420249e-03
      -2.3961245773892449e-02 -2.4406186763656568e-02
      3.7319900828560069e-03 2.7017313868797382e-02
      1.1283267305828687e-02 -8.5069521390366640e-03
      4.7529035224822755e-03 -1.7332321866846520e-03
      -3.2329707043688136e-02 2.2715795556341952e-02
      -5.1479533357815264e-02 -1.5929618768441067e-02
      2.2116156295095907e-02 1.6366143821772025e-02
      -1.9403041676522903e-02 -3.9045041174476616e-02
      -1.3421938134731522e-02 -3.3068801393375702e-02
      2.7270648748529417e-02 -4.6020345618364489e-02
      -7.7328025205905858e-03 -1.9392751682290682e-02
      -9.7818799616667985e-03 -3.4467262912723215e-02
      -2.6901375702150832e-02 5.8354581676696936e-04
      -2.2112555613878152e-03 3.8734488501166287e-02
      1.3136250366120162e-02 -1.9498419416279687e-02
      -1.5286177546295888e-02 1.7294955064298619e-02
      1.7208666191528578e-03 2.4728473324662954e-02
      -8.3677805938699532e-03 -2.8949489105236856e-03
      -4.8714864059433129e-02 -4.1885415005226682e-02
      1.5917860286531849e-02 -4.1332993059949225e-02
      -3.9676448267827969e-03 2.2243113045322789e-02
      -3.8683240119335438e-03 4.0814812635346177e-02
      -1.4514383423085955e-03 -1.2125078587646421e-03
      -1.8228883180533135e-02 1.6502488171401958e-02
      1.4075665231502733e-02 -5.2174885693029851e-03
      1.7508615801666263e-02 -1.1510656341399764e-03
      -1.6141786019574507e-02 -1.7020228678296629e-02
      -2.4209652168299140e-03 -1.3523098870551043e-02
      -8.3265727630184565e-03 1.7923971189279825e-02
      -7.6843008628755261e-03 1.0355898439064121e-02
      1.0801955173606810e-02 -6.4929692336981818e-03
      -6.5794396901310628e-03 8.9491275188039315e-03
      5.6006834966126238e-03 -1.0710781703367799e-02
      -1.7595369533466812e-02 1.1064936303329153e-02
      -1.3372749154116361e-03 2.2355441361455477e-02
      4.0959415637743905e-03 -1.3064304375361331e-02
      -4.1376886533807814e-03 -6.2083869400763212e-03
      1.0452744709662067e-02 -1.3299781589946663e-02
      5.0740625901892090e-03 1.8801304288956266e-02
      -1.2651880365972261e-03 2.1700503638811476e-03
      -1.4731186356063994e-03 -2.2145352400926299e-02
      1.0980151904833368e-02 -1.1921091488673220e-02
      1.3139714362997683e-02 1.9586249876858805e-03
      6.2383113807545198e-03 1.9603702891052358e-02
      -1.1854712071521544e-02 1.7123803373846115e-03
      -1.1926405153084550e-03 -9.5259944249935467e-03
      -1.6151314745881704e-02 -4.1326094275246699e-03
      8.5548251265860596e-03 -3.5761332690548858e-04
      6.1404396730082101e-03 -3.9475419335834056e-03
      -1.5545683058084219e-02 -5.0758872646306945e-05
      1.4302791539593775e-02 -1.7388333529276417e-02
      1.7243117469901224e-02 -3.2001646232764731e-03
      -1.7891288600334405e-02 1.6082088752043689e-02
      9.9265050431227454e-03 2.0356580763528809e-02
      8.8187653836603579e-03 -1.1198545815929543e-02
      -2.5965798721293783e-02 -6.7561255103365222e-04
      -6.6508645122859006e-03 -1.5089364829066634e-02
      1.7383972199153299e-02 1.3802543360838696e-02
      1.1525196136697446e-02 -2.1859159438660437e-02
      -3.0990393419459633e-03 -8.2343223644484632e-03
      -3.0986974150610780e-03 6.8056077677192683e-03
      -1.8925240181253099e-02 -1.7143956488625144e-03
      3.1324679285372795e-03 1.0697377512413704e-02
      9.7258385324184744e-03 -1.1997499887596833e-02
      -4.6241432671805050e-03 4.5054475508776301e-03
      3.3853124803782790e-03 9.9242046014485726e-04
      1.1955605617815919e-02 5.5501324312076834e-03
      1.0290089618557065e-02 9.0891148871649055e-04
      3.9021284105117864e-03 -9.4326201933318688e-03
      8.3013024973878913e-03 -6.7413606442375497e-03
      6.3429012648815082e-04 -3.0752920299571339e-03
      -1.3063544428935897e-02 4.7565789195933919e-03
      1.4291053763342158e-02 8.8188188731177161e-03
      -1.8392490167555915e-03 -9.3878082615475797e-03
      1.3733376147065424e-02 5.0226942375142620e-03
      1.4743088456211613e-02 1.9560088913702599e-02
      7.8867544064714877e-03 -1.9037528717200092e-03
      -1.1371333472325071e-03 -2.1606135569474421e-02
      1.9601518065482573e-02 5.2161569283486902e-04
      -2.0034242182105016e-02 1.5703720048254505e-02
      -1.6447362280086735e-02 1.2808803734463404e-02
      2.6383016834465997e-03 -1.2202971240646185e-02
      -8.3947071211719938e-03 1.5118988390751282e-02
      -8.1207859166243200e-03 3.2804498885462400e-03
      -5.6066045501871695e-03 -6.0719304666680424e-03
      -3.2629312617245680e-03 -7.5826428691009046e-03
      1.3631403553634219e-02 -7.3656032500382315e-03
      1.5913331178683066e-03 6.0379045879366986e-03
      -9.1674254862006595e-03 1.2479902323755312e-02
      -1.3765896203772828e-02 -2.5739666537174552e-03
      7.0843975818389538e-07 1.1421537371198907e-03
      1.0761864599525174e-02 7.6028256617090969e-03
      -1.9427579164892288e-02 -3.1075332816678566e-03
      9.5776885453504133e-03 6.1658192229337456e-03
      1.0970974919196463e-02 -2.5505163707702006e-03
      -4.4634104791443018e-04 2.2924432258463160e-03
      5.4965871491656352e-04 4.7813057859824966e-03
      -1.0544071214774691e-02 2.9110469200521434e-03
      -1.0361793975296525e-02 -6.8589276879646036e-03
      -1.7592160624258880e-02 -2.0768586775860021e-03
      -3.2627543225155512e-03 1.2969983761278604e-03
      1.7707866474671607e-02 -1.9556629867285302e-02
      -1.7059536795095299e-02 6.7149959342171339e-03
      1.3542657368085279e-03 -1.5853644367378135e-02
      -1.2901296104846881e-02 -1.5652805321002508e-02
      -1.6757698398033972e-02 -8.2511241739644161e-03
      1.3152681888100063e-02 1.3760855974601973e-02
      -1.4147616064527855e-02 1.8791809055227642e-02
      7.9741355745820437e-03 -8.2660474044846770e-03
      3.7553065487557942e-03 -1.1770871925630999e-02
      -8.3697129356680323e-03 -1.6226937085810567e-02
      2.0845763977335105e-03 9.0425156041456893e-03
      -1.5559385156796227e-02 -1.0089193268480628e-02
      -2.0087926646877866e-02 -6.4338000747549062e-03
      -1.6637723807164817e-04 -6.3250165346325242e-03
      -1.4978468844934510e-02 -1.9856217796816174e-02
      -6.8124130436747151e-04 7.0978951707245802e-03
      1.3844513119159567e-02 -9.5282335284179853e-03
      -1.7126903412073791e-02 -1.1005640261841289e-02
      1.7849025612918417e-04 5.6526300084331575e-03
      -1.0384110606049826e-03 -7.3566172514848531e-03
      -1.0922097222650310e-02 -3.1741419203653413e-03
      2.5707264248102886e-02 -2.0353771087640556e-03
      2.2929112250100353e-03 -9.1904757039737058e-03
      3.2230504886795251e-03 2.5315360836999052e-02
      1.2696430350177552e-02 -3.7013264523338089e-03
      -2.9467580382313147e-02 -6.9853969200388642e-03
      -1.6582699293569141e-02 1.0725397992185892e-02
      6.3546783829647648e-03 -2.4137118480040357e-02
      -1.1122701622819219e-02 1.1006794194099567e-03
      -1.0344734803863196e-02 1.2656100483014649e-02
      -3.1253029231275029e-02 4.3668145593458241e-03
      -1.0154518306138454e-02 6.1402674750611792e-03
      1.2798994983095049e-02 -3.7423643615520370e-02
      8.9032268670175118e-03 -8.1271592157801376e-04
      6.1504480598620287e-03 2.0720243556695765e-02
      -2.0207767459109589e-02 3.1422459818909779e-03
      2.0106238867814007e-02 1.2441141011229430e-02
      1.6053570621830424e-02 4.6989252420917239e-03
      1.0085536571248169e-03 -1.7281270721545557e-02
      -1.7408474450889253e-02 -1.3625080422830952e-02
      3.2498884575679959e-03 -1.2885709492187238e-03
      8.8900275344693039e-03 -2.0368271151499674e-03
      2.7513106479298347e-03 -1.6139695791969073e-02
      -1.1201877751971360e-03 3.0694514799616977e-04
      -3.0025886538325363e-03 -1.1268323383603547e-02
      5.4371976618116285e-03 -4.6483691003518192e-03
      -1.7148435859907503e-02 -8.9569688891126664e-03
      3.2660507575778476e-03 -1.9733632425031945e-02
      1.4021609922496443e-02 7.1322125480716928e-04
      8.4253453972246723e-03 -5.4149391560924659e-03
      -1.7018792840081707e-02 -6.1627612166028087e-03
      1.9253728893657014e-03 -1.3879151167402652e-02
      -6.4056798316016721e-03 1.9077112250128760e-03
      3.0037696288784301e-03 6.1741522711666616e-03
      -3.2243445581082039e-02 -1.0402728444608560e-02
      1.7552876691422474e-03 -6.3771791755410428e-03
      -1.4924282594897106e-02 -3.0124343161808047e-02
      -1.1194740951369847e-02 2.1219204765047738e-03
      1.5911588771114003e-02 -1.6730216889671749e-02
      1.6504545852002905e-02 1.3356021381072208e-02
      -7.7850500131863322e-03 -9.5499132958661789e-03
      -2.1218799703183265e-02 -6.7606260567525190e-03
      5.4871810829621387e-03 2.0700651522936323e-02
      4.4122233749334270e-03 -1.2720630984404142e-02
      -1.6717455307893599e-02 2.8175244442627791e-02
      1.7917074713267361e-04 -3.3542905675999800e-04
      -4.5429633148389419e-03 -2.1435712794971501e-02
      -2.3800373025586611e-03 -2.3943067979671925e-02
      -1.0743809698503077e-02 6.6347854470089835e-03
      1.7493496567455547e-03 -7.4009705013210582e-03
      1.4310340586619086e-02 1.8587038527669426e-02
      -1.9205173227273730e-02 2.0929598051215793e-02
      -2.7412579020386213e-02 -2.0897430118881451e-02
      7.9523064990803059e-03 -2.0093041536654449e-02
      -1.0274939945153804e-02 9.5180006912991787e-04
      3.1318760652773170e-02 -1.7652169969642906e-02
      7.0487912876743197e-03 -2.3902360387717838e-02
      2.2730984455471219e-02 -9.8460824221201435e-03
      5.8613596561502323e-03 -4.2212831594758676e-03
      1.3765391831622323e-03 -2.1335540607200887e-02
      1.5556672833579890e-02 -1.8977506840636479e-02
      3.3447592110552973e-04 1.1708932264545198e-02
      -1.5574508027174590e-02 5.2348461279844750e-03
      -3.8258003038587731e-03 -2.7654657906827137e-02
      1.3012413281528676e-03 -8.9051074483754156e-03
      1.4680450418823238e-02 1.5997852882033092e-02
      1.4231918828498513e-02 -1.2836874355323000e-02
      1.7299521100867653e-02 2.6772179001009031e-03
      2.1339524734595942e-02 1.8116352208967697e-03
      1.3086315970967512e-02 4.4031039777487927e-03
      -4.6122110595765492e-03 -1.6452439180104254e-02
      9.6199605364283378e-03 -2.1915090134907292e-02
      -2.1200981605805570e-02 -1.0810016168064535e-02
      -4.0293448096661438e-03 -1.2462567173360011e-02
      6.3308660073716268e-03 2.1646251076604311e-02
      -4.8210434632455562e-03 2.2515825471794487e-03
      6.6690264630352688e-03 2.3099837402903297e-03
      7.2237251238623599e-03 2.2283639354842871e-02
      1.1381251310039701e-02 -1.0547365243273030e-02
      -1.0237237417464412e-02 -1.4834154798301497e-02
      2.0226411400136497e-02 1.3216584174121123e-03
      -1.1486498863597797e-02 -9.3123431214307828e-03
      -9.8372824891206304e-03 -7.8682744574820242e-03
      1.2102379566329771e-02 -1.2831927386190674e-03
      4.1773609856735616e-03 -1.0790744585210199e-02
      -7.4104461958749953e-04 6.9461962759506980e-03
      2.4212540835873778e-03 6.3632043880642482e-03
      -2.0028812822917201e-03 -6.7038432801175499e-03
      -1.7736199116595325e-02 -1.1145257134924893e-02
      4.1437095071227992e-03 -4.2481603359896345e-03
      3.2711460054233327e-03 3.4897411170095598e-03
      -1.4688048348399927e-02 5.3404851960855339e-03
      -7.4379965331317433e-03 2.6931089441258409e-03
      -5.1789319648620812e-03 2.3005434559400226e-02
      -1.3844314683485391e-02 -3.2974243741171784e-03
      1.5465745813412021e-02 -2.3880244732765378e-02
      7.3567985098246776e-03 5.4977610868734011e-03
      -2.6583256127229258e-03 2.2167153538308695e-02
      7.5375114412486559e-03 7.8334805159903115e-03
      -8.0817901561706894e-03 2.1298291682402422e-03
      9.4334826127554956e-03 -2.5551656964422888e-02
      -3.4331168028142567e-02 -4.1879746562480348e-03
      -1.7974208633272957e-02 -1.5493927822137423e-03
      -2.9288838887295086e-02 -2.0677144947234948e-02
      1.5030689792346043e-02 9.5949961957111154e-03
      3.2474394878150924e-02 -3.0513585210639547e-03
      1.5076977105796655e-02 2.7881232300522008e-03
      4.4082254582390203e-04 3.9196281787775150e-03
      -2.3647020794221252e-02 4.2990249041275934e-03
      9.3468274623099232e-03 -7.9494317498937268e-03
      7.0318222403016927e-03 -1.3587120597749105e-02
      2.5107043083105549e-02 1.2896115867121466e-02
      -1.4491091750332462e-02 1.1517822274421030e-02
      -1.3079652892238053e-02 -5.6085527864306657e-02
      1.0647729465160913e-02 -1.2162393621972446e-02
      9.0160875536129306e-03 -1.8562177068834597e-02
      -2.7926585799547803e-03 -8.7289433961970971e-03
      9.3972739041830566e-04 -2.8631434478712686e-03
      1.4551302205650755e-02 1.0851574435734201e-02
      2.3810161807577602e-02 3.6246678175977078e-02
      1.4031289967014911e-02 -9.0904310509621524e-03
      -2.5616544268925578e-02 -3.2226701810908052e-02
      -1.0698993598716238e-02 -4.2774543937651966e-03
      3.0720353255731286e-02 2.6321377552819443e-02
      -1.6579897964176190e-02 -6.2749431717253291e-03
      3.3651561762788960e-02 5.3306620029015849e-04
      -1.2285506018103024e-02 -1.6942322613866139e-03
      2.8997520642290709e-02 4.5451188656419908e-02
      -2.4954528203704144e-02 -2.1054913352117427e-02
      2.1738806951986357e-02 1.1525949331201456e-02
      1.5624430403830958e-02 -1.6346825111528986e-02
      7.8427896771905078e-03 -7.9009861488312004e-04
      1.1847837594496308e-02 8.2688604735958512e-03
      1.3514663296133602e-02 -1.5897524310177571e-02
      3.8998417262788861e-02 -6.1884598808172129e-03
      -5.4078243921430050e-03 -3.2751528215568093e-02
      3.5065918114545302e-03 1.6985389582736553e-02
      -2.9732858861201443e-03 3.5416980117924053e-02
      -2.3093376636144664e-02 1.4610471898078830e-02
      -3.7235352441319217e-03 -9.5114619907554776e-04
      3.2359552600388974e-02 2.4616312682228268e-02
      -1.0155470398919605e-02 8.1107196236270083e-03
      -1.6331917059017074e-02 -2.0110298874589167e-02
      -2.3446804508474011e-02 6.3514285500202326e-03
      9.3489892661472278e-03 -4.1540000923269782e-03
      -1.8311111461438733e-03 -1.1855765127218353e-03
      6.1455418025701449e-03 1.9455329522382138e-02
      8.3142585351245919e-03 2.5214749043428165e-02
      -2.2529761349417653e-02 1.2143777710058361e-02
      6.2476363857781863e-03 -8.7984948005947750e-03
      -1.5627242384440812e-02 -3.8061531975690115e-02
      2.6586358372649405e-02 2.4816046016635359e-03
      1.0227083118435910e-02 1.8147124190690013e-02
      9.9832405207547271e-04 6.8479121274121271e-03
      1.5273964151533122e-02 1.0825079891207798e-02
      -2.0914876053426398e-02 1.9022439583520484e-02
      1.0185396943613673e-02 -2.6690590734271685e-03
      9.6797052063006712e-03 -1.2497204854065271e-02
      4.8245816220735156e-03 5.2662802117556320e-03
      1.4439657154901373e-02 2.1355665033374500e-02
      1.3099921611368378e-02 1.2996724626794321e-02
      -7.0283781836423976e-05 9.5402923587003148e-03
      2.6338394643645063e-03 -3.0872658131093945e-03
      -1.7006374578187364e-02 7.0604170926683125e-03
      -6.0888916220592660e-03 1.6719125095448224e-02
      -7.2608072877562990e-03 2.0249358094170198e-02
      -4.1772084550637488e-03 1.7135869578107320e-02
      -7.7092728368375807e-03 8.8062030440902925e-03
      -1.4809118208832019e-02 1.1517239207252575e-02
      -1.1767494303969549e-02 6.7215116114224789e-03
      -1.3982335772116432e-02 1.2633198815600204e-02
      7.7424705356409053e-03 9.3406528749595350e-03
      1.0981277355455054e-02 -2.0686029638899879e-02
      -1.5787701688182519e-02 -1.6115792782487717e-02
      2.8158028823139319e-02 -2.2139003038066724e-02
      -2.0133429144204254e-02 7.2387965168740544e-03
      -1.3739070937386520e-02 1.5854151046212111e-02
      3.2800041536019632e-03 -3.5196235568871968e-04
      -6.1985555466211898e-03 -9.3021545123392179e-03
      -6.9590493063064118e-03 4.2790843790034144e-03
      -1.2441996754890172e-02 2.4913784266333179e-02
      3.7038966771909155e-04 5.5854100526735980e-03
      -9.1715247557888780e-03 -9.3177785298951404e-03
      -5.9083600850366336e-03 -6.7919258083869796e-03
      -1.6470788254087595e-03 3.9864562262844254e-03
      -1.6244437345270330e-02 2.2627066392486801e-02
      -9.2691139016305452e-03 -1.3012819407698228e-02
      1.4750353757757026e-02 -9.3882471038118573e-03
      1.3763350207895065e-02 1.2873682411482392e-02
      2.1699794788923088e-02 1.4351554256951454e-03
      -2.0477303508005851e-02 -3.1362506165644962e-03
      4.5553382583511199e-03 -9.4467328930935447e-03
      8.3389921422660426e-03 6.6308259102360861e-03
      -1.4048864508175002e-02 -1.4431101126290920e-02
      -8.6391731570501958e-03 -9.7708743960136860e-03
      3.3664214432832752e-03 1.6661445335634532e-03
      -8.9443682166199454e-03 -1.4873562080973469e-02
      8.3211680102060221e-03 -2.2476869082268522e-02
      9.0719706728710856e-03 -1.5850103027170010e-02
      -1.3031178323251217e-02 1.1475533035107064e-02
      4.6717949021148003e-03 -7.8624555799443035e-03
      -1.9976148195688513e-02 7.8954682570246497e-04
      -9.2681476725723182e-03 8.4197379546004474e-03
      5.7140657781322981e-03 1.4307202757082697e-02
      -1.2012237084787211e-02 -7.7989780438323135e-03
      4.5881448493054915e-04 5.1123158218015392e-03
      1.3117302034994321e-02 1.0540960705272898e-02
      -1.3329448084489569e-02 -1.2219375861781517e-02
      4.8370163256592318e-03 6.9502342296959580e-03
      1.1158569857540224e-03 -1.7819499798497576e-02
      6.7321128133810337e-03 -1.4716055017426699e-02
      -1.3558481971327578e-02 2.2976360452479977e-03
      8.3971347066467018e-03 7.9103994144225694e-03
      9.3012482173829188e-03 -1.3854043688469219e-02
      -1.5027751998848654e-02 -2.6145234489355195e-02
      1.9316312894717014e-02 1.4862790781842326e-02
      -1.1983909192925432e-02 1.2292822245834499e-02
      1.6572622274701399e-02 1.5541775816532925e-02
      2.5924438247978510e-02 -1.7325824560100674e-02
      6.9267688971226780e-03 -4.9453447580159312e-03
      3.4598454564415660e-03 -3.3814176700915602e-03
      -1.0233620364895297e-02 -1.2390138824781927e-02
      -1.9410480442601345e-02 6.8447446895929919e-03
      8.7367986600432723e-03 7.1326050682903814e-03
      3.2756144773650429e-03 9.8587312109216143e-03
      6.0077830136421109e-03 1.0104134025122131e-02
      2.5206809955073172e-03 -9.8131445321245243e-03
      2.5123973701890673e-03 3.4106767956811203e-02
      -2.8877514265621771e-02 -1.8335878519293670e-02
      7.6086237695519423e-03 -5.4738193364176303e-03
      -7.7518739740462667e-03 -5.3304560003235334e-04
      -3.8531363882594138e-03 -1.3179867474069846e-03
      -1.3563556023430238e-02 4.7804269941140350e-04
      8.7235339009965373e-04 -3.4277439023834050e-03
      2.0167893176003916e-02 -1.4894178598078057e-02
      -1.1054605657560867e-03 -8.8447027522684015e-03
      1.3780791945388754e-03 2.2004278830450672e-02
      1.3342508123746015e-02 2.0311335016554312e-03
      1.1359041532574931e-02 6.7701342789321635e-03
      -1.0129066765721451e-02 2.1287281910733532e-02
      2.8897641473886286e-02 1.9346616718223818e-02
      -7.7040017760522149e-03 4.1169958998116419e-03
      1.8420907046751631e-03 -1.4515673978492601e-02
      -1.6485181612536559e-03 -1.3757234731254070e-02
      1.1082275935948252e-02 -1.4166056864034373e-02
      -5.8145646295178479e-03 5.9293152580763590e-03
      1.2303855563155285e-02 1.8302351162505698e-02
      2.6047812709116318e-02 1.1646809726706245e-02
      -2.3018610784946283e-02 2.6584456850756177e-02
      8.5761554647866018e-03 8.9722558636154224e-03
      1.3824299433509983e-02 -6.6842985656188070e-03
      4.4249378345311369e-02 -2.6249803128736881e-02
      1.8033547026934132e-02 2.7041493209488655e-03
      2.8613788818070859e-02 3.3206702816354398e-02
      6.0379028017448861e-03 6.5606112112077657e-03
      -4.1903695069539774e-02 -2.2018240794056316e-03
      -1.0575002550935424e-02 1.1781206042432183e-02
      4.4947962038427791e-03 -1.5004966110238797e-02
      -4.8326632913738331e-03 -1.4953918784881726e-02
      -4.9518803722732744e-03 -1.1053235576645333e-05
      -4.1968093605580903e-02 4.8479427398257684e-03
      -2.6583271089249624e-02 -3.2132259681049415e-02
      7.9565172337785709e-03 -2.1185454881928308e-02
      -1.3619421259213177e-03 2.7693364774115513e-02
      3.8015062441113393e-03 1.3690951526879788e-02
      -2.2261618346957345e-02 -1.5255274522452017e-02
      -9.9016950058886805e-03 1.4261276888608077e-03
      9.2114862755745906e-03 -6.7950986584458554e-03
      -1.4295221213551090e-02 1.3711049339320146e-03
      -1.0830027365527713e-02 -2.7333068814268738e-02
      -2.5206475371602827e-02 3.5967478285468181e-02
      1.8034154478925198e-02 4.8951880845221410e-02
      3.1663568177156771e-02 -2.6352598832381649e-03
      -2.3195513283487249e-02 -5.1146754253638873e-03
      4.1019405109796195e-02 -1.0885280956161014e-02
      -2.0383509463989279e-02 6.8232466361610351e-03
      5.3496237045409295e-03 -2.2107403154389898e-02
      -1.8603132470281999e-02 -2.6942706468005641e-02
      1.2052480942746685e-02 -5.0810863092597418e-04
      1.1202945942935583e-02 -1.2055931829226322e-02
      -8.0323496259082096e-04 4.6179863579956043e-02
      -7.2030849728601763e-03 -3.1993810740158481e-02
      1.1372986976887760e-02 3.5346051122032989e-03
      -3.5824779549546423e-02 4.2454587482530136e-02
      -3.1416249800369549e-02 1.0126385010760634e-02
      1.2233794626323641e-02 9.4889436148420433e-03
      -2.5464215968977130e-02 -1.1576667959085352e-02
      8.4484362933662255e-03 -4.6591250964035283e-02
      1.3697618123462202e-02 -1.0339172914533184e-02
      -8.6236202082045851e-04 -1.4084713990592223e-02
      -3.4436216804649700e-02 -3.1096098581989435e-02
      -3.4317884091903251e-03 -2.6695182393878199e-02
      2.3609466118022348e-02 1.1071246260301763e-04
      2.2150315955899384e-02 -5.8999570647784950e-03
      4.5819856535637919e-03 1.3248906280411648e-02
      5.5038611316282149e-04 9.7762269604889165e-03
      -1.7617502049775462e-02 -2.3993081716715350e-02
      -5.0084476523423481e-02 -7.0267395952197855e-03
      -2.5073427344102818e-03 -3.6105680997773344e-02
      -2.6893357112766792e-02 1.3129827710328600e-02
      9.2225078147120752e-03 3.7280546370064643e-02
      -3.1947695204669647e-02 2.7255755264883618e-02
      -2.4059005089235291e-02 1.0244318518780322e-03
      1.4990854428042255e-04 -9.9063190984877841e-03
      -4.6274958660281022e-03 1.5251536008387966e-04
      4.6454780164541729e-02 -8.1272935481198241e-04
      -9.2481938109595808e-03 -1.4633086780461966e-02
      7.9263684677762635e-03 1.0018352832421704e-02
      -3.9525922243042024e-03 5.4843063035185935e-03
      -1.1607707760902584e-02 -1.1179222910809201e-02
      3.7914730529999739e-02 -1.3914510643018761e-02
      3.5496046466315746e-02 1.3336743882248040e-02
      7.4604609569609735e-03 2.0984515110106499e-02
      3.2694228217306431e-04 -3.1144657683975785e-02
      -1.5418769661276248e-02 -6.2040454002168614e-03
      8.1023251206477128e-03 7.2368888142266318e-03
      2.2787275015033758e-02 -6.8458082284711848e-03
      -6.5080244140600010e-04 -3.1107808811819359e-02
      1.3608348154832533e-02 -1.4355868758326254e-03
      1.8675825636051167e-02 1.8282829042382105e-02
      1.8443113541898849e-02 -8.1007977535844794e-03
      -1.8282987526487899e-02 -2.2871560833766940e-02
      -1.2902315865117699e-02 -1.3445020015811012e-03
      9.1759511504875910e-03 1.4119773597796679e-03
      -1.6850448504594249e-02 2.1447620719070820e-03
      3.7290916490491662e-02 -3.0307027989861377e-02
      2.4766611680280552e-03 1.8522520447080688e-03
      2.0500307098614144e-03 3.6105507425841336e-02
      -6.0555388534864005e-03 -1.4611505421887041e-02
      2.1593754676026450e-02 1.4362387707598668e-02
      -1.0330790166504719e-02 -1.1973156703540508e-02
      -1.0313396272582282e-02 3.4191460820143514e-04
      1.0485764610675432e-02 -1.0417888177189218e-02
      1.0735276568003509e-02 -1.6498635102562928e-02
      2.3799944302565532e-02 -7.0144224125832239e-03
      -1.0263812484094394e-02 -1.7753734269601716e-02
      1.3851297794682789e-03 3.5436896705061637e-02
      -1.0667691051327957e-02 2.6745685222485490e-02
      -2.9995405707797507e-02 1.5869591710560505e-02
      -2.2393818971963115e-03 2.7516352827745880e-02
      1.4483616270792048e-02 2.0898704661391383e-02
      4.1858095514286870e-03 -5.4937012017909174e-03
      7.1620328602699720e-03 -7.3461792932296016e-03
      -3.2914771021553201e-04 1.5062714733555306e-02
      -9.4922648999144638e-05 -3.0934191749086026e-02
      1.0560724326387477e-03 -4.6813136279080304e-04
      -1.2833705103837108e-02 2.8885821308257689e-02
      2.9511300258690022e-02 2.4441518106310397e-02
      -1.9905070086819087e-02 2.7106093892180185e-02
      -6.4098742268001840e-03 -1.9201230916857225e-02
      -6.9296915830896243e-03 -1.4590674170747216e-02
      -1.1806677960477503e-02 1.9607873706975251e-03
      -1.5972826366236734e-02 1.3809946998447597e-02
      -1.7958564102219545e-02 7.0298372464033191e-04
      -3.8270492010788696e-03 2.4186244311197029e-02
      3.1817759357669659e-02 -1.5947294579001479e-02
      3.7111449368480869e-03 6.1329560894174432e-03
      1.9661930842815010e-02 -4.1614045586647105e-03
      1.1598081942920455e-02 -8.6275614493044155e-03
      -2.3523490112103388e-03 -1.3592522947995164e-02
      -3.8052437492680242e-03 -9.1840924271162274e-03
      8.9472939025933267e-03 -7.9376130338796782e-03
      -1.1973264400627012e-02 7.4660984335728877e-03
      7.0992600671125885e-03 9.5230288972356395e-04
      -2.8104777143443454e-03 -1.4345148774241121e-02
      1.6588373078335734e-02 -8.4124577469996034e-04
      1.2524005878885735e-02 -1.9367539856503805e-02
      1.6311273125992131e-02 -2.4365084095743440e-02
      2.5912503308481473e-02 2.1077107074911290e-04
      1.8506399655028885e-02 2.8281474740307361e-02
      -1.0651740697988035e-02 -1.5345322185563250e-02
      -2.0776460849709067e-02 -1.0554194788799634e-02
      -2.2914678228491962e-02 -4.9385875800420070e-03
      2.4837068444668250e-02 1.4170195920949438e-02
      -1.2003925265679817e-02 -9.6383536127189178e-03
      2.2537981856754517e-02 9.0685891676006835e-03
      -1.1520155595117763e-02 -8.8541326652533949e-04
      2.0196289971334991e-02 1.1585858503557147e-02
      -1.9955778998407440e-02 2.8250263129249967e-03
      1.9838515973986687e-02 1.4121462394523230e-02
      2.3341014133663185e-05 -1.3287393588124488e-02
      1.7465393132188221e-02 2.2213332103825936e-02
      -2.0905889003208680e-02 1.4855654548393457e-02
      -1.1094280787300051e-02 -1.9983802411861526e-02
      3.0784208526950470e-02 8.3786967878082905e-03
      1.0425656293359663e-02 8.6422735790513856e-03
      -5.9079068599996202e-03 1.9325796094463088e-03
      -1.1394222424466173e-02 -5.3830382406549601e-03
      -1.8729869414370126e-03 2.8075330857293267e-02
      -1.2315688883472821e-02 4.2274501538186017e-03
      1.7949116974508871e-02 -1.0137101643783543e-02
      2.0971779192702128e-02 5.8455983500138213e-03
      -1.2285746149351557e-02 -2.2338236798547826e-02
      9.2571166854183862e-03 1.7386608717134214e-02
      -5.2280237648078005e-03 1.9735873293300682e-03
      5.0752176688936852e-03 -1.0265832708004749e-02
      5.8406492059030930e-03 -1.6040087081724757e-02
      -7.0017830100622298e-03 2.3153475680549658e-02
      -1.3926944374382386e-02 4.0828605793595291e-04
      2.4545019314403053e-02 -1.1826287111151643e-02
      -1.5382427705281837e-02 4.7629187006851077e-03
      5.3938995419796198e-03 -1.9742757622383880e-02
      1.6026439567089358e-03 -3.3756279149455750e-03
      1.1629145486479142e-02 1.7288299298880840e-02
      -7.9578991899391174e-03 -1.0780044419715017e-02
      -1.7873306200877390e-02 4.6355580722389437e-03
      1.4461111993845354e-02 2.7719746562960858e-02
      -4.4843476750322894e-04 1.3495278338799484e-02
      -6.4234050897877494e-03 -2.5185545366990227e-02
      -9.6600815530040705e-03 -7.6890362999807085e-03
      -2.4449647920375881e-02 -9.9460271176893926e-03
      -2.4808196615780643e-02 -4.8719530121232616e-03
      2.8022085511644556e-04 -1.8403132922405675e-02
      1.5491975477169706e-02 2.3941002828471304e-03
      1.0870573049686302e-02 9.4780188324054826e-03
      -1.4334874570419395e-02 -1.1150607962808416e-02
      8.5905044975767182e-03 2.7550729479829773e-02
      2.0283619256674615e-02 1.5875883065443745e-02
      -2.1225029512041294e-02 -1.8397774880847272e-02
      -1.8210885432770739e-02 -2.7481371906637183e-02
      -1.0447538190721920e-02 -2.4137631925358724e-03
      8.8979566399304821e-03 3.2405837178901206e-02
      2.0605164667423490e-02 4.1823485682351844e-06
      -2.2370079784981692e-02 -5.6340752324589684e-03
      -8.4392821577160358e-04 7.3889344255556068e-04
      1.3674405902801634e-03 1.5954785012334084e-02
      -7.0815661215221110e-03 -5.5138136517749068e-03
      -1.0204493855849293e-03 -3.2149785736012883e-02
      2.5667028106293274e-02 3.4499388049574874e-03
      -1.8261245482144042e-02 2.9316329764455190e-03
      -2.8109056745006466e-03 1.2294637100962914e-02
      4.7653429041922926e-05 2.2056692704158151e-03
      -1.7719025252588506e-03 1.8259282916800859e-02
      -2.2154380125706193e-02 -4.2108008029423018e-03
      3.9215997316931319e-03 1.0816171222910721e-02
      2.5186732005383152e-02 2.3568311489589457e-02
      -9.0374528938621246e-03 -3.1520265902336801e-02
      6.8677261523828938e-03 -2.2677695403655534e-02
      1.7998470805992858e-02 -7.7598374129249697e-03
      4.6993892928920049e-03 -1.0816096944789468e-02
      -2.2051932532046039e-02 -5.3069202778147848e-03
      5.7692412003195531e-03 -8.9223847580439958e-03
      8.8831626978221351e-03 2.0973414761365262e-02
      2.0440237961163290e-03 -1.9425642397162358e-02
      1.1574421951180620e-02 2.5886610413433493e-02
      1.0869826689697928e-02 -5.3032986536178835e-03
      -1.5334974961760237e-02 -2.4233644368711019e-02
      -3.2354721970108594e-02 7.8134230931895619e-03
      -6.4923709885564606e-03 -1.1505000779698193e-02
      4.4336002775397796e-03 1.6029433428360045e-02
      4.1446749970681989e-03 2.1091413000060344e-02
      -2.6374731075356966e-02 2.9638136060568091e-02
      -1.0254343358606824e-02 -1.5369173938654983e-02
      -2.0366778085397132e-02 -1.0294277464448944e-02
      1.5362340066841468e-02 1.1369451700327642e-02
      4.0753892540154088e-02 -2.1850063631964688e-02
      6.1113424071119219e-03 -2.8829888180869758e-02
      7.8911882891954770e-03 1.1342259737924093e-03
      -2.5324336208597514e-02 2.5470701197892629e-03
      -1.1446236326839608e-02 3.8607476206146238e-03
      2.5246102177934434e-02 -2.2228378802204581e-02
      2.1700430131270022e-02 8.4937966543026325e-03
      -1.1915330520728493e-02 1.5992745231536976e-02
      2.3012434418721459e-02 -5.9043385144705923e-03
      -4.1614775888707770e-03 -1.4842116666571639e-02
      -9.1306717598896754e-03 -2.1208656547671949e-02
      -1.2663039900575043e-02 -4.5453648277264625e-03
      7.9814821319926597e-03 -2.2382781813638057e-02
      1.3982412097843856e-02 1.8012367233753292e-02
      1.6804334118003875e-02 2.9019766887324151e-02
      5.8543246682624429e-03 -3.3359335503957564e-03
      -8.1552149910672431e-03 -2.3922783916826312e-02
      -4.5675817680641446e-03 1.4395954432265760e-03
      6.2888941915179471e-03 1.5202961510653527e-02
      -2.9545156408680100e-02 2.2238898947210275e-02
      2.0067038318458290e-02 -2.8261184063031464e-02
      2.2254267303851324e-02 -1.1909124590824023e-02
      1.6624909432690481e-02 3.9131298087298413e-02
      -1.3614832508576804e-02 -1.1433881533627410e-02
      -1.3577758588713492e-02 -1.8014233593851505e-03
      1.3118513638092127e-03 -3.2040307927988765e-03
      -3.1091256711806751e-04 2.1281262263121277e-02
      -8.9605179867252287e-03 -5.9107899179304613e-03
      2.4828831087318214e-02 -2.4868767247177789e-02
      2.8449095121634776e-02 1.7617870390013508e-02
      -1.3491039548577336e-02 -2.4864828258929976e-03
      2.6504242557324420e-02 3.5058985983586668e-03
      -1.4348299573697881e-02 2.5663385957161167e-02
      -5.5947382283130320e-04 2.4709115691483423e-03
      -2.1098758620612907e-02 1.9390923868885423e-02
      8.0442186958322778e-03 3.4286859728335536e-03
      1.3906400882572469e-02 5.3403727406452165e-03
      -2.4729555553123828e-02 -2.1954275187709905e-02
      6.1849324325201063e-03 6.5728502084221761e-03
      1.4029245485099857e-02 -9.9897584592106882e-03
      8.7641784644604884e-03 -9.1268317196432896e-03
      1.7537476214912733e-02 1.2390853938296946e-02
      1.3731845006531520e-02 3.1481272292153258e-02
      1.0551561293000809e-02 3.4734600078593310e-02
      2.6869060417637178e-02 -3.2451389113049636e-02
      -1.6738811835051066e-02 -2.2286758608614708e-02
      -3.3132757083987972e-03 -4.4021859558758883e-03
      -1.2115498020197931e-02 -1.4261421949100414e-02
      -9.4685088124014868e-03 2.1338421283332368e-03
      1.2369676060083719e-02 -1.2270188809776091e-02
      -4.5747786016085276e-03 8.2636191862911197e-04
      -1.2754420600839710e-02 1.4612666995336320e-02
      -6.7461245295761000e-03 1.8924361315223764e-02
      -3.8134555913022302e-03 -1.0577534959378942e-02
      1.8301552893394683e-02 -1.4775492430495283e-02
      -1.5904851736502679e-02 -1.1105773981254403e-02
      6.3091148642110979e-03 9.3303185789363613e-03
      1.3235041060291044e-02 -1.1752636897574463e-02
      -1.5396892539941245e-02 3.5288276908318289e-02
      2.3754527182738995e-02 1.9408113136258440e-02
      -5.7244888996942252e-03 4.8031850365819091e-03
      -1.7539893034113019e-02 2.0054261225297410e-02
      1.6405507451951285e-02 -8.1936346364674950e-03
      -2.3019972784188096e-02 -6.1140645130593526e-03
      3.6782983284926640e-03 -1.7606768656069124e-02
      6.9701207192171856e-03 1.6735989448947126e-02
      -9.5737304615802540e-03 1.1248654144731456e-02
      2.7579762384794841e-03 -6.0110310587051484e-03
      -1.1205292612064630e-02 -9.7148072580914430e-03
      2.1892807437279178e-02 -1.4545323914079665e-02
      -4.1933355995673275e-03 1.6865840863384357e-02
      -1.7832997411399841e-02 1.4943700864570350e-02
      -4.2959552273142913e-03 -2.6507768645798787e-03
      1.5403546558993596e-03 2.0231224116872903e-02
      1.4325794492083779e-02 8.7050621398874067e-03
      7.1241022615841174e-03 1.2402557384395184e-02
      -4.5970253270604146e-03 4.2149801470178824e-03
      5.5212931044083752e-03 -4.2032514783067595e-03
      -4.6624478500488049e-03 1.7217673723033001e-02
      -2.0026795596688258e-02 -1.0966101013827638e-02
      1.2378161905571422e-02 -7.4872685079234629e-03
      3.6224386540692874e-03 6.0169463227211645e-03
      -1.7103775901504463e-02 -2.1055087466143110e-02
      1.8684989974700212e-02 -2.8349208540281046e-03
      -1.2649618847794600e-02 8.5236321043152801e-03
      5.8573829507908492e-03 -3.6324987787761513e-03
      -5.8842696196451513e-03 -1.1494998598955062e-02
      -2.2689018949476267e-03 2.2780137389763568e-02
      6.2517484871500682e-03 9.3069086246882621e-03
      -1.6289323316638987e-02 2.5055097020326260e-02
      1.0464391462788205e-02 2.4162365670917660e-02
      1.3010848714138139e-02 -1.5331680842122332e-02
      -1.5301414777545243e-02 -9.3966401430783889e-03
      2.1514413827533621e-02 2.8265426996620805e-03
      -1.8966879766797902e-02 -1.0330482498601593e-02
      8.7201904698405285e-03 1.4851154653172950e-02
      -1.3716376104393919e-02 3.7975638007249347e-04
      -1.6797153104673879e-02 -3.0939001004581276e-03
      2.3127776892947587e-03 1.7457953616302049e-02
      -4.6740314605166878e-04 4.9468626259862843e-03
      2.4680094596842947e-03 1.5063256893013384e-03
      5.8271647811293167e-03 3.3258779304956039e-04
      -9.0176125817142128e-03 -8.1714955458527787e-03
      1.8420453166020194e-02 1.3459025592557712e-02
      1.5695292979717008e-02 1.0132115485736806e-02
      6.0812182624976011e-03 1.8311031925285715e-02
      -2.9955888727114521e-03 -7.7992564041842287e-03
      -1.7054191004414042e-02 -1.3238649069191229e-02
      -6.8385692028044972e-03 4.8235075692824167e-03
      1.2076679668342943e-02 1.8059360663563655e-02
      9.0006432890703605e-03 -6.9417883426616273e-03
      -1.9144424609851942e-04 1.3217200872315234e-02
      -3.7712408684816168e-03 4.1021634164989593e-03
      9.8293042713224425e-03 -8.6039994677965040e-03
      -1.8347872943372152e-03 1.3579135355679475e-02
      1.2324065010891221e-02 -1.7728267015102366e-02
      6.0481018688651519e-03 -1.8715688966709436e-02
      -9.3844449198405098e-03 -5.6276565666084372e-03
      -3.9858073112121117e-03 1.8104314774916044e-02
      -2.0226116627135450e-02 1.5417237260982377e-02
      -1.5557324318399743e-02 1.2629297410586734e-02
      1.6074220914903944e-02 -1.7603544025872955e-02
      3.8246016938267486e-03 -7.8439102091005415e-03
      2.7261826877814730e-03 -1.4969286562124635e-02
      -4.7952799305304855e-03 -1.4700310450644120e-02
      -1.7210854305138280e-02 -2.4878750075341502e-02
      -8.1299499704841835e-03 1.4680753405472058e-03
      8.7252544454541059e-03 -1.7528838089918165e-02
      -1.6411557550987044e-02 -1.0607071619456203e-02
      6.3167866497041867e-03 -1.5248971513357700e-02
      1.3891158203981171e-02 -9.9347652438966146e-03
      -1.6650020144784537e-02 8.7269271090865477e-03
      6.5290238186844624e-03 3.4773028529463974e-03
      1.0641365809581915e-02 -1.1085080550559985e-02
      1.8767207681266277e-02 -1.3904442650843080e-02
      -8.0560920549249525e-03 -7.3382016446296716e-03
      -1.2599712613934609e-02 1.5968897603223248e-02
      1.9676185346709601e-02 -1.8537543160479879e-02
      -2.5221559952868139e-04 1.4367649379437672e-02
      1.5504206260878187e-02 -1.8738032234960920e-02
      -1.3498686246685501e-03 3.5761016633669511e-03
      -1.2956413542456672e-02 7.8296782196487207e-03
      -1.4370677105860329e-02 1.8143449146212767e-02
      -2.5575432219382046e-03 8.7232604547739599e-03
      1.3669320432470723e-02 -1.5147300495477187e-03
      -2.3275005185117211e-03 -6.8893490199042886e-03
      1.6699004669140462e-02 1.4754110625321483e-03
      2.7734940798389070e-02 2.0500159283577010e-02
      1.6001834307159122e-03 2.8605418670264938e-02
      -2.0702119005166695e-02 -1.4063308728826901e-03
      -1.2705026543320405e-02 -8.7279457330897616e-03
      -9.8855805837264332e-03 -4.0714769109036772e-03
      -6.3067358014039197e-03 -2.9359910549728928e-03
      -2.9337866499403820e-04 -2.8002602774264855e-02
      -5.2302524821681298e-04 -2.4343176170913399e-03
      -2.7751817765765442e-02 2.1622662083859351e-02
      -2.5679191110880784e-02 -2.4745282714513598e-02
      6.7455538493696766e-03 -2.0980824510374164e-03
      9.3856742621784579e-03 2.5013146973782732e-02
      4.9981705108549136e-03 1.8525425887100648e-02
      -2.1149052288972896e-02 -1.8354753423884575e-02
      -1.3301773040797431e-02 9.0782306029040753e-03
      9.3375525595745877e-04 4.2433543287041564e-04
      -2.2418611352759816e-02 -2.3403247126977791e-02
      -4.0173907849926121e-04 -1.8856641831177402e-03
      1.0904977117059685e-02 7.5582432892566517e-03
      -2.9738156851681799e-03 3.8064307562011887e-02
      2.0522160451279099e-02 1.2987451917515479e-02
      3.5837632259965412e-03 1.1598176130151286e-02
      3.2878329180891279e-02 -5.8233045229687305e-03
      -2.5405181382116022e-02 -6.0091652370770667e-03
      1.5503095485796775e-03 -2.0506004685809251e-02
      4.4264219923480690e-03 -3.9579460629705118e-02
      1.0828836011512104e-03 7.8676453765605635e-03
      2.1841004618201902e-03 -2.4691362871315955e-02
      -9.8868364385852996e-03 3.7229501743090136e-02
      5.5733089742643141e-03 -1.1447793475276790e-02
      1.1509949360681447e-02 -1.8014563878721513e-02
      -2.3081763358073642e-02 1.7642509367474702e-04
      -3.2326940686119736e-02 7.2989857755392743e-03
      -1.1367962379218825e-02 2.3719630791512708e-02
      -2.8490284610827341e-02 -3.7422932991982877e-02
      1.7951737000051853e-02 -4.9344030708383824e-03
      -2.1083824851877097e-03 -2.1834091120782589e-02
      -1.3162855146576533e-02 1.1984070912492591e-03
      -9.7862310713286074e-03 -2.0722360219417729e-02
      9.2185081406746406e-03 -1.2316277313714733e-02
      -4.6308650699104113e-03 1.7256498169775036e-02
      -4.4894763626512138e-03 5.1867349846667849e-03
      1.5425741279130802e-02 1.4511155683106246e-02
      1.6551986478064034e-02 8.0751282018853808e-03
      5.1122215082835100e-03 8.9954912099318614e-03
      -2.8223077164214207e-02 -2.6485123820102700e-02
      2.2139509940184536e-03 -6.9796033978436868e-03
      9.3856867023103211e-04 4.3007429064143869e-03
      -5.0976025202612392e-03 2.9439078042887586e-02
      1.5839842774780438e-02 2.0329112030637947e-02
      1.0319476880848121e-02 -1.7147429313468368e-02
      -4.0596073948300868e-03 -6.0026537780989370e-03
      -5.5653644646309671e-03 -6.7146158733210797e-03
      -1.0760248039144467e-02 -3.0391424969449746e-03
      -1.8119015323879724e-02 2.8808541340167833e-03
      -8.7208714836829113e-03 -1.9557882114059039e-02
      3.1613712428375080e-03 1.2021824033466133e-02
      4.2868684702815310e-05 -1.5097720482388511e-02
      -3.6435603369070542e-04 1.6405935919946241e-02
      -1.3736268924227133e-02 7.4136238094141002e-03
      2.0071422128516245e-02 2.0227501809035567e-03
      -1.6561133666042258e-02 -1.9815123382525886e-02
      -1.3593597025358790e-02 -2.2242674860692901e-03
      5.7830134423727643e-03 -1.3624735358729941e-02
      -2.0466537508732816e-02 7.6432012871508357e-03
      4.0249235930394202e-03 -2.1512231988116921e-02
      -7.1241242831391023e-03 1.7208430035135829e-02
      -7.1540068078459387e-03 -8.1613842723670255e-03
      2.2102053066181799e-03 -2.0133196584585580e-03
      -1.1035161216938700e-02 9.4399565151108283e-03
      6.5181632533973044e-03 -7.1460830299320162e-03
      7.4996924237660844e-03 -2.3388271409631569e-03
      -2.1900753810063216e-02 1.6657994059855765e-02
      1.0205775487123561e-02 1.4572036861598338e-02
      1.7886329225257076e-02 -1.0342819684485109e-02
      1.5359541287759130e-02 -1.2550089855220147e-02
      8.1429776458754738e-03 -1.5624689484244022e-03
      1.3851137746993514e-03 -1.9833394262916575e-02
      1.2759527652847788e-02 -9.9174637765786391e-04
      9.8548951272081683e-03 -3.7767444750671153e-04
      -3.1025634404600352e-03 1.3931167267126406e-02
      5.8235475199371533e-03 -1.3177598345634830e-02
      2.5306474750324724e-04 1.7979750978063511e-02
      -1.6575326603035657e-02 1.4898089436588767e-02
      -1.2104730113792154e-02 1.5430408268770254e-02
      1.3003987499343060e-02 -1.0816663800251166e-02
      -1.8933132414196063e-03 -1.3659109188094024e-02
      -2.8129326843518419e-03 -4.2790882878441282e-03
      -7.8132452121990794e-03 -1.4058628209595964e-02
      3.5533585137025696e-03 -3.2987340802916702e-03
      -2.0683528418917435e-02 1.4008378430098162e-02
      -1.1625442744833537e-02 1.1406969235100527e-02
      -1.4450721416684572e-02 6.1410219234213975e-03
      -4.1811359450165649e-03 -1.1904255301045939e-02
      -1.5260381464352629e-02 -1.7587366618126876e-02
      1.0169653512666278e-02 2.0918534148709204e-02
      8.2683097808586795e-03 3.7134055252576550e-03
      2.1325916416601105e-02 8.1765274127802937e-03
      1.3343089091968442e-02 1.0901935497601014e-02
      -3.8702438932377518e-03 1.2790117813301059e-02
      1.0079434460511299e-02 1.0491118753383928e-03
      -1.4070023595267931e-02 -1.9611479108391790e-02
      5.4988034818692936e-03 -8.5183940245106820e-03
      5.0025263774173181e-03 -4.6556201365939671e-03
      2.7987723409095030e-03 8.7657267213892710e-03
      1.2408942050272719e-02 -9.4530218367138170e-03
      -1.1517258553647569e-02 1.6303642908373415e-02
      -1.3949016356655103e-02 2.1242651665479863e-04
      -1.9471819110473725e-02 -1.0229493396420106e-02
      -1.4648100476666362e-02 -1.7265042848469012e-02
      7.8490822144079413e-03 -7.2799888406826574e-03
      -9.0918906033372725e-03 -9.4413148991557821e-03
      5.4968762321920715e-03 -1.1589624367266120e-02
      1.0375326021001359e-02 -1.3197314100951241e-04
      -5.6529563644606212e-03 -1.4720240606602481e-02
      1.8932619361873286e-02 -1.5415412515452774e-02
      1.4339671136677220e-02 -8.4256252468343264e-03
      7.6293492597274883e-03 1.8994974959498802e-04
      -8.8335282066406731e-04 -6.8482844189192635e-03
      -5.0749135232539483e-03 -1.0185039501669003e-02
      3.1452379589747975e-03 -8.0159644472732449e-03
      -4.1840701243547477e-03 -1.3628873559324971e-02
      -2.7673388311131083e-03 -1.1398519168850076e-02
      1.2762463239351591e-02 -7.0574527286623202e-03
      1.6947147860078084e-02 -1.1504312242992996e-02
      9.3041603338386257e-03 -2.4363235219154105e-02
      -1.9526874803499152e-02 -9.2040431012011866e-03
      -1.1597119309813154e-02 -6.1263488735430836e-03
      4.6637723911558179e-03 1.1856287493058412e-02
      1.5494066601001522e-03 -9.3863145318205023e-03
      -1.4549600486989488e-02 2.9562500537977927e-03
      -6.1598558887775937e-03 -5.3834118138938692e-03
      5.3785819933306195e-03 -1.9871384274797572e-02
      1.7046052438164287e-03 -2.1561971152509714e-03
      1.2627302754922630e-02 -5.5139860383156625e-03
      1.2067130788969442e-02 1.2575003533954777e-02
      -1.1360460578811314e-02 -1.9413463285797170e-02
      5.4610692225855965e-03 1.7639584759320898e-02
      -3.4588531773164463e-03 5.6624821063160176e-03
      1.6550189186954171e-02 -9.3543784015896886e-03
      -1.6972326051641364e-02 1.1297510568015716e-02
      1.0058617158682039e-02 4.6253692434711433e-03
      9.9649598529875250e-03 1.5352629564027595e-02
      4.1265262429637873e-03 1.8209953378578021e-02
      -1.8206887009056802e-02 1.0730296590417913e-03
      1.2946243493283585e-02 -8.2258480820787388e-03
      -6.6178451345548263e-03 1.3277026219771995e-02
      -5.8400784667139325e-03 1.1135063920016527e-02
      8.4958509064793648e-03 2.0243410938002124e-02
      1.9664506511823051e-02 1.3274367244528762e-02
      -9.0790886289913858e-03 -8.0019075215166900e-03
      -1.8348943384221784e-03 -3.1844567417725670e-03
      -1.0926939562488030e-02 1.4413760989555786e-02
      -1.5858731864634762e-03 -7.1796007794427191e-03
      -7.1496840922673785e-03 -1.7916014515186551e-02
      8.8157525874092615e-03 2.0772243502562560e-02
      -9.4138164438025713e-03 -8.1725402057427985e-03
      1.2385610262410654e-02 2.0465033105198580e-02
      -4.9593369908096929e-03 1.5690776167411654e-02
      1.5123789849504734e-03 6.0059840847658530e-03
      -1.1594070488264011e-02 1.0293320049111990e-03
      -3.3363913141140878e-03 3.3917434668839029e-02
      -1.4624344118096730e-02 2.1681045770818703e-02
      9.0241740998901684e-03 2.2105685588915666e-02
      2.2035208042517768e-02 6.8669384232479831e-03
      -1.7387120437323666e-02 5.5149802002819228e-05
      -9.0286423172653302e-03 -1.1691302387034653e-02
      1.0422567762747300e-02 -1.9796703161142754e-02
      -2.0285190539577898e-02 9.2314932648678363e-03
      -1.1101483858716331e-02 1.8742640908515813e-02
      1.9782238504027830e-02 -9.0701043699337527e-03
      1.3395186543539132e-02 -1.9291637077830149e-03
      5.1434631278963455e-03 1.3703243963430968e-03
      -1.8262293544655927e-02 4.9953154036989659e-03
      3.4781397606554200e-03 -1.5946148109178552e-02
      4.4314863675351552e-03 -1.0742891180722894e-02
      2.0794831745405879e-02 2.1144118364283860e-02
      -1.7401311564852560e-02 7.8265186242962705e-04
      -3.8824667585788068e-03 2.5483435859467510e-02
      1.4062752922584763e-02 5.8444211832881128e-04
      -8.9498089234973724e-03 1.4553229671398053e-02
      -1.2617375690664491e-02 2.7562700209299164e-02
      -1.5063802361295954e-02 -1.1726892846646492e-02
      3.0829912948050139e-03 1.1070249658549005e-03
      -2.7460478525116336e-02 -3.3310661402793471e-02
      4.7404583457548140e-03 -2.3812632645213667e-02
      1.5735797573666034e-02 -2.5328698734854983e-02
      1.4894169729342894e-02 7.0248397192212639e-03
      -5.3788617176485729e-03 5.4797920479346465e-03
      1.4054442591487188e-02 -1.0105382080912712e-02
      -1.8814294623785369e-02 1.2236490962075601e-02
      -6.5343713218569679e-03 1.5757446878331118e-02
      1.3490362130124427e-02 1.9403415936523523e-03
      -1.6711013372949991e-02 -9.9863688872904605e-03
      -1.7331290418601018e-02 4.3937925157795992e-03
      -3.9389565706124544e-03 -2.0141186869536972e-02
      9.4463818932190237e-04 -1.2248012654215523e-02
      1.4471410575839103e-02 -8.5424323709418367e-04
      -1.3416753772381855e-02 1.6532333082790261e-02
      -8.5347403821784563e-03 6.5547962029468328e-03
      -3.0798646291982878e-02 -1.4756385029915723e-02
      -9.2694746861444379e-03 -9.8166403184916755e-03
      5.3335134155825976e-03 -1.1842018346668500e-02
      1.1343491525368291e-02 3.8214638476643560e-03
      8.7346098121759298e-03 -2.1669325334540911e-03
      -1.0616018657564152e-02 3.2101829070525388e-04
      -1.1812200024717234e-02 7.8057195969780661e-05
