<?xml version="1.0"?>
<opencv_storage>
<opencv_ml_rtrees>
  <format>3</format>
  <is_classifier>0</is_classifier>
  <var_all>15</var_all>
  <var_count>14</var_count>
  <ord_var_count>15</ord_var_count>
  <cat_var_count>0</cat_var_count>
  <training_params>
    <use_surrogates>0</use_surrogates>
    <max_categories>2</max_categories>
    <regression_accuracy>9.9999997764825821e-03</regression_accuracy>
    <max_depth>5</max_depth>
    <min_sample_count>2</min_sample_count>
    <cross_validation_folds>0</cross_validation_folds>
    <nactive_vars>0</nactive_vars></training_params>
  <global_var_idx>1</global_var_idx>
  <var_idx>
    0 1 2 3 4 5 6 7 8 9 10 11 12 13</var_idx>
  <var_type>
    0 0 0 0 0 0 0 0 0 0 0 0 0 0 0</var_type>
  <cat_ofs>
    0 0 0 0 0 0 0 0 0 0 0 0 0 0 0 0 0 0 0 0 0 0 0 0 0 0 0 0</cat_ofs>
  <missing_subst>
    0. 0. 0. 0. 0. 0. 0. 0. 0. 0. 0. 0. 0. 0. 0.</missing_subst>
  <oob_error>0.</oob_error>
  <ntrees>100</ntrees>
  <trees>
    <_>
      <nodes>
        <_>
          <depth>0</depth>
          <value>4.8648648648648651e-01</value>
          <splits>
            <_><var>8</var>
              <quality>7.4887252807617188e+01</quality>
              <le>7.1723550558090210e-02</le></_></splits></_>
        <_>
          <depth>1</depth>
          <value>4.4852941176470590e-01</value>
          <splits>
            <_><var>5</var>
              <quality>5.7287445068359375e+01</quality>
              <le>5.9557899832725525e-02</le></_></splits></_>
        <_>
          <depth>2</depth>
          <value>5.4285714285714282e-01</value>
          <splits>
            <_><var>3</var>
              <quality>4.6693256378173828e+01</quality>
              <le>8.0228343605995178e-02</le></_></splits></_>
        <_>
          <depth>3</depth>
          <value>3.2812500000000000e-01</value>
          <splits>
            <_><var>3</var>
              <quality>9.1875000000000000e+00</quality>
              <le>4.4094350188970566e-02</le></_></splits></_>
        <_>
          <depth>4</depth>
          <value>0.</value></_>
        <_>
          <depth>4</depth>
          <value>4.3750000000000000e-01</value>
          <splits>
            <_><var>12</var>
              <quality>1.1550000190734863e+01</quality>
              <le>1.2350549921393394e-02</le></_></splits></_>
        <_>
          <depth>5</depth>
          <value>2.5000000000000000e-01</value></_>
        <_>
          <depth>5</depth>
          <value>6.9999999999999996e-01</value></_>
        <_>
          <depth>3</depth>
          <value>7.2368421052631582e-01</value>
          <splits>
            <_><var>1</var>
              <quality>4.2013889312744141e+01</quality>
              <le>7.0156052708625793e-02</le></_></splits></_>
        <_>
          <depth>4</depth>
          <value>0.</value></_>
        <_>
          <depth>4</depth>
          <value>7.6388888888888884e-01</value>
          <splits>
            <_><var>11</var>
              <quality>4.3254547119140625e+01</quality>
              <le>1.4468999579548836e-02</le></_></splits></_>
        <_>
          <depth>5</depth>
          <value>1.</value></_>
        <_>
          <depth>5</depth>
          <value>6.9090909090909092e-01</value></_>
        <_>
          <depth>2</depth>
          <value>3.4848484848484851e-01</value>
          <splits>
            <_><var>6</var>
              <quality>18.</quality>
              <le>6.5471455454826355e-02</le></_></splits></_>
        <_>
          <depth>3</depth>
          <value>2.5000000000000000e-01</value>
          <splits>
            <_><var>5</var>
              <quality>7.2615385055541992e+00</quality>
              <le>1.0266649723052979e-01</le></_></splits></_>
        <_>
          <depth>4</depth>
          <value>1.6923076923076924e-01</value>
          <splits>
            <_><var>2</var>
              <quality>5.5999999046325684e+00</quality>
              <le>8.1891149282455444e-02</le></_></splits></_>
        <_>
          <depth>5</depth>
          <value>1.</value></_>
        <_>
          <depth>5</depth>
          <value>1.0000000000000001e-01</value></_>
        <_>
          <depth>4</depth>
          <value>5.9999999999999998e-01</value>
          <splits>
            <_><var>12</var>
              <quality>6.2307691574096680e+00</quality>
              <le>2.8583100065588951e-02</le></_></splits></_>
        <_>
          <depth>5</depth>
          <value>6.9230769230769229e-01</value></_>
        <_>
          <depth>5</depth>
          <value>0.</value></_>
        <_>
          <depth>3</depth>
          <value>5.0000000000000000e-01</value>
          <splits>
            <_><var>8</var>
              <quality>1.6058822631835938e+01</quality>
              <le>2.9859799891710281e-02</le></_></splits></_>
        <_>
          <depth>4</depth>
          <value>1.6666666666666666e-01</value>
          <splits>
            <_><var>1</var>
              <quality>2.0625000000000000e+00</quality>
              <le>3.3099299669265747e-01</le></_></splits></_>
        <_>
          <depth>5</depth>
          <value>6.2500000000000000e-02</value></_>
        <_>
          <depth>5</depth>
          <value>1.</value></_>
        <_>
          <depth>4</depth>
          <value>6.7647058823529416e-01</value>
          <splits>
            <_><var>7</var>
              <quality>1.8305555343627930e+01</quality>
              <le>5.7991798967123032e-02</le></_></splits></_>
        <_>
          <depth>5</depth>
          <value>9.4444444444444442e-01</value></_>
        <_>
          <depth>5</depth>
          <value>3.7500000000000000e-01</value></_>
        <_>
          <depth>1</depth>
          <value>9.1666666666666663e-01</value>
          <splits>
            <_><var>11</var>
              <quality>22.</quality>
              <le>7.1248047053813934e-02</le></_></splits></_>
        <_>
          <depth>2</depth>
          <value>1.</value></_>
        <_>
          <depth>2</depth>
          <value>0.</value></_></nodes></_>
    <_>
      <nodes>
        <_>
          <depth>0</depth>
          <value>4.7635135135135137e-01</value>
          <splits>
            <_><var>4</var>
              <quality>7.1480415344238281e+01</quality>
              <le>6.6141851246356964e-02</le></_></splits></_>
        <_>
          <depth>1</depth>
          <value>3.0208333333333331e-01</value>
          <splits>
            <_><var>4</var>
              <quality>1.1065789222717285e+01</quality>
              <le>6.1106301844120026e-02</le></_></splits></_>
        <_>
          <depth>2</depth>
          <value>3.8157894736842107e-01</value>
          <splits>
            <_><var>0</var>
              <quality>1.6173076629638672e+01</quality>
              <le>4.3089199066162109e-01</le></_></splits></_>
        <_>
          <depth>3</depth>
          <value>5.5769230769230771e-01</value>
          <splits>
            <_><var>6</var>
              <quality>1.8407066345214844e+01</quality>
              <le>3.6003150045871735e-02</le></_></splits></_>
        <_>
          <depth>4</depth>
          <value>3.8709677419354838e-01</value>
          <splits>
            <_><var>10</var>
              <quality>6.0904760360717773e+00</quality>
              <le>1.9519099965691566e-02</le></_></splits></_>
        <_>
          <depth>5</depth>
          <value>2.3809523809523808e-01</value></_>
        <_>
          <depth>5</depth>
          <value>6.9999999999999996e-01</value></_>
        <_>
          <depth>4</depth>
          <value>8.0952380952380953e-01</value>
          <splits>
            <_><var>13</var>
              <quality>1.5285714149475098e+01</quality>
              <le>8.6726956069469452e-03</le></_></splits></_>
        <_>
          <depth>5</depth>
          <value>4.2857142857142855e-01</value></_>
        <_>
          <depth>5</depth>
          <value>1.</value></_>
        <_>
          <depth>3</depth>
          <value>0.</value></_>
        <_>
          <depth>2</depth>
          <value>0.</value></_>
        <_>
          <depth>1</depth>
          <value>5.6000000000000005e-01</value>
          <splits>
            <_><var>10</var>
              <quality>6.5151367187500000e+01</quality>
              <le>4.6346098184585571e-02</le></_></splits></_>
        <_>
          <depth>2</depth>
          <value>5.9776536312849160e-01</value>
          <splits>
            <_><var>0</var>
              <quality>6.7780105590820312e+01</quality>
              <le>3.2093048095703125e-01</le></_></splits></_>
        <_>
          <depth>3</depth>
          <value>8.8888888888888884e-01</value>
          <splits>
            <_><var>10</var>
              <quality>2.8938461303710938e+01</quality>
              <le>1.8350251019001007e-02</le></_></splits></_>
        <_>
          <depth>4</depth>
          <value>6.9999999999999996e-01</value>
          <splits>
            <_><var>4</var>
              <quality>7.</quality>
              <le>7.4197351932525635e-02</le></_></splits></_>
        <_>
          <depth>5</depth>
          <value>1.</value></_>
        <_>
          <depth>5</depth>
          <value>0.</value></_>
        <_>
          <depth>4</depth>
          <value>9.6153846153846156e-01</value>
          <splits>
            <_><var>5</var>
              <quality>2.4200000762939453e+01</quality>
              <le>6.9217100739479065e-02</le></_></splits></_>
        <_>
          <depth>5</depth>
          <value>1.</value></_>
        <_>
          <depth>5</depth>
          <value>8.0000000000000004e-01</value></_>
        <_>
          <depth>3</depth>
          <value>5.2447552447552448e-01</value>
          <splits>
            <_><var>5</var>
              <quality>4.2841949462890625e+01</quality>
              <le>1.0243849456310272e-01</le></_></splits></_>
        <_>
          <depth>4</depth>
          <value>4.1836734693877553e-01</value>
          <splits>
            <_><var>3</var>
              <quality>1.8969444274902344e+01</quality>
              <le>2.3061500489711761e-01</le></_></splits></_>
        <_>
          <depth>5</depth>
          <value>3.7777777777777777e-01</value></_>
        <_>
          <depth>5</depth>
          <value>8.7500000000000000e-01</value></_>
        <_>
          <depth>4</depth>
          <value>7.5555555555555554e-01</value>
          <splits>
            <_><var>0</var>
              <quality>2.7023809432983398e+01</quality>
              <le>6.0370999574661255e-01</le></_></splits></_>
        <_>
          <depth>5</depth>
          <value>5.7142857142857140e-01</value></_>
        <_>
          <depth>5</depth>
          <value>9.1666666666666663e-01</value></_>
        <_>
          <depth>2</depth>
          <value>2.3809523809523808e-01</value>
          <splits>
            <_><var>10</var>
              <quality>4.0588235855102539e+00</quality>
              <le>7.1966297924518585e-02</le></_></splits></_>
        <_>
          <depth>3</depth>
          <value>5.8823529411764705e-02</value>
          <splits>
            <_><var>7</var>
              <quality>1.</quality>
              <le>4.1170448064804077e-02</le></_></splits></_>
        <_>
          <depth>4</depth>
          <value>1.</value></_>
        <_>
          <depth>4</depth>
          <value>0.</value></_>
        <_>
          <depth>3</depth>
          <value>1.</value></_></nodes></_>
    <_>
      <nodes>
        <_>
          <depth>0</depth>
          <value>5.3040540540540537e-01</value>
          <splits>
            <_><var>9</var>
              <quality>8.9749832153320312e+01</quality>
              <le>3.5986650735139847e-02</le></_></splits></_>
        <_>
          <depth>1</depth>
          <value>4.2713567839195982e-01</value>
          <splits>
            <_><var>3</var>
              <quality>4.0343872070312500e+01</quality>
              <le>1.0099999606609344e-01</le></_></splits></_>
        <_>
          <depth>2</depth>
          <value>5.6190476190476191e-01</value>
          <splits>
            <_><var>1</var>
              <quality>3.5555881500244141e+01</quality>
              <le>1.0768249630928040e-01</le></_></splits></_>
        <_>
          <depth>3</depth>
          <value>2.5000000000000000e-01</value>
          <splits>
            <_><var>9</var>
              <quality>3.2352941036224365e+00</quality>
              <le>2.7177900075912476e-02</le></_></splits></_>
        <_>
          <depth>4</depth>
          <value>1.1764705882352941e-01</value>
          <splits>
            <_><var>13</var>
              <quality>1.0625000000000000e+00</quality>
              <le>2.7572100516408682e-03</le></_></splits></_>
        <_>
          <depth>5</depth>
          <value>1.</value></_>
        <_>
          <depth>5</depth>
          <value>6.2500000000000000e-02</value></_>
        <_>
          <depth>4</depth>
          <value>1.</value></_>
        <_>
          <depth>3</depth>
          <value>6.3529411764705879e-01</value>
          <splits>
            <_><var>2</var>
              <quality>3.6453334808349609e+01</quality>
              <le>2.2087898850440979e-01</le></_></splits></_>
        <_>
          <depth>4</depth>
          <value>6.9333333333333336e-01</value>
          <splits>
            <_><var>1</var>
              <quality>3.7814285278320312e+01</quality>
              <le>1.9890150427818298e-01</le></_></splits></_>
        <_>
          <depth>5</depth>
          <value>5.5000000000000004e-01</value></_>
        <_>
          <depth>5</depth>
          <value>8.5714285714285710e-01</value></_>
        <_>
          <depth>4</depth>
          <value>2.0000000000000001e-01</value>
          <splits>
            <_><var>7</var>
              <quality>1.3333333730697632e+00</quality>
              <le>2.8343850746750832e-02</le></_></splits></_>
        <_>
          <depth>5</depth>
          <value>6.6666666666666663e-01</value></_>
        <_>
          <depth>5</depth>
          <value>0.</value></_>
        <_>
          <depth>2</depth>
          <value>2.7659574468085107e-01</value>
          <splits>
            <_><var>4</var>
              <quality>1.0545454978942871e+01</quality>
              <le>1.8321999907493591e-01</le></_></splits></_>
        <_>
          <depth>3</depth>
          <value>2.2727272727272727e-01</value>
          <splits>
            <_><var>5</var>
              <quality>6.7272725105285645e+00</quality>
              <le>4.3785199522972107e-02</le></_></splits></_>
        <_>
          <depth>4</depth>
          <value>5.0000000000000000e-01</value>
          <splits>
            <_><var>6</var>
              <quality>8.4333333969116211e+00</quality>
              <le>3.0695650726556778e-02</le></_></splits></_>
        <_>
          <depth>5</depth>
          <value>9.0000000000000002e-01</value></_>
        <_>
          <depth>5</depth>
          <value>1.6666666666666666e-01</value></_>
        <_>
          <depth>4</depth>
          <value>1.3636363636363635e-01</value>
          <splits>
            <_><var>11</var>
              <quality>3.5714285373687744e+00</quality>
              <le>5.5108550935983658e-02</le></_></splits></_>
        <_>
          <depth>5</depth>
          <value>9.5238095238095233e-02</value></_>
        <_>
          <depth>5</depth>
          <value>1.</value></_>
        <_>
          <depth>3</depth>
          <value>1.</value></_>
        <_>
          <depth>1</depth>
          <value>7.4226804123711343e-01</value>
          <splits>
            <_><var>3</var>
              <quality>6.0022766113281250e+01</quality>
              <le>8.4641151130199432e-02</le></_></splits></_>
        <_>
          <depth>2</depth>
          <value>1.3333333333333333e-01</value>
          <splits>
            <_><var>2</var>
              <quality>1.0714285373687744e+00</quality>
              <le>6.9137096405029297e-02</le></_></splits></_>
        <_>
          <depth>3</depth>
          <value>1.</value></_>
        <_>
          <depth>3</depth>
          <value>7.1428571428571425e-02</value>
          <splits>
            <_><var>5</var>
              <quality>1.</quality>
              <le>1.3645249605178833e-01</le></_></splits></_>
        <_>
          <depth>4</depth>
          <value>0.</value></_>
        <_>
          <depth>4</depth>
          <value>1.</value></_>
        <_>
          <depth>2</depth>
          <value>8.5365853658536583e-01</value>
          <splits>
            <_><var>4</var>
              <quality>6.0938774108886719e+01</quality>
              <le>1.4182499051094055e-01</le></_></splits></_>
        <_>
          <depth>3</depth>
          <value>7.5510204081632648e-01</value>
          <splits>
            <_><var>4</var>
              <quality>3.0028572082519531e+01</quality>
              <le>1.2398800253868103e-01</le></_></splits></_>
        <_>
          <depth>4</depth>
          <value>8.8571428571428568e-01</value>
          <splits>
            <_><var>3</var>
              <quality>2.8264705657958984e+01</quality>
              <le>2.3286250233650208e-01</le></_></splits></_>
        <_>
          <depth>5</depth>
          <value>9.1176470588235292e-01</value></_>
        <_>
          <depth>5</depth>
          <value>0.</value></_>
        <_>
          <depth>4</depth>
          <value>4.2857142857142855e-01</value>
          <splits>
            <_><var>9</var>
              <quality>4.5000000000000000e+00</quality>
              <le>4.5497398823499680e-02</le></_></splits></_>
        <_>
          <depth>5</depth>
          <value>0.</value></_>
        <_>
          <depth>5</depth>
          <value>7.5000000000000000e-01</value></_>
        <_>
          <depth>3</depth>
          <value>1.</value></_></nodes></_>
    <_>
      <nodes>
        <_>
          <depth>0</depth>
          <value>5.4391891891891897e-01</value>
          <splits>
            <_><var>4</var>
              <quality>9.1089286804199219e+01</quality>
              <le>1.8104499578475952e-01</le></_></splits></_>
        <_>
          <depth>1</depth>
          <value>5.1785714285714290e-01</value>
          <splits>
            <_><var>0</var>
              <quality>8.2570335388183594e+01</quality>
              <le>4.4796448945999146e-01</le></_></splits></_>
        <_>
          <depth>2</depth>
          <value>6.5838509316770188e-01</value>
          <splits>
            <_><var>11</var>
              <quality>7.6207145690917969e+01</quality>
              <le>8.1720743328332901e-03</le></_></splits></_>
        <_>
          <depth>3</depth>
          <value>1.4285714285714285e-01</value>
          <splits>
            <_><var>8</var>
              <quality>1.2000000476837158e+00</quality>
              <le>5.5578500032424927e-02</le></_></splits></_>
        <_>
          <depth>4</depth>
          <value>1.0000000000000001e-01</value>
          <splits>
            <_><var>7</var>
              <quality>1.0526316165924072e+00</quality>
              <le>9.0412646532058716e-03</le></_></splits></_>
        <_>
          <depth>5</depth>
          <value>1.</value></_>
        <_>
          <depth>5</depth>
          <value>5.2631578947368418e-02</value></_>
        <_>
          <depth>4</depth>
          <value>1.</value></_>
        <_>
          <depth>3</depth>
          <value>7.3571428571428577e-01</value>
          <splits>
            <_><var>5</var>
              <quality>7.9766914367675781e+01</quality>
              <le>1.7223250120878220e-02</le></_></splits></_>
        <_>
          <depth>4</depth>
          <value>0.</value></_>
        <_>
          <depth>4</depth>
          <value>7.7443609022556392e-01</value>
          <splits>
            <_><var>0</var>
              <quality>8.1374153137207031e+01</quality>
              <le>3.4854850172996521e-01</le></_></splits></_>
        <_>
          <depth>5</depth>
          <value>6.9047619047619047e-01</value></_>
        <_>
          <depth>5</depth>
          <value>9.1836734693877553e-01</value></_>
        <_>
          <depth>2</depth>
          <value>3.2773109243697479e-01</value>
          <splits>
            <_><var>4</var>
              <quality>1.6354839324951172e+01</quality>
              <le>6.6109552979469299e-02</le></_></splits></_>
        <_>
          <depth>3</depth>
          <value>0.</value></_>
        <_>
          <depth>3</depth>
          <value>4.1935483870967744e-01</value>
          <splits>
            <_><var>4</var>
              <quality>1.8943372726440430e+01</quality>
              <le>7.1165099740028381e-02</le></_></splits></_>
        <_>
          <depth>4</depth>
          <value>9.0000000000000002e-01</value>
          <splits>
            <_><var>2</var>
              <quality>9.</quality>
              <le>1.3518199324607849e-01</le></_></splits></_>
        <_>
          <depth>5</depth>
          <value>0.</value></_>
        <_>
          <depth>5</depth>
          <value>1.</value></_>
        <_>
          <depth>4</depth>
          <value>3.6144578313253012e-01</value>
          <splits>
            <_><var>1</var>
              <quality>1.7132539749145508e+01</quality>
              <le>3.1317201256752014e-01</le></_></splits></_>
        <_>
          <depth>5</depth>
          <value>2.0634920634920634e-01</value></_>
        <_>
          <depth>5</depth>
          <value>8.4999999999999998e-01</value></_>
        <_>
          <depth>1</depth>
          <value>1.</value></_></nodes></_>
    <_>
      <nodes>
        <_>
          <depth>0</depth>
          <value>5.3378378378378377e-01</value>
          <splits>
            <_><var>1</var>
              <quality>8.9278427124023438e+01</quality>
              <le>3.1260800361633301e-01</le></_></splits></_>
        <_>
          <depth>1</depth>
          <value>4.6255506607929514e-01</value>
          <splits>
            <_><var>1</var>
              <quality>5.1518692016601562e+01</quality>
              <le>7.0327848196029663e-02</le></_></splits></_>
        <_>
          <depth>2</depth>
          <value>0.</value></_>
        <_>
          <depth>2</depth>
          <value>4.9065420560747663e-01</value>
          <splits>
            <_><var>0</var>
              <quality>5.5573692321777344e+01</quality>
              <le>4.7954148054122925e-01</le></_></splits></_>
        <_>
          <depth>3</depth>
          <value>5.9701492537313428e-01</value>
          <splits>
            <_><var>9</var>
              <quality>5.0966812133789062e+01</quality>
              <le>3.2326251268386841e-02</le></_></splits></_>
        <_>
          <depth>4</depth>
          <value>5.0505050505050508e-01</value>
          <splits>
            <_><var>9</var>
              <quality>2.8579910278320312e+01</quality>
              <le>2.5092151015996933e-02</le></_></splits></_>
        <_>
          <depth>5</depth>
          <value>6.4062500000000000e-01</value></_>
        <_>
          <depth>5</depth>
          <value>2.5714285714285712e-01</value></_>
        <_>
          <depth>4</depth>
          <value>8.5714285714285710e-01</value>
          <splits>
            <_><var>8</var>
              <quality>2.8571428298950195e+01</quality>
              <le>4.6169497072696686e-02</le></_></splits></_>
        <_>
          <depth>5</depth>
          <value>1.</value></_>
        <_>
          <depth>5</depth>
          <value>2.8571428571428570e-01</value></_>
        <_>
          <depth>3</depth>
          <value>3.1250000000000000e-01</value>
          <splits>
            <_><var>3</var>
              <quality>1.1438356399536133e+01</quality>
              <le>2.0686098933219910e-01</le></_></splits></_>
        <_>
          <depth>4</depth>
          <value>2.4657534246575341e-01</value>
          <splits>
            <_><var>3</var>
              <quality>6.8206348419189453e+00</quality>
              <le>6.3735850155353546e-02</le></_></splits></_>
        <_>
          <depth>5</depth>
          <value>6.9999999999999996e-01</value></_>
        <_>
          <depth>5</depth>
          <value>1.7460317460317459e-01</value></_>
        <_>
          <depth>4</depth>
          <value>1.</value></_>
        <_>
          <depth>1</depth>
          <value>7.6811594202898548e-01</value>
          <splits>
            <_><var>6</var>
              <quality>4.1995475769042969e+01</quality>
              <le>4.3061099946498871e-02</le></_></splits></_>
        <_>
          <depth>2</depth>
          <value>5.2941176470588236e-01</value>
          <splits>
            <_><var>7</var>
              <quality>7.2361111640930176e+00</quality>
              <le>2.9489051550626755e-02</le></_></splits></_>
        <_>
          <depth>3</depth>
          <value>8.8888888888888884e-01</value>
          <splits>
            <_><var>0</var>
              <quality>8.</quality>
              <le>5.5820500850677490e-01</le></_></splits></_>
        <_>
          <depth>4</depth>
          <value>1.</value></_>
        <_>
          <depth>4</depth>
          <value>0.</value></_>
        <_>
          <depth>3</depth>
          <value>1.2500000000000000e-01</value>
          <splits>
            <_><var>6</var>
              <quality>1.</quality>
              <le>2.3914348334074020e-02</le></_></splits></_>
        <_>
          <depth>4</depth>
          <value>1.</value></_>
        <_>
          <depth>4</depth>
          <value>0.</value></_>
        <_>
          <depth>2</depth>
          <value>8.4615384615384615e-01</value>
          <splits>
            <_><var>3</var>
              <quality>3.8363636016845703e+01</quality>
              <le>1.8352749943733215e-01</le></_></splits></_>
        <_>
          <depth>3</depth>
          <value>9.0909090909090906e-01</value>
          <splits>
            <_><var>13</var>
              <quality>3.7430892944335938e+01</quality>
              <le>8.0808699131011963e-03</le></_></splits></_>
        <_>
          <depth>4</depth>
          <value>3.3333333333333331e-01</value>
          <splits>
            <_><var>8</var>
              <quality>1.</quality>
              <le>1.9026100635528564e-02</le></_></splits></_>
        <_>
          <depth>5</depth>
          <value>0.</value></_>
        <_>
          <depth>5</depth>
          <value>1.</value></_>
        <_>
          <depth>4</depth>
          <value>9.5121951219512191e-01</value>
          <splits>
            <_><var>13</var>
              <quality>3.8025001525878906e+01</quality>
              <le>4.7273900359869003e-02</le></_></splits></_>
        <_>
          <depth>5</depth>
          <value>9.7499999999999998e-01</value></_>
        <_>
          <depth>5</depth>
          <value>0.</value></_>
        <_>
          <depth>3</depth>
          <value>5.0000000000000000e-01</value>
          <splits>
            <_><var>4</var>
              <quality>3.2000000476837158e+00</quality>
              <le>1.1525285243988037e-01</le></_></splits></_>
        <_>
          <depth>4</depth>
          <value>0.</value></_>
        <_>
          <depth>4</depth>
          <value>8.0000000000000004e-01</value>
          <splits>
            <_><var>9</var>
              <quality>4.</quality>
              <le>3.8813702762126923e-02</le></_></splits></_>
        <_>
          <depth>5</depth>
          <value>0.</value></_>
        <_>
          <depth>5</depth>
          <value>1.</value></_></nodes></_>
    <_>
      <nodes>
        <_>
          <depth>0</depth>
          <value>4.8648648648648651e-01</value>
          <splits>
            <_><var>4</var>
              <quality>7.2668876647949219e+01</quality>
              <le>2.9807999730110168e-02</le></_></splits></_>
        <_>
          <depth>1</depth>
          <value>8.1818181818181823e-01</value>
          <splits>
            <_><var>5</var>
              <quality>1.7052631378173828e+01</quality>
              <le>2.1894600242376328e-02</le></_></splits></_>
        <_>
          <depth>2</depth>
          <value>0.</value></_>
        <_>
          <depth>2</depth>
          <value>9.4736842105263153e-01</value>
          <splits>
            <_><var>1</var>
              <quality>18.</quality>
              <le>9.1460153460502625e-02</le></_></splits></_>
        <_>
          <depth>3</depth>
          <value>0.</value></_>
        <_>
          <depth>3</depth>
          <value>1.</value></_>
        <_>
          <depth>1</depth>
          <value>4.5985401459854014e-01</value>
          <splits>
            <_><var>4</var>
              <quality>6.2683803558349609e+01</quality>
              <le>6.5609849989414215e-02</le></_></splits></_>
        <_>
          <depth>2</depth>
          <value>2.5316455696202533e-01</value>
          <splits>
            <_><var>10</var>
              <quality>6.3787879943847656e+00</quality>
              <le>2.6065750047564507e-02</le></_></splits></_>
        <_>
          <depth>3</depth>
          <value>3.3333333333333331e-01</value>
          <splits>
            <_><var>0</var>
              <quality>8.2452831268310547e+00</quality>
              <le>6.7739850282669067e-01</le></_></splits></_>
        <_>
          <depth>4</depth>
          <value>2.8301886792452829e-01</value>
          <splits>
            <_><var>8</var>
              <quality>5.8800001144409180e+00</quality>
              <le>4.8669248819351196e-02</le></_></splits></_>
        <_>
          <depth>5</depth>
          <value>2.3999999999999999e-01</value></_>
        <_>
          <depth>5</depth>
          <value>1.</value></_>
        <_>
          <depth>4</depth>
          <value>1.</value></_>
        <_>
          <depth>3</depth>
          <value>4.5454545454545456e-02</value>
          <splits>
            <_><var>0</var>
              <quality>1.</quality>
              <le>6.5136945247650146e-01</le></_></splits></_>
        <_>
          <depth>4</depth>
          <value>0.</value></_>
        <_>
          <depth>4</depth>
          <value>1.</value></_>
        <_>
          <depth>2</depth>
          <value>5.4358974358974355e-01</value>
          <splits>
            <_><var>0</var>
              <quality>6.1523811340332031e+01</quality>
              <le>4.8236951231956482e-01</le></_></splits></_>
        <_>
          <depth>3</depth>
          <value>6.6666666666666663e-01</value>
          <splits>
            <_><var>9</var>
              <quality>5.1410526275634766e+01</quality>
              <le>4.3548300862312317e-02</le></_></splits></_>
        <_>
          <depth>4</depth>
          <value>6.1052631578947369e-01</value>
          <splits>
            <_><var>4</var>
              <quality>3.6967033386230469e+01</quality>
              <le>1.7678949236869812e-01</le></_></splits></_>
        <_>
          <depth>5</depth>
          <value>6.3736263736263732e-01</value></_>
        <_>
          <depth>5</depth>
          <value>0.</value></_>
        <_>
          <depth>4</depth>
          <value>1.</value></_>
        <_>
          <depth>3</depth>
          <value>3.8095238095238093e-01</value>
          <splits>
            <_><var>0</var>
              <quality>1.6508825302124023e+01</quality>
              <le>6.9306898117065430e-01</le></_></splits></_>
        <_>
          <depth>4</depth>
          <value>2.0754716981132076e-01</value>
          <splits>
            <_><var>4</var>
              <quality>5.</quality>
              <le>7.1165099740028381e-02</le></_></splits></_>
        <_>
          <depth>5</depth>
          <value>1.</value></_>
        <_>
          <depth>5</depth>
          <value>1.4285714285714285e-01</value></_>
        <_>
          <depth>4</depth>
          <value>6.7741935483870963e-01</value>
          <splits>
            <_><var>4</var>
              <quality>1.5761904716491699e+01</quality>
              <le>1.7510950565338135e-01</le></_></splits></_>
        <_>
          <depth>5</depth>
          <value>5.2380952380952384e-01</value></_>
        <_>
          <depth>5</depth>
          <value>1.</value></_></nodes></_>
    <_>
      <nodes>
        <_>
          <depth>0</depth>
          <value>5.0337837837837840e-01</value>
          <splits>
            <_><var>0</var>
              <quality>7.8492645263671875e+01</quality>
              <le>4.6489000320434570e-01</le></_></splits></_>
        <_>
          <depth>1</depth>
          <value>5.9880239520958078e-01</value>
          <splits>
            <_><var>3</var>
              <quality>6.2111801147460938e+01</quality>
              <le>2.4251849949359894e-01</le></_></splits></_>
        <_>
          <depth>2</depth>
          <value>6.2111801242236020e-01</value>
          <splits>
            <_><var>6</var>
              <quality>6.5518211364746094e+01</quality>
              <le>4.3397299945354462e-02</le></_></splits></_>
        <_>
          <depth>3</depth>
          <value>4.8863636363636365e-01</value>
          <splits>
            <_><var>9</var>
              <quality>2.6125000000000000e+01</quality>
              <le>3.2144550234079361e-02</le></_></splits></_>
        <_>
          <depth>4</depth>
          <value>3.7500000000000000e-01</value>
          <splits>
            <_><var>9</var>
              <quality>1.2574073791503906e+01</quality>
              <le>2.5550449267029762e-02</le></_></splits></_>
        <_>
          <depth>5</depth>
          <value>4.8148148148148145e-01</value></_>
        <_>
          <depth>5</depth>
          <value>5.5555555555555552e-02</value></_>
        <_>
          <depth>4</depth>
          <value>1.</value></_>
        <_>
          <depth>3</depth>
          <value>7.8082191780821919e-01</value>
          <splits>
            <_><var>10</var>
              <quality>4.6404762268066406e+01</quality>
              <le>4.5897901058197021e-02</le></_></splits></_>
        <_>
          <depth>4</depth>
          <value>8.3333333333333337e-01</value>
          <splits>
            <_><var>11</var>
              <quality>4.7265625000000000e+01</quality>
              <le>7.6482100412249565e-03</le></_></splits></_>
        <_>
          <depth>5</depth>
          <value>0.</value></_>
        <_>
          <depth>5</depth>
          <value>8.5937500000000000e-01</value></_>
        <_>
          <depth>4</depth>
          <value>2.8571428571428570e-01</value>
          <splits>
            <_><var>9</var>
              <quality>2.</quality>
              <le>2.4169448763132095e-02</le></_></splits></_>
        <_>
          <depth>5</depth>
          <value>1.</value></_>
        <_>
          <depth>5</depth>
          <value>0.</value></_>
        <_>
          <depth>2</depth>
          <value>0.</value></_>
        <_>
          <depth>1</depth>
          <value>3.7984496124031009e-01</value>
          <splits>
            <_><var>12</var>
              <quality>2.2425212860107422e+01</quality>
              <le>3.8829550147056580e-02</le></_></splits></_>
        <_>
          <depth>2</depth>
          <value>3.2478632478632480e-01</value>
          <splits>
            <_><var>5</var>
              <quality>1.6487134933471680e+01</quality>
              <le>1.4343351125717163e-01</le></_></splits></_>
        <_>
          <depth>3</depth>
          <value>2.6415094339622641e-01</value>
          <splits>
            <_><var>1</var>
              <quality>1.3265822410583496e+01</quality>
              <le>3.0370599031448364e-01</le></_></splits></_>
        <_>
          <depth>4</depth>
          <value>1.2658227848101267e-01</value>
          <splits>
            <_><var>9</var>
              <quality>2.2622950077056885e+00</quality>
              <le>2.2386750206351280e-02</le></_></splits></_>
        <_>
          <depth>5</depth>
          <value>3.3333333333333331e-01</value></_>
        <_>
          <depth>5</depth>
          <value>6.5573770491803282e-02</value></_>
        <_>
          <depth>4</depth>
          <value>6.6666666666666663e-01</value>
          <splits>
            <_><var>11</var>
              <quality>1.4727272987365723e+01</quality>
              <le>1.5739450231194496e-02</le></_></splits></_>
        <_>
          <depth>5</depth>
          <value>0.</value></_>
        <_>
          <depth>5</depth>
          <value>8.1818181818181823e-01</value></_>
        <_>
          <depth>3</depth>
          <value>9.0909090909090906e-01</value>
          <splits>
            <_><var>7</var>
              <quality>10.</quality>
              <le>3.0752550810575485e-02</le></_></splits></_>
        <_>
          <depth>4</depth>
          <value>0.</value></_>
        <_>
          <depth>4</depth>
          <value>1.</value></_>
        <_>
          <depth>2</depth>
          <value>9.1666666666666663e-01</value>
          <splits>
            <_><var>9</var>
              <quality>11.</quality>
              <le>3.8143198937177658e-02</le></_></splits></_>
        <_>
          <depth>3</depth>
          <value>0.</value></_>
        <_>
          <depth>3</depth>
          <value>1.</value></_></nodes></_>
    <_>
      <nodes>
        <_>
          <depth>0</depth>
          <value>4.8986486486486486e-01</value>
          <splits>
            <_><var>10</var>
              <quality>7.4142112731933594e+01</quality>
              <le>1.9134800881147385e-02</le></_></splits></_>
        <_>
          <depth>1</depth>
          <value>3.4951456310679613e-01</value>
          <splits>
            <_><var>13</var>
              <quality>1.4806122779846191e+01</quality>
              <le>4.1442001238465309e-03</le></_></splits></_>
        <_>
          <depth>2</depth>
          <value>1.</value></_>
        <_>
          <depth>2</depth>
          <value>3.1632653061224492e-01</value>
          <splits>
            <_><var>4</var>
              <quality>1.3461240768432617e+01</quality>
              <le>1.1253900080919266e-01</le></_></splits></_>
        <_>
          <depth>3</depth>
          <value>2.4418604651162790e-01</value>
          <splits>
            <_><var>1</var>
              <quality>6.2012195587158203e+00</quality>
              <le>3.4198051691055298e-01</le></_></splits></_>
        <_>
          <depth>4</depth>
          <value>2.1951219512195122e-01</value>
          <splits>
            <_><var>0</var>
              <quality>5.3114752769470215e+00</quality>
              <le>4.7086599469184875e-01</le></_></splits></_>
        <_>
          <depth>5</depth>
          <value>2.9508196721311475e-01</value></_>
        <_>
          <depth>5</depth>
          <value>0.</value></_>
        <_>
          <depth>4</depth>
          <value>7.5000000000000000e-01</value>
          <splits>
            <_><var>0</var>
              <quality>3.</quality>
              <le>4.6061649918556213e-01</le></_></splits></_>
        <_>
          <depth>5</depth>
          <value>1.</value></_>
        <_>
          <depth>5</depth>
          <value>0.</value></_>
        <_>
          <depth>3</depth>
          <value>8.3333333333333337e-01</value>
          <splits>
            <_><var>10</var>
              <quality>10.</quality>
              <le>1.7275199294090271e-02</le></_></splits></_>
        <_>
          <depth>4</depth>
          <value>1.</value></_>
        <_>
          <depth>4</depth>
          <value>0.</value></_>
        <_>
          <depth>1</depth>
          <value>5.6476683937823835e-01</value>
          <splits>
            <_><var>10</var>
              <quality>6.5233436584472656e+01</quality>
              <le>4.5503549277782440e-02</le></_></splits></_>
        <_>
          <depth>2</depth>
          <value>6.0335195530726260e-01</value>
          <splits>
            <_><var>4</var>
              <quality>6.7367469787597656e+01</quality>
              <le>1.7818850278854370e-01</le></_></splits></_>
        <_>
          <depth>3</depth>
          <value>5.7228915662650603e-01</value>
          <splits>
            <_><var>10</var>
              <quality>5.6308269500732422e+01</quality>
              <le>2.0093750208616257e-02</le></_></splits></_>
        <_>
          <depth>4</depth>
          <value>9.2857142857142860e-01</value>
          <splits>
            <_><var>1</var>
              <quality>1.2333333015441895e+01</quality>
              <le>1.6079799830913544e-01</le></_></splits></_>
        <_>
          <depth>5</depth>
          <value>6.6666666666666663e-01</value></_>
        <_>
          <depth>5</depth>
          <value>1.</value></_>
        <_>
          <depth>4</depth>
          <value>5.3947368421052633e-01</value>
          <splits>
            <_><var>3</var>
              <quality>4.6759040832519531e+01</quality>
              <le>1.8554350733757019e-01</le></_></splits></_>
        <_>
          <depth>5</depth>
          <value>5.8518518518518514e-01</value></_>
        <_>
          <depth>5</depth>
          <value>1.7647058823529413e-01</value></_>
        <_>
          <depth>3</depth>
          <value>1.</value></_>
        <_>
          <depth>2</depth>
          <value>7.1428571428571425e-02</value>
          <splits>
            <_><var>8</var>
              <quality>1.</quality>
              <le>9.6040248870849609e-02</le></_></splits></_>
        <_>
          <depth>3</depth>
          <value>0.</value></_>
        <_>
          <depth>3</depth>
          <value>1.</value></_></nodes></_>
    <_>
      <nodes>
        <_>
          <depth>0</depth>
          <value>4.5945945945945948e-01</value>
          <splits>
            <_><var>4</var>
              <quality>6.6333267211914062e+01</quality>
              <le>3.0215850099921227e-02</le></_></splits></_>
        <_>
          <depth>1</depth>
          <value>8.9473684210526316e-01</value>
          <splits>
            <_><var>4</var>
              <quality>17.</quality>
              <le>1.1044749990105629e-02</le></_></splits></_>
        <_>
          <depth>2</depth>
          <value>0.</value></_>
        <_>
          <depth>2</depth>
          <value>1.</value></_>
        <_>
          <depth>1</depth>
          <value>4.2960288808664260e-01</value>
          <splits>
            <_><var>5</var>
              <quality>5.6697299957275391e+01</quality>
              <le>1.2101449817419052e-01</le></_></splits></_>
        <_>
          <depth>2</depth>
          <value>3.8492063492063494e-01</value>
          <splits>
            <_><var>1</var>
              <quality>4.1383953094482422e+01</quality>
              <le>1.5439450740814209e-01</le></_></splits></_>
        <_>
          <depth>3</depth>
          <value>1.7647058823529413e-01</value>
          <splits>
            <_><var>2</var>
              <quality>3.9043061733245850e+00</quality>
              <le>8.3849750459194183e-02</le></_></splits></_>
        <_>
          <depth>4</depth>
          <value>5.4545454545454541e-01</value>
          <splits>
            <_><var>2</var>
              <quality>6.</quality>
              <le>7.7889151871204376e-02</le></_></splits></_>
        <_>
          <depth>5</depth>
          <value>0.</value></_>
        <_>
          <depth>5</depth>
          <value>1.</value></_>
        <_>
          <depth>4</depth>
          <value>1.0526315789473684e-01</value>
          <splits>
            <_><var>8</var>
              <quality>1.4464285373687744e+00</quality>
              <le>1.0270735248923302e-02</le></_></splits></_>
        <_>
          <depth>5</depth>
          <value>1.</value></_>
        <_>
          <depth>5</depth>
          <value>8.9285714285714288e-02</value></_>
        <_>
          <depth>3</depth>
          <value>4.6195652173913043e-01</value>
          <splits>
            <_><var>11</var>
              <quality>4.1870635986328125e+01</quality>
              <le>2.2563949227333069e-02</le></_></splits></_>
        <_>
          <depth>4</depth>
          <value>5.6862745098039214e-01</value>
          <splits>
            <_><var>1</var>
              <quality>3.6746665954589844e+01</quality>
              <le>3.1259050965309143e-01</le></_></splits></_>
        <_>
          <depth>5</depth>
          <value>4.5333333333333331e-01</value></_>
        <_>
          <depth>5</depth>
          <value>8.8888888888888884e-01</value></_>
        <_>
          <depth>4</depth>
          <value>3.2926829268292684e-01</value>
          <splits>
            <_><var>0</var>
              <quality>1.1056108474731445e+01</quality>
              <le>6.5929853916168213e-01</le></_></splits></_>
        <_>
          <depth>5</depth>
          <value>2.4615384615384617e-01</value></_>
        <_>
          <depth>5</depth>
          <value>6.4705882352941180e-01</value></_>
        <_>
          <depth>2</depth>
          <value>8.8000000000000000e-01</value>
          <splits>
            <_><var>7</var>
              <quality>2.1043478012084961e+01</quality>
              <le>3.4972198307514191e-02</le></_></splits></_>
        <_>
          <depth>3</depth>
          <value>0.</value></_>
        <_>
          <depth>3</depth>
          <value>9.5652173913043481e-01</value>
          <splits>
            <_><var>12</var>
              <quality>2.1333333969116211e+01</quality>
              <le>1.4585400000214577e-02</le></_></splits></_>
        <_>
          <depth>4</depth>
          <value>6.6666666666666663e-01</value>
          <splits>
            <_><var>9</var>
              <quality>2.</quality>
              <le>5.7142399251461029e-02</le></_></splits></_>
        <_>
          <depth>5</depth>
          <value>0.</value></_>
        <_>
          <depth>5</depth>
          <value>1.</value></_>
        <_>
          <depth>4</depth>
          <value>1.</value></_></nodes></_>
    <_>
      <nodes>
        <_>
          <depth>0</depth>
          <value>5.4054054054054057e-01</value>
          <splits>
            <_><var>0</var>
              <quality>8.9981994628906250e+01</quality>
              <le>4.7968250513076782e-01</le></_></splits></_>
        <_>
          <depth>1</depth>
          <value>6.2777777777777777e-01</value>
          <splits>
            <_><var>7</var>
              <quality>7.4548965454101562e+01</quality>
              <le>1.7249349504709244e-02</le></_></splits></_>
        <_>
          <depth>2</depth>
          <value>2.3809523809523808e-01</value>
          <splits>
            <_><var>11</var>
              <quality>2.4736843109130859e+00</quality>
              <le>4.6733701601624489e-03</le></_></splits></_>
        <_>
          <depth>3</depth>
          <value>1.</value></_>
        <_>
          <depth>3</depth>
          <value>1.5789473684210525e-01</value>
          <splits>
            <_><var>7</var>
              <quality>1.</quality>
              <le>1.3172999955713749e-02</le></_></splits></_>
        <_>
          <depth>4</depth>
          <value>3.3333333333333331e-01</value>
          <splits>
            <_><var>8</var>
              <quality>1.5000000000000000e+00</quality>
              <le>9.6758846193552017e-03</le></_></splits></_>
        <_>
          <depth>5</depth>
          <value>1.</value></_>
        <_>
          <depth>5</depth>
          <value>2.5000000000000000e-01</value></_>
        <_>
          <depth>4</depth>
          <value>0.</value></_>
        <_>
          <depth>2</depth>
          <value>6.7924528301886788e-01</value>
          <splits>
            <_><var>1</var>
              <quality>7.5336990356445312e+01</quality>
              <le>1.5662848949432373e-01</le></_></splits></_>
        <_>
          <depth>3</depth>
          <value>5.1923076923076927e-01</value>
          <splits>
            <_><var>13</var>
              <quality>1.5940092086791992e+01</quality>
              <le>1.6564050689339638e-02</le></_></splits></_>
        <_>
          <depth>4</depth>
          <value>6.7741935483870963e-01</value>
          <splits>
            <_><var>2</var>
              <quality>1.5750000000000000e+01</quality>
              <le>4.7887299209833145e-02</le></_></splits></_>
        <_>
          <depth>5</depth>
          <value>0.</value></_>
        <_>
          <depth>5</depth>
          <value>7.5000000000000000e-01</value></_>
        <_>
          <depth>4</depth>
          <value>2.8571428571428570e-01</value>
          <splits>
            <_><var>0</var>
              <quality>4.2333331108093262e+00</quality>
              <le>4.3645197153091431e-01</le></_></splits></_>
        <_>
          <depth>5</depth>
          <value>6.6666666666666666e-02</value></_>
        <_>
          <depth>5</depth>
          <value>8.3333333333333337e-01</value></_>
        <_>
          <depth>3</depth>
          <value>7.5700934579439250e-01</value>
          <splits>
            <_><var>6</var>
              <quality>6.3086540222167969e+01</quality>
              <le>1.0114400088787079e-01</le></_></splits></_>
        <_>
          <depth>4</depth>
          <value>7.7884615384615385e-01</value>
          <splits>
            <_><var>8</var>
              <quality>6.5964103698730469e+01</quality>
              <le>3.6117300391197205e-02</le></_></splits></_>
        <_>
          <depth>5</depth>
          <value>9.0769230769230769e-01</value></_>
        <_>
          <depth>5</depth>
          <value>5.6410256410256410e-01</value></_>
        <_>
          <depth>4</depth>
          <value>0.</value></_>
        <_>
          <depth>1</depth>
          <value>4.0517241379310343e-01</value>
          <splits>
            <_><var>9</var>
              <quality>2.5722734451293945e+01</quality>
              <le>5.9033848345279694e-02</le></_></splits></_>
        <_>
          <depth>2</depth>
          <value>2.9896907216494845e-01</value>
          <splits>
            <_><var>6</var>
              <quality>1.0211951255798340e+01</quality>
              <le>7.0870503783226013e-02</le></_></splits></_>
        <_>
          <depth>3</depth>
          <value>2.0634920634920634e-01</value>
          <splits>
            <_><var>8</var>
              <quality>4.9452633857727051e+00</quality>
              <le>4.0485747158527374e-02</le></_></splits></_>
        <_>
          <depth>4</depth>
          <value>5.2631578947368418e-02</value>
          <splits>
            <_><var>9</var>
              <quality>8.0000001192092896e-01</quality>
              <le>1.4215149916708469e-02</le></_></splits></_>
        <_>
          <depth>5</depth>
          <value>4.0000000000000002e-01</value></_>
        <_>
          <depth>5</depth>
          <value>0.</value></_>
        <_>
          <depth>4</depth>
          <value>4.4000000000000000e-01</value>
          <splits>
            <_><var>2</var>
              <quality>7.0576925277709961e+00</quality>
              <le>1.4805299043655396e-01</le></_></splits></_>
        <_>
          <depth>5</depth>
          <value>7.5000000000000000e-01</value></_>
        <_>
          <depth>5</depth>
          <value>1.5384615384615385e-01</value></_>
        <_>
          <depth>3</depth>
          <value>4.7058823529411764e-01</value>
          <splits>
            <_><var>13</var>
              <quality>1.0239999771118164e+01</quality>
              <le>2.4452500045299530e-02</le></_></splits></_>
        <_>
          <depth>4</depth>
          <value>6.4000000000000001e-01</value>
          <splits>
            <_><var>1</var>
              <quality>1.2062500000000000e+01</quality>
              <le>3.6657100915908813e-01</le></_></splits></_>
        <_>
          <depth>5</depth>
          <value>4.3750000000000000e-01</value></_>
        <_>
          <depth>5</depth>
          <value>1.</value></_>
        <_>
          <depth>4</depth>
          <value>0.</value></_>
        <_>
          <depth>2</depth>
          <value>9.4736842105263153e-01</value>
          <splits>
            <_><var>3</var>
              <quality>1.7500000000000000e+01</quality>
              <le>8.4747895598411560e-02</le></_></splits></_>
        <_>
          <depth>3</depth>
          <value>5.0000000000000000e-01</value></_>
        <_>
          <depth>3</depth>
          <value>1.</value></_></nodes></_>
    <_>
      <nodes>
        <_>
          <depth>0</depth>
          <value>4.6283783783783783e-01</value>
          <splits>
            <_><var>0</var>
              <quality>6.9573829650878906e+01</quality>
              <le>4.5170998573303223e-01</le></_></splits></_>
        <_>
          <depth>1</depth>
          <value>6.1111111111111116e-01</value>
          <splits>
            <_><var>8</var>
              <quality>5.6180740356445312e+01</quality>
              <le>3.3357098698616028e-02</le></_></splits></_>
        <_>
          <depth>2</depth>
          <value>7.0103092783505150e-01</value>
          <splits>
            <_><var>1</var>
              <quality>5.4155765533447266e+01</quality>
              <le>6.7759752273559570e-02</le></_></splits></_>
        <_>
          <depth>3</depth>
          <value>7.1428571428571425e-02</value>
          <splits>
            <_><var>13</var>
              <quality>1.</quality>
              <le>5.2813398651778698e-03</le></_></splits></_>
        <_>
          <depth>4</depth>
          <value>1.</value></_>
        <_>
          <depth>4</depth>
          <value>0.</value></_>
        <_>
          <depth>3</depth>
          <value>8.0722891566265065e-01</value>
          <splits>
            <_><var>5</var>
              <quality>5.8908966064453125e+01</quality>
              <le>3.6130197346210480e-02</le></_></splits></_>
        <_>
          <depth>4</depth>
          <value>4.4000000000000000e-01</value>
          <splits>
            <_><var>1</var>
              <quality>7.6493506431579590e+00</quality>
              <le>2.0703199505805969e-01</le></_></splits></_>
        <_>
          <depth>5</depth>
          <value>1.4285714285714285e-01</value></_>
        <_>
          <depth>5</depth>
          <value>8.1818181818181823e-01</value></_>
        <_>
          <depth>4</depth>
          <value>9.6551724137931039e-01</value>
          <splits>
            <_><var>11</var>
              <quality>5.5017543792724609e+01</quality>
              <le>8.7615195661783218e-03</le></_></splits></_>
        <_>
          <depth>5</depth>
          <value>0.</value></_>
        <_>
          <depth>5</depth>
          <value>9.8245614035087714e-01</value></_>
        <_>
          <depth>2</depth>
          <value>4.2553191489361702e-01</value>
          <splits>
            <_><var>7</var>
              <quality>1.1370270729064941e+01</quality>
              <le>2.7155799791216850e-02</le></_></splits></_>
        <_>
          <depth>3</depth>
          <value>9.0000000000000002e-01</value>
          <splits>
            <_><var>6</var>
              <quality>9.</quality>
              <le>9.9858447909355164e-02</le></_></splits></_>
        <_>
          <depth>4</depth>
          <value>1.</value></_>
        <_>
          <depth>4</depth>
          <value>0.</value></_>
        <_>
          <depth>3</depth>
          <value>2.9729729729729731e-01</value>
          <splits>
            <_><var>6</var>
              <quality>5.4848484992980957e+00</quality>
              <le>6.6519699990749359e-02</le></_></splits></_>
        <_>
          <depth>4</depth>
          <value>2.1212121212121213e-01</value>
          <splits>
            <_><var>13</var>
              <quality>2.4555554389953613e+00</quality>
              <le>1.5786100178956985e-02</le></_></splits></_>
        <_>
          <depth>5</depth>
          <value>4.0000000000000002e-01</value></_>
        <_>
          <depth>5</depth>
          <value>5.5555555555555552e-02</value></_>
        <_>
          <depth>4</depth>
          <value>1.</value></_>
        <_>
          <depth>1</depth>
          <value>3.2236842105263158e-01</value>
          <splits>
            <_><var>1</var>
              <quality>2.1499265670776367e+01</quality>
              <le>2.7508649230003357e-01</le></_></splits></_>
        <_>
          <depth>2</depth>
          <value>1.7021276595744680e-01</value>
          <splits>
            <_><var>3</var>
              <quality>5.5416665077209473e+00</quality>
              <le>6.3735850155353546e-02</le></_></splits></_>
        <_>
          <depth>3</depth>
          <value>8.3333333333333337e-01</value>
          <splits>
            <_><var>2</var>
              <quality>5.</quality>
              <le>2.6928499341011047e-01</le></_></splits></_>
        <_>
          <depth>4</depth>
          <value>1.</value></_>
        <_>
          <depth>4</depth>
          <value>0.</value></_>
        <_>
          <depth>3</depth>
          <value>1.2500000000000000e-01</value>
          <splits>
            <_><var>7</var>
              <quality>3.7903614044189453e+00</quality>
              <le>8.7045900523662567e-02</le></_></splits></_>
        <_>
          <depth>4</depth>
          <value>8.4337349397590355e-02</value>
          <splits>
            <_><var>3</var>
              <quality>2.3086419105529785e+00</quality>
              <le>2.3006500303745270e-01</le></_></splits></_>
        <_>
          <depth>5</depth>
          <value>6.1728395061728392e-02</value></_>
        <_>
          <depth>5</depth>
          <value>1.</value></_>
        <_>
          <depth>4</depth>
          <value>8.0000000000000004e-01</value>
          <splits>
            <_><var>13</var>
              <quality>4.</quality>
              <le>1.5232950448989868e-02</le></_></splits></_>
        <_>
          <depth>5</depth>
          <value>0.</value></_>
        <_>
          <depth>5</depth>
          <value>1.</value></_>
        <_>
          <depth>2</depth>
          <value>5.6896551724137934e-01</value>
          <splits>
            <_><var>4</var>
              <quality>2.1780000686645508e+01</quality>
              <le>6.4356952905654907e-02</le></_></splits></_>
        <_>
          <depth>3</depth>
          <value>0.</value></_>
        <_>
          <depth>3</depth>
          <value>6.6000000000000003e-01</value>
          <splits>
            <_><var>8</var>
              <quality>2.6314285278320312e+01</quality>
              <le>3.3956050872802734e-02</le></_></splits></_>
        <_>
          <depth>4</depth>
          <value>2.0000000000000001e-01</value>
          <splits>
            <_><var>4</var>
              <quality>2.0769231319427490e+00</quality>
              <le>7.2968401014804840e-02</le></_></splits></_>
        <_>
          <depth>5</depth>
          <value>1.</value></_>
        <_>
          <depth>5</depth>
          <value>7.6923076923076927e-02</value></_>
        <_>
          <depth>4</depth>
          <value>8.5714285714285710e-01</value>
          <splits>
            <_><var>2</var>
              <quality>2.6666666030883789e+01</quality>
              <le>2.0374099910259247e-01</le></_></splits></_>
        <_>
          <depth>5</depth>
          <value>1.</value></_>
        <_>
          <depth>5</depth>
          <value>6.6666666666666663e-01</value></_></nodes></_>
    <_>
      <nodes>
        <_>
          <depth>0</depth>
          <value>4.9662162162162160e-01</value>
          <splits>
            <_><var>7</var>
              <quality>7.5358657836914062e+01</quality>
              <le>1.6463149338960648e-02</le></_></splits></_>
        <_>
          <depth>1</depth>
          <value>1.8181818181818182e-01</value>
          <splits>
            <_><var>3</var>
              <quality>1.5438596010208130e+00</quality>
              <le>3.8089849054813385e-02</le></_></splits></_>
        <_>
          <depth>2</depth>
          <value>6.6666666666666663e-01</value>
          <splits>
            <_><var>2</var>
              <quality>2.</quality>
              <le>3.6810699850320816e-02</le></_></splits></_>
        <_>
          <depth>3</depth>
          <value>1.</value></_>
        <_>
          <depth>3</depth>
          <value>0.</value></_>
        <_>
          <depth>2</depth>
          <value>1.0526315789473684e-01</value>
          <splits>
            <_><var>8</var>
              <quality>1.0555555820465088e+00</quality>
              <le>3.2428450882434845e-02</le></_></splits></_>
        <_>
          <depth>3</depth>
          <value>5.5555555555555552e-02</value>
          <splits>
            <_><var>11</var>
              <quality>3.3333334326744080e-01</quality>
              <le>6.3016498461365700e-03</le></_></splits></_>
        <_>
          <depth>4</depth>
          <value>3.3333333333333331e-01</value>
          <splits>
            <_><var>13</var>
              <quality>1.</quality>
              <le>4.8935348168015480e-03</le></_></splits></_>
        <_>
          <depth>5</depth>
          <value>0.</value></_>
        <_>
          <depth>5</depth>
          <value>1.</value></_>
        <_>
          <depth>4</depth>
          <value>0.</value></_>
        <_>
          <depth>3</depth>
          <value>1.</value></_>
        <_>
          <depth>1</depth>
          <value>5.2189781021897808e-01</value>
          <splits>
            <_><var>0</var>
              <quality>8.3090301513671875e+01</quality>
              <le>4.4685548543930054e-01</le></_></splits></_>
        <_>
          <depth>2</depth>
          <value>7.0149253731343286e-01</value>
          <splits>
            <_><var>7</var>
              <quality>6.7921051025390625e+01</quality>
              <le>2.7387550100684166e-02</le></_></splits></_>
        <_>
          <depth>3</depth>
          <value>8.9473684210526316e-01</value>
          <splits>
            <_><var>12</var>
              <quality>3.1531250000000000e+01</quality>
              <le>9.7395554184913635e-03</le></_></splits></_>
        <_>
          <depth>4</depth>
          <value>5.0000000000000000e-01</value>
          <splits>
            <_><var>12</var>
              <quality>3.</quality>
              <le>7.0694349706172943e-03</le></_></splits></_>
        <_>
          <depth>5</depth>
          <value>1.</value></_>
        <_>
          <depth>5</depth>
          <value>0.</value></_>
        <_>
          <depth>4</depth>
          <value>9.6875000000000000e-01</value>
          <splits>
            <_><var>11</var>
              <quality>31.</quality>
              <le>7.9817799851298332e-03</le></_></splits></_>
        <_>
          <depth>5</depth>
          <value>0.</value></_>
        <_>
          <depth>5</depth>
          <value>1.</value></_>
        <_>
          <depth>3</depth>
          <value>6.2500000000000000e-01</value>
          <splits>
            <_><var>2</var>
              <quality>3.9278583526611328e+01</quality>
              <le>1.0935349762439728e-01</le></_></splits></_>
        <_>
          <depth>4</depth>
          <value>4.0740740740740738e-01</value>
          <splits>
            <_><var>4</var>
              <quality>7.6136364936828613e+00</quality>
              <le>5.4721102118492126e-02</le></_></splits></_>
        <_>
          <depth>5</depth>
          <value>1.2500000000000000e-01</value></_>
        <_>
          <depth>5</depth>
          <value>8.1818181818181823e-01</value></_>
        <_>
          <depth>4</depth>
          <value>7.1014492753623193e-01</value>
          <splits>
            <_><var>13</var>
              <quality>3.8068450927734375e+01</quality>
              <le>1.8066650256514549e-02</le></_></splits></_>
        <_>
          <depth>5</depth>
          <value>8.5416666666666663e-01</value></_>
        <_>
          <depth>5</depth>
          <value>3.8095238095238093e-01</value></_>
        <_>
          <depth>2</depth>
          <value>3.4999999999999998e-01</value>
          <splits>
            <_><var>4</var>
              <quality>2.3673336029052734e+01</quality>
              <le>1.8104499578475952e-01</le></_></splits></_>
        <_>
          <depth>3</depth>
          <value>2.6446280991735538e-01</value>
          <splits>
            <_><var>5</var>
              <quality>1.2560175895690918e+01</quality>
              <le>1.0232450067996979e-01</le></_></splits></_>
        <_>
          <depth>4</depth>
          <value>1.4942528735632185e-01</value>
          <splits>
            <_><var>2</var>
              <quality>3.3311688899993896e+00</quality>
              <le>1.1062750220298767e-01</le></_></splits></_>
        <_>
          <depth>5</depth>
          <value>5.0000000000000000e-01</value></_>
        <_>
          <depth>5</depth>
          <value>1.0389610389610390e-01</value></_>
        <_>
          <depth>4</depth>
          <value>5.5882352941176472e-01</value>
          <splits>
            <_><var>3</var>
              <quality>1.2448275566101074e+01</quality>
              <le>2.3286250233650208e-01</le></_></splits></_>
        <_>
          <depth>5</depth>
          <value>6.5517241379310343e-01</value></_>
        <_>
          <depth>5</depth>
          <value>0.</value></_>
        <_>
          <depth>3</depth>
          <value>8.9473684210526316e-01</value>
          <splits>
            <_><var>13</var>
              <quality>1.6055555343627930e+01</quality>
              <le>4.7499049454927444e-02</le></_></splits></_>
        <_>
          <depth>4</depth>
          <value>9.4444444444444442e-01</value>
          <splits>
            <_><var>10</var>
              <quality>1.6250000000000000e+01</quality>
              <le>4.5675702393054962e-02</le></_></splits></_>
        <_>
          <depth>5</depth>
          <value>1.</value></_>
        <_>
          <depth>5</depth>
          <value>7.5000000000000000e-01</value></_>
        <_>
          <depth>4</depth>
          <value>0.</value></_></nodes></_>
    <_>
      <nodes>
        <_>
          <depth>0</depth>
          <value>4.8648648648648651e-01</value>
          <splits>
            <_><var>10</var>
              <quality>7.5937843322753906e+01</quality>
              <le>4.5452602207660675e-02</le></_></splits></_>
        <_>
          <depth>1</depth>
          <value>5.3383458646616544e-01</value>
          <splits>
            <_><var>4</var>
              <quality>80.</quality>
              <le>1.8104499578475952e-01</le></_></splits></_>
        <_>
          <depth>2</depth>
          <value>5.0000000000000000e-01</value>
          <splits>
            <_><var>5</var>
              <quality>6.5877265930175781e+01</quality>
              <le>5.7325050234794617e-02</le></_></splits></_>
        <_>
          <depth>3</depth>
          <value>6.2809917355371903e-01</value>
          <splits>
            <_><var>5</var>
              <quality>5.0571865081787109e+01</quality>
              <le>2.0287150517106056e-02</le></_></splits></_>
        <_>
          <depth>4</depth>
          <value>1.6666666666666666e-01</value>
          <splits>
            <_><var>11</var>
              <quality>2.</quality>
              <le>3.1649202108383179e-02</le></_></splits></_>
        <_>
          <depth>5</depth>
          <value>0.</value></_>
        <_>
          <depth>5</depth>
          <value>1.</value></_>
        <_>
          <depth>4</depth>
          <value>6.7889908256880738e-01</value>
          <splits>
            <_><var>7</var>
              <quality>5.2579952239990234e+01</quality>
              <le>4.0017150342464447e-02</le></_></splits></_>
        <_>
          <depth>5</depth>
          <value>5.8441558441558439e-01</value></_>
        <_>
          <depth>5</depth>
          <value>9.0625000000000000e-01</value></_>
        <_>
          <depth>3</depth>
          <value>3.7795275590551181e-01</value>
          <splits>
            <_><var>9</var>
              <quality>2.2780214309692383e+01</quality>
              <le>3.5986650735139847e-02</le></_></splits></_>
        <_>
          <depth>4</depth>
          <value>2.1621621621621623e-01</value>
          <splits>
            <_><var>0</var>
              <quality>5.7510657310485840e+00</quality>
              <le>4.5176351070404053e-01</le></_></splits></_>
        <_>
          <depth>5</depth>
          <value>4.7826086956521741e-01</value></_>
        <_>
          <depth>5</depth>
          <value>9.8039215686274508e-02</value></_>
        <_>
          <depth>4</depth>
          <value>6.0377358490566035e-01</value>
          <splits>
            <_><var>1</var>
              <quality>2.2260869979858398e+01</quality>
              <le>1.4650601148605347e-01</le></_></splits></_>
        <_>
          <depth>5</depth>
          <value>0.</value></_>
        <_>
          <depth>5</depth>
          <value>6.9565217391304346e-01</value></_>
        <_>
          <depth>2</depth>
          <value>1.</value></_>
        <_>
          <depth>1</depth>
          <value>6.6666666666666666e-02</value>
          <splits>
            <_><var>8</var>
              <quality>2.</quality>
              <le>9.6040248870849609e-02</le></_></splits></_>
        <_>
          <depth>2</depth>
          <value>0.</value></_>
        <_>
          <depth>2</depth>
          <value>1.</value></_></nodes></_>
    <_>
      <nodes>
        <_>
          <depth>0</depth>
          <value>4.4932432432432434e-01</value>
          <splits>
            <_><var>5</var>
              <quality>6.2811904907226562e+01</quality>
              <le>1.3813400268554688e-01</le></_></splits></_>
        <_>
          <depth>1</depth>
          <value>4.2756183745583037e-01</value>
          <splits>
            <_><var>11</var>
              <quality>5.3142723083496094e+01</quality>
              <le>2.4519398808479309e-02</le></_></splits></_>
        <_>
          <depth>2</depth>
          <value>4.7849462365591400e-01</value>
          <splits>
            <_><var>11</var>
              <quality>4.7571155548095703e+01</quality>
              <le>2.2062398493289948e-02</le></_></splits></_>
        <_>
          <depth>3</depth>
          <value>4.1249999999999998e-01</value>
          <splits>
            <_><var>5</var>
              <quality>2.9161291122436523e+01</quality>
              <le>6.6510200500488281e-02</le></_></splits></_>
        <_>
          <depth>4</depth>
          <value>5.0000000000000000e-01</value>
          <splits>
            <_><var>0</var>
              <quality>2.6367378234863281e+01</quality>
              <le>4.8236951231956482e-01</le></_></splits></_>
        <_>
          <depth>5</depth>
          <value>5.6097560975609762e-01</value></_>
        <_>
          <depth>5</depth>
          <value>1.8750000000000000e-01</value></_>
        <_>
          <depth>4</depth>
          <value>2.7419354838709675e-01</value>
          <splits>
            <_><var>1</var>
              <quality>6.7617020606994629e+00</quality>
              <le>2.8755098581314087e-01</le></_></splits></_>
        <_>
          <depth>5</depth>
          <value>1.7021276595744680e-01</value></_>
        <_>
          <depth>5</depth>
          <value>5.9999999999999998e-01</value></_>
        <_>
          <depth>3</depth>
          <value>8.8461538461538458e-01</value>
          <splits>
            <_><var>9</var>
              <quality>2.1159999847412109e+01</quality>
              <le>9.6310097724199295e-03</le></_></splits></_>
        <_>
          <depth>4</depth>
          <value>0.</value></_>
        <_>
          <depth>4</depth>
          <value>9.2000000000000004e-01</value>
          <splits>
            <_><var>11</var>
              <quality>2.1444444656372070e+01</quality>
              <le>2.3265549913048744e-02</le></_></splits></_>
        <_>
          <depth>5</depth>
          <value>1.</value></_>
        <_>
          <depth>5</depth>
          <value>7.7777777777777779e-01</value></_>
        <_>
          <depth>2</depth>
          <value>3.2989690721649484e-01</value>
          <splits>
            <_><var>11</var>
              <quality>1.2578248977661133e+01</quality>
              <le>2.8647698462009430e-02</le></_></splits></_>
        <_>
          <depth>3</depth>
          <value>1.5384615384615385e-01</value>
          <splits>
            <_><var>0</var>
              <quality>3.2500000000000000e+00</quality>
              <le>3.1677901744842529e-01</le></_></splits></_>
        <_>
          <depth>4</depth>
          <value>1.</value></_>
        <_>
          <depth>4</depth>
          <value>8.3333333333333329e-02</value>
          <splits>
            <_><var>12</var>
              <quality>5.2941179275512695e-01</quality>
              <le>2.3753449320793152e-02</le></_></splits></_>
        <_>
          <depth>5</depth>
          <value>1.7647058823529413e-01</value></_>
        <_>
          <depth>5</depth>
          <value>0.</value></_>
        <_>
          <depth>3</depth>
          <value>4.4827586206896552e-01</value>
          <splits>
            <_><var>3</var>
              <quality>1.4137930870056152e+01</quality>
              <le>1.3686800003051758e-01</le></_></splits></_>
        <_>
          <depth>4</depth>
          <value>2.4137931034482760e-01</value>
          <splits>
            <_><var>11</var>
              <quality>3.0579710006713867e+00</quality>
              <le>3.2149001955986023e-02</le></_></splits></_>
        <_>
          <depth>5</depth>
          <value>6.6666666666666663e-01</value></_>
        <_>
          <depth>5</depth>
          <value>1.3043478260869565e-01</value></_>
        <_>
          <depth>4</depth>
          <value>6.5517241379310343e-01</value>
          <splits>
            <_><var>8</var>
              <quality>1.3884614944458008e+01</quality>
              <le>1.3197049498558044e-02</le></_></splits></_>
        <_>
          <depth>5</depth>
          <value>0.</value></_>
        <_>
          <depth>5</depth>
          <value>7.3076923076923073e-01</value></_>
        <_>
          <depth>1</depth>
          <value>9.2307692307692313e-01</value>
          <splits>
            <_><var>1</var>
              <quality>1.1250000000000000e+01</quality>
              <le>2.2630599141120911e-01</le></_></splits></_>
        <_>
          <depth>2</depth>
          <value>7.5000000000000000e-01</value>
          <splits>
            <_><var>11</var>
              <quality>3.</quality>
              <le>2.9103651642799377e-02</le></_></splits></_>
        <_>
          <depth>3</depth>
          <value>0.</value></_>
        <_>
          <depth>3</depth>
          <value>1.</value></_>
        <_>
          <depth>2</depth>
          <value>1.</value></_></nodes></_>
    <_>
      <nodes>
        <_>
          <depth>0</depth>
          <value>4.8986486486486486e-01</value>
          <splits>
            <_><var>8</var>
              <quality>7.4378005981445312e+01</quality>
              <le>7.4542500078678131e-02</le></_></splits></_>
        <_>
          <depth>1</depth>
          <value>4.5756457564575648e-01</value>
          <splits>
            <_><var>3</var>
              <quality>5.8671131134033203e+01</quality>
              <le>6.7526251077651978e-02</le></_></splits></_>
        <_>
          <depth>2</depth>
          <value>2.8000000000000003e-01</value>
          <splits>
            <_><var>10</var>
              <quality>5.0256409645080566e+00</quality>
              <le>1.0091349482536316e-02</le></_></splits></_>
        <_>
          <depth>3</depth>
          <value>0.</value></_>
        <_>
          <depth>3</depth>
          <value>3.5897435897435898e-01</value>
          <splits>
            <_><var>12</var>
              <quality>7.5267381668090820e+00</quality>
              <le>1.3183450326323509e-02</le></_></splits></_>
        <_>
          <depth>4</depth>
          <value>6.4705882352941180e-01</value>
          <splits>
            <_><var>7</var>
              <quality>8.2727270126342773e+00</quality>
              <le>4.5796900987625122e-02</le></_></splits></_>
        <_>
          <depth>5</depth>
          <value>4.5454545454545453e-01</value></_>
        <_>
          <depth>5</depth>
          <value>1.</value></_>
        <_>
          <depth>4</depth>
          <value>1.3636363636363635e-01</value>
          <splits>
            <_><var>9</var>
              <quality>2.0499999523162842e+00</quality>
              <le>2.2404450923204422e-02</le></_></splits></_>
        <_>
          <depth>5</depth>
          <value>1.</value></_>
        <_>
          <depth>5</depth>
          <value>5.0000000000000003e-02</value></_>
        <_>
          <depth>2</depth>
          <value>4.9773755656108598e-01</value>
          <splits>
            <_><var>0</var>
              <quality>6.3322189331054688e+01</quality>
              <le>4.6410751342773438e-01</le></_></splits></_>
        <_>
          <depth>3</depth>
          <value>6.9026548672566368e-01</value>
          <splits>
            <_><var>5</var>
              <quality>5.6942306518554688e+01</quality>
              <le>7.9326100647449493e-02</le></_></splits></_>
        <_>
          <depth>4</depth>
          <value>7.5000000000000000e-01</value>
          <splits>
            <_><var>11</var>
              <quality>6.0483871459960938e+01</quality>
              <le>7.3976349085569382e-03</le></_></splits></_>
        <_>
          <depth>5</depth>
          <value>0.</value></_>
        <_>
          <depth>5</depth>
          <value>8.0645161290322576e-01</value></_>
        <_>
          <depth>4</depth>
          <value>2.3076923076923078e-01</value>
          <splits>
            <_><var>0</var>
              <quality>1.5000000000000000e+00</quality>
              <le>3.6997652053833008e-01</le></_></splits></_>
        <_>
          <depth>5</depth>
          <value>0.</value></_>
        <_>
          <depth>5</depth>
          <value>5.0000000000000000e-01</value></_>
        <_>
          <depth>3</depth>
          <value>2.9629629629629628e-01</value>
          <splits>
            <_><var>0</var>
              <quality>1.4587516784667969e+01</quality>
              <le>6.6127598285675049e-01</le></_></splits></_>
        <_>
          <depth>4</depth>
          <value>1.6455696202531644e-01</value>
          <splits>
            <_><var>3</var>
              <quality>3.5714285373687744e+00</quality>
              <le>2.0592850446701050e-01</le></_></splits></_>
        <_>
          <depth>5</depth>
          <value>1.4285714285714285e-01</value></_>
        <_>
          <depth>5</depth>
          <value>1.</value></_>
        <_>
          <depth>4</depth>
          <value>6.5517241379310343e-01</value>
          <splits>
            <_><var>8</var>
              <quality>1.3370369911193848e+01</quality>
              <le>2.6278749108314514e-02</le></_></splits></_>
        <_>
          <depth>5</depth>
          <value>0.</value></_>
        <_>
          <depth>5</depth>
          <value>7.0370370370370372e-01</value></_>
        <_>
          <depth>1</depth>
          <value>8.3999999999999997e-01</value>
          <splits>
            <_><var>13</var>
              <quality>1.9173913955688477e+01</quality>
              <le>1.0324380360543728e-02</le></_></splits></_>
        <_>
          <depth>2</depth>
          <value>0.</value></_>
        <_>
          <depth>2</depth>
          <value>9.1304347826086951e-01</value>
          <splits>
            <_><var>13</var>
              <quality>2.0045454025268555e+01</quality>
              <le>5.1078900694847107e-02</le></_></splits></_>
        <_>
          <depth>3</depth>
          <value>9.5454545454545459e-01</value>
          <splits>
            <_><var>11</var>
              <quality>2.0250000000000000e+01</quality>
              <le>2.5362450629472733e-02</le></_></splits></_>
        <_>
          <depth>4</depth>
          <value>7.5000000000000000e-01</value>
          <splits>
            <_><var>11</var>
              <quality>3.</quality>
              <le>2.4663899093866348e-02</le></_></splits></_>
        <_>
          <depth>5</depth>
          <value>1.</value></_>
        <_>
          <depth>5</depth>
          <value>0.</value></_>
        <_>
          <depth>4</depth>
          <value>1.</value></_>
        <_>
          <depth>3</depth>
          <value>0.</value></_></nodes></_>
    <_>
      <nodes>
        <_>
          <depth>0</depth>
          <value>5.0337837837837840e-01</value>
          <splits>
            <_><var>0</var>
              <quality>8.5262855529785156e+01</quality>
              <le>3.9178848266601562e-01</le></_></splits></_>
        <_>
          <depth>1</depth>
          <value>7.2727272727272729e-01</value>
          <splits>
            <_><var>11</var>
              <quality>6.6500000000000000e+01</quality>
              <le>7.2194649837911129e-03</le></_></splits></_>
        <_>
          <depth>2</depth>
          <value>2.7272727272727271e-01</value>
          <splits>
            <_><var>8</var>
              <quality>1.7999999523162842e+00</quality>
              <le>2.0445650443434715e-02</le></_></splits></_>
        <_>
          <depth>3</depth>
          <value>5.9999999999999998e-01</value>
          <splits>
            <_><var>9</var>
              <quality>3.</quality>
              <le>1.2914400547742844e-02</le></_></splits></_>
        <_>
          <depth>4</depth>
          <value>0.</value></_>
        <_>
          <depth>4</depth>
          <value>1.</value></_>
        <_>
          <depth>3</depth>
          <value>0.</value></_>
        <_>
          <depth>2</depth>
          <value>7.7272727272727271e-01</value>
          <splits>
            <_><var>13</var>
              <quality>6.7902458190917969e+01</quality>
              <le>2.6088248938322067e-02</le></_></splits></_>
        <_>
          <depth>3</depth>
          <value>8.2474226804123707e-01</value>
          <splits>
            <_><var>8</var>
              <quality>6.6666664123535156e+01</quality>
              <le>6.5281200222671032e-03</le></_></splits></_>
        <_>
          <depth>4</depth>
          <value>0.</value></_>
        <_>
          <depth>4</depth>
          <value>8.3333333333333337e-01</value>
          <splits>
            <_><var>9</var>
              <quality>6.7657142639160156e+01</quality>
              <le>8.4189847111701965e-03</le></_></splits></_>
        <_>
          <depth>5</depth>
          <value>4.0000000000000002e-01</value></_>
        <_>
          <depth>5</depth>
          <value>8.5714285714285710e-01</value></_>
        <_>
          <depth>3</depth>
          <value>3.8461538461538464e-01</value>
          <splits>
            <_><var>1</var>
              <quality>4.1666665077209473e+00</quality>
              <le>2.2527299821376801e-01</le></_></splits></_>
        <_>
          <depth>4</depth>
          <value>0.</value></_>
        <_>
          <depth>4</depth>
          <value>8.3333333333333337e-01</value>
          <splits>
            <_><var>12</var>
              <quality>5.</quality>
              <le>2.6759650558233261e-02</le></_></splits></_>
        <_>
          <depth>5</depth>
          <value>1.</value></_>
        <_>
          <depth>5</depth>
          <value>0.</value></_>
        <_>
          <depth>1</depth>
          <value>3.4857142857142859e-01</value>
          <splits>
            <_><var>4</var>
              <quality>3.1282476425170898e+01</quality>
              <le>8.9760795235633850e-02</le></_></splits></_>
        <_>
          <depth>2</depth>
          <value>4.4776119402985072e-02</value>
          <splits>
            <_><var>3</var>
              <quality>1.0606060028076172e+00</quality>
              <le>4.5164898037910461e-02</le></_></splits></_>
        <_>
          <depth>3</depth>
          <value>1.</value></_>
        <_>
          <depth>3</depth>
          <value>3.0303030303030304e-02</value>
          <splits>
            <_><var>6</var>
              <quality>5.1562500000000000e-01</quality>
              <le>1.1995750665664673e-01</le></_></splits></_>
        <_>
          <depth>4</depth>
          <value>1.5625000000000000e-02</value>
          <splits>
            <_><var>4</var>
              <quality>1.2500000000000000e-01</quality>
              <le>7.9729944467544556e-02</le></_></splits></_>
        <_>
          <depth>5</depth>
          <value>0.</value></_>
        <_>
          <depth>5</depth>
          <value>1.2500000000000000e-01</value></_>
        <_>
          <depth>4</depth>
          <value>5.0000000000000000e-01</value></_>
        <_>
          <depth>2</depth>
          <value>5.3703703703703709e-01</value>
          <splits>
            <_><var>7</var>
              <quality>3.5888889312744141e+01</quality>
              <le>6.5445303916931152e-02</le></_></splits></_>
        <_>
          <depth>3</depth>
          <value>3.8888888888888890e-01</value>
          <splits>
            <_><var>8</var>
              <quality>1.4635451316833496e+01</quality>
              <le>4.6209599822759628e-02</le></_></splits></_>
        <_>
          <depth>4</depth>
          <value>2.1739130434782608e-01</value>
          <splits>
            <_><var>5</var>
              <quality>4.7916665077209473e+00</quality>
              <le>4.6917300671339035e-02</le></_></splits></_>
        <_>
          <depth>5</depth>
          <value>8.3333333333333337e-01</value></_>
        <_>
          <depth>5</depth>
          <value>1.2500000000000000e-01</value></_>
        <_>
          <depth>4</depth>
          <value>6.9230769230769229e-01</value>
          <splits>
            <_><var>9</var>
              <quality>1.4154762268066406e+01</quality>
              <le>4.0328949689865112e-02</le></_></splits></_>
        <_>
          <depth>5</depth>
          <value>9.2857142857142860e-01</value></_>
        <_>
          <depth>5</depth>
          <value>4.1666666666666669e-01</value></_>
        <_>
          <depth>3</depth>
          <value>8.3333333333333337e-01</value>
          <splits>
            <_><var>13</var>
              <quality>2.5818181991577148e+01</quality>
              <le>3.8812700659036636e-02</le></_></splits></_>
        <_>
          <depth>4</depth>
          <value>8.7878787878787878e-01</value>
          <splits>
            <_><var>1</var>
              <quality>2.6281250000000000e+01</quality>
              <le>4.1527748107910156e-01</le></_></splits></_>
        <_>
          <depth>5</depth>
          <value>9.0625000000000000e-01</value></_>
        <_>
          <depth>5</depth>
          <value>0.</value></_>
        <_>
          <depth>4</depth>
          <value>3.3333333333333331e-01</value>
          <splits>
            <_><var>10</var>
              <quality>1.</quality>
              <le>6.3533648848533630e-02</le></_></splits></_>
        <_>
          <depth>5</depth>
          <value>0.</value></_>
        <_>
          <depth>5</depth>
          <value>1.</value></_></nodes></_>
    <_>
      <nodes>
        <_>
          <depth>0</depth>
          <value>4.7635135135135137e-01</value>
          <splits>
            <_><var>5</var>
              <quality>7.2787498474121094e+01</quality>
              <le>1.1066450178623199e-01</le></_></splits></_>
        <_>
          <depth>1</depth>
          <value>4.2187500000000000e-01</value>
          <splits>
            <_><var>13</var>
              <quality>4.7266933441162109e+01</quality>
              <le>3.9036350790411234e-03</le></_></splits></_>
        <_>
          <depth>2</depth>
          <value>1.</value></_>
        <_>
          <depth>2</depth>
          <value>4.1035856573705182e-01</value>
          <splits>
            <_><var>4</var>
              <quality>4.5021957397460938e+01</quality>
              <le>6.5503746271133423e-02</le></_></splits></_>
        <_>
          <depth>3</depth>
          <value>2.7835051546391754e-01</value>
          <splits>
            <_><var>8</var>
              <quality>1.0122671127319336e+01</quality>
              <le>1.7421800643205643e-02</le></_></splits></_>
        <_>
          <depth>4</depth>
          <value>5.3571428571428570e-01</value>
          <splits>
            <_><var>7</var>
              <quality>1.1842104911804199e+01</quality>
              <le>1.7793450504541397e-02</le></_></splits></_>
        <_>
          <depth>5</depth>
          <value>0.</value></_>
        <_>
          <depth>5</depth>
          <value>7.8947368421052633e-01</value></_>
        <_>
          <depth>4</depth>
          <value>1.7391304347826086e-01</value>
          <splits>
            <_><var>9</var>
              <quality>2.7857143878936768e+00</quality>
              <le>9.6890404820442200e-03</le></_></splits></_>
        <_>
          <depth>5</depth>
          <value>5.0000000000000000e-01</value></_>
        <_>
          <depth>5</depth>
          <value>1.4285714285714285e-01</value></_>
        <_>
          <depth>3</depth>
          <value>4.9350649350649350e-01</value>
          <splits>
            <_><var>2</var>
              <quality>3.9649463653564453e+01</quality>
              <le>1.1458049714565277e-01</le></_></splits></_>
        <_>
          <depth>4</depth>
          <value>7.3333333333333328e-01</value>
          <splits>
            <_><var>8</var>
              <quality>1.8541666030883789e+01</quality>
              <le>2.4968501180410385e-02</le></_></splits></_>
        <_>
          <depth>5</depth>
          <value>1.6666666666666666e-01</value></_>
        <_>
          <depth>5</depth>
          <value>8.7500000000000000e-01</value></_>
        <_>
          <depth>4</depth>
          <value>4.3548387096774194e-01</value>
          <splits>
            <_><var>6</var>
              <quality>2.5511110305786133e+01</quality>
              <le>3.0497049912810326e-02</le></_></splits></_>
        <_>
          <depth>5</depth>
          <value>8.8888888888888884e-01</value></_>
        <_>
          <depth>5</depth>
          <value>4.0000000000000002e-01</value></_>
        <_>
          <depth>1</depth>
          <value>8.2499999999999996e-01</value>
          <splits>
            <_><var>8</var>
              <quality>3.0284313201904297e+01</quality>
              <le>2.8622448444366455e-02</le></_></splits></_>
        <_>
          <depth>2</depth>
          <value>1.6666666666666666e-01</value>
          <splits>
            <_><var>1</var>
              <quality>1.</quality>
              <le>3.0759850144386292e-01</le></_></splits></_>
        <_>
          <depth>3</depth>
          <value>0.</value></_>
        <_>
          <depth>3</depth>
          <value>1.</value></_>
        <_>
          <depth>2</depth>
          <value>9.4117647058823528e-01</value>
          <splits>
            <_><var>2</var>
              <quality>3.1030303955078125e+01</quality>
              <le>3.1266301870346069e-01</le></_></splits></_>
        <_>
          <depth>3</depth>
          <value>9.6969696969696972e-01</value>
          <splits>
            <_><var>7</var>
              <quality>3.1500000000000000e+01</quality>
              <le>3.4972198307514191e-02</le></_></splits></_>
        <_>
          <depth>4</depth>
          <value>5.0000000000000000e-01</value></_>
        <_>
          <depth>4</depth>
          <value>1.</value></_>
        <_>
          <depth>3</depth>
          <value>0.</value></_></nodes></_>
    <_>
      <nodes>
        <_>
          <depth>0</depth>
          <value>5.4054054054054057e-01</value>
          <splits>
            <_><var>5</var>
              <quality>8.9325469970703125e+01</quality>
              <le>1.1066450178623199e-01</le></_></splits></_>
        <_>
          <depth>1</depth>
          <value>4.9799196787148592e-01</value>
          <splits>
            <_><var>1</var>
              <quality>6.5281089782714844e+01</quality>
              <le>2.0572200417518616e-01</le></_></splits></_>
        <_>
          <depth>2</depth>
          <value>3.6842105263157893e-01</value>
          <splits>
            <_><var>3</var>
              <quality>2.0432180404663086e+01</quality>
              <le>7.5796902179718018e-02</le></_></splits></_>
        <_>
          <depth>3</depth>
          <value>7.0967741935483875e-01</value>
          <splits>
            <_><var>5</var>
              <quality>1.8626262664794922e+01</quality>
              <le>3.4433051943778992e-02</le></_></splits></_>
        <_>
          <depth>4</depth>
          <value>2.2222222222222221e-01</value>
          <splits>
            <_><var>11</var>
              <quality>1.3333333730697632e+00</quality>
              <le>7.6703298836946487e-03</le></_></splits></_>
        <_>
          <depth>5</depth>
          <value>6.6666666666666663e-01</value></_>
        <_>
          <depth>5</depth>
          <value>0.</value></_>
        <_>
          <depth>4</depth>
          <value>9.0909090909090906e-01</value>
          <splits>
            <_><var>8</var>
              <quality>1.9047618865966797e+01</quality>
              <le>4.1461098939180374e-02</le></_></splits></_>
        <_>
          <depth>5</depth>
          <value>9.5238095238095233e-01</value></_>
        <_>
          <depth>5</depth>
          <value>0.</value></_>
        <_>
          <depth>3</depth>
          <value>2.4096385542168675e-01</value>
          <splits>
            <_><var>0</var>
              <quality>7.8118467330932617e+00</quality>
              <le>4.6410751342773438e-01</le></_></splits></_>
        <_>
          <depth>4</depth>
          <value>4.2857142857142855e-01</value>
          <splits>
            <_><var>1</var>
              <quality>9.0439882278442383e+00</quality>
              <le>9.7287297248840332e-02</le></_></splits></_>
        <_>
          <depth>5</depth>
          <value>7.2727272727272729e-01</value></_>
        <_>
          <depth>5</depth>
          <value>3.2258064516129031e-01</value></_>
        <_>
          <depth>4</depth>
          <value>4.8780487804878050e-02</value>
          <splits>
            <_><var>4</var>
              <quality>1.0249999761581421e+00</quality>
              <le>1.6346800327301025e-01</le></_></splits></_>
        <_>
          <depth>5</depth>
          <value>2.5000000000000001e-02</value></_>
        <_>
          <depth>5</depth>
          <value>1.</value></_>
        <_>
          <depth>2</depth>
          <value>6.0740740740740740e-01</value>
          <splits>
            <_><var>5</var>
              <quality>5.2341819763183594e+01</quality>
              <le>9.3923449516296387e-02</le></_></splits></_>
        <_>
          <depth>3</depth>
          <value>6.7272727272727273e-01</value>
          <splits>
            <_><var>2</var>
              <quality>5.1608528137207031e+01</quality>
              <le>1.1335650086402893e-01</le></_></splits></_>
        <_>
          <depth>4</depth>
          <value>9.1666666666666663e-01</value>
          <splits>
            <_><var>11</var>
              <quality>2.1043478012084961e+01</quality>
              <le>8.6341649293899536e-03</le></_></splits></_>
        <_>
          <depth>5</depth>
          <value>0.</value></_>
        <_>
          <depth>5</depth>
          <value>9.5652173913043481e-01</value></_>
        <_>
          <depth>4</depth>
          <value>6.0465116279069764e-01</value>
          <splits>
            <_><var>12</var>
              <quality>3.3602008819580078e+01</quality>
              <le>2.4052001535892487e-02</le></_></splits></_>
        <_>
          <depth>5</depth>
          <value>7.1186440677966101e-01</value></_>
        <_>
          <depth>5</depth>
          <value>3.7037037037037035e-01</value></_>
        <_>
          <depth>3</depth>
          <value>3.2000000000000001e-01</value>
          <splits>
            <_><var>2</var>
              <quality>4.1602563858032227e+00</quality>
              <le>1.9395099580287933e-01</le></_></splits></_>
        <_>
          <depth>4</depth>
          <value>5.8333333333333337e-01</value>
          <splits>
            <_><var>10</var>
              <quality>7.</quality>
              <le>2.0807400345802307e-02</le></_></splits></_>
        <_>
          <depth>5</depth>
          <value>0.</value></_>
        <_>
          <depth>5</depth>
          <value>1.</value></_>
        <_>
          <depth>4</depth>
          <value>7.6923076923076927e-02</value>
          <splits>
            <_><var>13</var>
              <quality>5.0000000000000000e-01</quality>
              <le>3.7010401487350464e-02</le></_></splits></_>
        <_>
          <depth>5</depth>
          <value>0.</value></_>
        <_>
          <depth>5</depth>
          <value>5.0000000000000000e-01</value></_>
        <_>
          <depth>1</depth>
          <value>7.6595744680851063e-01</value>
          <splits>
            <_><var>7</var>
              <quality>3.0767856597900391e+01</quality>
              <le>3.3986948430538177e-02</le></_></splits></_>
        <_>
          <depth>2</depth>
          <value>1.4285714285714285e-01</value>
          <splits>
            <_><var>12</var>
              <quality>1.</quality>
              <le>2.4944849312305450e-02</le></_></splits></_>
        <_>
          <depth>3</depth>
          <value>0.</value></_>
        <_>
          <depth>3</depth>
          <value>1.</value></_>
        <_>
          <depth>2</depth>
          <value>8.7500000000000000e-01</value>
          <splits>
            <_><var>11</var>
              <quality>3.1410257339477539e+01</quality>
              <le>6.8141996860504150e-02</le></_></splits></_>
        <_>
          <depth>3</depth>
          <value>8.9743589743589747e-01</value>
          <splits>
            <_><var>0</var>
              <quality>3.2066665649414062e+01</quality>
              <le>5.9830045700073242e-01</le></_></splits></_>
        <_>
          <depth>4</depth>
          <value>7.3333333333333328e-01</value>
          <splits>
            <_><var>1</var>
              <quality>9.3409090042114258e+00</quality>
              <le>2.7327850461006165e-01</le></_></splits></_>
        <_>
          <depth>5</depth>
          <value>2.5000000000000000e-01</value></_>
        <_>
          <depth>5</depth>
          <value>9.0909090909090906e-01</value></_>
        <_>
          <depth>4</depth>
          <value>1.</value></_>
        <_>
          <depth>3</depth>
          <value>0.</value></_></nodes></_>
    <_>
      <nodes>
        <_>
          <depth>0</depth>
          <value>5.1351351351351349e-01</value>
          <splits>
            <_><var>4</var>
              <quality>8.4850944519042969e+01</quality>
              <le>1.0063040256500244e-01</le></_></splits></_>
        <_>
          <depth>1</depth>
          <value>4.0609137055837563e-01</value>
          <splits>
            <_><var>12</var>
              <quality>3.8228740692138672e+01</quality>
              <le>6.8967249244451523e-03</le></_></splits></_>
        <_>
          <depth>2</depth>
          <value>9.4444444444444442e-01</value>
          <splits>
            <_><var>11</var>
              <quality>17.</quality>
              <le>5.8163348585367203e-03</le></_></splits></_>
        <_>
          <depth>3</depth>
          <value>0.</value></_>
        <_>
          <depth>3</depth>
          <value>1.</value></_>
        <_>
          <depth>2</depth>
          <value>3.5195530726256985e-01</value>
          <splits>
