<?xml version="1.0"?>
<opencv_storage>
<opencv_ml_rtrees>
  <format>3</format>
  <is_classifier>0</is_classifier>
  <var_all>20</var_all>
  <var_count>19</var_count>
  <ord_var_count>20</ord_var_count>
  <cat_var_count>0</cat_var_count>
  <training_params>
    <use_surrogates>0</use_surrogates>
    <max_categories>2</max_categories>
    <regression_accuracy>9.9999997764825821e-03</regression_accuracy>
    <max_depth>5</max_depth>
    <min_sample_count>2</min_sample_count>
    <cross_validation_folds>0</cross_validation_folds>
    <nactive_vars>0</nactive_vars></training_params>
  <global_var_idx>1</global_var_idx>
  <var_idx>
    0 1 2 3 4 5 6 7 8 9 10 11 12 13 14 15 16 17 18</var_idx>
  <var_type>
    0 0 0 0 0 0 0 0 0 0 0 0 0 0 0 0 0 0 0 0</var_type>
  <cat_ofs>
    0 0 0 0 0 0 0 0 0 0 0 0 0 0 0 0 0 0 0 0 0 0 0 0 0 0 0 0 0 0 0 0 0 0
    0 0 0 0</cat_ofs>
  <missing_subst>
    0. 0. 0. 0. 0. 0. 0. 0. 0. 0. 0. 0. 0. 0. 0. 0. 0. 0. 0. 0.</missing_subst>
  <oob_error>0.</oob_error>
  <ntrees>100</ntrees>
  <trees>
    <_>
      <nodes>
        <_>
          <depth>0</depth>
          <value>4.9324324324324326e-01</value>
          <splits>
            <_><var>5</var>
              <quality>7.9041206359863281e+01</quality>
              <le>1.1354750394821167e-01</le></_></splits></_>
        <_>
          <depth>1</depth>
          <value>4.3410852713178294e-01</value>
          <splits>
            <_><var>14</var>
              <quality>5.1642021179199219e+01</quality>
              <le>2.4938650429248810e-02</le></_></splits></_>
        <_>
          <depth>2</depth>
          <value>4.7555555555555556e-01</value>
          <splits>
            <_><var>2</var>
              <quality>5.2855171203613281e+01</quality>
              <le>8.3764798939228058e-02</le></_></splits></_>
        <_>
          <depth>3</depth>
          <value>7.0967741935483875e-01</value>
          <splits>
            <_><var>12</var>
              <quality>1.9447618484497070e+01</quality>
              <le>9.8925800994038582e-03</le></_></splits></_>
        <_>
          <depth>4</depth>
          <value>2.0000000000000001e-01</value>
          <splits>
            <_><var>8</var>
              <quality>1.1111111640930176e+00</quality>
              <le>2.2217400372028351e-02</le></_></splits></_>
        <_>
          <depth>5</depth>
          <value>1.1111111111111110e-01</value></_>
        <_>
          <depth>5</depth>
          <value>1.</value></_>
        <_>
          <depth>4</depth>
          <value>9.5238095238095233e-01</value>
          <splits>
            <_><var>14</var>
              <quality>20.</quality>
              <le>7.0883296430110931e-03</le></_></splits></_>
        <_>
          <depth>5</depth>
          <value>0.</value></_>
        <_>
          <depth>5</depth>
          <value>1.</value></_>
        <_>
          <depth>3</depth>
          <value>4.3814432989690721e-01</value>
          <splits>
            <_><var>16</var>
              <quality>4.0480518341064453e+01</quality>
              <le>9.8112449049949646e-03</le></_></splits></_>
        <_>
          <depth>4</depth>
          <value>5.9740259740259738e-01</value>
          <splits>
            <_><var>13</var>
              <quality>2.9954729080200195e+01</quality>
              <le>1.2703849934041500e-02</le></_></splits></_>
        <_>
          <depth>5</depth>
          <value>7.8378378378378377e-01</value></_>
        <_>
          <depth>5</depth>
          <value>4.2499999999999999e-01</value></_>
        <_>
          <depth>4</depth>
          <value>3.3333333333333331e-01</value>
          <splits>
            <_><var>17</var>
              <quality>1.6820869445800781e+01</quality>
              <le>1.6032248735427856e-02</le></_></splits></_>
        <_>
          <depth>5</depth>
          <value>2.3913043478260870e-01</value></_>
        <_>
          <depth>5</depth>
          <value>6.8000000000000005e-01</value></_>
        <_>
          <depth>2</depth>
          <value>1.5151515151515152e-01</value>
          <splits>
            <_><var>11</var>
              <quality>2.2903225421905518e+00</quality>
              <le>6.0391247272491455e-02</le></_></splits></_>
        <_>
          <depth>3</depth>
          <value>9.6774193548387094e-02</value>
          <splits>
            <_><var>16</var>
              <quality>1.3690476417541504e+00</quality>
              <le>1.2223100289702415e-02</le></_></splits></_>
        <_>
          <depth>4</depth>
          <value>6.6666666666666663e-01</value>
          <splits>
            <_><var>0</var>
              <quality>2.</quality>
              <le>3.6665397882461548e-01</le></_></splits></_>
        <_>
          <depth>5</depth>
          <value>0.</value></_>
        <_>
          <depth>5</depth>
          <value>1.</value></_>
        <_>
          <depth>4</depth>
          <value>3.5714285714285712e-02</value>
          <splits>
            <_><var>18</var>
              <quality>5.0000000000000000e-01</quality>
              <le>9.1724647209048271e-03</le></_></splits></_>
        <_>
          <depth>5</depth>
          <value>5.0000000000000000e-01</value></_>
        <_>
          <depth>5</depth>
          <value>0.</value></_>
        <_>
          <depth>3</depth>
          <value>1.</value></_>
        <_>
          <depth>1</depth>
          <value>8.9473684210526316e-01</value>
          <splits>
            <_><var>12</var>
              <quality>3.2666667938232422e+01</quality>
              <le>1.4453600160777569e-02</le></_></splits></_>
        <_>
          <depth>2</depth>
          <value>3.3333333333333331e-01</value>
          <splits>
            <_><var>17</var>
              <quality>2.</quality>
              <le>1.9311949610710144e-02</le></_></splits></_>
        <_>
          <depth>3</depth>
          <value>0.</value></_>
        <_>
          <depth>3</depth>
          <value>1.</value></_>
        <_>
          <depth>2</depth>
          <value>1.</value></_></nodes></_>
    <_>
      <nodes>
        <_>
          <depth>0</depth>
          <value>4.7635135135135137e-01</value>
          <splits>
            <_><var>0</var>
              <quality>7.1532623291015625e+01</quality>
              <le>4.5190501213073730e-01</le></_></splits></_>
        <_>
          <depth>1</depth>
          <value>5.9863945578231292e-01</value>
          <splits>
            <_><var>16</var>
              <quality>5.5745319366455078e+01</quality>
              <le>1.9425749778747559e-02</le></_></splits></_>
        <_>
          <depth>2</depth>
          <value>6.3970588235294112e-01</value>
          <splits>
            <_><var>9</var>
              <quality>5.9769184112548828e+01</quality>
              <le>3.2511748373508453e-02</le></_></splits></_>
        <_>
          <depth>3</depth>
          <value>5.4716981132075471e-01</value>
          <splits>
            <_><var>13</var>
              <quality>3.3752578735351562e+01</quality>
              <le>3.9036350790411234e-03</le></_></splits></_>
        <_>
          <depth>4</depth>
          <value>1.</value></_>
        <_>
          <depth>4</depth>
          <value>5.0515463917525771e-01</value>
          <splits>
            <_><var>13</var>
              <quality>2.9972078323364258e+01</quality>
              <le>7.5255902484059334e-03</le></_></splits></_>
        <_>
          <depth>5</depth>
          <value>5.0000000000000003e-02</value></_>
        <_>
          <depth>5</depth>
          <value>6.2337662337662336e-01</value></_>
        <_>
          <depth>3</depth>
          <value>9.6666666666666667e-01</value>
          <splits>
            <_><var>0</var>
              <quality>2.8500000000000000e+01</quality>
              <le>4.2328149080276489e-01</le></_></splits></_>
        <_>
          <depth>4</depth>
          <value>1.</value></_>
        <_>
          <depth>4</depth>
          <value>5.0000000000000000e-01</value></_>
        <_>
          <depth>2</depth>
          <value>9.0909090909090912e-02</value>
          <splits>
            <_><var>14</var>
              <quality>5.0000000000000000e-01</quality>
              <le>1.5188950113952160e-02</le></_></splits></_>
        <_>
          <depth>3</depth>
          <value>5.0000000000000000e-01</value></_>
        <_>
          <depth>3</depth>
          <value>0.</value></_>
        <_>
          <depth>1</depth>
          <value>3.5570469798657717e-01</value>
          <splits>
            <_><var>17</var>
              <quality>2.2928647994995117e+01</quality>
              <le>1.1306350119411945e-02</le></_></splits></_>
        <_>
          <depth>2</depth>
          <value>1.8918918918918920e-01</value>
          <splits>
            <_><var>5</var>
              <quality>5.2323231697082520e+00</quality>
              <le>1.1119899898767471e-01</le></_></splits></_>
        <_>
          <depth>3</depth>
          <value>1.1111111111111110e-01</value>
          <splits>
            <_><var>7</var>
              <quality>3.2666666507720947e+00</quality>
              <le>8.2111343741416931e-02</le></_></splits></_>
        <_>
          <depth>4</depth>
          <value>6.6666666666666666e-02</value>
          <splits>
            <_><var>9</var>
              <quality>1.5185185670852661e+00</quality>
              <le>1.3126850128173828e-02</le></_></splits></_>
        <_>
          <depth>5</depth>
          <value>5.0000000000000000e-01</value></_>
        <_>
          <depth>5</depth>
          <value>1.8518518518518517e-02</value></_>
        <_>
          <depth>4</depth>
          <value>1.</value></_>
        <_>
          <depth>3</depth>
          <value>6.3636363636363635e-01</value>
          <splits>
            <_><var>13</var>
              <quality>5.6666665077209473e+00</quality>
              <le>2.0188249647617340e-02</le></_></splits></_>
        <_>
          <depth>4</depth>
          <value>3.3333333333333331e-01</value>
          <splits>
            <_><var>1</var>
              <quality>2.</quality>
              <le>2.1729350090026855e-01</le></_></splits></_>
        <_>
          <depth>5</depth>
          <value>0.</value></_>
        <_>
          <depth>5</depth>
          <value>1.</value></_>
        <_>
          <depth>4</depth>
          <value>1.</value></_>
        <_>
          <depth>2</depth>
          <value>5.2000000000000002e-01</value>
          <splits>
            <_><var>5</var>
              <quality>2.4934425354003906e+01</quality>
              <le>5.0911448895931244e-02</le></_></splits></_>
        <_>
          <depth>3</depth>
          <value>0.</value></_>
        <_>
          <depth>3</depth>
          <value>6.3934426229508201e-01</value>
          <splits>
            <_><var>9</var>
              <quality>2.6734334945678711e+01</quality>
              <le>2.7143049985170364e-02</le></_></splits></_>
        <_>
          <depth>4</depth>
          <value>8.9473684210526316e-01</value>
          <splits>
            <_><var>0</var>
              <quality>1.5444444656372070e+01</quality>
              <le>6.2396895885467529e-01</le></_></splits></_>
        <_>
          <depth>5</depth>
          <value>7.7777777777777779e-01</value></_>
        <_>
          <depth>5</depth>
          <value>1.</value></_>
        <_>
          <depth>4</depth>
          <value>5.2380952380952384e-01</value>
          <splits>
            <_><var>4</var>
              <quality>1.5283819198608398e+01</quality>
              <le>9.2813253402709961e-02</le></_></splits></_>
        <_>
          <depth>5</depth>
          <value>7.6923076923076927e-02</value></_>
        <_>
          <depth>5</depth>
          <value>7.2413793103448276e-01</value></_></nodes></_>
    <_>
      <nodes>
        <_>
          <depth>0</depth>
          <value>4.7297297297297297e-01</value>
          <splits>
            <_><var>8</var>
              <quality>6.9531578063964844e+01</quality>
              <le>7.1723550558090210e-02</le></_></splits></_>
        <_>
          <depth>1</depth>
          <value>4.4604316546762590e-01</value>
          <splits>
            <_><var>5</var>
              <quality>5.9318225860595703e+01</quality>
              <le>5.9557899832725525e-02</le></_></splits></_>
        <_>
          <depth>2</depth>
          <value>5.7142857142857140e-01</value>
          <splits>
            <_><var>1</var>
              <quality>4.6370903015136719e+01</quality>
              <le>2.0402100682258606e-01</le></_></splits></_>
        <_>
          <depth>3</depth>
          <value>4.0983606557377050e-01</value>
          <splits>
            <_><var>18</var>
              <quality>1.1766666412353516e+01</quality>
              <le>5.8819600380957127e-03</le></_></splits></_>
        <_>
          <depth>4</depth>
          <value>1.3333333333333333e-01</value>
          <splits>
            <_><var>1</var>
              <quality>1.0714285373687744e+00</quality>
              <le>1.8744249641895294e-01</le></_></splits></_>
        <_>
          <depth>5</depth>
          <value>7.1428571428571425e-02</value></_>
        <_>
          <depth>5</depth>
          <value>1.</value></_>
        <_>
          <depth>4</depth>
          <value>5.0000000000000000e-01</value>
          <splits>
            <_><var>0</var>
              <quality>1.4297297477722168e+01</quality>
              <le>4.5006448030471802e-01</le></_></splits></_>
        <_>
          <depth>5</depth>
          <value>6.2162162162162160e-01</value></_>
        <_>
          <depth>5</depth>
          <value>0.</value></_>
        <_>
          <depth>3</depth>
          <value>7.0833333333333337e-01</value>
          <splits>
            <_><var>16</var>
              <quality>3.8588672637939453e+01</quality>
              <le>1.9652251154184341e-02</le></_></splits></_>
        <_>
          <depth>4</depth>
          <value>7.8688524590163933e-01</value>
          <splits>
            <_><var>4</var>
              <quality>3.9297412872314453e+01</quality>
              <le>7.6232500374317169e-02</le></_></splits></_>
        <_>
          <depth>5</depth>
          <value>6.2068965517241381e-01</value></_>
        <_>
          <depth>5</depth>
          <value>9.3750000000000000e-01</value></_>
        <_>
          <depth>4</depth>
          <value>2.7272727272727271e-01</value>
          <splits>
            <_><var>3</var>
              <quality>3.</quality>
              <le>1.9603049755096436e-01</le></_></splits></_>
        <_>
          <depth>5</depth>
          <value>0.</value></_>
        <_>
          <depth>5</depth>
          <value>1.</value></_>
        <_>
          <depth>2</depth>
          <value>3.3103448275862069e-01</value>
          <splits>
            <_><var>5</var>
              <quality>1.8395072937011719e+01</quality>
              <le>1.4274799823760986e-01</le></_></splits></_>
        <_>
          <depth>3</depth>
          <value>2.9927007299270075e-01</value>
          <splits>
            <_><var>1</var>
              <quality>1.6424638748168945e+01</quality>
              <le>3.1901949644088745e-01</le></_></splits></_>
        <_>
          <depth>4</depth>
          <value>2.1100917431192662e-01</value>
          <splits>
            <_><var>11</var>
              <quality>6.1214952468872070e+00</quality>
              <le>5.7858251035213470e-02</le></_></splits></_>
        <_>
          <depth>5</depth>
          <value>1.9626168224299065e-01</value></_>
        <_>
          <depth>5</depth>
          <value>1.</value></_>
        <_>
          <depth>4</depth>
          <value>6.4285714285714290e-01</value>
          <splits>
            <_><var>5</var>
              <quality>1.3399999618530273e+01</quality>
              <le>6.8012952804565430e-02</le></_></splits></_>
        <_>
          <depth>5</depth>
          <value>2.9999999999999999e-01</value></_>
        <_>
          <depth>5</depth>
          <value>8.3333333333333337e-01</value></_>
        <_>
          <depth>3</depth>
          <value>8.7500000000000000e-01</value>
          <splits>
            <_><var>15</var>
              <quality>7.</quality>
              <le>9.7716497257351875e-03</le></_></splits></_>
        <_>
          <depth>4</depth>
          <value>0.</value></_>
        <_>
          <depth>4</depth>
          <value>1.</value></_>
        <_>
          <depth>1</depth>
          <value>8.8888888888888884e-01</value>
          <splits>
            <_><var>15</var>
              <quality>1.5058823585510254e+01</quality>
              <le>4.8050250858068466e-02</le></_></splits></_>
        <_>
          <depth>2</depth>
          <value>9.4117647058823528e-01</value>
          <splits>
            <_><var>13</var>
              <quality>1.5500000000000000e+01</quality>
              <le>1.0324380360543728e-02</le></_></splits></_>
        <_>
          <depth>3</depth>
          <value>5.0000000000000000e-01</value></_>
        <_>
          <depth>3</depth>
          <value>1.</value></_>
        <_>
          <depth>2</depth>
          <value>0.</value></_></nodes></_>
    <_>
      <nodes>
        <_>
          <depth>0</depth>
          <value>4.7635135135135137e-01</value>
          <splits>
            <_><var>1</var>
              <quality>7.3475006103515625e+01</quality>
              <le>3.1236350536346436e-01</le></_></splits></_>
        <_>
          <depth>1</depth>
          <value>3.9737991266375544e-01</value>
          <splits>
            <_><var>6</var>
              <quality>3.7603111267089844e+01</quality>
              <le>2.6666199788451195e-02</le></_></splits></_>
        <_>
          <depth>2</depth>
          <value>2.3913043478260870e-01</value>
          <splits>
            <_><var>14</var>
              <quality>3.4571428298950195e+00</quality>
              <le>1.0788200423121452e-02</le></_></splits></_>
        <_>
          <depth>3</depth>
          <value>3.1428571428571428e-01</value>
          <splits>
            <_><var>12</var>
              <quality>6.7600002288818359e+00</quality>
              <le>6.5517202019691467e-03</le></_></splits></_>
        <_>
          <depth>4</depth>
          <value>8.0000000000000004e-01</value>
          <splits>
            <_><var>12</var>
              <quality>8.</quality>
              <le>4.7781248576939106e-03</le></_></splits></_>
        <_>
          <depth>5</depth>
          <value>0.</value></_>
        <_>
          <depth>5</depth>
          <value>1.</value></_>
        <_>
          <depth>4</depth>
          <value>1.2000000000000000e-01</value>
          <splits>
            <_><var>10</var>
              <quality>1.1666666269302368e+00</quality>
              <le>1.9703648984432220e-02</le></_></splits></_>
        <_>
          <depth>5</depth>
          <value>8.3333333333333329e-02</value></_>
        <_>
          <depth>5</depth>
          <value>1.</value></_>
        <_>
          <depth>3</depth>
          <value>0.</value></_>
        <_>
          <depth>2</depth>
          <value>4.3715846994535518e-01</value>
          <splits>
            <_><var>6</var>
              <quality>3.8799694061279297e+01</quality>
              <le>3.0497049912810326e-02</le></_></splits></_>
        <_>
          <depth>3</depth>
          <value>8.4999999999999998e-01</value>
          <splits>
            <_><var>7</var>
              <quality>1.6055555343627930e+01</quality>
              <le>1.7814498394727707e-02</le></_></splits></_>
        <_>
          <depth>4</depth>
          <value>0.</value></_>
        <_>
          <depth>4</depth>
          <value>9.4444444444444442e-01</value>
          <splits>
            <_><var>0</var>
              <quality>17.</quality>
              <le>4.7137051820755005e-01</le></_></splits></_>
        <_>
          <depth>5</depth>
          <value>1.</value></_>
        <_>
          <depth>5</depth>
          <value>0.</value></_>
        <_>
          <depth>3</depth>
          <value>3.8650306748466257e-01</value>
          <splits>
            <_><var>2</var>
              <quality>2.7935064315795898e+01</quality>
              <le>8.0670103430747986e-02</le></_></splits></_>
        <_>
          <depth>4</depth>
          <value>1.</value></_>
        <_>
          <depth>4</depth>
          <value>3.5064935064935066e-01</value>
          <splits>
            <_><var>10</var>
              <quality>2.1567567825317383e+01</quality>
              <le>5.7440452277660370e-02</le></_></splits></_>
        <_>
          <depth>5</depth>
          <value>3.2432432432432434e-01</value></_>
        <_>
          <depth>5</depth>
          <value>1.</value></_>
        <_>
          <depth>1</depth>
          <value>7.4626865671641796e-01</value>
          <splits>
            <_><var>18</var>
              <quality>3.9099731445312500e+01</quality>
              <le>8.7580997496843338e-03</le></_></splits></_>
        <_>
          <depth>2</depth>
          <value>4.2857142857142855e-01</value>
          <splits>
            <_><var>17</var>
              <quality>4.5000000000000000e+00</quality>
              <le>2.1342750638723373e-02</le></_></splits></_>
        <_>
          <depth>3</depth>
          <value>7.5000000000000000e-01</value>
          <splits>
            <_><var>16</var>
              <quality>6.</quality>
              <le>1.2404049746692181e-02</le></_></splits></_>
        <_>
          <depth>4</depth>
          <value>0.</value></_>
        <_>
          <depth>4</depth>
          <value>1.</value></_>
        <_>
          <depth>3</depth>
          <value>0.</value></_>
        <_>
          <depth>2</depth>
          <value>8.3018867924528306e-01</value>
          <splits>
            <_><var>13</var>
              <quality>3.9510204315185547e+01</quality>
              <le>4.7499049454927444e-02</le></_></splits></_>
        <_>
          <depth>3</depth>
          <value>8.9795918367346939e-01</value>
          <splits>
            <_><var>17</var>
              <quality>4.0333332061767578e+01</quality>
              <le>5.4472498595714569e-03</le></_></splits></_>
        <_>
          <depth>4</depth>
          <value>0.</value></_>
        <_>
          <depth>4</depth>
          <value>9.1666666666666663e-01</value>
          <splits>
            <_><var>12</var>
              <quality>4.0777778625488281e+01</quality>
              <le>1.6173850744962692e-02</le></_></splits></_>
        <_>
          <depth>5</depth>
          <value>7.5000000000000000e-01</value></_>
        <_>
          <depth>5</depth>
          <value>9.7222222222222221e-01</value></_>
        <_>
          <depth>3</depth>
          <value>0.</value></_></nodes></_>
    <_>
      <nodes>
        <_>
          <depth>0</depth>
          <value>4.6283783783783783e-01</value>
          <splits>
            <_><var>2</var>
              <quality>6.5755218505859375e+01</quality>
              <le>3.0222949385643005e-01</le></_></splits></_>
        <_>
          <depth>1</depth>
          <value>4.4086021505376344e-01</value>
          <splits>
            <_><var>9</var>
              <quality>5.7424903869628906e+01</quality>
              <le>5.9346601366996765e-02</le></_></splits></_>
        <_>
          <depth>2</depth>
          <value>4.1444866920152090e-01</value>
          <splits>
            <_><var>18</var>
              <quality>4.8284683227539062e+01</quality>
              <le>6.0912603512406349e-03</le></_></splits></_>
        <_>
          <depth>3</depth>
          <value>1.5384615384615385e-01</value>
          <splits>
            <_><var>11</var>
              <quality>1.7083333730697632e+00</quality>
              <le>1.2757299467921257e-02</le></_></splits></_>
        <_>
          <depth>4</depth>
          <value>4.1666666666666664e-02</value>
          <splits>
            <_><var>10</var>
              <quality>3.3333334326744080e-01</quality>
              <le>1.1001599952578545e-02</le></_></splits></_>
        <_>
          <depth>5</depth>
          <value>3.3333333333333331e-01</value></_>
        <_>
          <depth>5</depth>
          <value>0.</value></_>
        <_>
          <depth>4</depth>
          <value>3.3333333333333331e-01</value>
          <splits>
            <_><var>8</var>
              <quality>5.</quality>
              <le>2.6603199541568756e-02</le></_></splits></_>
        <_>
          <depth>5</depth>
          <value>0.</value></_>
        <_>
          <depth>5</depth>
          <value>1.</value></_>
        <_>
          <depth>3</depth>
          <value>4.5982142857142855e-01</value>
          <splits>
            <_><var>9</var>
              <quality>5.2059616088867188e+01</quality>
              <le>2.5000900030136108e-02</le></_></splits></_>
        <_>
          <depth>4</depth>
          <value>6.1538461538461542e-01</value>
          <splits>
            <_><var>7</var>
              <quality>4.4180557250976562e+01</quality>
              <le>2.4466600269079208e-02</le></_></splits></_>
        <_>
          <depth>5</depth>
          <value>9.3750000000000000e-01</value></_>
        <_>
          <depth>5</depth>
          <value>4.7222222222222221e-01</value></_>
        <_>
          <depth>4</depth>
          <value>3.2500000000000001e-01</value>
          <splits>
            <_><var>9</var>
              <quality>1.4911765098571777e+01</quality>
              <le>2.7043599635362625e-02</le></_></splits></_>
        <_>
          <depth>5</depth>
          <value>0.</value></_>
        <_>
          <depth>5</depth>
          <value>3.8235294117647056e-01</value></_>
        <_>
          <depth>2</depth>
          <value>8.7500000000000000e-01</value>
          <splits>
            <_><var>18</var>
              <quality>1.3333333015441895e+01</quality>
              <le>2.1249201148748398e-02</le></_></splits></_>
        <_>
          <depth>3</depth>
          <value>1.</value></_>
        <_>
          <depth>3</depth>
          <value>3.3333333333333331e-01</value>
          <splits>
            <_><var>14</var>
              <quality>1.</quality>
              <le>3.3625848591327667e-02</le></_></splits></_>
        <_>
          <depth>4</depth>
          <value>1.</value></_>
        <_>
          <depth>4</depth>
          <value>0.</value></_>
        <_>
          <depth>1</depth>
          <value>8.2352941176470584e-01</value>
          <splits>
            <_><var>3</var>
              <quality>1.3066666603088379e+01</quality>
              <le>9.5768503844738007e-02</le></_></splits></_>
        <_>
          <depth>2</depth>
          <value>0.</value></_>
        <_>
          <depth>2</depth>
          <value>9.3333333333333335e-01</value>
          <splits>
            <_><var>16</var>
              <quality>14.</quality>
              <le>2.3203451186418533e-02</le></_></splits></_>
        <_>
          <depth>3</depth>
          <value>1.</value></_>
        <_>
          <depth>3</depth>
          <value>0.</value></_></nodes></_>
    <_>
      <nodes>
        <_>
          <depth>0</depth>
          <value>4.8986486486486486e-01</value>
          <splits>
            <_><var>14</var>
              <quality>7.3257843017578125e+01</quality>
              <le>4.9375798553228378e-03</le></_></splits></_>
        <_>
          <depth>1</depth>
          <value>0.</value></_>
        <_>
          <depth>1</depth>
          <value>5.0522648083623689e-01</value>
          <splits>
            <_><var>9</var>
              <quality>7.6610130310058594e+01</quality>
              <le>4.8552948981523514e-02</le></_></splits></_>
        <_>
          <depth>2</depth>
          <value>4.6899224806201550e-01</value>
          <splits>
            <_><var>10</var>
              <quality>5.9678028106689453e+01</quality>
              <le>4.0903046727180481e-02</le></_></splits></_>
        <_>
          <depth>3</depth>
          <value>5.1121076233183860e-01</value>
          <splits>
            <_><var>5</var>
              <quality>6.0941707611083984e+01</quality>
              <le>6.2224946916103363e-02</le></_></splits></_>
        <_>
          <depth>4</depth>
          <value>6.0975609756097560e-01</value>
          <splits>
            <_><var>5</var>
              <quality>4.9655719757080078e+01</quality>
              <le>4.1432250291109085e-02</le></_></splits></_>
        <_>
          <depth>5</depth>
          <value>4.2372881355932202e-01</value></_>
        <_>
          <depth>5</depth>
          <value>7.8125000000000000e-01</value></_>
        <_>
          <depth>4</depth>
          <value>3.9000000000000001e-01</value>
          <splits>
            <_><var>6</var>
              <quality>1.7805603027343750e+01</quality>
              <le>4.6633999794721603e-02</le></_></splits></_>
        <_>
          <depth>5</depth>
          <value>1.8421052631578946e-01</value></_>
        <_>
          <depth>5</depth>
          <value>5.1612903225806450e-01</value></_>
        <_>
          <depth>3</depth>
          <value>2.0000000000000001e-01</value>
          <splits>
            <_><var>15</var>
              <quality>3.5000000000000000e+00</quality>
              <le>8.2426201552152634e-03</le></_></splits></_>
        <_>
          <depth>4</depth>
          <value>1.</value></_>
        <_>
          <depth>4</depth>
          <value>1.2500000000000000e-01</value>
          <splits>
            <_><var>2</var>
              <quality>3.0344827175140381e+00</quality>
              <le>8.9397348463535309e-02</le></_></splits></_>
        <_>
          <depth>5</depth>
          <value>1.</value></_>
        <_>
          <depth>5</depth>
          <value>3.4482758620689655e-02</value></_>
        <_>
          <depth>2</depth>
          <value>8.2758620689655171e-01</value>
          <splits>
            <_><var>11</var>
              <quality>2.0571428298950195e+01</quality>
              <le>7.1248047053813934e-02</le></_></splits></_>
        <_>
          <depth>3</depth>
          <value>8.5714285714285710e-01</value>
          <splits>
            <_><var>13</var>
              <quality>2.1493333816528320e+01</quality>
              <le>1.4297300018370152e-02</le></_></splits></_>
        <_>
          <depth>4</depth>
          <value>3.3333333333333331e-01</value>
          <splits>
            <_><var>8</var>
              <quality>1.</quality>
              <le>4.2274050414562225e-02</le></_></splits></_>
        <_>
          <depth>5</depth>
          <value>1.</value></_>
        <_>
          <depth>5</depth>
          <value>0.</value></_>
        <_>
          <depth>4</depth>
          <value>9.2000000000000004e-01</value>
          <splits>
            <_><var>6</var>
              <quality>2.1307691574096680e+01</quality>
              <le>9.0140447020530701e-02</le></_></splits></_>
        <_>
          <depth>5</depth>
          <value>1.</value></_>
        <_>
          <depth>5</depth>
          <value>8.4615384615384615e-01</value></_>
        <_>
          <depth>3</depth>
          <value>0.</value></_></nodes></_>
    <_>
      <nodes>
        <_>
          <depth>0</depth>
          <value>4.7635135135135137e-01</value>
          <splits>
            <_><var>0</var>
              <quality>7.3199188232421875e+01</quality>
              <le>4.5170998573303223e-01</le></_></splits></_>
        <_>
          <depth>1</depth>
          <value>6.1437908496732030e-01</value>
          <splits>
            <_><var>9</var>
              <quality>6.1299144744873047e+01</quality>
              <le>3.5654947161674500e-02</le></_></splits></_>
        <_>
          <depth>2</depth>
          <value>5.2991452991452992e-01</value>
          <splits>
            <_><var>5</var>
              <quality>3.5480411529541016e+01</quality>
              <le>8.0153502523899078e-02</le></_></splits></_>
        <_>
          <depth>3</depth>
          <value>5.9793814432989689e-01</value>
          <splits>
            <_><var>13</var>
              <quality>3.8769401550292969e+01</quality>
              <le>1.1232200078666210e-02</le></_></splits></_>
        <_>
          <depth>4</depth>
          <value>3.4210526315789475e-01</value>
          <splits>
            <_><var>2</var>
              <quality>6.1333332061767578e+00</quality>
              <le>1.2268999963998795e-01</le></_></splits></_>
        <_>
          <depth>5</depth>
          <value>2.3333333333333334e-01</value></_>
        <_>
          <depth>5</depth>
          <value>7.5000000000000000e-01</value></_>
        <_>
          <depth>4</depth>
          <value>7.6271186440677963e-01</value>
          <splits>
            <_><var>14</var>
              <quality>3.6160713195800781e+01</quality>
              <le>3.2574951648712158e-02</le></_></splits></_>
        <_>
          <depth>5</depth>
          <value>8.0357142857142860e-01</value></_>
        <_>
          <depth>5</depth>
          <value>0.</value></_>
        <_>
          <depth>3</depth>
          <value>2.0000000000000001e-01</value>
          <splits>
            <_><var>6</var>
              <quality>2.2222223281860352e+00</quality>
              <le>6.6369801759719849e-02</le></_></splits></_>
        <_>
          <depth>4</depth>
          <value>1.1111111111111110e-01</value>
          <splits>
            <_><var>9</var>
              <quality>1.0588235855102539e+00</quality>
              <le>1.6348429024219513e-02</le></_></splits></_>
        <_>
          <depth>5</depth>
          <value>1.</value></_>
        <_>
          <depth>5</depth>
          <value>5.8823529411764705e-02</value></_>
        <_>
          <depth>4</depth>
          <value>1.</value></_>
        <_>
          <depth>2</depth>
          <value>8.8888888888888884e-01</value>
          <splits>
            <_><var>16</var>
              <quality>2.9125000000000000e+01</quality>
              <le>1.9425749778747559e-02</le></_></splits></_>
        <_>
          <depth>3</depth>
          <value>9.3750000000000000e-01</value>
          <splits>
            <_><var>13</var>
              <quality>2.9333333969116211e+01</quality>
              <le>2.8490850701928139e-02</le></_></splits></_>
        <_>
          <depth>4</depth>
          <value>1.</value></_>
        <_>
          <depth>4</depth>
          <value>3.3333333333333331e-01</value>
          <splits>
            <_><var>12</var>
              <quality>1.</quality>
              <le>2.2261820733547211e-02</le></_></splits></_>
        <_>
          <depth>5</depth>
          <value>0.</value></_>
        <_>
          <depth>5</depth>
          <value>1.</value></_>
        <_>
          <depth>3</depth>
          <value>5.0000000000000000e-01</value>
          <splits>
            <_><var>12</var>
              <quality>2.</quality>
              <le>2.0887948572635651e-02</le></_></splits></_>
        <_>
          <depth>4</depth>
          <value>1.</value></_>
        <_>
          <depth>4</depth>
          <value>0.</value></_>
        <_>
          <depth>1</depth>
          <value>3.2867132867132864e-01</value>
          <splits>
            <_><var>5</var>
              <quality>1.9285566329956055e+01</quality>
              <le>1.1354750394821167e-01</le></_></splits></_>
        <_>
          <depth>2</depth>
          <value>2.3364485981308411e-01</value>
          <splits>
            <_><var>1</var>
              <quality>9.1490840911865234e+00</quality>
              <le>2.7622500061988831e-01</le></_></splits></_>
        <_>
          <depth>3</depth>
          <value>9.2307692307692313e-02</value>
          <splits>
            <_><var>4</var>
              <quality>2.2539682388305664e+00</quality>
              <le>1.7760649323463440e-01</le></_></splits></_>
        <_>
          <depth>4</depth>
          <value>6.3492063492063489e-02</value>
          <splits>
            <_><var>8</var>
              <quality>6.4754098653793335e-01</quality>
              <le>7.3478251695632935e-02</le></_></splits></_>
        <_>
          <depth>5</depth>
          <value>4.9180327868852458e-02</value></_>
        <_>
          <depth>5</depth>
          <value>5.0000000000000000e-01</value></_>
        <_>
          <depth>4</depth>
          <value>1.</value></_>
        <_>
          <depth>3</depth>
          <value>4.5238095238095238e-01</value>
          <splits>
            <_><var>18</var>
              <quality>1.1930555343627930e+01</quality>
              <le>1.1487150564789772e-02</le></_></splits></_>
        <_>
          <depth>4</depth>
          <value>2.0833333333333334e-01</value>
          <splits>
            <_><var>11</var>
              <quality>1.7619047164916992e+00</quality>
              <le>3.6852948367595673e-02</le></_></splits></_>
        <_>
          <depth>5</depth>
          <value>1.4285714285714285e-01</value></_>
        <_>
          <depth>5</depth>
          <value>6.6666666666666663e-01</value></_>
        <_>
          <depth>4</depth>
          <value>7.7777777777777779e-01</value>
          <splits>
            <_><var>10</var>
              <quality>1.2250000000000000e+01</quality>
              <le>4.4783547520637512e-02</le></_></splits></_>
        <_>
          <depth>5</depth>
          <value>8.7500000000000000e-01</value></_>
        <_>
          <depth>5</depth>
          <value>0.</value></_>
        <_>
          <depth>2</depth>
          <value>6.1111111111111116e-01</value>
          <splits>
            <_><var>7</var>
              <quality>1.6521739959716797e+01</quality>
              <le>7.3359802365303040e-02</le></_></splits></_>
        <_>
          <depth>3</depth>
          <value>3.9130434782608697e-01</value>
          <splits>
            <_><var>10</var>
              <quality>5.0625000000000000e+00</quality>
              <le>4.6525001525878906e-02</le></_></splits></_>
        <_>
          <depth>4</depth>
          <value>5.6250000000000000e-01</value>
          <splits>
            <_><var>11</var>
              <quality>6.9000000953674316e+00</quality>
              <le>1.9491849467158318e-02</le></_></splits></_>
        <_>
          <depth>5</depth>
          <value>1.</value></_>
        <_>
          <depth>5</depth>
          <value>2.9999999999999999e-01</value></_>
        <_>
          <depth>4</depth>
          <value>0.</value></_>
        <_>
          <depth>3</depth>
          <value>1.</value></_></nodes></_>
    <_>
      <nodes>
        <_>
          <depth>0</depth>
          <value>4.8310810810810811e-01</value>
          <splits>
            <_><var>5</var>
              <quality>7.3995742797851562e+01</quality>
              <le>1.2066650390625000e-01</le></_></splits></_>
        <_>
          <depth>1</depth>
          <value>4.3984962406015038e-01</value>
          <splits>
            <_><var>0</var>
              <quality>5.4816627502441406e+01</quality>
              <le>4.7027099132537842e-01</le></_></splits></_>
        <_>
          <depth>2</depth>
          <value>5.3125000000000000e-01</value>
          <splits>
            <_><var>14</var>
              <quality>4.8586162567138672e+01</quality>
              <le>2.1347150206565857e-02</le></_></splits></_>
        <_>
          <depth>3</depth>
          <value>5.9124087591240881e-01</value>
          <splits>
            <_><var>3</var>
              <quality>5.1828514099121094e+01</quality>
              <le>4.4100798666477203e-02</le></_></splits></_>
        <_>
          <depth>4</depth>
          <value>1.2500000000000000e-01</value>
          <splits>
            <_><var>17</var>
              <quality>1.0666667222976685e+00</quality>
              <le>1.0427450761198997e-02</le></_></splits></_>
        <_>
          <depth>5</depth>
          <value>6.6666666666666666e-02</value></_>
        <_>
          <depth>5</depth>
          <value>1.</value></_>
        <_>
          <depth>4</depth>
          <value>6.5289256198347112e-01</value>
          <splits>
            <_><var>2</var>
              <quality>5.5020011901855469e+01</quality>
              <le>1.6127398610115051e-01</le></_></splits></_>
        <_>
          <depth>5</depth>
          <value>5.3658536585365857e-01</value></_>
        <_>
          <depth>5</depth>
          <value>8.9743589743589747e-01</value></_>
        <_>
          <depth>3</depth>
          <value>1.7391304347826086e-01</value>
          <splits>
            <_><var>0</var>
              <quality>2.3026316165924072e+00</quality>
              <le>3.6638349294662476e-01</le></_></splits></_>
        <_>
          <depth>4</depth>
          <value>5.2631578947368418e-02</value>
          <splits>
            <_><var>7</var>
              <quality>2.5000000000000000e-01</quality>
              <le>5.3017649799585342e-02</le></_></splits></_>
        <_>
          <depth>5</depth>
          <value>0.</value></_>
        <_>
          <depth>5</depth>
          <value>2.5000000000000000e-01</value></_>
        <_>
          <depth>4</depth>
          <value>7.5000000000000000e-01</value>
          <splits>
            <_><var>14</var>
              <quality>3.</quality>
              <le>3.0838200822472572e-02</le></_></splits></_>
        <_>
          <depth>5</depth>
          <value>1.</value></_>
        <_>
          <depth>5</depth>
          <value>0.</value></_>
        <_>
          <depth>2</depth>
          <value>3.0188679245283018e-01</value>
          <splits>
            <_><var>3</var>
              <quality>1.5379753112792969e+01</quality>
              <le>1.5922749042510986e-01</le></_></splits></_>
        <_>
          <depth>3</depth>
          <value>1.7283950617283950e-01</value>
          <splits>
            <_><var>1</var>
              <quality>8.7771854400634766e+00</quality>
              <le>3.1724700331687927e-01</le></_></splits></_>
        <_>
          <depth>4</depth>
          <value>4.4776119402985072e-02</value>
          <splits>
            <_><var>8</var>
              <quality>1.0606060028076172e+00</quality>
              <le>7.1443147957324982e-02</le></_></splits></_>
        <_>
          <depth>5</depth>
          <value>3.0303030303030304e-02</value></_>
        <_>
          <depth>5</depth>
          <value>1.</value></_>
        <_>
          <depth>4</depth>
          <value>7.8571428571428570e-01</value>
          <splits>
            <_><var>2</var>
              <quality>11.</quality>
              <le>1.9004599750041962e-01</le></_></splits></_>
        <_>
          <depth>5</depth>
          <value>1.</value></_>
        <_>
          <depth>5</depth>
          <value>0.</value></_>
        <_>
          <depth>3</depth>
          <value>7.1999999999999997e-01</value>
          <splits>
            <_><var>11</var>
              <quality>1.4769230842590332e+01</quality>
              <le>2.8262799605727196e-02</le></_></splits></_>
        <_>
          <depth>4</depth>
          <value>4.6153846153846156e-01</value>
          <splits>
            <_><var>2</var>
              <quality>3.9000000953674316e+00</quality>
              <le>1.1739449948072433e-01</le></_></splits></_>
        <_>
          <depth>5</depth>
          <value>1.</value></_>
        <_>
          <depth>5</depth>
          <value>2.9999999999999999e-01</value></_>
        <_>
          <depth>4</depth>
          <value>1.</value></_>
        <_>
          <depth>1</depth>
          <value>8.6666666666666670e-01</value>
          <splits>
            <_><var>17</var>
              <quality>2.3310344696044922e+01</quality>
              <le>4.5917049050331116e-02</le></_></splits></_>
        <_>
          <depth>2</depth>
          <value>8.9655172413793105e-01</value>
          <splits>
            <_><var>4</var>
              <quality>2.5037036895751953e+01</quality>
              <le>7.2072401642799377e-02</le></_></splits></_>
        <_>
          <depth>3</depth>
          <value>0.</value></_>
        <_>
          <depth>3</depth>
          <value>9.6296296296296291e-01</value>
          <splits>
            <_><var>5</var>
              <quality>2.5111110687255859e+01</quality>
              <le>1.3271650671958923e-01</le></_></splits></_>
        <_>
          <depth>4</depth>
          <value>8.8888888888888884e-01</value>
          <splits>
            <_><var>5</var>
              <quality>8.</quality>
              <le>1.2922500073909760e-01</le></_></splits></_>
        <_>
          <depth>5</depth>
          <value>1.</value></_>
        <_>
          <depth>5</depth>
          <value>0.</value></_>
        <_>
          <depth>4</depth>
          <value>1.</value></_>
        <_>
          <depth>2</depth>
          <value>0.</value></_></nodes></_>
    <_>
      <nodes>
        <_>
          <depth>0</depth>
          <value>5.3040540540540537e-01</value>
          <splits>
            <_><var>1</var>
              <quality>8.8747421264648438e+01</quality>
              <le>3.1358000636100769e-01</le></_></splits></_>
        <_>
          <depth>1</depth>
          <value>4.5614035087719296e-01</value>
          <splits>
            <_><var>1</var>
              <quality>5.0074073791503906e+01</quality>
              <le>2.9732102155685425e-01</le></_></splits></_>
        <_>
          <depth>2</depth>
          <value>4.8148148148148145e-01</value>
          <splits>
            <_><var>9</var>
              <quality>5.3940799713134766e+01</quality>
              <le>2.5604849681258202e-02</le></_></splits></_>
        <_>
          <depth>3</depth>
          <value>6.1904761904761907e-01</value>
          <splits>
            <_><var>10</var>
              <quality>4.3571430206298828e+01</quality>
              <le>1.9134800881147385e-02</le></_></splits></_>
        <_>
          <depth>4</depth>
          <value>4.2857142857142855e-01</value>
          <splits>
            <_><var>10</var>
              <quality>1.0255813598632812e+01</quality>
              <le>1.7949499189853668e-02</le></_></splits></_>
        <_>
          <depth>5</depth>
          <value>4.8837209302325579e-01</value></_>
        <_>
          <depth>5</depth>
          <value>0.</value></_>
        <_>
          <depth>4</depth>
          <value>7.8571428571428570e-01</value>
          <splits>
            <_><var>3</var>
              <quality>3.6952381134033203e+01</quality>
              <le>1.0974849760532379e-01</le></_></splits></_>
        <_>
          <depth>5</depth>
          <value>9.0476190476190477e-01</value></_>
        <_>
          <depth>5</depth>
          <value>4.2857142857142855e-01</value></_>
        <_>
          <depth>3</depth>
          <value>3.5135135135135137e-01</value>
          <splits>
            <_><var>8</var>
              <quality>1.8002525329589844e+01</quality>
              <le>7.1707047522068024e-02</le></_></splits></_>
        <_>
          <depth>4</depth>
          <value>2.8282828282828282e-01</value>
          <splits>
            <_><var>0</var>
              <quality>1.2477272987365723e+01</quality>
              <le>4.7041851282119751e-01</le></_></splits></_>
        <_>
          <depth>5</depth>
          <value>5.2272727272727271e-01</value></_>
        <_>
          <depth>5</depth>
          <value>9.0909090909090912e-02</value></_>
        <_>
          <depth>4</depth>
          <value>9.1666666666666663e-01</value>
          <splits>
            <_><var>13</var>
              <quality>11.</quality>
              <le>4.6589400619268417e-02</le></_></splits></_>
        <_>
          <depth>5</depth>
          <value>1.</value></_>
        <_>
          <depth>5</depth>
          <value>0.</value></_>
        <_>
          <depth>2</depth>
          <value>0.</value></_>
        <_>
          <depth>1</depth>
          <value>7.7941176470588236e-01</value>
          <splits>
            <_><var>12</var>
              <quality>4.3616424560546875e+01</quality>
              <le>2.4166850373148918e-02</le></_></splits></_>
        <_>
          <depth>2</depth>
          <value>9.1111111111111109e-01</value>
          <splits>
            <_><var>3</var>
              <quality>3.7769229888916016e+01</quality>
              <le>1.7641650140285492e-01</le></_></splits></_>
        <_>
          <depth>3</depth>
          <value>9.4871794871794868e-01</value>
          <splits>
            <_><var>5</var>
              <quality>3.6026317596435547e+01</quality>
              <le>2.2133300080895424e-02</le></_></splits></_>
        <_>
          <depth>4</depth>
          <value>0.</value></_>
        <_>
          <depth>4</depth>
          <value>9.7368421052631582e-01</value>
          <splits>
            <_><var>3</var>
              <quality>3.6142856597900391e+01</quality>
              <le>6.6017650067806244e-02</le></_></splits></_>
        <_>
          <depth>5</depth>
          <value>8.5714285714285710e-01</value></_>
        <_>
          <depth>5</depth>
          <value>1.</value></_>
        <_>
          <depth>3</depth>
          <value>6.6666666666666663e-01</value>
          <splits>
            <_><var>5</var>
              <quality>4.</quality>
              <le>6.2250699847936630e-02</le></_></splits></_>
        <_>
          <depth>4</depth>
          <value>1.</value></_>
        <_>
          <depth>4</depth>
          <value>0.</value></_>
        <_>
          <depth>2</depth>
          <value>5.2173913043478259e-01</value>
          <splits>
            <_><var>2</var>
              <quality>7.7222223281860352e+00</quality>
              <le>2.9266297817230225e-01</le></_></splits></_>
        <_>
          <depth>3</depth>
          <value>3.8888888888888890e-01</value>
          <splits>
            <_><var>18</var>
              <quality>3.5625000000000000e+00</quality>
              <le>5.6974999606609344e-03</le></_></splits></_>
        <_>
          <depth>4</depth>
          <value>1.</value></_>
        <_>
          <depth>4</depth>
          <value>3.1250000000000000e-01</value>
          <splits>
            <_><var>14</var>
              <quality>4.1666665077209473e+00</quality>
              <le>1.7172001302242279e-02</le></_></splits></_>
        <_>
          <depth>5</depth>
          <value>8.3333333333333337e-01</value></_>
        <_>
          <depth>5</depth>
          <value>0.</value></_>
        <_>
          <depth>3</depth>
          <value>1.</value></_></nodes></_>
    <_>
      <nodes>
        <_>
          <depth>0</depth>
          <value>5.1689189189189189e-01</value>
          <splits>
            <_><var>5</var>
              <quality>8.3176910400390625e+01</quality>
              <le>5.5805649608373642e-02</le></_></splits></_>
        <_>
          <depth>1</depth>
          <value>6.4885496183206104e-01</value>
          <splits>
            <_><var>5</var>
              <quality>5.8208988189697266e+01</quality>
              <le>4.4813700020313263e-02</le></_></splits></_>
        <_>
          <depth>2</depth>
          <value>5.4022988505747127e-01</value>
          <splits>
            <_><var>17</var>
              <quality>2.8416666030883789e+01</quality>
              <le>8.2737654447555542e-03</le></_></splits></_>
        <_>
          <depth>3</depth>
          <value>7.0833333333333337e-01</value>
          <splits>
            <_><var>6</var>
              <quality>2.6100000381469727e+01</quality>
              <le>1.8859650939702988e-02</le></_></splits></_>
        <_>
          <depth>4</depth>
          <value>2.5000000000000000e-01</value>
          <splits>
            <_><var>12</var>
              <quality>1.1428571939468384e+00</quality>
              <le>5.7660946622490883e-03</le></_></splits></_>
        <_>
          <depth>5</depth>
          <value>1.</value></_>
        <_>
          <depth>5</depth>
          <value>1.4285714285714285e-01</value></_>
        <_>
          <depth>4</depth>
          <value>8.0000000000000004e-01</value>
          <splits>
            <_><var>15</var>
              <quality>2.6947368621826172e+01</quality>
              <le>2.4928599596023560e-03</le></_></splits></_>
        <_>
          <depth>5</depth>
          <value>0.</value></_>
        <_>
          <depth>5</depth>
          <value>8.4210526315789469e-01</value></_>
        <_>
          <depth>3</depth>
          <value>3.3333333333333331e-01</value>
          <splits>
            <_><var>15</var>
              <quality>6.3142857551574707e+00</quality>
              <le>5.1388852298259735e-03</le></_></splits></_>
        <_>
          <depth>4</depth>
          <value>1.</value></_>
        <_>
          <depth>4</depth>
          <value>2.5714285714285712e-01</value>
          <splits>
            <_><var>14</var>
              <quality>4.3461537361145020e+00</quality>
              <le>1.0896200314164162e-02</le></_></splits></_>
        <_>
          <depth>5</depth>
          <value>6.6666666666666663e-01</value></_>
        <_>
          <depth>5</depth>
          <value>1.1538461538461539e-01</value></_>
        <_>
          <depth>2</depth>
          <value>8.6363636363636365e-01</value>
          <splits>
            <_><var>10</var>
              <quality>3.4393821716308594e+01</quality>
              <le>1.4770049601793289e-02</le></_></splits></_>
        <_>
          <depth>3</depth>
          <value>4.2857142857142855e-01</value>
          <splits>
            <_><var>8</var>
              <quality>2.2500000000000000e+00</quality>
              <le>2.1570300683379173e-02</le></_></splits></_>
        <_>
          <depth>4</depth>
          <value>0.</value></_>
        <_>
          <depth>4</depth>
          <value>7.5000000000000000e-01</value>
          <splits>
            <_><var>2</var>
              <quality>3.</quality>
              <le>9.2497594654560089e-02</le></_></splits></_>
        <_>
          <depth>5</depth>
          <value>0.</value></_>
        <_>
          <depth>5</depth>
          <value>1.</value></_>
        <_>
          <depth>3</depth>
          <value>9.4594594594594594e-01</value>
          <splits>
            <_><var>12</var>
              <quality>3.4027778625488281e+01</quality>
              <le>7.6680048368871212e-03</le></_></splits></_>
        <_>
          <depth>4</depth>
          <value>0.</value></_>
        <_>
          <depth>4</depth>
          <value>9.7222222222222221e-01</value>
          <splits>
            <_><var>6</var>
              <quality>3.4333332061767578e+01</quality>
              <le>3.3112850040197372e-02</le></_></splits></_>
        <_>
          <depth>5</depth>
          <value>6.6666666666666663e-01</value></_>
        <_>
          <depth>5</depth>
          <value>1.</value></_>
        <_>
          <depth>1</depth>
          <value>4.1212121212121211e-01</value>
          <splits>
            <_><var>5</var>
              <quality>3.4977001190185547e+01</quality>
              <le>1.1066450178623199e-01</le></_></splits></_>
        <_>
          <depth>2</depth>
          <value>2.9599999999999999e-01</value>
          <splits>
            <_><var>18</var>
              <quality>1.4178086280822754e+01</quality>
              <le>7.9890247434377670e-03</le></_></splits></_>
        <_>
          <depth>3</depth>
          <value>5.5882352941176472e-01</value>
          <splits>
            <_><var>0</var>
              <quality>1.4069597244262695e+01</quality>
              <le>4.5176351070404053e-01</le></_></splits></_>
        <_>
          <depth>4</depth>
          <value>8.0952380952380953e-01</value>
          <splits>
            <_><var>12</var>
              <quality>1.4449999809265137e+01</quality>
              <le>3.0658449977636337e-02</le></_></splits></_>
        <_>
          <depth>5</depth>
          <value>8.4999999999999998e-01</value></_>
        <_>
          <depth>5</depth>
          <value>0.</value></_>
        <_>
          <depth>4</depth>
          <value>1.5384615384615385e-01</value>
          <splits>
            <_><var>14</var>
              <quality>2.</quality>
              <le>1.9230850040912628e-02</le></_></splits></_>
        <_>
          <depth>5</depth>
          <value>0.</value></_>
        <_>
          <depth>5</depth>
          <value>1.</value></_>
        <_>
          <depth>3</depth>
          <value>1.9780219780219779e-01</value>
          <splits>
            <_><var>7</var>
              <quality>5.1160573959350586e+00</quality>
              <le>2.7296850457787514e-02</le></_></splits></_>
        <_>
          <depth>4</depth>
          <value>4.7058823529411764e-01</value>
          <splits>
            <_><var>12</var>
              <quality>4.9848484992980957e+00</quality>
              <le>2.4135049432516098e-02</le></_></splits></_>
        <_>
          <depth>5</depth>
          <value>2.7272727272727271e-01</value></_>
        <_>
          <depth>5</depth>
          <value>8.3333333333333337e-01</value></_>
        <_>
          <depth>4</depth>
          <value>1.3513513513513514e-01</value>
          <splits>
            <_><var>4</var>
              <quality>2.8888888359069824e+00</quality>
              <le>2.1530300378799438e-01</le></_></splits></_>
        <_>
          <depth>5</depth>
          <value>1.1111111111111110e-01</value></_>
        <_>
          <depth>5</depth>
          <value>1.</value></_>
        <_>
          <depth>2</depth>
          <value>7.7500000000000002e-01</value>
          <splits>
            <_><var>17</var>
              <quality>2.5289474487304688e+01</quality>
              <le>3.9623301476240158e-02</le></_></splits></_>
        <_>
          <depth>3</depth>
          <value>8.1578947368421051e-01</value>
          <splits>
            <_><var>1</var>
              <quality>2.6165266036987305e+01</quality>
              <le>3.1147301197052002e-01</le></_></splits></_>
        <_>
          <depth>4</depth>
          <value>6.4705882352941180e-01</value>
          <splits>
            <_><var>17</var>
              <quality>8.2361106872558594e+00</quality>
              <le>1.6917049884796143e-02</le></_></splits></_>
        <_>
          <depth>5</depth>
          <value>3.7500000000000000e-01</value></_>
        <_>
          <depth>5</depth>
          <value>8.8888888888888884e-01</value></_>
        <_>
          <depth>4</depth>
          <value>9.5238095238095233e-01</value>
          <splits>
            <_><var>12</var>
              <quality>1.9142856597900391e+01</quality>
              <le>3.2819800078868866e-02</le></_></splits></_>
        <_>
          <depth>5</depth>
          <value>1.</value></_>
        <_>
          <depth>5</depth>
          <value>8.5714285714285710e-01</value></_>
        <_>
          <depth>3</depth>
          <value>0.</value></_></nodes></_>
    <_>
      <nodes>
        <_>
          <depth>0</depth>
          <value>4.7972972972972971e-01</value>
          <splits>
            <_><var>15</var>
              <quality>7.3888732910156250e+01</quality>
              <le>9.0652946382761002e-03</le></_></splits></_>
        <_>
          <depth>1</depth>
          <value>2.8282828282828282e-01</value>
          <splits>
            <_><var>8</var>
              <quality>1.0063158035278320e+01</quality>
              <le>5.5706750601530075e-02</le></_></splits></_>
        <_>
          <depth>2</depth>
          <value>2.5263157894736843e-01</value>
          <splits>
            <_><var>8</var>
              <quality>8.5921049118041992e+00</quality>
              <le>1.6909301280975342e-02</le></_></splits></_>
        <_>
          <depth>3</depth>
          <value>5.7894736842105265e-01</value>
          <splits>
            <_><var>11</var>
              <quality>8.0666666030883789e+00</quality>
              <le>1.9599851220846176e-02</le></_></splits></_>
        <_>
          <depth>4</depth>
          <value>7.3333333333333328e-01</value>
          <splits>
            <_><var>16</var>
              <quality>9.3409090042114258e+00</quality>
              <le>5.9747099876403809e-03</le></_></splits></_>
        <_>
          <depth>5</depth>
          <value>2.5000000000000000e-01</value></_>
        <_>
          <depth>5</depth>
          <value>9.0909090909090906e-01</value></_>
        <_>
          <depth>4</depth>
          <value>0.</value></_>
        <_>
          <depth>3</depth>
          <value>1.7105263157894737e-01</value>
          <splits>
            <_><var>11</var>
              <quality>4.4989647865295410e+00</quality>
              <le>3.1524799764156342e-02</le></_></splits></_>
        <_>
          <depth>4</depth>
          <value>1.1594202898550725e-01</value>
          <splits>
            <_><var>18</var>
              <quality>2.5373134613037109e+00</quality>
              <le>1.4265649951994419e-03</le></_></splits></_>
        <_>
          <depth>5</depth>
          <value>1.</value></_>
        <_>
          <depth>5</depth>
          <value>8.9552238805970144e-02</value></_>
        <_>
          <depth>4</depth>
          <value>7.1428571428571430e-01</value>
          <splits>
            <_><var>8</var>
              <quality>5.</quality>
              <le>2.3780900985002518e-02</le></_></splits></_>
        <_>
          <depth>5</depth>
          <value>0.</value></_>
        <_>
          <depth>5</depth>
          <value>1.</value></_>
        <_>
          <depth>2</depth>
          <value>1.</value></_>
        <_>
          <depth>1</depth>
          <value>5.7868020304568524e-01</value>
          <splits>
            <_><var>0</var>
              <quality>7.2029815673828125e+01</quality>
              <le>4.7027099132537842e-01</le></_></splits></_>
        <_>
          <depth>2</depth>
          <value>7.4285714285714288e-01</value>
          <splits>
            <_><var>16</var>
              <quality>6.0346153259277344e+01</quality>
              <le>1.4454800635576248e-02</le></_></splits></_>
        <_>
          <depth>3</depth>
          <value>8.0219780219780223e-01</value>
          <splits>
            <_><var>3</var>
              <quality>6.0859298706054688e+01</quality>
              <le>6.5726399421691895e-02</le></_></splits></_>
        <_>
          <depth>4</depth>
          <value>4.7058823529411764e-01</value>
          <splits>
            <_><var>18</var>
              <quality>6.4000000953674316e+00</quality>
              <le>1.0916150175035000e-02</le></_></splits></_>
        <_>
          <depth>5</depth>
          <value>8.0000000000000004e-01</value></_>
        <_>
          <depth>5</depth>
          <value>0.</value></_>
        <_>
          <depth>4</depth>
          <value>8.7837837837837840e-01</value>
          <splits>
            <_><var>14</var>
              <quality>5.8023475646972656e+01</quality>
              <le>2.3311899974942207e-02</le></_></splits></_>
        <_>
          <depth>5</depth>
          <value>9.0140845070422537e-01</value></_>
        <_>
          <depth>5</depth>
          <value>3.3333333333333331e-01</value></_>
        <_>
          <depth>3</depth>
          <value>3.5714285714285715e-01</value>
          <splits>
            <_><var>15</var>
              <quality>2.7916667461395264e+00</quality>
              <le>1.7390899360179901e-02</le></_></splits></_>
        <_>
          <depth>4</depth>
          <value>6.6666666666666663e-01</value>
          <splits>
            <_><var>9</var>
              <quality>3.3333332538604736e+00</quality>
              <le>2.2421350702643394e-02</le></_></splits></_>
        <_>
          <depth>5</depth>
          <value>1.</value></_>
        <_>
          <depth>5</depth>
          <value>3.3333333333333331e-01</value></_>
        <_>
          <depth>4</depth>
          <value>1.2500000000000000e-01</value>
          <splits>
            <_><var>9</var>
              <quality>5.0000000000000000e-01</quality>
              <le>2.4589449167251587e-02</le></_></splits></_>
        <_>
          <depth>5</depth>
          <value>5.0000000000000000e-01</value></_>
        <_>
          <depth>5</depth>
          <value>0.</value></_>
        <_>
          <depth>2</depth>
          <value>3.9130434782608697e-01</value>
          <splits>
            <_><var>0</var>
              <quality>1.9368722915649414e+01</quality>
              <le>6.4537698030471802e-01</le></_></splits></_>
        <_>
          <depth>3</depth>
          <value>1.7647058823529413e-01</value>
          <splits>
            <_><var>15</var>
              <quality>4.0285716056823730e+00</quality>
              <le>1.3030800037086010e-02</le></_></splits></_>
        <_>
          <depth>4</depth>
          <value>5.0000000000000000e-01</value>
          <splits>
            <_><var>8</var>
              <quality>5.5873017311096191e+00</quality>
              <le>4.0393501520156860e-02</le></_></splits></_>
        <_>
          <depth>5</depth>
          <value>1.4285714285714285e-01</value></_>
        <_>
          <depth>5</depth>
          <value>7.7777777777777779e-01</value></_>
        <_>
          <depth>4</depth>
          <value>2.8571428571428571e-02</value>
          <splits>
            <_><var>2</var>
              <quality>2.5000000000000000e-01</quality>
              <le>1.2489099800586700e-01</le></_></splits></_>
        <_>
          <depth>5</depth>
          <value>2.5000000000000000e-01</value></_>
        <_>
          <depth>5</depth>
          <value>0.</value></_>
        <_>
          <depth>3</depth>
          <value>6.5853658536585369e-01</value>
          <splits>
            <_><var>15</var>
              <quality>2.0250000000000000e+01</quality>
              <le>1.2553250417113304e-02</le></_></splits></_>
        <_>
          <depth>4</depth>
          <value>0.</value></_>
        <_>
          <depth>4</depth>
          <value>7.5000000000000000e-01</value>
          <splits>
            <_><var>9</var>
              <quality>2.2049999237060547e+01</quality>
              <le>3.4047648310661316e-02</le></_></splits></_>
        <_>
          <depth>5</depth>
          <value>1.</value></_>
        <_>
          <depth>5</depth>
          <value>5.5000000000000004e-01</value></_></nodes></_>
    <_>
      <nodes>
        <_>
          <depth>0</depth>
          <value>5.0337837837837840e-01</value>
          <splits>
            <_><var>2</var>
              <quality>7.7660079956054688e+01</quality>
              <le>3.2307052612304688e-01</le></_></splits></_>
        <_>
          <depth>1</depth>
          <value>4.8226950354609927e-01</value>
          <splits>
            <_><var>13</var>
              <quality>6.7983444213867188e+01</quality>
              <le>2.4803049862384796e-02</le></_></splits></_>
        <_>
          <depth>2</depth>
          <value>5.2608695652173909e-01</value>
          <splits>
            <_><var>0</var>
              <quality>6.6680351257324219e+01</quality>
              <le>4.8222851753234863e-01</le></_></splits></_>
        <_>
          <depth>3</depth>
          <value>6.1224489795918369e-01</value>
          <splits>
            <_><var>9</var>
              <quality>5.8773525238037109e+01</quality>
              <le>3.5485900938510895e-02</le></_></splits></_>
        <_>
          <depth>4</depth>
          <value>5.3389830508474578e-01</value>
          <splits>
            <_><var>16</var>
              <quality>3.5951751708984375e+01</quality>
              <le>9.8076798021793365e-03</le></_></splits></_>
        <_>
          <depth>5</depth>
          <value>6.4788732394366200e-01</value></_>
        <_>
          <depth>5</depth>
          <value>3.6170212765957449e-01</value></_>
        <_>
          <depth>4</depth>
          <value>9.3103448275862066e-01</value>
          <splits>
            <_><var>0</var>
              <quality>27.</quality>
              <le>2.6486247777938843e-01</le></_></splits></_>
        <_>
          <depth>5</depth>
          <value>0.</value></_>
        <_>
          <depth>5</depth>
          <value>1.</value></_>
        <_>
          <depth>3</depth>
          <value>3.7349397590361444e-01</value>
          <splits>
            <_><var>1</var>
              <quality>1.8764705657958984e+01</quality>
              <le>3.4595900774002075e-01</le></_></splits></_>
        <_>
          <depth>4</depth>
          <value>2.3529411764705882e-01</value>
          <splits>
            <_><var>13</var>
              <quality>6.2500000000000000e+00</quality>
              <le>2.3216251283884048e-02</le></_></splits></_>
        <_>
          <depth>5</depth>
          <value>1.8750000000000000e-01</value></_>
        <_>
          <depth>5</depth>
          <value>1.</value></_>
        <_>
          <depth>4</depth>
          <value>1.</value></_>
        <_>
          <depth>2</depth>
          <value>2.8846153846153844e-01</value>
          <splits>
            <_><var>3</var>
              <quality>7.2992591857910156e+00</quality>
              <le>1.3098800182342529e-01</le></_></splits></_>
        <_>
          <depth>3</depth>
          <value>4.0000000000000001e-02</value>
          <splits>
            <_><var>8</var>
              <quality>1.</quality>
              <le>9.2440500855445862e-02</le></_></splits></_>
        <_>
          <depth>4</depth>
          <value>0.</value></_>
        <_>
          <depth>4</depth>
          <value>1.</value></_>
        <_>
          <depth>3</depth>
          <value>5.1851851851851849e-01</value>
          <splits>
            <_><var>3</var>
              <quality>1.2148351669311523e+01</quality>
              <le>1.6550651192665100e-01</le></_></splits></_>
        <_>
          <depth>4</depth>
          <value>9.2857142857142860e-01</value>
          <splits>
            <_><var>2</var>
              <quality>1.2333333015441895e+01</quality>
              <le>1.6251049935817719e-01</le></_></splits></_>
        <_>
          <depth>5</depth>
          <value>6.6666666666666663e-01</value></_>
        <_>
          <depth>5</depth>
          <value>1.</value></_>
        <_>
          <depth>4</depth>
          <value>7.6923076923076927e-02</value>
          <splits>
            <_><var>4</var>
              <quality>1.</quality>
              <le>2.3224200308322906e-01</le></_></splits></_>
        <_>
          <depth>5</depth>
          <value>0.</value></_>
        <_>
          <depth>5</depth>
          <value>1.</value></_>
        <_>
          <depth>1</depth>
          <value>9.2857142857142860e-01</value>
          <splits>
            <_><var>6</var>
              <quality>13.</quality>
              <le>3.4813702106475830e-02</le></_></splits></_>
        <_>
          <depth>2</depth>
          <value>0.</value></_>
        <_>
          <depth>2</depth>
          <value>1.</value></_></nodes></_>
    <_>
      <nodes>
        <_>
          <depth>0</depth>
          <value>4.8310810810810811e-01</value>
          <splits>
            <_><var>4</var>
              <quality>7.3163467407226562e+01</quality>
              <le>2.9807999730110168e-02</le></_></splits></_>
        <_>
          <depth>1</depth>
          <value>9.4444444444444442e-01</value>
          <splits>
            <_><var>18</var>
              <quality>17.</quality>
              <le>5.5615147575736046e-03</le></_></splits></_>
        <_>
          <depth>2</depth>
          <value>0.</value></_>
        <_>
          <depth>2</depth>
          <value>1.</value></_>
        <_>
          <depth>1</depth>
          <value>4.5323741007194246e-01</value>
          <splits>
            <_><var>12</var>
              <quality>5.9060607910156250e+01</quality>
              <le>1.2986750341951847e-02</le></_></splits></_>
        <_>
          <depth>2</depth>
          <value>3.0303030303030304e-01</value>
          <splits>
            <_><var>4</var>
              <quality>1.0941176414489746e+01</quality>
              <le>7.6226904988288879e-02</le></_></splits></_>
        <_>
          <depth>3</depth>
          <value>1.4285714285714285e-01</value>
          <splits>
            <_><var>17</var>
              <quality>2.6055555343627930e+00</quality>
              <le>4.1518099606037140e-03</le></_></splits></_>
        <_>
          <depth>4</depth>
          <value>7.5000000000000000e-01</value>
          <splits>
            <_><var>16</var>
              <quality>3.</quality>
              <le>7.4175698682665825e-03</le></_></splits></_>
        <_>
          <depth>5</depth>
          <value>0.</value></_>
        <_>
          <depth>5</depth>
          <value>1.</value></_>
        <_>
          <depth>4</depth>
          <value>8.8888888888888892e-02</value>
          <splits>
            <_><var>11</var>
              <quality>9.2857140302658081e-01</quality>
              <le>1.1244149878621101e-02</le></_></splits></_>
        <_>
          <depth>5</depth>
          <value>2.9999999999999999e-01</value></_>
        <_>
          <depth>5</depth>
          <value>2.8571428571428571e-02</value></_>
        <_>
          <depth>3</depth>
          <value>7.6470588235294112e-01</value>
          <splits>
            <_><var>16</var>
              <quality>11.</quality>
              <le>8.5217952728271484e-03</le></_></splits></_>
        <_>
          <depth>4</depth>
          <value>1.</value></_>
        <_>
          <depth>4</depth>
          <value>5.0000000000000000e-01</value>
          <splits>
            <_><var>9</var>
              <quality>4.</quality>
              <le>3.7483800202608109e-02</le></_></splits></_>
        <_>
          <depth>5</depth>
          <value>0.</value></_>
        <_>
          <depth>5</depth>
          <value>1.</value></_>
        <_>
          <depth>2</depth>
          <value>5.0000000000000000e-01</value>
          <splits>
            <_><var>9</var>
              <quality>5.6180000305175781e+01</quality>
              <le>5.9357650578022003e-02</le></_></splits></_>
        <_>
          <depth>3</depth>
          <value>4.6999999999999997e-01</value>
          <splits>
            <_><var>1</var>
              <quality>4.7653976440429688e+01</quality>
              <le>2.8658849000930786e-01</le></_></splits></_>
        <_>
          <depth>4</depth>
          <value>3.7007874015748032e-01</value>
          <splits>
            <_><var>1</var>
              <quality>1.9208696365356445e+01</quality>
              <le>2.7343150973320007e-01</le></_></splits></_>
        <_>
          <depth>5</depth>
          <value>4.0869565217391307e-01</value></_>
        <_>
          <depth>5</depth>
          <value>0.</value></_>
        <_>
          <depth>4</depth>
          <value>6.4383561643835618e-01</value>
          <splits>
            <_><var>0</var>
              <quality>3.2487705230712891e+01</quality>
              <le>3.7270301580429077e-01</le></_></splits></_>
        <_>
          <depth>5</depth>
          <value>2.5000000000000000e-01</value></_>
        <_>
          <depth>5</depth>
          <value>7.2131147540983609e-01</value></_>
        <_>
          <depth>3</depth>
          <value>1.</value></_></nodes></_>
    <_>
      <nodes>
        <_>
          <depth>0</depth>
          <value>4.9324324324324326e-01</value>
          <splits>
            <_><var>11</var>
              <quality>7.4284500122070312e+01</quality>
              <le>1.9526800140738487e-02</le></_></splits></_>
        <_>
          <depth>1</depth>
          <value>5.8955223880597019e-01</value>
          <splits>
            <_><var>3</var>
              <quality>4.9918182373046875e+01</quality>
              <le>6.7459851503372192e-02</le></_></splits></_>
        <_>
          <depth>2</depth>
          <value>3.6363636363636365e-01</value>
          <splits>
            <_><var>11</var>
              <quality>7.8455600738525391e+00</quality>
              <le>7.4700401164591312e-03</le></_></splits></_>
        <_>
          <depth>3</depth>
          <value>8.5714285714285710e-01</value>
          <splits>
            <_><var>16</var>
              <quality>6.</quality>
              <le>1.0101355612277985e-02</le></_></splits></_>
        <_>
          <depth>4</depth>
          <value>1.</value></_>
        <_>
          <depth>4</depth>
          <value>0.</value></_>
        <_>
          <depth>3</depth>
          <value>2.7027027027027029e-01</value>
          <splits>
            <_><var>0</var>
              <quality>4.</quality>
              <le>4.2752051353454590e-01</le></_></splits></_>
        <_>
          <depth>4</depth>
          <value>4.0000000000000002e-01</value>
          <splits>
            <_><var>15</var>
              <quality>5.</quality>
              <le>7.2242249734699726e-03</le></_></splits></_>
        <_>
          <depth>5</depth>
          <value>0.</value></_>
        <_>
          <depth>5</depth>
          <value>5.0000000000000000e-01</value></_>
        <_>
          <depth>4</depth>
          <value>0.</value></_>
        <_>
          <depth>2</depth>
          <value>6.9999999999999996e-01</value>
          <splits>
            <_><var>8</var>
              <quality>4.5227848052978516e+01</quality>
              <le>1.8204899504780769e-02</le></_></splits></_>
        <_>
          <depth>3</depth>
          <value>1.</value></_>
        <_>
          <depth>3</depth>
          <value>6.5822784810126578e-01</value>
          <splits>
            <_><var>11</var>
              <quality>3.7555557250976562e+01</quality>
              <le>7.4790548533201218e-03</le></_></splits></_>
        <_>
          <depth>4</depth>
          <value>0.</value></_>
        <_>
          <depth>4</depth>
          <value>7.2222222222222221e-01</value>
          <splits>
            <_><var>7</var>
              <quality>4.0358207702636719e+01</quality>
              <le>2.0094349980354309e-02</le></_></splits></_>
        <_>
          <depth>5</depth>
          <value>0.</value></_>
        <_>
          <depth>5</depth>
          <value>7.7611940298507465e-01</value></_>
        <_>
          <depth>1</depth>
          <value>4.1358024691358025e-01</value>
          <splits>
            <_><var>6</var>
              <quality>3.2111431121826172e+01</quality>
              <le>4.5859400182962418e-02</le></_></splits></_>
        <_>
          <depth>2</depth>
          <value>1.6326530612244897e-01</value>
          <splits>
            <_><var>2</var>
              <quality>2.1333334445953369e+00</quality>
              <le>1.4931198954582214e-01</le></_></splits></_>
        <_>
          <depth>3</depth>
          <value>0.</value></_>
        <_>
          <depth>3</depth>
          <value>2.6666666666666666e-01</value>
          <splits>
            <_><var>15</var>
              <quality>3.4832534790039062e+00</quality>
              <le>1.1560749262571335e-02</le></_></splits></_>
        <_>
          <depth>4</depth>
          <value>5.4545454545454541e-01</value>
          <splits>
            <_><var>15</var>
              <quality>4.5000000000000000e+00</quality>
              <le>9.1859158128499985e-03</le></_></splits></_>
        <_>
          <depth>5</depth>
          <value>0.</value></_>
        <_>
          <depth>5</depth>
          <value>7.5000000000000000e-01</value></_>
        <_>
          <depth>4</depth>
          <value>1.0526315789473684e-01</value>
          <splits>
            <_><var>5</var>
              <quality>8.0000001192092896e-01</quality>
              <le>5.6890249252319336e-02</le></_></splits></_>
        <_>
          <depth>5</depth>
          <value>4.0000000000000002e-01</value></_>
        <_>
          <depth>5</depth>
          <value>0.</value></_>
        <_>
          <depth>2</depth>
          <value>5.2212389380530977e-01</value>
          <splits>
            <_><var>10</var>
              <quality>3.5174724578857422e+01</quality>
              <le>4.0902700275182724e-02</le></_></splits></_>
        <_>
          <depth>3</depth>
          <value>6.5384615384615385e-01</value>
          <splits>
            <_><var>6</var>
              <quality>3.4803745269775391e+01</quality>
              <le>9.0694904327392578e-02</le></_></splits></_>
        <_>
          <depth>4</depth>
          <value>5.7627118644067798e-01</value>
          <splits>
            <_><var>16</var>
              <quality>2.2230770111083984e+01</quality>
              <le>6.3091702759265900e-03</le></_></splits></_>
        <_>
          <depth>5</depth>
          <value>0.</value></_>
        <_>
          <depth>5</depth>
          <value>6.5384615384615385e-01</value></_>
        <_>
          <depth>4</depth>
          <value>8.9473684210526316e-01</value>
          <splits>
            <_><var>4</var>
              <quality>1.6055555343627930e+01</quality>
              <le>4.6395000070333481e-02</le></_></splits></_>
        <_>
          <depth>5</depth>
          <value>0.</value></_>
        <_>
          <depth>5</depth>
          <value>9.4444444444444442e-01</value></_>
        <_>
          <depth>3</depth>
          <value>2.2857142857142856e-01</value>
          <splits>
            <_><var>1</var>
              <quality>4.4770116806030273e+00</quality>
              <le>3.1571200489997864e-01</le></_></splits></_>
        <_>
          <depth>4</depth>
          <value>1.0344827586206896e-01</value>
          <splits>
            <_><var>8</var>
              <quality>1.1428571939468384e+00</quality>
              <le>9.6040248870849609e-02</le></_></splits></_>
        <_>
          <depth>5</depth>
          <value>7.1428571428571425e-02</value></_>
        <_>
          <depth>5</depth>
          <value>1.</value></_>
        <_>
          <depth>4</depth>
          <value>8.3333333333333337e-01</value>
          <splits>
            <_><var>0</var>
              <quality>4.5000000000000000e+00</quality>
              <le>6.1732447147369385e-01</le></_></splits></_>
        <_>
          <depth>5</depth>
          <value>5.0000000000000000e-01</value></_>
        <_>
          <depth>5</depth>
          <value>1.</value></_></nodes></_>
    <_>
      <nodes>
        <_>
          <depth>0</depth>
          <value>5.1351351351351349e-01</value>
          <splits>
            <_><var>1</var>
              <quality>8.3636215209960938e+01</quality>
              <le>1.6242299973964691e-01</le></_></splits></_>
        <_>
          <depth>1</depth>
          <value>3.2692307692307693e-01</value>
          <splits>
            <_><var>13</var>
              <quality>1.3423815727233887e+01</quality>
              <le>8.9430948719382286e-03</le></_></splits></_>
        <_>
          <depth>2</depth>
          <value>5.4545454545454541e-01</value>
          <splits>
            <_><var>13</var>
              <quality>1.3714285850524902e+01</quality>
              <le>7.4570700526237488e-03</le></_></splits></_>
        <_>
          <depth>3</depth>
          <value>2.8571428571428570e-01</value>
          <splits>
            <_><var>17</var>
              <quality>3.5000000000000000e+00</quality>
              <le>5.5782650597393513e-03</le></_></splits></_>
        <_>
          <depth>4</depth>
          <value>1.</value></_>
        <_>
          <depth>4</depth>
          <value>1.6666666666666666e-01</value>
          <splits>
            <_><var>6</var>
              <quality>2.0625000000000000e+00</quality>
              <le>1.4661500230431557e-02</le></_></splits></_>
        <_>
          <depth>5</depth>
          <value>1.</value></_>
        <_>
          <depth>5</depth>
          <value>6.2500000000000000e-02</value></_>
        <_>
          <depth>3</depth>
          <value>1.</value></_>
        <_>
          <depth>2</depth>
          <value>2.2535211267605634e-01</value>
          <splits>
            <_><var>6</var>
              <quality>4.9230771064758301e+00</quality>
              <le>3.5351999104022980e-02</le></_></splits></_>
        <_>
          <depth>3</depth>
          <value>0.</value></_>
        <_>
          <depth>3</depth>
          <value>3.0769230769230771e-01</value>
          <splits>
            <_><var>5</var>
              <quality>7.</quality>
              <le>3.8144096732139587e-02</le></_></splits></_>
        <_>
          <depth>4</depth>
          <value>1.</value></_>
        <_>
          <depth>4</depth>
          <value>2.5000000000000000e-01</value>
          <splits>
            <_><var>2</var>
              <quality>5.4545454978942871e+00</quality>
              <le>7.5746551156044006e-02</le></_></splits></_>
        <_>
          <depth>5</depth>
          <value>1.</value></_>
        <_>
          <depth>5</depth>
          <value>1.8181818181818182e-01</value></_>
        <_>
          <depth>1</depth>
          <value>6.1458333333333337e-01</value>
          <splits>
            <_><var>0</var>
              <quality>7.8643356323242188e+01</quality>
              <le>4.9272298812866211e-01</le></_></splits></_>
        <_>
          <depth>2</depth>
          <value>7.7884615384615385e-01</value>
          <splits>
            <_><var>14</var>
              <quality>6.6565544128417969e+01</quality>
              <le>2.3801399394869804e-02</le></_></splits></_>
        <_>
          <depth>3</depth>
          <value>8.5393258426966290e-01</value>
          <splits>
            <_><var>18</var>
              <quality>6.6034553527832031e+01</quality>
              <le>8.9650452136993408e-03</le></_></splits></_>
        <_>
          <depth>4</depth>
          <value>7.3170731707317072e-01</value>
          <splits>
            <_><var>11</var>
              <quality>2.3635057449340820e+01</quality>
              <le>2.3960750550031662e-02</le></_></splits></_>
        <_>
          <depth>5</depth>
          <value>8.6206896551724133e-01</value></_>
        <_>
          <depth>5</depth>
          <value>4.1666666666666669e-01</value></_>
        <_>
          <depth>4</depth>
          <value>9.5833333333333337e-01</value>
          <splits>
            <_><var>6</var>
              <quality>4.4210525512695312e+01</quality>
              <le>5.3991150110960007e-02</le></_></splits></_>
        <_>
          <depth>5</depth>
          <value>8.9473684210526316e-01</value></_>
        <_>
          <depth>5</depth>
          <value>1.</value></_>
        <_>
          <depth>3</depth>
          <value>3.3333333333333331e-01</value>
          <splits>
            <_><var>4</var>
              <quality>2.7777776718139648e+00</quality>
              <le>8.1214696168899536e-02</le></_></splits></_>
        <_>
          <depth>4</depth>
          <value>0.</value></_>
        <_>
          <depth>4</depth>
          <value>5.5555555555555558e-01</value>
          <splits>
            <_><var>15</var>
              <quality>3.5714285373687744e+00</quality>
              <le>9.4987843185663223e-03</le></_></splits></_>
        <_>
          <depth>5</depth>
          <value>0.</value></_>
        <_>
          <depth>5</depth>
          <value>7.1428571428571430e-01</value></_>
        <_>
          <depth>2</depth>
          <value>4.2045454545454547e-01</value>
          <splits>
            <_><var>4</var>
              <quality>2.5236118316650391e+01</quality>
              <le>1.2606099247932434e-01</le></_></splits></_>
        <_>
          <depth>3</depth>
          <value>1.5094339622641509e-01</value>
          <splits>
            <_><var>9</var>
              <quality>3.5256409645080566e+00</quality>
              <le>3.8405202329158783e-02</le></_></splits></_>
        <_>
          <depth>4</depth>
          <value>2.5641025641025640e-02</value>
          <splits>
            <_><var>17</var>
              <quality>5.0000000000000000e-01</quality>
              <le>1.7233399674296379e-02</le></_></splits></_>
        <_>
          <depth>5</depth>
          <value>0.</value></_>
        <_>
          <depth>5</depth>
          <value>5.0000000000000000e-01</value></_>
        <_>
          <depth>4</depth>
          <value>5.0000000000000000e-01</value>
          <splits>
            <_><var>16</var>
              <quality>5.4444446563720703e+00</quality>
              <le>1.2596599757671356e-02</le></_></splits></_>
        <_>
          <depth>5</depth>
          <value>1.</value></_>
        <_>
          <depth>5</depth>
          <value>2.2222222222222221e-01</value></_>
        <_>
          <depth>3</depth>
          <value>8.2857142857142863e-01</value>
          <splits>
            <_><var>15</var>
              <quality>2.5484848022460938e+01</quality>
              <le>3.8613650947809219e-02</le></_></splits></_>
        <_>
          <depth>4</depth>
          <value>8.7878787878787878e-01</value>
          <splits>
            <_><var>16</var>
              <quality>2.7129032135009766e+01</quality>
              <le>1.0337205603718758e-02</le></_></splits></_>
        <_>
          <depth>5</depth>
          <value>0.</value></_>
        <_>
          <depth>5</depth>
          <value>9.3548387096774188e-01</value></_>
        <_>
          <depth>4</depth>
          <value>0.</value></_></nodes></_>
    <_>
      <nodes>
        <_>
          <depth>0</depth>
          <value>4.5608108108108109e-01</value>
          <splits>
            <_><var>0</var>
              <quality>7.0532867431640625e+01</quality>
              <le>4.6170100569725037e-01</le></_></splits></_>
        <_>
          <depth>1</depth>
          <value>6.0588235294117643e-01</value>
          <splits>
            <_><var>13</var>
              <quality>6.5369148254394531e+01</quality>
              <le>2.7532450854778290e-02</le></_></splits></_>
        <_>
          <depth>2</depth>
          <value>6.5131578947368418e-01</value>
          <splits>
            <_><var>15</var>
              <quality>6.6163017272949219e+01</quality>
              <le>1.8308850005269051e-02</le></_></splits></_>
        <_>
          <depth>3</depth>
          <value>6.8613138686131392e-01</value>
          <splits>
            <_><var>2</var>
              <quality>6.7789871215820312e+01</quality>
              <le>1.3430249691009521e-01</le></_></splits></_>
        <_>
          <depth>4</depth>
          <value>5.5128205128205132e-01</value>
          <splits>
            <_><var>12</var>
              <quality>2.6975862503051758e+01</quality>
              <le>1.8436750397086143e-02</le></_></splits></_>
        <_>
          <depth>5</depth>
          <value>4.3103448275862066e-01</value></_>
        <_>
          <depth>5</depth>
          <value>9.0000000000000002e-01</value></_>
        <_>
          <depth>4</depth>
          <value>8.6440677966101698e-01</value>
          <splits>
            <_><var>1</var>
              <quality>4.4844825744628906e+01</quality>
              <le>1.1084850132465363e-01</le></_></splits></_>
        <_>
          <depth>5</depth>
          <value>0.</value></_>
        <_>
          <depth>5</depth>
          <value>8.7931034482758619e-01</value></_>
        <_>
          <depth>3</depth>
          <value>3.3333333333333331e-01</value>
          <splits>
            <_><var>15</var>
              <quality>2.7777776718139648e+00</quality>
              <le>2.1199651062488556e-02</le></_></splits></_>
        <_>
          <depth>4</depth>
          <value>0.</value></_>
        <_>
          <depth>4</depth>
          <value>5.5555555555555558e-01</value>
          <splits>
            <_><var>18</var>
              <quality>4.1999998092651367e+00</quality>
              <le>1.3800850138068199e-02</le></_></splits></_>
        <_>
          <depth>5</depth>
          <value>1.</value></_>
        <_>
          <depth>5</depth>
          <value>2.0000000000000001e-01</value></_>
        <_>
          <depth>2</depth>
          <value>2.2222222222222221e-01</value>
          <splits>
            <_><var>16</var>
              <quality>2.6666667461395264e+00</quality>
              <le>1.0003825649619102e-02</le></_></splits></_>
        <_>
          <depth>3</depth>
          <value>6.6666666666666663e-01</value>
          <splits>
            <_><var>4</var>
              <quality>4.</quality>
              <le>1.3417550921440125e-01</le></_></splits></_>
        <_>
          <depth>4</depth>
          <value>0.</value></_>
        <_>
          <depth>4</depth>
          <value>1.</value></_>
        <_>
          <depth>3</depth>
          <value>0.</value></_>
        <_>
          <depth>1</depth>
          <value>2.5396825396825395e-01</value>
          <splits>
            <_><var>4</var>
              <quality>1.3951754570007324e+01</quality>
              <le>1.7235249280929565e-01</le></_></splits></_>
        <_>
          <depth>2</depth>
          <value>1.8421052631578946e-01</value>
          <splits>
            <_><var>5</var>
              <quality>5.9809556007385254e+00</quality>
              <le>9.3411803245544434e-02</le></_></splits></_>
        <_>
          <depth>3</depth>
          <value>8.2191780821917804e-02</value>
          <splits>
            <_><var>12</var>
              <quality>2.2253520488739014e+00</quality>
              <le>4.9698397517204285e-02</le></_></splits></_>
        <_>
          <depth>4</depth>
          <value>5.6338028169014086e-02</value>
          <splits>
            <_><var>0</var>
              <quality>5.0896054506301880e-01</quality>
              <le>4.7968250513076782e-01</le></_></splits></_>
        <_>
          <depth>5</depth>
          <value>2.2222222222222221e-01</value></_>
        <_>
          <depth>5</depth>
          <value>3.2258064516129031e-02</value></_>
        <_>
          <depth>4</depth>
          <value>1.</value></_>
        <_>
          <depth>3</depth>
          <value>3.6585365853658536e-01</value>
          <splits>
            <_><var>3</var>
              <quality>7.0956935882568359e+00</quality>
              <le>1.1329099535942078e-01</le></_></splits></_>
        <_>
          <depth>4</depth>
          <value>1.8181818181818182e-01</value>
          <splits>
            <_><var>7</var>
              <quality>2.6666667461395264e+00</quality>
              <le>4.4899150729179382e-02</le></_></splits></_>
        <_>
          <depth>5</depth>
          <value>0.</value></_>
        <_>
          <depth>5</depth>
          <value>6.6666666666666663e-01</value></_>
        <_>
          <depth>4</depth>
          <value>5.7894736842105265e-01</value>
          <splits>
            <_><var>2</var>
              <quality>7.8636364936828613e+00</quality>
              <le>2.1982800960540771e-01</le></_></splits></_>
        <_>
          <depth>5</depth>
          <value>8.1818181818181823e-01</value></_>
        <_>
          <depth>5</depth>
          <value>2.5000000000000000e-01</value></_>
        <_>
          <depth>2</depth>
          <value>9.1666666666666663e-01</value>
          <splits>
            <_><var>2</var>
              <quality>11.</quality>
              <le>1.2990850210189819e-01</le></_></splits></_>
        <_>
          <depth>3</depth>
          <value>0.</value></_>
        <_>
          <depth>3</depth>
          <value>1.</value></_></nodes></_>
    <_>
      <nodes>
        <_>
          <depth>0</depth>
          <value>5.4729729729729726e-01</value>
          <splits>
            <_><var>0</var>
              <quality>9.2155288696289062e+01</quality>
              <le>4.6388000249862671e-01</le></_></splits></_>
        <_>
          <depth>1</depth>
          <value>6.3953488372093026e-01</value>
          <splits>
            <_><var>17</var>
              <quality>7.5741828918457031e+01</quality>
              <le>3.6740349605679512e-03</le></_></splits></_>
        <_>
          <depth>2</depth>
          <value>6.6666666666666666e-02</value>
          <splits>
            <_><var>4</var>
              <quality>1.</quality>
              <le>1.0296329855918884e-01</le></_></splits></_>
        <_>
          <depth>3</depth>
          <value>0.</value></_>
        <_>
          <depth>3</depth>
          <value>1.</value></_>
        <_>
          <depth>2</depth>
          <value>6.9426751592356684e-01</value>
          <splits>
            <_><var>11</var>
              <quality>7.8284355163574219e+01</quality>
              <le>7.2194649837911129e-03</le></_></splits></_>
        <_>
          <depth>3</depth>
          <value>2.0000000000000001e-01</value>
          <splits>
            <_><var>8</var>
              <quality>1.3333333730697632e+00</quality>
              <le>1.8336851149797440e-02</le></_></splits></_>
        <_>
          <depth>4</depth>
          <value>6.6666666666666663e-01</value>
          <splits>
            <_><var>5</var>
              <quality>2.</quality>
              <le>2.4522900581359863e-02</le></_></splits></_>
        <_>
          <depth>5</depth>
          <value>0.</value></_>
        <_>
          <depth>5</depth>
          <value>1.</value></_>
        <_>
          <depth>4</depth>
          <value>0.</value></_>
        <_>
          <depth>3</depth>
          <value>7.2789115646258506e-01</value>
          <splits>
            <_><var>18</var>
              <quality>8.0874450683593750e+01</quality>
              <le>1.9323149695992470e-02</le></_></splits></_>
        <_>
          <depth>4</depth>
          <value>7.6642335766423353e-01</value>
          <splits>
            <_><var>12</var>
              <quality>8.2761230468750000e+01</quality>
              <le>1.3714650645852089e-02</le></_></splits></_>
        <_>
          <depth>5</depth>
          <value>6.0377358490566035e-01</value></_>
        <_>
          <depth>5</depth>
          <value>8.6904761904761907e-01</value></_>
        <_>
          <depth>4</depth>
          <value>2.0000000000000001e-01</value>
          <splits>
            <_><var>12</var>
              <quality>8.0000001192092896e-01</quality>
              <le>2.5464799255132675e-02</le></_></splits></_>
        <_>
          <depth>5</depth>
          <value>0.</value></_>
        <_>
          <depth>5</depth>
          <value>4.0000000000000002e-01</value></_>
        <_>
          <depth>1</depth>
          <value>4.1935483870967744e-01</value>
          <splits>
            <_><var>0</var>
              <quality>2.6504545211791992e+01</quality>
              <le>6.7685151100158691e-01</le></_></splits></_>
        <_>
          <depth>2</depth>
          <value>2.7500000000000002e-01</value>
          <splits>
            <_><var>4</var>
              <quality>7.9535784721374512e+00</quality>
              <le>8.2888051867485046e-02</le></_></splits></_>
        <_>
          <depth>3</depth>
          <value>9.0909090909090912e-02</value>
          <splits>
            <_><var>16</var>
              <quality>1.1250000000000000e+00</quality>
              <le>5.4895700886845589e-03</le></_></splits></_>
        <_>
          <depth>4</depth>
          <value>1.</value></_>
        <_>
          <depth>4</depth>
          <value>6.2500000000000000e-02</value>
          <splits>
            <_><var>1</var>
              <quality>1.0322580337524414e+00</quality>
              <le>4.2304149270057678e-01</le></_></splits></_>
        <_>
          <depth>5</depth>
          <value>3.2258064516129031e-02</value></_>
