<?xml version="1.0"?>
<opencv_storage>
<opencv_ml_rtrees>
  <format>3</format>
  <is_classifier>0</is_classifier>
  <var_all>10</var_all>
  <var_count>9</var_count>
  <ord_var_count>10</ord_var_count>
  <cat_var_count>0</cat_var_count>
  <training_params>
    <use_surrogates>0</use_surrogates>
    <max_categories>15</max_categories>
    <regression_accuracy>9.9999997764825821e-03</regression_accuracy>
    <max_depth>8</max_depth>
    <min_sample_count>9</min_sample_count>
    <cross_validation_folds>0</cross_validation_folds>
    <nactive_vars>0</nactive_vars></training_params>
  <global_var_idx>1</global_var_idx>
  <var_idx>
    0 1 2 3 4 5 6 7 8</var_idx>
  <var_type>
    0 0 0 0 0 0 0 0 0 0</var_type>
  <cat_ofs>
    0 0 0 0 0 0 0 0 0 0 0 0 0 0 0 0 0 0</cat_ofs>
  <missing_subst>
    0. 0. 0. 0. 0. 0. 0. 0. 0. 0.</missing_subst>
  <oob_error>0.</oob_error>
  <ntrees>300</ntrees>
  <trees>
    <_>
      <nodes>
        <_>
          <depth>0</depth>
          <value>4.4727272727272727e-01</value>
          <splits>
            <_><var>1</var>
              <quality>6.0331821441650391e+01</quality>
              <le>3.4538251161575317e-01</le></_></splits></_>
        <_>
          <depth>1</depth>
          <value>3.9330543933054396e-01</value>
          <splits>
            <_><var>5</var>
              <quality>3.8821132659912109e+01</quality>
              <le>1.4274799823760986e-01</le></_></splits></_>
        <_>
          <depth>2</depth>
          <value>3.7053571428571430e-01</value>
          <splits>
            <_><var>8</var>
              <quality>3.2470874786376953e+01</quality>
              <le>6.3356846570968628e-02</le></_></splits></_>
        <_>
          <depth>3</depth>
          <value>3.4466019417475730e-01</value>
          <splits>
            <_><var>3</var>
              <quality>2.5865697860717773e+01</quality>
              <le>8.9874595403671265e-02</le></_></splits></_>
        <_>
          <depth>4</depth>
          <value>4.4186046511627908e-01</value>
          <splits>
            <_><var>7</var>
              <quality>1.9553810119628906e+01</quality>
              <le>4.1266299784183502e-02</le></_></splits></_>
        <_>
          <depth>5</depth>
          <value>5.3731343283582089e-01</value>
          <splits>
            <_><var>2</var>
              <quality>2.0680036544799805e+01</quality>
              <le>1.1962649971246719e-01</le></_></splits></_>
        <_>
          <depth>6</depth>
          <value>3.9393939393939392e-01</value>
          <splits>
            <_><var>8</var>
              <quality>5.8850002288818359e+00</quality>
              <le>1.0226499289274216e-02</le></_></splits></_>
        <_>
          <depth>7</depth>
          <value>1.2500000000000000e-01</value></_>
        <_>
          <depth>7</depth>
          <value>4.7999999999999998e-01</value>
          <splits>
            <_><var>4</var>
              <quality>7.0476188659667969e+00</quality>
              <le>3.6265552043914795e-02</le></_></splits></_>
        <_>
          <depth>8</depth>
          <value>1.</value></_>
        <_>
          <depth>8</depth>
          <value>3.8095238095238093e-01</value></_>
        <_>
          <depth>6</depth>
          <value>6.7647058823529416e-01</value>
          <splits>
            <_><var>0</var>
              <quality>1.7064516067504883e+01</quality>
              <le>4.5763999223709106e-01</le></_></splits></_>
        <_>
          <depth>7</depth>
          <value>7.4193548387096775e-01</value>
          <splits>
            <_><var>1</var>
              <quality>1.8241378784179688e+01</quality>
              <le>1.3578900694847107e-01</le></_></splits></_>
        <_>
          <depth>8</depth>
          <value>0.</value></_>
        <_>
          <depth>8</depth>
          <value>7.9310344827586210e-01</value></_>
        <_>
          <depth>7</depth>
          <value>0.</value></_>
        <_>
          <depth>5</depth>
          <value>1.0526315789473684e-01</value>
          <splits>
            <_><var>0</var>
              <quality>1.0555555820465088e+00</quality>
              <le>2.2516699135303497e-01</le></_></splits></_>
        <_>
          <depth>6</depth>
          <value>1.</value></_>
        <_>
          <depth>6</depth>
          <value>5.5555555555555552e-02</value>
          <splits>
            <_><var>2</var>
              <quality>3.3333334326744080e-01</quality>
              <le>1.8099150061607361e-01</le></_></splits></_>
        <_>
          <depth>7</depth>
          <value>0.</value></_>
        <_>
          <depth>7</depth>
          <value>3.3333333333333331e-01</value></_>
        <_>
          <depth>4</depth>
          <value>2.7500000000000002e-01</value>
          <splits>
            <_><var>2</var>
              <quality>1.1043859481811523e+01</quality>
              <le>7.6294094324111938e-02</le></_></splits></_>
        <_>
          <depth>5</depth>
          <value>8.3333333333333337e-01</value></_>
        <_>
          <depth>5</depth>
          <value>2.4561403508771928e-01</value>
          <splits>
            <_><var>5</var>
              <quality>1.0119594573974609e+01</quality>
              <le>5.4258897900581360e-02</le></_></splits></_>
        <_>
          <depth>6</depth>
          <value>4.7499999999999998e-01</value>
          <splits>
            <_><var>4</var>
              <quality>1.2076923370361328e+01</quality>
              <le>6.6237799823284149e-02</le></_></splits></_>
        <_>
          <depth>7</depth>
          <value>7.6923076923076927e-02</value>
          <splits>
            <_><var>6</var>
              <quality>1.</quality>
              <le>5.5405147373676300e-02</le></_></splits></_>
        <_>
          <depth>8</depth>
          <value>0.</value></_>
        <_>
          <depth>8</depth>
          <value>1.</value></_>
        <_>
          <depth>7</depth>
          <value>6.6666666666666663e-01</value>
          <splits>
            <_><var>0</var>
              <quality>1.4135293960571289e+01</quality>
              <le>4.9466848373413086e-01</le></_></splits></_>
        <_>
          <depth>8</depth>
          <value>8.8235294117647056e-01</value></_>
        <_>
          <depth>8</depth>
          <value>2.9999999999999999e-01</value></_>
        <_>
          <depth>6</depth>
          <value>1.2162162162162163e-01</value>
          <splits>
            <_><var>0</var>
              <quality>1.8542124032974243e+00</quality>
              <le>4.8222851753234863e-01</le></_></splits></_>
        <_>
          <depth>7</depth>
          <value>2.2857142857142856e-01</value>
          <splits>
            <_><var>4</var>
              <quality>5.3000001907348633e+00</quality>
              <le>1.4239498972892761e-01</le></_></splits></_>
        <_>
          <depth>8</depth>
          <value>1.0000000000000001e-01</value></_>
        <_>
          <depth>8</depth>
          <value>1.</value></_>
        <_>
          <depth>7</depth>
          <value>2.5641025641025640e-02</value>
          <splits>
            <_><var>7</var>
              <quality>3.3333334326744080e-01</quality>
              <le>9.6788004040718079e-02</le></_></splits></_>
        <_>
          <depth>8</depth>
          <value>0.</value></_>
        <_>
          <depth>8</depth>
          <value>3.3333333333333331e-01</value></_>
        <_>
          <depth>3</depth>
          <value>6.6666666666666663e-01</value>
          <splits>
            <_><var>0</var>
              <quality>9.2727270126342773e+00</quality>
              <le>6.0439002513885498e-01</le></_></splits></_>
        <_>
          <depth>4</depth>
          <value>4.5454545454545453e-01</value>
          <splits>
            <_><var>5</var>
              <quality>3.3666665554046631e+00</quality>
              <le>8.9698649942874908e-02</le></_></splits></_>
        <_>
          <depth>5</depth>
          <value>8.0000000000000004e-01</value></_>
        <_>
          <depth>5</depth>
          <value>1.6666666666666666e-01</value></_>
        <_>
          <depth>4</depth>
          <value>1.</value></_>
        <_>
          <depth>2</depth>
          <value>7.3333333333333328e-01</value>
          <splits>
            <_><var>5</var>
              <quality>9.3076925277709961e+00</quality>
              <le>2.5294998288154602e-01</le></_></splits></_>
        <_>
          <depth>3</depth>
          <value>8.4615384615384615e-01</value>
          <splits>
            <_><var>2</var>
              <quality>11.</quality>
              <le>1.1519899964332581e-01</le></_></splits></_>
        <_>
          <depth>4</depth>
          <value>0.</value></_>
        <_>
          <depth>4</depth>
          <value>1.</value></_>
        <_>
          <depth>3</depth>
          <value>0.</value></_>
        <_>
          <depth>1</depth>
          <value>8.0555555555555558e-01</value>
          <splits>
            <_><var>4</var>
              <quality>2.4333333969116211e+01</quality>
              <le>1.1581599712371826e-01</le></_></splits></_>
        <_>
          <depth>2</depth>
          <value>6.6666666666666663e-01</value>
          <splits>
            <_><var>4</var>
              <quality>1.3066666603088379e+01</quality>
              <le>1.0408149659633636e-01</le></_></splits></_>
        <_>
          <depth>3</depth>
          <value>9.3333333333333335e-01</value>
          <splits>
            <_><var>6</var>
              <quality>1.3500000000000000e+01</quality>
              <le>3.5270348191261292e-02</le></_></splits></_>
        <_>
          <depth>4</depth>
          <value>5.0000000000000000e-01</value></_>
        <_>
          <depth>4</depth>
          <value>1.</value></_>
        <_>
          <depth>3</depth>
          <value>0.</value></_>
        <_>
          <depth>2</depth>
          <value>1.</value></_></nodes></_>
    <_>
      <nodes>
        <_>
          <depth>0</depth>
          <value>4.8363636363636364e-01</value>
          <splits>
            <_><var>6</var>
              <quality>6.6764427185058594e+01</quality>
              <le>3.5002447664737701e-02</le></_></splits></_>
        <_>
          <depth>1</depth>
          <value>3.2394366197183100e-01</value>
          <splits>
            <_><var>1</var>
              <quality>8.6721315383911133e+00</quality>
              <le>7.8360401093959808e-02</le></_></splits></_>
        <_>
          <depth>2</depth>
          <value>0.</value></_>
        <_>
          <depth>2</depth>
          <value>3.7704918032786883e-01</value>
          <splits>
            <_><var>6</var>
              <quality>1.0050000190734863e+01</quality>
              <le>3.0497049912810326e-02</le></_></splits></_>
        <_>
          <depth>3</depth>
          <value>4.6666666666666667e-01</value>
          <splits>
            <_><var>0</var>
              <quality>1.2214285850524902e+01</quality>
              <le>3.4525698423385620e-01</le></_></splits></_>
        <_>
          <depth>4</depth>
          <value>7.1428571428571430e-01</value>
          <splits>
            <_><var>6</var>
              <quality>12.</quality>
              <le>2.7309600263834000e-02</le></_></splits></_>
        <_>
          <depth>5</depth>
          <value>5.0000000000000000e-01</value>
          <splits>
            <_><var>7</var>
              <quality>4.</quality>
              <le>1.6611250117421150e-02</le></_></splits></_>
        <_>
          <depth>6</depth>
          <value>0.</value></_>
        <_>
          <depth>6</depth>
          <value>6.6666666666666663e-01</value></_>
        <_>
          <depth>5</depth>
          <value>1.</value></_>
        <_>
          <depth>4</depth>
          <value>2.5000000000000000e-01</value>
          <splits>
            <_><var>0</var>
              <quality>2.2500000000000000e+00</quality>
              <le>4.0636998414993286e-01</le></_></splits></_>
        <_>
          <depth>5</depth>
          <value>0.</value></_>
        <_>
          <depth>5</depth>
          <value>3.7500000000000000e-01</value>
          <splits>
            <_><var>2</var>
              <quality>4.3333334922790527e+00</quality>
              <le>1.2990750372409821e-01</le></_></splits></_>
        <_>
          <depth>6</depth>
          <value>1.</value></_>
        <_>
          <depth>6</depth>
          <value>1.6666666666666666e-01</value>
          <splits>
            <_><var>5</var>
              <quality>1.0909091234207153e+00</quality>
              <le>2.6420399546623230e-02</le></_></splits></_>
        <_>
          <depth>7</depth>
          <value>1.</value></_>
        <_>
          <depth>7</depth>
          <value>9.0909090909090912e-02</value>
          <splits>
            <_><var>1</var>
              <quality>1.</quality>
              <le>2.4996450543403625e-01</le></_></splits></_>
        <_>
          <depth>8</depth>
          <value>0.</value></_>
        <_>
          <depth>8</depth>
          <value>1.</value></_>
        <_>
          <depth>3</depth>
          <value>1.2500000000000000e-01</value>
          <splits>
            <_><var>7</var>
              <quality>1.0666667222976685e+00</quality>
              <le>1.3218250125646591e-02</le></_></splits></_>
        <_>
          <depth>4</depth>
          <value>1.</value></_>
        <_>
          <depth>4</depth>
          <value>6.6666666666666666e-02</value>
          <splits>
            <_><var>0</var>
              <quality>5.0000000000000000e-01</quality>
              <le>2.1800300478935242e-01</le></_></splits></_>
        <_>
          <depth>5</depth>
          <value>5.0000000000000000e-01</value></_>
        <_>
          <depth>5</depth>
          <value>0.</value></_>
        <_>
          <depth>1</depth>
          <value>5.3921568627450978e-01</value>
          <splits>
            <_><var>2</var>
              <quality>6.2803981781005859e+01</quality>
              <le>8.1105999648571014e-02</le></_></splits></_>
        <_>
          <depth>2</depth>
          <value>9.4736842105263153e-01</value>
          <splits>
            <_><var>7</var>
              <quality>1.7333333969116211e+01</quality>
              <le>4.7220647335052490e-02</le></_></splits></_>
        <_>
          <depth>3</depth>
          <value>1.</value></_>
        <_>
          <depth>3</depth>
          <value>6.6666666666666663e-01</value></_>
        <_>
          <depth>2</depth>
          <value>4.9729729729729732e-01</value>
          <splits>
            <_><var>6</var>
              <quality>4.7589889526367188e+01</quality>
              <le>3.6484699696302414e-02</le></_></splits></_>
        <_>
          <depth>3</depth>
          <value>1.</value></_>
        <_>
          <depth>3</depth>
          <value>4.7752808988764045e-01</value>
          <splits>
            <_><var>4</var>
              <quality>4.2452381134033203e+01</quality>
              <le>1.6105200350284576e-01</le></_></splits></_>
        <_>
          <depth>4</depth>
          <value>4.3333333333333335e-01</value>
          <splits>
            <_><var>8</var>
              <quality>3.0500000000000000e+01</quality>
              <le>1.6058251261711121e-02</le></_></splits></_>
        <_>
          <depth>5</depth>
          <value>9.0000000000000002e-01</value>
          <splits>
            <_><var>0</var>
              <quality>9.</quality>
              <le>4.5492148399353027e-01</le></_></splits></_>
        <_>
          <depth>6</depth>
          <value>1.</value></_>
        <_>
          <depth>6</depth>
          <value>0.</value></_>
        <_>
          <depth>5</depth>
          <value>4.0000000000000002e-01</value>
          <splits>
            <_><var>6</var>
              <quality>2.4310077667236328e+01</quality>
              <le>3.9263501763343811e-02</le></_></splits></_>
        <_>
          <depth>6</depth>
          <value>0.</value></_>
        <_>
          <depth>6</depth>
          <value>4.3410852713178294e-01</value>
          <splits>
            <_><var>6</var>
              <quality>2.6410116195678711e+01</quality>
              <le>5.1078598946332932e-02</le></_></splits></_>
        <_>
          <depth>7</depth>
          <value>6.5625000000000000e-01</value>
          <splits>
            <_><var>2</var>
              <quality>1.6950000762939453e+01</quality>
              <le>1.7904299497604370e-01</le></_></splits></_>
        <_>
          <depth>8</depth>
          <value>9.0000000000000002e-01</value></_>
        <_>
          <depth>8</depth>
          <value>2.5000000000000000e-01</value></_>
        <_>
          <depth>7</depth>
          <value>3.6082474226804123e-01</value>
          <splits>
            <_><var>1</var>
              <quality>1.6214935302734375e+01</quality>
              <le>2.8567749261856079e-01</le></_></splits></_>
        <_>
          <depth>8</depth>
          <value>2.1311475409836064e-01</value></_>
        <_>
          <depth>8</depth>
          <value>6.1111111111111116e-01</value></_>
        <_>
          <depth>4</depth>
          <value>7.1428571428571430e-01</value>
          <splits>
            <_><var>5</var>
              <quality>1.5368420600891113e+01</quality>
              <le>1.1621600389480591e-01</le></_></splits></_>
        <_>
          <depth>5</depth>
          <value>5.7894736842105265e-01</value>
          <splits>
            <_><var>5</var>
              <quality>9.3076925277709961e+00</quality>
              <le>8.9908301830291748e-02</le></_></splits></_>
        <_>
          <depth>6</depth>
          <value>8.4615384615384615e-01</value>
          <splits>
            <_><var>4</var>
              <quality>10.</quality>
              <le>1.9521200656890869e-01</le></_></splits></_>
        <_>
          <depth>7</depth>
          <value>1.</value></_>
        <_>
          <depth>7</depth>
          <value>5.0000000000000000e-01</value></_>
        <_>
          <depth>6</depth>
          <value>0.</value></_>
        <_>
          <depth>5</depth>
          <value>1.</value></_></nodes></_>
    <_>
      <nodes>
        <_>
          <depth>0</depth>
          <value>4.8363636363636364e-01</value>
          <splits>
            <_><var>1</var>
              <quality>6.8838981628417969e+01</quality>
              <le>3.1270349025726318e-01</le></_></splits></_>
        <_>
          <depth>1</depth>
          <value>4.1666666666666669e-01</value>
          <splits>
            <_><var>2</var>
              <quality>4.1802986145019531e+01</quality>
              <le>6.6553398966789246e-02</le></_></splits></_>
        <_>
          <depth>2</depth>
          <value>9.3333333333333335e-01</value>
          <splits>
            <_><var>2</var>
              <quality>1.3333333015441895e+01</quality>
              <le>4.3844699859619141e-02</le></_></splits></_>
        <_>
          <depth>3</depth>
          <value>6.6666666666666663e-01</value></_>
        <_>
          <depth>3</depth>
          <value>1.</value></_>
        <_>
          <depth>2</depth>
          <value>3.7810945273631841e-01</value>
          <splits>
            <_><var>4</var>
              <quality>3.2343135833740234e+01</quality>
              <le>1.0775300115346909e-01</le></_></splits></_>
        <_>
          <depth>3</depth>
          <value>2.9999999999999999e-01</value>
          <splits>
            <_><var>5</var>
              <quality>1.7296649932861328e+01</quality>
              <le>6.8321794271469116e-02</le></_></splits></_>
        <_>
          <depth>4</depth>
          <value>4.2105263157894735e-01</value>
          <splits>
            <_><var>8</var>
              <quality>1.9912439346313477e+01</quality>
              <le>1.5666149556636810e-02</le></_></splits></_>
        <_>
          <depth>5</depth>
          <value>7.3913043478260865e-01</value>
          <splits>
            <_><var>0</var>
              <quality>1.6055555343627930e+01</quality>
              <le>4.4708999991416931e-01</le></_></splits></_>
        <_>
          <depth>6</depth>
          <value>9.4444444444444442e-01</value>
          <splits>
            <_><var>2</var>
              <quality>17.</quality>
              <le>7.4216946959495544e-02</le></_></splits></_>
        <_>
          <depth>7</depth>
          <value>0.</value></_>
        <_>
          <depth>7</depth>
          <value>1.</value></_>
        <_>
          <depth>6</depth>
          <value>0.</value></_>
        <_>
          <depth>5</depth>
          <value>3.1944444444444442e-01</value>
          <splits>
            <_><var>6</var>
              <quality>9.8358211517333984e+00</quality>
              <le>8.7808102369308472e-02</le></_></splits></_>
        <_>
          <depth>6</depth>
          <value>2.6865671641791045e-01</value>
          <splits>
            <_><var>0</var>
              <quality>6.2307691574096680e+00</quality>
              <le>5.0267249345779419e-01</le></_></splits></_>
        <_>
          <depth>7</depth>
          <value>3.4615384615384615e-01</value>
          <splits>
            <_><var>7</var>
              <quality>8.6698560714721680e+00</quality>
              <le>3.6054298281669617e-02</le></_></splits></_>
        <_>
          <depth>8</depth>
          <value>1.8181818181818182e-01</value></_>
        <_>
          <depth>8</depth>
          <value>6.3157894736842102e-01</value></_>
        <_>
          <depth>7</depth>
          <value>0.</value></_>
        <_>
          <depth>6</depth>
          <value>1.</value></_>
        <_>
          <depth>4</depth>
          <value>9.0909090909090912e-02</value>
          <splits>
            <_><var>5</var>
              <quality>2.1698112487792969e+00</quality>
              <le>1.4482550323009491e-01</le></_></splits></_>
        <_>
          <depth>5</depth>
          <value>5.6603773584905662e-02</value>
          <splits>
            <_><var>7</var>
              <quality>1.0769231319427490e+00</quality>
              <le>9.7815945744514465e-02</le></_></splits></_>
        <_>
          <depth>6</depth>
          <value>3.8461538461538464e-02</value>
          <splits>
            <_><var>3</var>
              <quality>1.3793103396892548e-01</quality>
              <le>1.0305549949407578e-01</le></_></splits></_>
        <_>
          <depth>7</depth>
          <value>0.</value></_>
        <_>
          <depth>7</depth>
          <value>6.8965517241379309e-02</value>
          <splits>
            <_><var>3</var>
              <quality>1.0357142686843872e+00</quality>
              <le>1.0639700293540955e-01</le></_></splits></_>
        <_>
          <depth>8</depth>
          <value>1.</value></_>
        <_>
          <depth>8</depth>
          <value>3.5714285714285712e-02</value></_>
        <_>
          <depth>6</depth>
          <value>1.</value></_>
        <_>
          <depth>5</depth>
          <value>1.</value></_>
        <_>
          <depth>3</depth>
          <value>6.0784313725490191e-01</value>
          <splits>
            <_><var>3</var>
              <quality>2.1150470733642578e+01</quality>
              <le>1.2251900136470795e-01</le></_></splits></_>
        <_>
          <depth>4</depth>
          <value>3.6363636363636365e-01</value>
          <splits>
            <_><var>6</var>
              <quality>5.5213675498962402e+00</quality>
              <le>8.4521949291229248e-02</le></_></splits></_>
        <_>
          <depth>5</depth>
          <value>7.6923076923076927e-02</value>
          <splits>
            <_><var>5</var>
              <quality>1.</quality>
              <le>6.7109748721122742e-02</le></_></splits></_>
        <_>
          <depth>6</depth>
          <value>1.</value></_>
        <_>
          <depth>6</depth>
          <value>0.</value></_>
        <_>
          <depth>5</depth>
          <value>7.7777777777777779e-01</value></_>
        <_>
          <depth>4</depth>
          <value>7.9310344827586210e-01</value>
          <splits>
            <_><var>6</var>
              <quality>1.9592592239379883e+01</quality>
              <le>1.2435150146484375e-01</le></_></splits></_>
        <_>
          <depth>5</depth>
          <value>8.5185185185185186e-01</value>
          <splits>
            <_><var>1</var>
              <quality>2.1159999847412109e+01</quality>
              <le>3.0219599604606628e-01</le></_></splits></_>
        <_>
          <depth>6</depth>
          <value>9.2000000000000004e-01</value>
          <splits>
            <_><var>1</var>
              <quality>2.2041666030883789e+01</quality>
              <le>1.5505449473857880e-01</le></_></splits></_>
        <_>
          <depth>7</depth>
          <value>0.</value></_>
        <_>
          <depth>7</depth>
          <value>9.5833333333333337e-01</value>
          <splits>
            <_><var>6</var>
              <quality>2.2111110687255859e+01</quality>
              <le>5.9251151978969574e-02</le></_></splits></_>
        <_>
          <depth>8</depth>
          <value>8.8888888888888884e-01</value></_>
        <_>
          <depth>8</depth>
          <value>1.</value></_>
        <_>
          <depth>6</depth>
          <value>0.</value></_>
        <_>
          <depth>5</depth>
          <value>0.</value></_>
        <_>
          <depth>1</depth>
          <value>7.2881355932203384e-01</value>
          <splits>
            <_><var>8</var>
              <quality>3.3449684143066406e+01</quality>
              <le>2.3329500108957291e-02</le></_></splits></_>
        <_>
          <depth>2</depth>
          <value>1.6666666666666666e-01</value></_>
        <_>
          <depth>2</depth>
          <value>7.9245283018867929e-01</value>
          <splits>
            <_><var>8</var>
              <quality>3.3951217651367188e+01</quality>
              <le>7.4542500078678131e-02</le></_></splits></_>
        <_>
          <depth>3</depth>
          <value>7.3170731707317072e-01</value>
          <splits>
            <_><var>4</var>
              <quality>2.3360000610351562e+01</quality>
              <le>1.0610349476337433e-01</le></_></splits></_>
        <_>
          <depth>4</depth>
          <value>8.8000000000000000e-01</value>
          <splits>
            <_><var>3</var>
              <quality>2.1043478012084961e+01</quality>
              <le>2.0979899168014526e-01</le></_></splits></_>
        <_>
          <depth>5</depth>
          <value>9.5652173913043481e-01</value>
          <splits>
            <_><var>6</var>
              <quality>2.1142856597900391e+01</quality>
              <le>4.9141298979520798e-02</le></_></splits></_>
        <_>
          <depth>6</depth>
          <value>8.5714285714285710e-01</value></_>
        <_>
          <depth>6</depth>
          <value>1.</value></_>
        <_>
          <depth>5</depth>
          <value>0.</value></_>
        <_>
          <depth>4</depth>
          <value>5.0000000000000000e-01</value>
          <splits>
            <_><var>2</var>
              <quality>5.8181819915771484e+00</quality>
              <le>2.9831302165985107e-01</le></_></splits></_>
        <_>
          <depth>5</depth>
          <value>2.7272727272727271e-01</value>
          <splits>
            <_><var>3</var>
              <quality>3.</quality>
              <le>1.1777000129222870e-01</le></_></splits></_>
        <_>
          <depth>6</depth>
          <value>1.</value></_>
        <_>
          <depth>6</depth>
          <value>0.</value></_>
        <_>
          <depth>5</depth>
          <value>1.</value></_>
        <_>
          <depth>3</depth>
          <value>1.</value></_></nodes></_>
    <_>
      <nodes>
        <_>
          <depth>0</depth>
          <value>4.7636363636363638e-01</value>
          <splits>
            <_><var>0</var>
              <quality>6.7238937377929688e+01</quality>
              <le>4.6433949470520020e-01</le></_></splits></_>
        <_>
          <depth>1</depth>
          <value>5.9477124183006536e-01</value>
          <splits>
            <_><var>4</var>
              <quality>5.6680671691894531e+01</quality>
              <le>4.9050901085138321e-02</le></_></splits></_>
        <_>
          <depth>2</depth>
          <value>3.5294117647058826e-01</value>
          <splits>
            <_><var>4</var>
              <quality>5.3862433433532715e+00</quality>
              <le>2.9807999730110168e-02</le></_></splits></_>
        <_>
          <depth>3</depth>
          <value>7.1428571428571430e-01</value></_>
        <_>
          <depth>3</depth>
          <value>2.5925925925925924e-01</value>
          <splits>
            <_><var>3</var>
              <quality>2.4833333492279053e+00</quality>
              <le>7.5553894042968750e-02</le></_></splits></_>
        <_>
          <depth>4</depth>
          <value>4.0000000000000002e-01</value>
          <splits>
            <_><var>5</var>
              <quality>3.5999999046325684e+00</quality>
              <le>2.0287150517106056e-02</le></_></splits></_>
        <_>
          <depth>5</depth>
          <value>0.</value></_>
        <_>
          <depth>5</depth>
          <value>5.9999999999999998e-01</value>
          <splits>
            <_><var>3</var>
              <quality>6.</quality>
              <le>4.6824648976325989e-02</le></_></splits></_>
        <_>
          <depth>6</depth>
          <value>0.</value></_>
        <_>
          <depth>6</depth>
          <value>1.</value></_>
        <_>
          <depth>4</depth>
          <value>8.3333333333333329e-02</value>
          <splits>
            <_><var>7</var>
              <quality>1.</quality>
              <le>5.3012099117040634e-02</le></_></splits></_>
        <_>
          <depth>5</depth>
          <value>0.</value></_>
        <_>
          <depth>5</depth>
          <value>1.</value></_>
        <_>
          <depth>2</depth>
          <value>6.6386554621848737e-01</value>
          <splits>
            <_><var>1</var>
              <quality>5.5156864166259766e+01</quality>
              <le>4.0049600601196289e-01</le></_></splits></_>
        <_>
          <depth>3</depth>
          <value>7.2549019607843135e-01</value>
          <splits>
            <_><var>5</var>
              <quality>5.7041667938232422e+01</quality>
              <le>1.8300350755453110e-02</le></_></splits></_>
        <_>
          <depth>4</depth>
          <value>0.</value></_>
        <_>
          <depth>4</depth>
          <value>7.7083333333333337e-01</value>
          <splits>
            <_><var>6</var>
              <quality>5.7641101837158203e+01</quality>
              <le>6.7650400102138519e-02</le></_></splits></_>
        <_>
          <depth>5</depth>
          <value>7.3417721518987344e-01</value>
          <splits>
            <_><var>6</var>
              <quality>4.5303474426269531e+01</quality>
              <le>5.7238698005676270e-02</le></_></splits></_>
        <_>
          <depth>6</depth>
          <value>8.0882352941176472e-01</value>
          <splits>
            <_><var>3</var>
              <quality>4.5973117828369141e+01</quality>
              <le>5.2734550088644028e-02</le></_></splits></_>
        <_>
          <depth>7</depth>
          <value>3.3333333333333331e-01</value></_>
        <_>
          <depth>7</depth>
          <value>8.5483870967741937e-01</value>
          <splits>
            <_><var>7</var>
              <quality>4.6049179077148438e+01</quality>
              <le>1.1666299775242805e-02</le></_></splits></_>
        <_>
          <depth>8</depth>
          <value>0.</value></_>
        <_>
          <depth>8</depth>
          <value>8.6885245901639341e-01</value></_>
        <_>
          <depth>6</depth>
          <value>2.7272727272727271e-01</value>
          <splits>
            <_><var>3</var>
              <quality>2.2500000000000000e+00</quality>
              <le>1.0314349830150604e-01</le></_></splits></_>
        <_>
          <depth>7</depth>
          <value>0.</value></_>
        <_>
          <depth>7</depth>
          <value>7.5000000000000000e-01</value></_>
        <_>
          <depth>5</depth>
          <value>9.4117647058823528e-01</value>
          <splits>
            <_><var>3</var>
              <quality>1.5500000000000000e+01</quality>
              <le>6.3160099089145660e-02</le></_></splits></_>
        <_>
          <depth>6</depth>
          <value>5.0000000000000000e-01</value></_>
        <_>
          <depth>6</depth>
          <value>1.</value></_>
        <_>
          <depth>3</depth>
          <value>2.9411764705882354e-01</value>
          <splits>
            <_><var>4</var>
              <quality>3.2857143878936768e+00</quality>
              <le>1.0610349476337433e-01</le></_></splits></_>
        <_>
          <depth>4</depth>
          <value>1.</value></_>
        <_>
          <depth>4</depth>
          <value>1.4285714285714285e-01</value>
          <splits>
            <_><var>4</var>
              <quality>2.</quality>
              <le>1.3080349564552307e-01</le></_></splits></_>
        <_>
          <depth>5</depth>
          <value>0.</value></_>
        <_>
          <depth>5</depth>
          <value>1.</value></_>
        <_>
          <depth>1</depth>
          <value>3.2786885245901637e-01</value>
          <splits>
            <_><var>8</var>
              <quality>2.0819091796875000e+01</quality>
              <le>6.3356846570968628e-02</le></_></splits></_>
        <_>
          <depth>2</depth>
          <value>2.0999999999999999e-01</value>
          <splits>
            <_><var>3</var>
              <quality>7.3401842117309570e+00</quality>
              <le>1.6106049716472626e-01</le></_></splits></_>
        <_>
          <depth>3</depth>
          <value>1.3253012048192772e-01</value>
          <splits>
            <_><var>7</var>
              <quality>3.0601265430450439e+00</quality>
              <le>1.5268849208950996e-02</le></_></splits></_>
        <_>
          <depth>4</depth>
          <value>7.5000000000000000e-01</value></_>
        <_>
          <depth>4</depth>
          <value>1.0126582278481013e-01</value>
          <splits>
            <_><var>4</var>
              <quality>1.6282051801681519e+00</quality>
              <le>2.4171701073646545e-01</le></_></splits></_>
        <_>
          <depth>5</depth>
          <value>8.9743589743589744e-02</value>
          <splits>
            <_><var>0</var>
              <quality>1.4696969985961914e+00</quality>
              <le>4.8579847812652588e-01</le></_></splits></_>
        <_>
          <depth>6</depth>
          <value>3.3333333333333331e-01</value>
          <splits>
            <_><var>3</var>
              <quality>2.6666667461395264e+00</quality>
              <le>9.5305696129798889e-02</le></_></splits></_>
        <_>
          <depth>7</depth>
          <value>0.</value></_>
        <_>
          <depth>7</depth>
          <value>6.6666666666666663e-01</value></_>
        <_>
          <depth>6</depth>
          <value>4.5454545454545456e-02</value>
          <splits>
            <_><var>7</var>
              <quality>4.7368422150611877e-01</quality>
              <le>4.5320801436901093e-02</le></_></splits></_>
        <_>
          <depth>7</depth>
          <value>0.</value></_>
        <_>
          <depth>7</depth>
          <value>1.5789473684210525e-01</value>
          <splits>
            <_><var>7</var>
              <quality>1.3958333730697632e+00</quality>
              <le>4.7525700181722641e-02</le></_></splits></_>
        <_>
          <depth>8</depth>
          <value>6.6666666666666663e-01</value></_>
        <_>
          <depth>8</depth>
          <value>6.2500000000000000e-02</value></_>
        <_>
          <depth>5</depth>
          <value>1.</value></_>
        <_>
          <depth>3</depth>
          <value>5.8823529411764708e-01</value>
          <splits>
            <_><var>6</var>
              <quality>7.6923074722290039e+00</quality>
              <le>3.8884848356246948e-02</le></_></splits></_>
        <_>
          <depth>4</depth>
          <value>0.</value></_>
        <_>
          <depth>4</depth>
          <value>7.6923076923076927e-01</value>
          <splits>
            <_><var>6</var>
              <quality>8.5000000000000000e+00</quality>
              <le>7.6819151639938354e-02</le></_></splits></_>
        <_>
          <depth>5</depth>
          <value>1.</value></_>
        <_>
          <depth>5</depth>
          <value>5.0000000000000000e-01</value></_>
        <_>
          <depth>2</depth>
          <value>8.6363636363636365e-01</value>
          <splits>
            <_><var>5</var>
              <quality>1.7190475463867188e+01</quality>
              <le>2.2753199934959412e-01</le></_></splits></_>
        <_>
          <depth>3</depth>
          <value>9.0476190476190477e-01</value>
          <splits>
            <_><var>4</var>
              <quality>1.8049999237060547e+01</quality>
              <le>5.2932448685169220e-02</le></_></splits></_>
        <_>
          <depth>4</depth>
          <value>0.</value></_>
        <_>
          <depth>4</depth>
          <value>9.4999999999999996e-01</value>
          <splits>
            <_><var>3</var>
              <quality>1.8142856597900391e+01</quality>
              <le>1.2458749860525131e-01</le></_></splits></_>
        <_>
          <depth>5</depth>
          <value>8.5714285714285710e-01</value></_>
        <_>
          <depth>5</depth>
          <value>1.</value></_>
        <_>
          <depth>3</depth>
          <value>0.</value></_></nodes></_>
    <_>
      <nodes>
        <_>
          <depth>0</depth>
          <value>5.0545454545454549e-01</value>
          <splits>
            <_><var>0</var>
              <quality>7.6537063598632812e+01</quality>
              <le>4.7027099132537842e-01</le></_></splits></_>
        <_>
          <depth>1</depth>
          <value>6.4238410596026485e-01</value>
          <splits>
            <_><var>4</var>
              <quality>6.5934761047363281e+01</quality>
              <le>7.5860545039176941e-02</le></_></splits></_>
        <_>
          <depth>2</depth>
          <value>5.0588235294117645e-01</value>
          <splits>
            <_><var>0</var>
              <quality>2.4337142944335938e+01</quality>
              <le>2.2406950592994690e-01</le></_></splits></_>
        <_>
          <depth>3</depth>
          <value>7.1428571428571430e-01</value>
          <splits>
            <_><var>6</var>
              <quality>1.9545454025268555e+01</quality>
              <le>3.3112548291683197e-02</le></_></splits></_>
        <_>
          <depth>4</depth>
          <value>5.4545454545454541e-01</value>
          <splits>
            <_><var>8</var>
              <quality>8.4705886840820312e+00</quality>
              <le>9.2679094523191452e-03</le></_></splits></_>
        <_>
          <depth>5</depth>
          <value>0.</value></_>
        <_>
          <depth>5</depth>
          <value>7.0588235294117652e-01</value>
          <splits>
            <_><var>5</var>
              <quality>1.0571428298950195e+01</quality>
              <le>3.9239801466464996e-02</le></_></splits></_>
        <_>
          <depth>6</depth>
          <value>1.</value></_>
        <_>
          <depth>6</depth>
          <value>2.8571428571428570e-01</value></_>
        <_>
          <depth>4</depth>
          <value>1.</value></_>
        <_>
          <depth>3</depth>
          <value>3.5999999999999999e-01</value>
          <splits>
            <_><var>6</var>
              <quality>8.7567567825317383e+00</quality>
              <le>2.7996350079774857e-02</le></_></splits></_>
        <_>
          <depth>4</depth>
          <value>0.</value></_>
        <_>
          <depth>4</depth>
          <value>4.8648648648648651e-01</value>
          <splits>
            <_><var>5</var>
              <quality>1.1172413825988770e+01</quality>
              <le>3.0357051640748978e-02</le></_></splits></_>
        <_>
          <depth>5</depth>
          <value>0.</value></_>
        <_>
          <depth>5</depth>
          <value>6.2068965517241381e-01</value>
          <splits>
            <_><var>4</var>
              <quality>1.2461538314819336e+01</quality>
              <le>7.2696655988693237e-02</le></_></splits></_>
        <_>
          <depth>6</depth>
          <value>6.9230769230769229e-01</value>
          <splits>
            <_><var>1</var>
              <quality>1.3625000000000000e+01</quality>
              <le>1.5636751055717468e-01</le></_></splits></_>
        <_>
          <depth>7</depth>
          <value>3.7500000000000000e-01</value></_>
        <_>
          <depth>7</depth>
          <value>8.3333333333333337e-01</value>
          <splits>
            <_><var>0</var>
              <quality>1.3071428298950195e+01</quality>
              <le>3.7844750285148621e-01</le></_></splits></_>
        <_>
          <depth>8</depth>
          <value>9.2857142857142860e-01</value></_>
        <_>
          <depth>8</depth>
          <value>5.0000000000000000e-01</value></_>
        <_>
          <depth>6</depth>
          <value>0.</value></_>
        <_>
          <depth>2</depth>
          <value>8.1818181818181823e-01</value>
          <splits>
            <_><var>8</var>
              <quality>4.5946155548095703e+01</quality>
              <le>4.0319550782442093e-02</le></_></splits></_>
        <_>
          <depth>3</depth>
          <value>9.4999999999999996e-01</value>
          <splits>
            <_><var>7</var>
              <quality>3.6266666412353516e+01</quality>
              <le>4.1510351002216339e-02</le></_></splits></_>
        <_>
          <depth>4</depth>
          <value>1.</value></_>
        <_>
          <depth>4</depth>
          <value>8.6666666666666670e-01</value>
          <splits>
            <_><var>2</var>
              <quality>13.</quality>
              <le>1.1450549960136414e-01</le></_></splits></_>
        <_>
          <depth>5</depth>
          <value>0.</value></_>
        <_>
          <depth>5</depth>
          <value>1.</value></_>
        <_>
          <depth>3</depth>
          <value>6.1538461538461542e-01</value>
          <splits>
            <_><var>2</var>
              <quality>1.1263157844543457e+01</quality>
              <le>1.1902400106191635e-01</le></_></splits></_>
        <_>
          <depth>4</depth>
          <value>1.</value></_>
        <_>
          <depth>4</depth>
          <value>4.7368421052631576e-01</value>
          <splits>
            <_><var>2</var>
              <quality>5.9431819915771484e+00</quality>
              <le>2.1440801024436951e-01</le></_></splits></_>
        <_>
          <depth>5</depth>
          <value>1.2500000000000000e-01</value></_>
        <_>
          <depth>5</depth>
          <value>7.2727272727272729e-01</value>
          <splits>
            <_><var>5</var>
              <quality>6.5000000000000000e+00</quality>
              <le>7.3478400707244873e-02</le></_></splits></_>
        <_>
          <depth>6</depth>
          <value>5.0000000000000000e-01</value></_>
        <_>
          <depth>6</depth>
          <value>1.</value></_>
        <_>
          <depth>1</depth>
          <value>3.3870967741935482e-01</value>
          <splits>
            <_><var>7</var>
              <quality>2.1485267639160156e+01</quality>
              <le>4.5521803200244904e-02</le></_></splits></_>
        <_>
          <depth>2</depth>
          <value>8.4745762711864403e-02</value>
          <splits>
            <_><var>5</var>
              <quality>2.1578948497772217e+00</quality>
              <le>3.0720949172973633e-02</le></_></splits></_>
        <_>
          <depth>3</depth>
          <value>1.</value></_>
        <_>
          <depth>3</depth>
          <value>5.2631578947368418e-02</value>
          <splits>
            <_><var>7</var>
              <quality>8.1923079490661621e-01</quality>
              <le>1.5268849208950996e-02</le></_></splits></_>
        <_>
          <depth>4</depth>
          <value>4.0000000000000002e-01</value></_>
        <_>
          <depth>4</depth>
          <value>1.9230769230769232e-02</value>
          <splits>
            <_><var>1</var>
              <quality>2.0000000298023224e-01</quality>
              <le>3.6827051639556885e-01</le></_></splits></_>
        <_>
          <depth>5</depth>
          <value>0.</value></_>
        <_>
          <depth>5</depth>
          <value>2.0000000000000001e-01</value></_>
        <_>
          <depth>2</depth>
          <value>5.6923076923076921e-01</value>
          <splits>
            <_><var>4</var>
              <quality>2.5250000000000000e+01</quality>
              <le>6.5102897584438324e-02</le></_></splits></_>
        <_>
          <depth>3</depth>
          <value>1.2500000000000000e-01</value>
          <splits>
            <_><var>1</var>
              <quality>8.0000001192092896e-01</quality>
              <le>2.6197949051856995e-01</le></_></splits></_>
        <_>
          <depth>4</depth>
          <value>4.0000000000000002e-01</value></_>
        <_>
          <depth>4</depth>
          <value>0.</value></_>
        <_>
          <depth>3</depth>
          <value>7.1428571428571430e-01</value>
          <splits>
            <_><var>8</var>
              <quality>2.6630434036254883e+01</quality>
              <le>2.4286799132823944e-02</le></_></splits></_>
        <_>
          <depth>4</depth>
          <value>0.</value></_>
        <_>
          <depth>4</depth>
          <value>7.6086956521739135e-01</value>
          <splits>
            <_><var>3</var>
              <quality>2.7782794952392578e+01</quality>
              <le>1.1019499599933624e-01</le></_></splits></_>
        <_>
          <depth>5</depth>
          <value>5.3333333333333333e-01</value>
          <splits>
            <_><var>8</var>
              <quality>6.4000000953674316e+00</quality>
              <le>5.5042147636413574e-02</le></_></splits></_>
        <_>
          <depth>6</depth>
          <value>0.</value></_>
        <_>
          <depth>6</depth>
          <value>8.0000000000000004e-01</value>
          <splits>
            <_><var>2</var>
              <quality>8.</quality>
              <le>1.8143850564956665e-01</le></_></splits></_>
        <_>
          <depth>7</depth>
          <value>1.</value></_>
        <_>
          <depth>7</depth>
          <value>0.</value></_>
        <_>
          <depth>5</depth>
          <value>8.7096774193548387e-01</value>
          <splits>
            <_><var>6</var>
              <quality>2.3747863769531250e+01</quality>
              <le>7.0311501622200012e-02</le></_></splits></_>
        <_>
          <depth>6</depth>
          <value>7.6923076923076927e-01</value>
          <splits>
            <_><var>6</var>
              <quality>9.0909090042114258e+00</quality>
              <le>6.3419051468372345e-02</le></_></splits></_>
        <_>
          <depth>7</depth>
          <value>9.0909090909090906e-01</value>
          <splits>
            <_><var>0</var>
              <quality>9.3333330154418945e+00</quality>
              <le>6.2902802228927612e-01</le></_></splits></_>
        <_>
          <depth>8</depth>
          <value>1.</value></_>
        <_>
          <depth>8</depth>
          <value>6.6666666666666663e-01</value></_>
        <_>
          <depth>7</depth>
          <value>0.</value></_>
        <_>
          <depth>6</depth>
          <value>9.4444444444444442e-01</value>
          <splits>
            <_><var>7</var>
              <quality>1.6142856597900391e+01</quality>
              <le>8.3244904875755310e-02</le></_></splits></_>
        <_>
          <depth>7</depth>
          <value>1.</value></_>
        <_>
          <depth>7</depth>
          <value>8.5714285714285710e-01</value></_></nodes></_>
    <_>
      <nodes>
        <_>
          <depth>0</depth>
          <value>5.2363636363636368e-01</value>
          <splits>
            <_><var>4</var>
              <quality>7.8562698364257812e+01</quality>
              <le>1.8104499578475952e-01</le></_></splits></_>
        <_>
          <depth>1</depth>
          <value>4.9612403100775193e-01</value>
          <splits>
            <_><var>3</var>
              <quality>6.6891242980957031e+01</quality>
              <le>4.4100798666477203e-02</le></_></splits></_>
        <_>
          <depth>2</depth>
          <value>1.5384615384615385e-01</value>
          <splits>
            <_><var>4</var>
              <quality>2.2954545021057129e+00</quality>
              <le>2.7621449902653694e-02</le></_></splits></_>
        <_>
          <depth>3</depth>
          <value>7.5000000000000000e-01</value></_>
        <_>
          <depth>3</depth>
          <value>4.5454545454545456e-02</value>
          <splits>
            <_><var>7</var>
              <quality>2.0000000298023224e-01</quality>
              <le>2.9396399855613708e-02</le></_></splits></_>
        <_>
          <depth>4</depth>
          <value>0.</value></_>
        <_>
          <depth>4</depth>
          <value>2.0000000000000001e-01</value></_>
        <_>
          <depth>2</depth>
          <value>5.3448275862068961e-01</value>
          <splits>
            <_><var>6</var>
              <quality>6.8735511779785156e+01</quality>
              <le>6.1899099498987198e-02</le></_></splits></_>
        <_>
          <depth>3</depth>
          <value>6.1870503597122306e-01</value>
          <splits>
            <_><var>2</var>
              <quality>5.5086112976074219e+01</quality>
              <le>1.7663699388504028e-01</le></_></splits></_>
        <_>
          <depth>4</depth>
          <value>6.9387755102040816e-01</value>
          <splits>
            <_><var>0</var>
              <quality>5.0432601928710938e+01</quality>
              <le>4.6747300028800964e-01</le></_></splits></_>
        <_>
          <depth>5</depth>
          <value>7.5862068965517238e-01</value>
          <splits>
            <_><var>6</var>
              <quality>5.2576580047607422e+01</quality>
              <le>4.3361600488424301e-02</le></_></splits></_>
        <_>
          <depth>6</depth>
          <value>6.2264150943396224e-01</value>
          <splits>
            <_><var>3</var>
              <quality>2.1985336303710938e+01</quality>
              <le>7.5553894042968750e-02</le></_></splits></_>
        <_>
          <depth>7</depth>
          <value>8.1818181818181823e-01</value>
          <splits>
            <_><var>7</var>
              <quality>1.5196428298950195e+01</quality>
              <le>3.1354699283838272e-02</le></_></splits></_>
        <_>
          <depth>8</depth>
          <value>9.2857142857142860e-01</value></_>
        <_>
          <depth>8</depth>
          <value>6.2500000000000000e-01</value></_>
        <_>
          <depth>7</depth>
          <value>4.8387096774193550e-01</value>
          <splits>
            <_><var>7</var>
              <quality>9.3383836746215820e+00</quality>
              <le>3.7195451557636261e-02</le></_></splits></_>
        <_>
          <depth>8</depth>
          <value>3.1818181818181818e-01</value></_>
        <_>
          <depth>8</depth>
          <value>8.8888888888888884e-01</value></_>
        <_>
          <depth>6</depth>
          <value>9.7058823529411764e-01</value>
          <splits>
            <_><var>1</var>
              <quality>3.2500000000000000e+01</quality>
              <le>3.4637349843978882e-01</le></_></splits></_>
        <_>
          <depth>7</depth>
          <value>1.</value></_>
        <_>
          <depth>7</depth>
          <value>5.0000000000000000e-01</value></_>
        <_>
          <depth>5</depth>
          <value>1.8181818181818182e-01</value>
          <splits>
            <_><var>5</var>
              <quality>2.</quality>
              <le>8.7174251675605774e-02</le></_></splits></_>
        <_>
          <depth>6</depth>
          <value>0.</value></_>
        <_>
          <depth>6</depth>
          <value>1.</value></_>
        <_>
          <depth>4</depth>
          <value>4.3902439024390244e-01</value>
          <splits>
            <_><var>5</var>
              <quality>9.5652170181274414e+00</quality>
              <le>6.3547298312187195e-02</le></_></splits></_>
        <_>
          <depth>5</depth>
          <value>6.6666666666666663e-01</value>
          <splits>
            <_><var>3</var>
              <quality>9.6623373031616211e+00</quality>
              <le>1.3325700163841248e-01</le></_></splits></_>
        <_>
          <depth>6</depth>
          <value>2.8571428571428570e-01</value></_>
        <_>
          <depth>6</depth>
          <value>9.0909090909090906e-01</value>
          <splits>
            <_><var>8</var>
              <quality>9.3333330154418945e+00</quality>
              <le>2.3127950727939606e-02</le></_></splits></_>
        <_>
          <depth>7</depth>
          <value>6.6666666666666663e-01</value></_>
        <_>
          <depth>7</depth>
          <value>1.</value></_>
        <_>
          <depth>5</depth>
          <value>2.6086956521739130e-01</value>
          <splits>
            <_><var>0</var>
              <quality>3.5999999046325684e+00</quality>
              <le>4.8465502262115479e-01</le></_></splits></_>
        <_>
          <depth>6</depth>
          <value>5.9999999999999998e-01</value>
          <splits>
            <_><var>5</var>
              <quality>5.1428570747375488e+00</quality>
              <le>7.4285551905632019e-02</le></_></splits></_>
        <_>
          <depth>7</depth>
          <value>0.</value></_>
        <_>
          <depth>7</depth>
          <value>8.5714285714285710e-01</value></_>
        <_>
          <depth>6</depth>
          <value>0.</value></_>
        <_>
          <depth>3</depth>
          <value>4.0860215053763443e-01</value>
          <splits>
            <_><var>0</var>
              <quality>1.8098114013671875e+01</quality>
              <le>4.9272298812866211e-01</le></_></splits></_>
        <_>
          <depth>4</depth>
          <value>5.9999999999999998e-01</value>
          <splits>
            <_><var>6</var>
              <quality>1.6656250000000000e+01</quality>
              <le>6.3224598765373230e-02</le></_></splits></_>
        <_>
          <depth>5</depth>
          <value>1.2500000000000000e-01</value></_>
        <_>
          <depth>5</depth>
          <value>7.1875000000000000e-01</value>
          <splits>
            <_><var>7</var>
              <quality>1.8049999237060547e+01</quality>
              <le>5.4920349270105362e-02</le></_></splits></_>
        <_>
          <depth>6</depth>
          <value>5.5000000000000004e-01</value>
          <splits>
            <_><var>3</var>
              <quality>7.5625000000000000e+00</quality>
              <le>6.9693505764007568e-02</le></_></splits></_>
        <_>
          <depth>7</depth>
          <value>0.</value></_>
        <_>
          <depth>7</depth>
          <value>6.8750000000000000e-01</value>
          <splits>
            <_><var>1</var>
              <quality>8.6428575515747070e+00</quality>
              <le>1.3583350181579590e-01</le></_></splits></_>
        <_>
          <depth>8</depth>
          <value>0.</value></_>
        <_>
          <depth>8</depth>
          <value>7.8571428571428570e-01</value></_>
        <_>
          <depth>6</depth>
          <value>1.</value></_>
        <_>
          <depth>4</depth>
          <value>2.6415094339622641e-01</value>
          <splits>
            <_><var>0</var>
              <quality>6.9793648719787598e+00</quality>
              <le>6.6750848293304443e-01</le></_></splits></_>
        <_>
          <depth>5</depth>
          <value>8.5714285714285715e-02</value>
          <splits>
            <_><var>3</var>
              <quality>1.3645833730697632e+00</quality>
              <le>1.7111299932003021e-01</le></_></splits></_>
        <_>
          <depth>6</depth>
          <value>3.1250000000000000e-02</value>
          <splits>
            <_><var>0</var>
              <quality>1.6666667163372040e-01</quality>
              <le>6.0370999574661255e-01</le></_></splits></_>
        <_>
          <depth>7</depth>
          <value>0.</value></_>
        <_>
          <depth>7</depth>
          <value>1.6666666666666666e-01</value></_>
        <_>
          <depth>6</depth>
          <value>6.6666666666666663e-01</value></_>
        <_>
          <depth>5</depth>
          <value>6.1111111111111116e-01</value>
          <splits>
            <_><var>5</var>
              <quality>8.0666666030883789e+00</quality>
              <le>2.2507499158382416e-01</le></_></splits></_>
        <_>
          <depth>6</depth>
          <value>7.3333333333333328e-01</value>
          <splits>
            <_><var>6</var>
              <quality>9.3076925277709961e+00</quality>
              <le>7.3094651103019714e-02</le></_></splits></_>
        <_>
          <depth>7</depth>
          <value>0.</value></_>
        <_>
          <depth>7</depth>
          <value>8.4615384615384615e-01</value>
          <splits>
            <_><var>8</var>
              <quality>1.0083333015441895e+01</quality>
              <le>2.4948548525571823e-02</le></_></splits></_>
        <_>
          <depth>8</depth>
          <value>0.</value></_>
        <_>
          <depth>8</depth>
          <value>9.1666666666666663e-01</value></_>
        <_>
          <depth>6</depth>
          <value>0.</value></_>
        <_>
          <depth>1</depth>
          <value>9.4117647058823528e-01</value>
          <splits>
            <_><var>0</var>
              <quality>16.</quality>
              <le>6.3420903682708740e-01</le></_></splits></_>
        <_>
          <depth>2</depth>
          <value>0.</value></_>
        <_>
          <depth>2</depth>
          <value>1.</value></_></nodes></_>
    <_>
      <nodes>
        <_>
          <depth>0</depth>
          <value>4.6181818181818179e-01</value>
          <splits>
            <_><var>5</var>
              <quality>6.4257575988769531e+01</quality>
              <le>1.1442449688911438e-01</le></_></splits></_>
        <_>
          <depth>1</depth>
          <value>4.0909090909090912e-01</value>
          <splits>
            <_><var>0</var>
              <quality>4.6702484130859375e+01</quality>
              <le>4.8411601781845093e-01</le></_></splits></_>
        <_>
          <depth>2</depth>
          <value>5.2903225806451615e-01</value>
          <splits>
            <_><var>4</var>
              <quality>4.6242034912109375e+01</quality>
              <le>6.4280003309249878e-02</le></_></splits></_>
        <_>
          <depth>3</depth>
          <value>3.5087719298245612e-01</value>
          <splits>
            <_><var>4</var>
              <quality>9.0628566741943359e+00</quality>
              <le>2.8387650847434998e-02</le></_></splits></_>
        <_>
          <depth>4</depth>
          <value>8.5714285714285710e-01</value></_>
        <_>
          <depth>4</depth>
          <value>2.8000000000000003e-01</value>
          <splits>
            <_><var>1</var>
              <quality>4.5989303588867188e+00</quality>
              <le>1.2551149725914001e-01</le></_></splits></_>
        <_>
          <depth>5</depth>
          <value>1.1764705882352941e-01</value>
          <splits>
            <_><var>6</var>
              <quality>1.0625000000000000e+00</quality>
              <le>5.5405147373676300e-02</le></_></splits></_>
        <_>
          <depth>6</depth>
          <value>6.2500000000000000e-02</value>
          <splits>
            <_><var>1</var>
              <quality>2.5000000000000000e-01</quality>
              <le>7.2921499609947205e-02</le></_></splits></_>
        <_>
          <depth>7</depth>
          <value>2.5000000000000000e-01</value></_>
        <_>
          <depth>7</depth>
          <value>0.</value></_>
        <_>
          <depth>6</depth>
          <value>1.</value></_>
        <_>
          <depth>5</depth>
          <value>3.6363636363636365e-01</value>
          <splits>
            <_><var>1</var>
              <quality>7.9615383148193359e+00</quality>
              <le>1.3698349893093109e-01</le></_></splits></_>
        <_>
          <depth>6</depth>
          <value>1.</value></_>
        <_>
          <depth>6</depth>
          <value>1.9230769230769232e-01</value>
          <splits>
            <_><var>1</var>
              <quality>1.9230768680572510e+00</quality>
              <le>2.0764350891113281e-01</le></_></splits></_>
        <_>
          <depth>7</depth>
          <value>0.</value></_>
        <_>
          <depth>7</depth>
          <value>3.8461538461538464e-01</value>
          <splits>
            <_><var>0</var>
              <quality>5.</quality>
              <le>2.5223049521446228e-01</le></_></splits></_>
        <_>
          <depth>8</depth>
          <value>1.</value></_>
        <_>
          <depth>8</depth>
          <value>0.</value></_>
        <_>
          <depth>3</depth>
          <value>6.3265306122448983e-01</value>
          <splits>
            <_><var>8</var>
              <quality>4.1243473052978516e+01</quality>
              <le>3.9942502975463867e-02</le></_></splits></_>
        <_>
          <depth>4</depth>
          <value>7.5438596491228072e-01</value>
          <splits>
            <_><var>3</var>
              <quality>3.3500000000000000e+01</quality>
              <le>1.1036849766969681e-01</le></_></splits></_>
        <_>
          <depth>5</depth>
          <value>8.7500000000000000e-01</value>
          <splits>
            <_><var>0</var>
              <quality>2.5600000381469727e+01</quality>
              <le>3.2909101247787476e-01</le></_></splits></_>
        <_>
          <depth>6</depth>
          <value>1.</value></_>
        <_>
          <depth>6</depth>
          <value>5.9999999999999998e-01</value>
          <splits>
            <_><var>7</var>
              <quality>4.</quality>
              <le>4.0948949754238129e-02</le></_></splits></_>
        <_>
          <depth>7</depth>
          <value>6.6666666666666663e-01</value></_>
        <_>
          <depth>7</depth>
          <value>0.</value></_>
        <_>
          <depth>5</depth>
          <value>5.9999999999999998e-01</value>
          <splits>
            <_><var>4</var>
              <quality>15.</quality>
              <le>7.7559649944305420e-02</le></_></splits></_>
        <_>
          <depth>6</depth>
          <value>0.</value></_>
        <_>
          <depth>6</depth>
          <value>1.</value></_>
        <_>
          <depth>4</depth>
          <value>4.6341463414634149e-01</value>
          <splits>
            <_><var>7</var>
              <quality>1.0124338150024414e+01</quality>
              <le>4.9883298575878143e-02</le></_></splits></_>
        <_>
          <depth>5</depth>
          <value>5.9259259259259256e-01</value>
          <splits>
            <_><var>3</var>
              <quality>1.1636363983154297e+01</quality>
              <le>6.9693505764007568e-02</le></_></splits></_>
        <_>
          <depth>6</depth>
          <value>0.</value></_>
        <_>
          <depth>6</depth>
          <value>7.2727272727272729e-01</value>
          <splits>
            <_><var>8</var>
              <quality>1.3638094902038574e+01</quality>
              <le>6.1497300863265991e-02</le></_></splits></_>
        <_>
          <depth>7</depth>
          <value>9.3333333333333335e-01</value>
          <splits>
            <_><var>7</var>
              <quality>1.3250000000000000e+01</quality>
              <le>4.3759550899267197e-02</le></_></splits></_>
        <_>
          <depth>8</depth>
          <value>1.</value></_>
        <_>
          <depth>8</depth>
          <value>7.5000000000000000e-01</value></_>
        <_>
          <depth>7</depth>
          <value>2.8571428571428570e-01</value></_>
        <_>
          <depth>5</depth>
          <value>2.1428571428571427e-01</value>
          <splits>
            <_><var>8</var>
              <quality>2.0833332538604736e+00</quality>
              <le>6.0580149292945862e-02</le></_></splits></_>
        <_>
          <depth>6</depth>
          <value>8.3333333333333329e-02</value>
          <splits>
            <_><var>7</var>
              <quality>5.0000000000000000e-01</quality>
              <le>7.8507952392101288e-02</le></_></splits></_>
        <_>
          <depth>7</depth>
          <value>0.</value></_>
        <_>
          <depth>7</depth>
          <value>5.0000000000000000e-01</value></_>
        <_>
          <depth>6</depth>
          <value>1.</value></_>
        <_>
          <depth>2</depth>
          <value>1.9540229885057472e-01</value>
          <splits>
            <_><var>6</var>
              <quality>5.9762158393859863e+00</quality>
              <le>5.5178299546241760e-02</le></_></splits></_>
        <_>
          <depth>3</depth>
          <value>2.2727272727272728e-02</value>
          <splits>
            <_><var>4</var>
              <quality>1.</quality>
              <le>1.3242900371551514e-01</le></_></splits></_>
        <_>
          <depth>4</depth>
          <value>0.</value></_>
        <_>
          <depth>4</depth>
          <value>1.</value></_>
        <_>
          <depth>3</depth>
          <value>3.7209302325581395e-01</value>
          <splits>
            <_><var>0</var>
              <quality>8.9595241546630859e+00</quality>
              <le>6.4082950353622437e-01</le></_></splits></_>
        <_>
          <depth>4</depth>
          <value>1.7857142857142858e-01</value>
          <splits>
            <_><var>6</var>
              <quality>1.5625000000000000e+00</quality>
              <le>8.6420252919197083e-02</le></_></splits></_>
        <_>
          <depth>5</depth>
          <value>3.1250000000000000e-01</value>
          <splits>
            <_><var>7</var>
              <quality>2.2727272510528564e+00</quality>
              <le>4.5464351773262024e-02</le></_></splits></_>
        <_>
          <depth>6</depth>
          <value>0.</value></_>
        <_>
          <depth>6</depth>
          <value>4.5454545454545453e-01</value>
          <splits>
            <_><var>0</var>
              <quality>3.3666665554046631e+00</quality>
              <le>5.2087903022766113e-01</le></_></splits></_>
        <_>
          <depth>7</depth>
          <value>8.0000000000000004e-01</value></_>
        <_>
          <depth>7</depth>
          <value>1.6666666666666666e-01</value></_>
        <_>
          <depth>5</depth>
          <value>0.</value></_>
        <_>
          <depth>4</depth>
          <value>7.3333333333333328e-01</value>
          <splits>
            <_><var>8</var>
              <quality>1.0199999809265137e+01</quality>
              <le>5.8545649051666260e-02</le></_></splits></_>
        <_>
          <depth>5</depth>
          <value>2.0000000000000001e-01</value></_>
        <_>
          <depth>5</depth>
          <value>1.</value></_>
        <_>
          <depth>1</depth>
          <value>8.4848484848484851e-01</value>
          <splits>
            <_><var>5</var>
              <quality>2.5290323257446289e+01</quality>
              <le>2.5294998288154602e-01</le></_></splits></_>
        <_>
          <depth>2</depth>
          <value>9.0322580645161288e-01</value>
          <splits>
            <_><var>8</var>
              <quality>28.</quality>
              <le>3.0544599518179893e-02</le></_></splits></_>
        <_>
          <depth>3</depth>
          <value>0.</value></_>
        <_>
          <depth>3</depth>
          <value>1.</value></_>
        <_>
          <depth>2</depth>
          <value>0.</value></_></nodes></_>
    <_>
      <nodes>
        <_>
          <depth>0</depth>
          <value>4.8727272727272725e-01</value>
          <splits>
            <_><var>5</var>
              <quality>6.8683197021484375e+01</quality>
              <le>1.1438350379467010e-01</le></_></splits></_>
        <_>
          <depth>1</depth>
          <value>4.4628099173553720e-01</value>
          <splits>
            <_><var>1</var>
              <quality>5.0547569274902344e+01</quality>
              <le>3.1239950656890869e-01</le></_></splits></_>
        <_>
          <depth>2</depth>
          <value>3.9473684210526316e-01</value>
          <splits>
            <_><var>0</var>
              <quality>3.6623588562011719e+01</quality>
              <le>4.6309751272201538e-01</le></_></splits></_>
        <_>
          <depth>3</depth>
          <value>5.3658536585365857e-01</value>
          <splits>
            <_><var>0</var>
              <quality>3.9706119537353516e+01</quality>
              <le>1.8698599934577942e-01</le></_></splits></_>
        <_>
          <depth>4</depth>
          <value>1.3636363636363635e-01</value>
          <splits>
            <_><var>4</var>
              <quality>1.7999999523162842e+00</quality>
              <le>2.9338099062442780e-02</le></_></splits></_>
        <_>
          <depth>5</depth>
          <value>5.9999999999999998e-01</value></_>
        <_>
          <depth>5</depth>
          <value>0.</value></_>
        <_>
          <depth>4</depth>
          <value>6.2376237623762376e-01</value>
          <splits>
            <_><var>4</var>
              <quality>4.3314464569091797e+01</quality>
              <le>7.3531702160835266e-02</le></_></splits></_>
        <_>
          <depth>5</depth>
          <value>4.3396226415094341e-01</value>
          <splits>
            <_><var>0</var>
              <quality>1.2148936271667480e+01</quality>
              <le>2.2020700573921204e-01</le></_></splits></_>
        <_>
          <depth>6</depth>
          <value>1.</value></_>
        <_>
          <depth>6</depth>
          <value>3.6170212765957449e-01</value>
          <splits>
            <_><var>5</var>
              <quality>7.4102563858032227e+00</quality>
              <le>6.7877903580665588e-02</le></_></splits></_>
        <_>
          <depth>7</depth>
          <value>4.3589743589743590e-01</value>
          <splits>
            <_><var>1</var>
              <quality>9.2337665557861328e+00</quality>
              <le>1.6500599682331085e-01</le></_></splits></_>
        <_>
          <depth>8</depth>
          <value>9.0909090909090912e-02</value></_>
        <_>
          <depth>8</depth>
          <value>5.7142857142857140e-01</value></_>
        <_>
          <depth>7</depth>
          <value>0.</value></_>
        <_>
          <depth>5</depth>
          <value>8.3333333333333337e-01</value>
          <splits>
            <_><var>5</var>
              <quality>3.5008548736572266e+01</quality>
              <le>7.9243950545787811e-02</le></_></splits></_>
        <_>
          <depth>6</depth>
          <value>9.2307692307692313e-01</value>
          <splits>
            <_><var>3</var>
              <quality>3.4105262756347656e+01</quality>
              <le>5.2171949297189713e-02</le></_></splits></_>
        <_>
          <depth>7</depth>
          <value>0.</value></_>
        <_>
          <depth>7</depth>
          <value>9.4736842105263153e-01</value>
          <splits>
            <_><var>8</var>
              <quality>3.4571430206298828e+01</quality>
              <le>5.4492600262165070e-02</le></_></splits></_>
        <_>
          <depth>8</depth>
          <value>1.</value></_>
        <_>
          <depth>8</depth>
          <value>7.1428571428571430e-01</value></_>
        <_>
          <depth>6</depth>
          <value>4.4444444444444442e-01</value></_>
        <_>
          <depth>3</depth>
          <value>1.3432835820895522e-01</value>
          <splits>
            <_><var>1</var>
              <quality>2.7538461685180664e+00</quality>
              <le>6.8929150700569153e-02</le></_></splits></_>
        <_>
          <depth>4</depth>
          <value>1.</value></_>
        <_>
          <depth>4</depth>
          <value>1.0769230769230770e-01</value>
          <splits>
            <_><var>1</var>
              <quality>2.1588051319122314e+00</quality>
              <le>2.8553801774978638e-01</le></_></splits></_>
        <_>
          <depth>5</depth>
          <value>3.7735849056603772e-02</value>
          <splits>
            <_><var>2</var>
              <quality>3.5333332419395447e-01</quality>
              <le>1.1746400594711304e-01</le></_></splits></_>
        <_>
          <depth>6</depth>
          <value>3.3333333333333331e-01</value></_>
        <_>
          <depth>6</depth>
          <value>2.0000000000000000e-02</value>
          <splits>
            <_><var>6</var>
              <quality>1.4285714924335480e-01</quality>
              <le>3.6391749978065491e-02</le></_></splits></_>
        <_>
          <depth>7</depth>
          <value>1.4285714285714285e-01</value></_>
        <_>
          <depth>7</depth>
          <value>0.</value></_>
        <_>
          <depth>5</depth>
          <value>4.1666666666666669e-01</value>
          <splits>
            <_><var>8</var>
              <quality>2.7777776718139648e+00</quality>
              <le>2.0636999979615211e-02</le></_></splits></_>
        <_>
          <depth>6</depth>
          <value>0.</value></_>
        <_>
          <depth>6</depth>
          <value>5.5555555555555558e-01</value></_>
        <_>
          <depth>2</depth>
          <value>6.3461538461538458e-01</value>
          <splits>
            <_><var>2</var>
              <quality>2.3742424011230469e+01</quality>
              <le>2.2224649786949158e-01</le></_></splits></_>
        <_>
          <depth>3</depth>
          <value>8.3333333333333337e-01</value>
          <splits>
            <_><var>5</var>
              <quality>2.1785715103149414e+01</quality>
              <le>6.1723701655864716e-02</le></_></splits></_>
        <_>
          <depth>4</depth>
          <value>6.4285714285714290e-01</value>
          <splits>
            <_><var>5</var>
              <quality>7.3636364936828613e+00</quality>
              <le>5.6115549057722092e-02</le></_></splits></_>
        <_>
          <depth>5</depth>
          <value>8.1818181818181823e-01</value>
          <splits>
            <_><var>5</var>
              <quality>8.3333330154418945e+00</quality>
              <le>2.7981299906969070e-02</le></_></splits></_>
        <_>
          <depth>6</depth>
          <value>3.3333333333333331e-01</value></_>
        <_>
          <depth>6</depth>
          <value>1.</value></_>
        <_>
          <depth>5</depth>
          <value>0.</value></_>
        <_>
          <depth>4</depth>
          <value>1.</value></_>
        <_>
          <depth>3</depth>
          <value>3.6363636363636365e-01</value>
          <splits>
            <_><var>6</var>
              <quality>3.7999999523162842e+00</quality>
              <le>3.6526400595903397e-02</le></_></splits></_>
        <_>
          <depth>4</depth>
          <value>1.</value></_>
        <_>
          <depth>4</depth>
          <value>2.9999999999999999e-01</value>
          <splits>
            <_><var>2</var>
              <quality>4.</quality>
              <le>2.8558951616287231e-01</le></_></splits></_>
        <_>
          <depth>5</depth>
          <value>0.</value></_>
        <_>
          <depth>5</depth>
          <value>6.6666666666666663e-01</value></_>
        <_>
          <depth>1</depth>
          <value>7.8787878787878785e-01</value>
          <splits>
            <_><var>0</var>
              <quality>2.1806451797485352e+01</quality>
              <le>9.5843601226806641e-01</le></_></splits></_>
        <_>
          <depth>2</depth>
          <value>8.3870967741935487e-01</value>
          <splits>
            <_><var>5</var>
              <quality>2.2388889312744141e+01</quality>
              <le>1.4343351125717163e-01</le></_></splits></_>
        <_>
          <depth>3</depth>
          <value>7.2222222222222221e-01</value>
          <splits>
            <_><var>4</var>
              <quality>13.</quality>
              <le>8.0750897526741028e-02</le></_></splits></_>
        <_>
          <depth>4</depth>
          <value>0.</value></_>
        <_>
          <depth>4</depth>
          <value>1.</value></_>
        <_>
          <depth>3</depth>
          <value>1.</value></_>
        <_>
          <depth>2</depth>
          <value>0.</value></_></nodes></_>
    <_>
      <nodes>
        <_>
          <depth>0</depth>
          <value>5.0181818181818183e-01</value>
          <splits>
            <_><var>1</var>
              <quality>7.3977905273437500e+01</quality>
              <le>3.1270349025726318e-01</le></_></splits></_>
        <_>
          <depth>1</depth>
          <value>4.3255813953488370e-01</value>
          <splits>
            <_><var>1</var>
              <quality>4.2640747070312500e+01</quality>
              <le>1.5708050131797791e-01</le></_></splits></_>
        <_>
          <depth>2</depth>
          <value>2.8169014084507044e-01</value>
          <splits>
            <_><var>5</var>
              <quality>9.0153846740722656e+00</quality>
              <le>1.3510298728942871e-01</le></_></splits></_>
        <_>
          <depth>3</depth>
          <value>2.1538461538461540e-01</value>
          <splits>
            <_><var>1</var>
              <quality>4.1702127456665039e+00</quality>
              <le>1.4212299883365631e-01</le></_></splits></_>
        <_>
          <depth>4</depth>
          <value>2.9787234042553190e-01</value>
          <splits>
            <_><var>0</var>
              <quality>5.9393939971923828e+00</quality>
              <le>4.9971649050712585e-01</le></_></splits></_>
        <_>
          <depth>5</depth>
          <value>4.2424242424242425e-01</value>
          <splits>
            <_><var>5</var>
              <quality>7.2592592239379883e+00</quality>
              <le>2.1695449948310852e-02</le></_></splits></_>
        <_>
          <depth>6</depth>
          <value>0.</value></_>
        <_>
          <depth>6</depth>
          <value>5.1851851851851849e-01</value>
          <splits>
            <_><var>2</var>
              <quality>9.1111106872558594e+00</quality>
              <le>8.2327052950859070e-02</le></_></splits></_>
        <_>
          <depth>7</depth>
          <value>8.8888888888888884e-01</value></_>
        <_>
          <depth>7</depth>
          <value>3.3333333333333331e-01</value>
          <splits>
            <_><var>3</var>
              <quality>3.5999999046325684e+00</quality>
              <le>5.2139349281787872e-02</le></_></splits></_>
        <_>
          <depth>8</depth>
          <value>1.</value></_>
        <_>
          <depth>8</depth>
          <value>2.0000000000000001e-01</value></_>
        <_>
          <depth>5</depth>
          <value>0.</value></_>
        <_>
          <depth>4</depth>
          <value>0.</value></_>
        <_>
          <depth>3</depth>
          <value>1.</value></_>
        <_>
          <depth>2</depth>
          <value>5.0694444444444442e-01</value>
          <splits>
            <_><var>8</var>
              <quality>4.1411903381347656e+01</quality>
              <le>3.9241448044776917e-02</le></_></splits></_>
        <_>
          <depth>3</depth>
          <value>6.5476190476190477e-01</value>
          <splits>
            <_><var>0</var>
              <quality>3.9900924682617188e+01</quality>
              <le>4.5170998573303223e-01</le></_></splits></_>
        <_>
          <depth>4</depth>
          <value>7.8688524590163933e-01</value>
          <splits>
            <_><var>1</var>
              <quality>4.1890907287597656e+01</quality>
              <le>2.9732102155685425e-01</le></_></splits></_>
        <_>
          <depth>5</depth>
          <value>8.7272727272727268e-01</value>
          <splits>
            <_><var>2</var>
              <quality>4.4062500000000000e+01</quality>
              <le>1.1515250056982040e-01</le></_></splits></_>
        <_>
          <depth>6</depth>
          <value>5.6250000000000000e-01</value>
          <splits>
            <_><var>2</var>
              <quality>9.</quality>
              <le>8.3086594939231873e-02</le></_></splits></_>
        <_>
          <depth>7</depth>
          <value>1.</value></_>
        <_>
          <depth>7</depth>
          <value>0.</value></_>
        <_>
          <depth>6</depth>
          <value>1.</value></_>
        <_>
          <depth>5</depth>
          <value>0.</value></_>
        <_>
          <depth>4</depth>
          <value>3.0434782608695654e-01</value>
          <splits>
            <_><var>3</var>
              <quality>5.2222223281860352e+00</quality>
              <le>1.9485700130462646e-01</le></_></splits></_>
        <_>
          <depth>5</depth>
          <value>1.1111111111111110e-01</value>
          <splits>
            <_><var>4</var>
              <quality>2.</quality>
              <le>1.2147650122642517e-01</le></_></splits></_>
        <_>
          <depth>6</depth>
          <value>0.</value></_>
        <_>
          <depth>6</depth>
          <value>1.</value></_>
        <_>
          <depth>5</depth>
          <value>1.</value></_>
        <_>
          <depth>3</depth>
          <value>2.9999999999999999e-01</value>
          <splits>
            <_><var>3</var>
              <quality>8.6886444091796875e+00</quality>
              <le>1.2251900136470795e-01</le></_></splits></_>
        <_>
          <depth>4</depth>
          <value>1.2820512820512819e-01</value>
          <splits>
            <_><var>0</var>
              <quality>2.3169643878936768e+00</quality>
              <le>6.7227447032928467e-01</le></_></splits></_>
        <_>
          <depth>5</depth>
          <value>3.1250000000000000e-02</value>
          <splits>
            <_><var>1</var>
              <quality>1.</quality>
              <le>1.7511449754238129e-01</le></_></splits></_>
        <_>
          <depth>6</depth>
          <value>1.</value></_>
        <_>
          <depth>6</depth>
          <value>0.</value></_>
        <_>
          <depth>5</depth>
          <value>5.7142857142857140e-01</value></_>
        <_>
          <depth>4</depth>
          <value>6.1904761904761907e-01</value>
          <splits>
            <_><var>7</var>
              <quality>9.3888893127441406e+00</quality>
              <le>3.7129849195480347e-02</le></_></splits></_>
        <_>
          <depth>5</depth>
          <value>0.</value></_>
        <_>
          <depth>5</depth>
          <value>7.2222222222222221e-01</value>
          <splits>
            <_><var>8</var>
              <quality>1.0777777671813965e+01</quality>
              <le>4.8551250249147415e-02</le></_></splits></_>
        <_>
          <depth>6</depth>
          <value>1.</value></_>
        <_>
          <depth>6</depth>
          <value>4.4444444444444442e-01</value></_>
        <_>
          <depth>1</depth>
          <value>7.5000000000000000e-01</value>
          <splits>
            <_><var>6</var>
              <quality>3.5416667938232422e+01</quality>
              <le>3.9514496922492981e-02</le></_></splits></_>
        <_>
          <depth>2</depth>
          <value>4.1666666666666669e-01</value>
          <splits>
            <_><var>1</var>
              <quality>3.5714285373687744e+00</quality>
              <le>4.2115348577499390e-01</le></_></splits></_>
        <_>
          <depth>3</depth>
          <value>7.1428571428571430e-01</value></_>
        <_>
          <depth>3</depth>
          <value>0.</value></_>
        <_>
          <depth>2</depth>
          <value>8.3333333333333337e-01</value>
          <splits>
            <_><var>1</var>
              <quality>3.3777778625488281e+01</quality>
              <le>3.4538251161575317e-01</le></_></splits></_>
        <_>
          <depth>3</depth>
          <value>6.6666666666666663e-01</value>
          <splits>
            <_><var>1</var>
              <quality>7.1111111640930176e+00</quality>
              <le>3.3439049124717712e-01</le></_></splits></_>
        <_>
          <depth>4</depth>
          <value>8.8888888888888884e-01</value></_>
        <_>
          <depth>4</depth>
          <value>0.</value></_>
        <_>
          <depth>3</depth>
          <value>8.8888888888888884e-01</value>
          <splits>
            <_><var>3</var>
              <quality>2.9257143020629883e+01</quality>
              <le>2.1076950430870056e-01</le></_></splits></_>
        <_>
          <depth>4</depth>
          <value>9.1428571428571426e-01</value>
          <splits>
            <_><var>3</var>
              <quality>2.9692308425903320e+01</quality>
              <le>1.2315149605274200e-01</le></_></splits></_>
        <_>
          <depth>5</depth>
          <value>1.</value></_>
        <_>
          <depth>5</depth>
          <value>7.6923076923076927e-01</value>
          <splits>
            <_><var>5</var>
              <quality>8.8000001907348633e+00</quality>
              <le>9.9723748862743378e-02</le></_></splits></_>
        <_>
          <depth>6</depth>
          <value>4.0000000000000002e-01</value></_>
        <_>
          <depth>6</depth>
          <value>1.</value></_>
        <_>
          <depth>4</depth>
          <value>0.</value></_></nodes></_>
    <_>
      <nodes>
        <_>
          <depth>0</depth>
          <value>5.5272727272727273e-01</value>
          <splits>
            <_><var>0</var>
              <quality>9.0245162963867188e+01</quality>
              <le>4.8693197965621948e-01</le></_></splits></_>
        <_>
          <depth>1</depth>
          <value>6.7469879518072284e-01</value>
          <splits>
            <_><var>1</var>
              <quality>7.8789772033691406e+01</quality>
              <le>1.0684499889612198e-01</le></_></splits></_>
        <_>
          <depth>2</depth>
          <value>3.1818181818181818e-01</value>
          <splits>
            <_><var>0</var>
              <quality>3.2500000000000000e+00</quality>
              <le>3.8982200622558594e-01</le></_></splits></_>
        <_>
          <depth>3</depth>
          <value>2.5000000000000000e-01</value>
          <splits>
            <_><var>2</var>
              <quality>2.0833332538604736e+00</quality>
              <le>8.4826551377773285e-02</le></_></splits></_>
        <_>
          <depth>4</depth>
          <value>4.1666666666666669e-01</value>
          <splits>
            <_><var>6</var>
              <quality>2.9000000953674316e+00</quality>
              <le>1.7409648746252060e-02</le></_></splits></_>
        <_>
          <depth>5</depth>
          <value>1.</value></_>
        <_>
          <depth>5</depth>
          <value>2.9999999999999999e-01</value>
          <splits>
            <_><var>7</var>
              <quality>2.1250000000000000e+00</quality>
              <le>2.1512350067496300e-02</le></_></splits></_>
        <_>
          <depth>6</depth>
          <value>1.2500000000000000e-01</value></_>
        <_>
          <depth>6</depth>
          <value>1.</value></_>
        <_>
          <depth>4</depth>
          <value>0.</value></_>
        <_>
          <depth>3</depth>
          <value>1.</value></_>
        <_>
          <depth>2</depth>
          <value>7.2916666666666663e-01</value>
          <splits>
            <_><var>4</var>
              <quality>7.8365852355957031e+01</quality>
              <le>3.7996351718902588e-02</le></_></splits></_>
        <_>
          <depth>3</depth>
          <value>1.</value></_>
        <_>
          <depth>3</depth>
          <value>6.8292682926829273e-01</value>
          <splits>
            <_><var>4</var>
              <quality>6.0835067749023438e+01</quality>
              <le>7.6597698032855988e-02</le></_></splits></_>
        <_>
          <depth>4</depth>
          <value>4.7999999999999998e-01</value>
          <splits>
            <_><var>4</var>
              <quality>1.3714285850524902e+01</quality>
              <le>7.3341503739356995e-02</le></_></splits></_>
        <_>
          <depth>5</depth>
          <value>5.7142857142857140e-01</value>
          <splits>
            <_><var>0</var>
              <quality>1.5524999618530273e+01</quality>
              <le>3.5345602035522461e-01</le></_></splits></_>
        <_>
          <depth>6</depth>
          <value>6.8750000000000000e-01</value>
          <splits>
            <_><var>5</var>
              <quality>1.6793651580810547e+01</quality>
              <le>4.1391849517822266e-02</le></_></splits></_>
        <_>
          <depth>7</depth>
          <value>4.2857142857142855e-01</value>
          <splits>
            <_><var>6</var>
              <quality>6.</quality>
              <le>3.0878249555826187e-02</le></_></splits></_>
        <_>
          <depth>8</depth>
          <value>0.</value></_>
        <_>
          <depth>8</depth>
          <value>1.</value></_>
        <_>
          <depth>7</depth>
          <value>8.8888888888888884e-01</value>
          <splits>
            <_><var>0</var>
              <quality>15.</quality>
              <le>2.5353199243545532e-01</le></_></splits></_>
        <_>
          <depth>8</depth>
          <value>5.0000000000000000e-01</value></_>
        <_>
          <depth>8</depth>
          <value>1.</value></_>
        <_>
          <depth>6</depth>
          <value>2.0000000000000001e-01</value>
          <splits>
            <_><var>7</var>
              <quality>1.</quality>
              <le>3.5297401249408722e-02</le></_></splits></_>
        <_>
          <depth>7</depth>
          <value>0.</value></_>
        <_>
          <depth>7</depth>
          <value>5.0000000000000000e-01</value></_>
        <_>
          <depth>5</depth>
          <value>0.</value></_>
        <_>
          <depth>4</depth>
          <value>8.2191780821917804e-01</value>
          <splits>
            <_><var>0</var>
              <quality>5.0699275970458984e+01</quality>
              <le>2.3979249596595764e-01</le></_></splits></_>
        <_>
          <depth>5</depth>
          <value>2.5000000000000000e-01</value></_>
        <_>
          <depth>5</depth>
          <value>8.5507246376811596e-01</value>
          <splits>
            <_><var>8</var>
              <quality>5.1941177368164062e+01</quality>
              <le>3.6786548793315887e-02</le></_></splits></_>
        <_>
          <depth>6</depth>
          <value>1.</value></_>
        <_>
          <depth>6</depth>
          <value>7.0588235294117652e-01</value>
          <splits>
            <_><var>3</var>
              <quality>18.</quality>
              <le>7.9381547868251801e-02</le></_></splits></_>
        <_>
          <depth>7</depth>
          <value>0.</value></_>
        <_>
          <depth>7</depth>
          <value>7.5000000000000000e-01</value>
          <splits>
            <_><var>3</var>
              <quality>1.8580644607543945e+01</quality>
              <le>2.3132349550724030e-01</le></_></splits></_>
        <_>
          <depth>8</depth>
          <value>7.7419354838709675e-01</value></_>
        <_>
          <depth>8</depth>
          <value>0.</value></_>
        <_>
          <depth>1</depth>
          <value>3.6697247706422020e-01</value>
          <splits>
            <_><var>1</var>
              <quality>2.3292673110961914e+01</quality>
              <le>2.7463349699974060e-01</le></_></splits></_>
        <_>
          <depth>2</depth>
          <value>1.5714285714285714e-01</value>
          <splits>
            <_><var>4</var>
              <quality>6.3009448051452637e+00</quality>
              <le>1.2641900777816772e-01</le></_></splits></_>
        <_>
          <depth>3</depth>
          <value>3.5087719298245612e-02</value>
          <splits>
            <_><var>0</var>
              <quality>1.3333333730697632e+00</quality>
              <le>7.2185951471328735e-01</le></_></splits></_>
        <_>
          <depth>4</depth>
          <value>0.</value></_>
        <_>
          <depth>4</depth>
          <value>6.6666666666666663e-01</value></_>
        <_>
          <depth>3</depth>
          <value>6.9230769230769229e-01</value>
          <splits>
            <_><var>1</var>
              <quality>8.1000003814697266e+00</quality>
              <le>2.5121149420738220e-01</le></_></splits></_>
        <_>
          <depth>4</depth>
          <value>9.0000000000000002e-01</value>
          <splits>
            <_><var>1</var>
              <quality>9.</quality>
              <le>8.7499901652336121e-02</le></_></splits></_>
        <_>
          <depth>5</depth>
          <value>0.</value></_>
        <_>
          <depth>5</depth>
          <value>1.</value></_>
        <_>
          <depth>4</depth>
          <value>0.</value></_>
        <_>
          <depth>2</depth>
          <value>7.4358974358974361e-01</value>
          <splits>
            <_><var>3</var>
              <quality>2.2740642547607422e+01</quality>
              <le>1.1975650489330292e-01</le></_></splits></_>
        <_>
          <depth>3</depth>
          <value>9.4117647058823528e-01</value>
          <splits>
            <_><var>4</var>
              <quality>16.</quality>
              <le>5.8163598179817200e-02</le></_></splits></_>
        <_>
          <depth>4</depth>
          <value>0.</value></_>
        <_>
          <depth>4</depth>
          <value>1.</value></_>
        <_>
          <depth>3</depth>
          <value>5.9090909090909094e-01</value>
          <splits>
            <_><var>6</var>
              <quality>8.8947372436523438e+00</quality>
              <le>4.4115450233221054e-02</le></_></splits></_>
        <_>
          <depth>4</depth>
          <value>0.</value></_>
        <_>
          <depth>4</depth>
          <value>6.8421052631578949e-01</value>
          <splits>
            <_><var>6</var>
              <quality>9.5714282989501953e+00</quality>
              <le>6.6169001162052155e-02</le></_></splits></_>
        <_>
          <depth>5</depth>
          <value>1.</value></_>
        <_>
          <depth>5</depth>
          <value>5.7142857142857140e-01</value>
          <splits>
            <_><var>0</var>
              <quality>5.8181819915771484e+00</quality>
              <le>5.6930446624755859e-01</le></_></splits></_>
        <_>
          <depth>6</depth>
          <value>0.</value></_>
        <_>
          <depth>6</depth>
          <value>7.2727272727272729e-01</value>
          <splits>
            <_><var>7</var>
              <quality>7.1111111640930176e+00</quality>
              <le>4.7232750803232193e-02</le></_></splits></_>
        <_>
          <depth>7</depth>
          <value>0.</value></_>
        <_>
          <depth>7</depth>
          <value>8.8888888888888884e-01</value></_></nodes></_>
    <_>
      <nodes>
        <_>
          <depth>0</depth>
          <value>5.2363636363636368e-01</value>
          <splits>
            <_><var>0</var>
              <quality>7.9042282104492188e+01</quality>
              <le>6.3623595237731934e-01</le></_></splits></_>
        <_>
          <depth>1</depth>
          <value>4.6875000000000000e-01</value>
          <splits>
            <_><var>0</var>
              <quality>5.9675083160400391e+01</quality>
              <le>4.6388000249862671e-01</le></_></splits></_>
        <_>
          <depth>2</depth>
          <value>6.1290322580645162e-01</value>
          <splits>
            <_><var>6</var>
              <quality>6.3065475463867188e+01</quality>
              <le>2.6591949164867401e-02</le></_></splits></_>
        <_>
          <depth>3</depth>
          <value>2.8571428571428570e-01</value>
          <splits>
            <_><var>3</var>
              <quality>4.5312500000000000e+00</quality>
              <le>1.1965449154376984e-01</le></_></splits></_>
        <_>
          <depth>4</depth>
          <value>2.1875000000000000e-01</value>
          <splits>
            <_><var>3</var>
              <quality>2.0416667461395264e+00</quality>
              <le>8.5966497659683228e-02</le></_></splits></_>
        <_>
          <depth>5</depth>
          <value>2.9166666666666669e-01</value>
          <splits>
            <_><var>3</var>
              <quality>3.1363637447357178e+00</quality>
              <le>8.2253694534301758e-02</le></_></splits></_>
        <_>
          <depth>6</depth>
          <value>2.2727272727272727e-01</value>
          <splits>
            <_><var>7</var>
              <quality>1.7857142686843872e+00</quality>
              <le>1.7249349504709244e-02</le></_></splits></_>
        <_>
          <depth>7</depth>
          <value>0.</value></_>
        <_>
          <depth>7</depth>
          <value>3.5714285714285715e-01</value>
          <splits>
            <_><var>7</var>
              <quality>4.0999999046325684e+00</quality>
              <le>2.3223049938678741e-02</le></_></splits></_>
        <_>
          <depth>8</depth>
          <value>1.</value></_>
        <_>
          <depth>8</depth>
          <value>1.0000000000000001e-01</value></_>
        <_>
          <depth>6</depth>
          <value>1.</value></_>
        <_>
          <depth>5</depth>
          <value>0.</value></_>
        <_>
          <depth>4</depth>
          <value>1.</value></_>
        <_>
          <depth>3</depth>
          <value>7.0833333333333337e-01</value>
          <splits>
            <_><var>5</var>
              <quality>6.1939472198486328e+01</quality>
              <le>5.5805649608373642e-02</le></_></splits></_>
        <_>
          <depth>4</depth>
          <value>8.1159420289855078e-01</value>
          <splits>
            <_><var>7</var>
              <quality>4.7447368621826172e+01</quality>
              <le>3.3529996871948242e-02</le></_></splits></_>
        <_>
          <depth>5</depth>
          <value>6.5789473684210531e-01</value>
          <splits>
            <_><var>4</var>
              <quality>2.0052307128906250e+01</quality>
              <le>5.4937452077865601e-02</le></_></splits></_>
        <_>
          <depth>6</depth>
          <value>2.3076923076923078e-01</value>
          <splits>
            <_><var>6</var>
              <quality>2.0909090042114258e+00</quality>
              <le>4.5954599976539612e-02</le></_></splits></_>
        <_>
          <depth>7</depth>
          <value>9.0909090909090912e-02</value>
          <splits>
            <_><var>7</var>
              <quality>1.</quality>
              <le>1.2181024998426437e-02</le></_></splits></_>
        <_>
          <depth>8</depth>
          <value>1.</value></_>
        <_>
          <depth>8</depth>
          <value>0.</value></_>
        <_>
          <depth>7</depth>
          <value>1.</value></_>
        <_>
          <depth>6</depth>
          <value>8.8000000000000000e-01</value>
          <splits>
            <_><var>0</var>
              <quality>2.0166666030883789e+01</quality>
              <le>1.8286851048469543e-01</le></_></splits></_>
        <_>
          <depth>7</depth>
          <value>0.</value></_>
        <_>
          <depth>7</depth>
          <value>9.1666666666666663e-01</value>
          <splits>
            <_><var>6</var>
              <quality>2.0380952835083008e+01</quality>
              <le>3.4928798675537109e-02</le></_></splits></_>
        <_>
          <depth>8</depth>
          <value>6.6666666666666663e-01</value></_>
        <_>
          <depth>8</depth>
          <value>9.5238095238095233e-01</value></_>
